[-0.04118 0.19340 -0.20082 0.11834 -0.00027 0.18961 0.00413 0.02158
 -0.06664 0.18017 0.01607 -0.23608 -0.14557 -0.21294 -0.11959 -0.14794
 -0.09562 0.08122 -0.02886][0.00476 0.15817 0.20733 0.03211 0.15887 -0.11908 0.11536 0.20417 -0.19526
 0.00244 -0.09282 0.01041 0.02599 -0.14035 0.22205 -0.12060 0.08664
 0.13561 0.25690][0.28473 0.09332 -0.05618 0.07942 0.05099 -0.10036 -0.22869 0.15982
 -0.11407 -0.22721 0.05582 0.12540 0.19359 -0.21194 0.00765 -0.01132
 -0.02174 -0.01394 -0.05238][-0.19979 -0.20078 0.15201 -0.18136 0.15105 -0.03223 0.19582 0.17274
 -0.07122 -0.09355 -0.22652 -0.10481 -0.15176 -0.04167 0.02142 0.13425
 -0.19112 0.12924 0.14573][0.00000 0.00000 0.00000 0.00000 0.00000 0.00000 -0.00000 0.00000 0.00000
 0.00000 -0.00000 0.00000 0.00000 0.00000 -0.00000 0.00000 0.00000 0.00000
 0.00000][-0.13033 -0.17683 -0.03771 -0.02605 -0.01452 0.12744 0.11671 -0.00968
 0.15678 -0.16939 -0.05940 -0.04204 0.10021 0.13773 0.11673 -0.16345
 0.02899 -0.01345 0.06809][-0.26521 -0.10187 -0.19226 -0.06867 0.15447 -0.16726 0.03454 0.06957
 -0.05740 0.05175 -0.18685 -0.22115 0.08830 -0.15150 -0.16456 0.19240
 -0.18544 0.06555 -0.16148][-0.00000 0.00000 -0.00000 0.00000 -0.09394 -0.00000 -0.04047 0.04204
 0.00000 -0.00000 0.00000 0.00000 -0.00439 -0.00000 -0.00000 0.04866
 -0.00000 -0.07105 -0.00000][0.00000 0.00000 -0.00000 0.00000 -0.00000 -0.00000 0.00000 -0.00000
 -0.00000 0.00000 0.00000 0.00000 -0.00000 0.00000 -0.00000 -0.00000
 -0.00000 -0.00000 0.00000][0.02811 -0.22635 -0.00000 0.19635 -0.11757 -0.03612 0.04624 0.07375
 -0.18410 -0.07866 0.12502 -0.06860 0.07788 0.11398 -0.04390 -0.16150
 0.15161 0.14831 -0.05219][-0.07073 -0.02225 -0.21014 0.03318 0.04194 -0.17372 0.18434 -0.14646
 -0.03651 0.10155 0.02345 0.14502 -0.10455 0.17296 0.31284 -0.26155
 0.00286 0.13520 -0.23334][0.07094 -0.06793 -0.07243 -0.07537 -0.06334 0.03985 0.17769 0.06382
 -0.10227 0.08601 -0.21483 -0.09005 -0.16622 0.05324 0.07749 -0.09223
 -0.11584 -0.17238 -0.10827][-0.12356 0.20400 -0.10162 -0.25253 -0.01691 0.01561 -0.28855 -0.06738
 0.21565 0.14260 -0.10607 -0.24124 -0.14732 -0.16969 0.16330 -0.09713
 0.05211 -0.06505 -0.02391][0.09164 -0.00012 -0.00000 0.01060 -0.00001 0.10117 0.17796 -0.09297
 -0.14521 0.00000 0.00000 0.00000 -0.04136 -0.00000 0.07757 0.00003
 -0.00030 -0.19387 0.06605][-0.05280 0.04516 -0.13839 0.21429 -0.15618 0.25087 -0.24250 0.04813
 0.11234 0.15536 0.12820 -0.21838 -0.09422 -0.19489 0.13494 0.05718
 0.10824 -0.15636 -0.29779][0.25414 0.05440 0.14540 0.00824 -0.24659 0.09772 0.26960 0.06109 -0.14419
 0.09831 -0.35284 0.10739 -0.36650 -0.08745 0.03146 0.15981 0.03446
 -0.30592 -0.27175][0.08630 -0.06268 0.02961 -0.02502 0.17914 0.12262 0.05742 -0.17856
 -0.17174 0.20505 0.10343 -0.13432 -0.16528 -0.16413 0.16933 0.17962
 0.10616 0.12283 -0.18556][0.24142 -0.02241 0.00050 -0.05280 0.11629 -0.30101 -0.18024 -0.21625
 -0.01722 -0.26549 -0.13775 -0.06969 0.20946 0.07894 -0.21552 -0.25933
 -0.04252 -0.14598 0.19015][-0.13449 -0.03390 0.10375 0.16972 -0.20171 0.17223 -0.08391 -0.18290
 -0.06765 0.17787 -0.20156 -0.14894 0.05754 -0.00729 0.02968 0.14734
 -0.19894 -0.04734 -0.07734][-0.26340 -0.01599 -0.12658 0.20939 -0.18193 0.25145 0.02620 0.21166
 -0.17641 -0.01505 -0.06880 -0.11713 -0.07478 -0.29674 0.00614 0.15863
 -0.16728 0.13453 0.03842][-0.45195 -0.51632 0.41281 -0.50745 -0.56871 0.39283 0.54069 0.23153
 0.28488 0.47629 0.20331 -0.01687 0.45325 -0.52574 -0.56668 0.21218
 -0.42001 -0.52785 0.25377][0.12647 -0.24450 -0.13457 -0.06434 -0.00517 0.05542 0.12286 0.07093
 0.17562 0.04527 0.07263 0.16762 -0.21725 -0.18138 -0.13799 0.01428
 0.15068 -0.14804 0.06102][0.02526 0.16518 0.02487 0.12543 0.06741 -0.17421 0.17084 0.28800 -0.22700
 0.04379 0.09258 0.04235 -0.15904 0.11782 0.02616 -0.22965 -0.00037
 -0.23136 -0.34797][-0.13359 -0.17863 -0.15174 -0.01782 0.27392 0.08256 -0.23017 0.11484
 -0.06323 -0.26442 -0.03827 -0.03509 -0.04496 0.12630 -0.21901 -0.05038
 -0.00040 0.13007 -0.16552][0.21439 -0.09650 0.25000 -0.16841 -0.12953 0.06812 0.04508 -0.01288
 -0.05969 0.00305 -0.15578 0.06585 0.17036 0.10962 -0.24117 0.10510
 0.04844 -0.20048 -0.09229][0.11668 -0.11360 0.01218 -0.02128 -0.17887 -0.11248 0.14263 -0.13287
 0.07400 0.16373 0.01766 -0.11971 -0.24072 -0.05722 -0.17548 -0.18764
 0.00765 -0.18017 -0.14544][0.09566 0.18351 -0.05765 -0.12674 0.14978 0.03014 -0.18677 -0.00282
 -0.32266 -0.01173 0.12086 -0.31522 -0.10223 -0.06453 -0.12862 -0.11311
 -0.19946 0.18586 0.12288][0.00000 -0.00000 -0.00000 -0.00000 -0.00000 -0.00000 -0.00000 0.00000
 -0.00000 -0.00000 -0.00000 -0.00000 0.00000 -0.00000 0.00000 0.00000
 -0.00000 0.00000 0.00000][0.04708 -0.06394 0.07601 0.14781 0.28026 -0.29413 0.09607 -0.33119
 -0.28744 0.05965 -0.19238 0.12641 0.03940 0.03376 -0.17805 -0.05518
 -0.07057 0.05531 0.09308][-0.15894 0.01337 0.27308 0.02654 0.08921 0.09166 0.05752 -0.16429 0.11841
 -0.12506 0.09590 -0.24915 -0.17571 -0.02875 0.21736 -0.06181 -0.12798
 -0.18089 0.09865][-0.00000 0.00000 0.00000 -0.00000 0.00000 -0.00000 0.00000 -0.00000
 -0.00000 -0.00000 -0.00000 0.00000 0.00000 -0.00000 -0.00000 0.00000
 -0.00000 0.00000 -0.00000][0.01367 0.09082 0.08560 0.15119 0.14487 0.17114 0.10339 -0.02541 0.29941
 0.06298 -0.24516 -0.35238 0.15194 0.07837 0.02240 -0.25266 -0.09622
 -0.03159 0.05643][-0.32834 0.06226 0.00862 -0.02586 -0.11321 0.19136 0.00007 -0.13083
 -0.17824 0.12037 -0.12667 -0.08445 0.04849 -0.20134 0.14790 -0.24014
 -0.17573 -0.21150 -0.14191][0.13189 0.18230 0.08601 -0.11901 0.13256 -0.31605 0.22215 -0.20995
 -0.22589 -0.13956 -0.12407 -0.13207 -0.37604 -0.19362 0.06424 0.10117
 -0.14240 -0.14884 -0.27645][-0.02196 -0.01348 -0.18264 -0.08445 0.04372 -0.25562 -0.03903 -0.09638
 -0.12455 -0.10231 -0.13915 0.19683 -0.17947 0.05452 -0.16088 -0.11677
 0.10638 -0.01426 -0.12913][-0.82265 0.66849 0.27582 0.46236 -0.52922 -0.40817 -0.44375 -0.89910
 -0.84421 0.10611 -0.13208 0.13632 -0.55009 -0.55008 -0.16664 -0.02140
 -0.71601 0.30838 0.48441][-0.05301 0.05794 0.21184 -0.02702 -0.11145 0.11325 -0.14779 -0.31374
 -0.02040 -0.27859 -0.00153 -0.15421 0.24579 -0.05684 -0.14678 0.25372
 0.10840 -0.08917 0.09487][-1.30087 -0.48345 -0.98331 -1.21254 -0.13419 -1.34673 -0.66981 -0.40955
 0.27246 -0.01580 0.32153 -0.60145 -0.45045 -0.06419 -0.17567 0.21175
 0.54584 0.08970 -0.61914][-0.00429 0.03891 -0.10746 0.09038 0.00707 0.21276 -0.12397 -0.03488
 -0.14630 -0.26261 -0.03260 -0.04031 -0.11114 0.05228 -0.24350 0.01427
 0.17134 0.24766 -0.22687][-0.21701 -0.21377 -0.05957 0.19185 0.00985 -0.08244 -0.05384 0.17438
 0.05624 -0.13185 0.01585 -0.16433 0.05791 -0.17158 -0.15043 0.06841
 -0.02427 0.20161 0.05776][-0.00000 -0.00000 -0.00000 -0.00000 0.00000 0.00000 0.00000 -0.00000
 -0.00000 0.00000 -0.00000 0.00000 -0.00000 0.00000 0.00000 -0.00000
 -0.00000 -0.00000 -0.00000][0.08632 -0.01536 -0.14033 0.15154 0.06737 -0.29992 0.17720 -0.14647
 -0.07189 0.13305 -0.21856 -0.14742 0.16161 0.08122 -0.29925 0.24125
 0.19440 0.05920 -0.51183][0.68627 -0.40607 -0.30210 0.11142 0.48232 0.48435 0.14657 0.47132
 -0.43169 -0.27996 -0.61534 0.15660 -0.05945 0.26030 0.29167 -0.57425
 -0.48914 -0.66226 -0.58952][0.10334 0.13071 -0.02961 -0.15201 0.02996 -0.17754 0.11287 -0.01818
 0.19917 -0.14454 0.09119 0.14328 0.10193 -0.01818 0.04550 0.02506
 -0.19849 0.20264 -0.07007][0.00000 0.00000 0.00000 0.00000 0.00000 -0.00000 -0.00000 0.00000 0.00000
 -0.00000 -0.00000 -0.00000 0.00000 0.00000 0.00000 -0.00000 0.00000
 0.00000 -0.00000][0.13051 -0.19672 -0.04598 0.08894 -0.23197 0.09296 0.19562 -0.12156
 -0.13114 -0.17997 -0.18790 -0.05040 0.15247 0.02407 -0.01204 -0.15862
 0.22114 0.10565 -0.02489][0.21704 0.02472 -0.09546 -0.02166 -0.09730 -0.07073 0.05996 0.07478
 -0.09352 0.01979 0.16935 -0.15149 0.09838 0.17910 0.09930 -0.12222
 -0.07629 0.06831 0.10198][0.19317 -0.08640 -0.00000 -0.03241 0.02866 0.00215 0.19107 0.07524
 -0.01896 0.00826 -0.13488 -0.13685 -0.04365 -0.09020 -0.07487 -0.14775
 -0.04946 -0.10353 -0.01326][0.08001 -0.16204 0.06624 -0.13299 -0.20334 0.04961 -0.18194 -0.00168
 0.00322 0.11260 0.11590 0.00963 0.14802 0.11341 -0.07937 0.05679 0.07326
 0.05268 -0.05156][-0.00000 -0.00000 0.00000 0.00000 0.00000 -0.00000 0.00000 0.00000
 -0.00000 0.00000 0.00000 0.00000 0.00000 -0.00000 0.00000 0.00000 0.00000
 -0.00000 -0.00000][0.00000 -0.00000 0.00000 -0.00000 -0.00000 0.00000 -0.00000 0.00000
 -0.00000 -0.00000 0.00000 -0.00000 -0.00000 -0.00000 0.00000 0.00000
 0.00000 -0.00000 0.00000][0.04820 -0.11335 0.03071 0.21837 -0.10588 -0.11142 -0.05119 0.14740
 0.14554 0.14414 -0.04084 -0.10072 0.03668 0.04209 -0.06365 -0.14545
 0.07280 -0.07641 0.01391][-0.03368 0.00005 -0.00000 -0.02987 0.05622 -0.12865 0.16004 -0.11851
 -0.01129 0.00000 -0.00000 0.00000 0.13529 -0.10425 -0.00478 -0.00087
 0.12125 -0.00844 -0.00001][-0.00000 -0.00000 0.00000 0.00000 0.00000 0.00000 0.00000 -0.00000
 0.00000 -0.00000 -0.00000 -0.00000 -0.00000 0.00000 0.00000 -0.00000
 -0.00000 0.00000 0.00000][0.12978 -0.03428 -0.41115 0.07939 -0.09681 -0.17485 -0.19270 0.19346
 -0.24833 0.05651 0.00736 -0.15778 -0.12253 0.13312 -0.12371 0.15423
 -0.16562 0.21956 0.02330][-0.03436 -0.28688 -0.16728 -0.07678 -0.26253 0.06692 0.04345 0.06416
 -0.04337 -0.20375 -0.25130 -0.02274 -0.10669 -0.07731 -0.25956 -0.11132
 0.01067 0.26070 0.07947][0.08941 -0.12982 -0.12609 -0.04181 0.09409 0.19466 0.11285 -0.13049
 -0.08942 0.22989 0.11041 -0.13760 0.11540 0.12565 -0.06542 -0.23440
 0.11412 -0.22152 -0.05449][-0.12842 0.00057 -0.00000 -0.13078 0.12559 -0.01065 -0.04678 -0.13755
 -0.07285 -0.03159 -0.00012 0.01227 0.15603 -0.14145 -0.01470 0.04400
 -0.16539 -0.00583 -0.00003][-0.27578 0.14804 -0.19873 -0.04197 0.06897 0.20374 -0.11514 0.17520
 -0.01130 0.10983 0.23929 -0.00936 -0.15373 0.01933 -0.28069 0.08588
 0.10292 0.00716 -0.09466][-0.25916 -0.18724 -0.23055 -0.03284 -0.13556 0.14190 0.07576 -0.04735
 0.01826 -0.04252 -0.20083 0.05053 0.18426 -0.06393 0.15418 0.12002
 0.06743 -0.04492 -0.28083][0.02009 0.06103 -0.11406 -0.35689 -0.00481 -0.16555 0.08500 -0.16933
 -0.04548 0.15132 -0.29451 0.01847 -0.15013 -0.27212 0.04388 0.01173
 0.30138 -0.09525 -0.25572][0.02441 0.12717 -0.08904 -0.13469 -0.27733 0.09578 0.01973 -0.05415
 0.05989 -0.29329 0.12398 -0.12672 -0.16640 0.15997 0.04096 0.10224
 -0.18010 -0.15144 0.02667][0.18398 -0.29195 0.01290 -0.20631 0.20911 -0.02762 0.09610 0.14212
 0.07032 0.09628 -0.04315 -0.15119 0.06118 0.28772 -0.14327 0.09564
 0.12691 0.01345 -0.19375][-0.00000 -0.00000 0.00000 -0.00000 0.00000 -0.00000 0.00000 -0.00000
 -0.00000 0.00000 0.00000 -0.00000 0.00000 -0.00000 0.00000 -0.00000
 -0.00000 -0.00000 -0.00000][-0.25008 0.00488 0.04912 -0.20494 -0.35118 -0.15758 -0.20385 -0.11344
 -0.10256 -0.18664 -0.02847 0.28694 0.15874 0.12477 0.04647 -0.13498
 -0.00086 0.13770 -0.18582][-0.21400 -0.15670 0.01598 -0.19350 0.12388 0.00776 -0.13850 -0.31675
 -0.09265 -0.02195 -0.19139 -0.13641 0.17391 0.07269 -0.17256 -0.12808
 0.14458 0.19431 -0.14273][-0.20125 0.14649 0.02054 0.02456 -0.02924 0.06015 0.08896 -0.09367
 0.13717 -0.17433 0.02972 -0.04980 0.03829 -0.12154 -0.06824 0.09152
 -0.12446 -0.00445 0.14833][0.12077 -0.22369 0.07373 0.02168 -0.02115 0.21517 0.02012 0.20570 0.18862
 0.26800 -0.08606 -0.07654 -0.24160 -0.05825 -0.18429 0.05508 -0.27059
 0.08981 -0.09158][0.16268 0.07484 0.10240 -0.22033 0.02124 0.11992 -0.10517 0.00641
 -0.08509 0.02240 -0.08416 0.00552 0.20862 -0.11176 0.00742 0.10757
 -0.15565 0.17095 -0.01111][-0.00000 -0.00000 0.00000 0.00000 0.00000 -0.00000 0.00000 -0.00000
 0.00000 -0.00000 -0.00000 0.00000 0.00000 0.00000 0.00000 -0.00000
 0.00000 0.00000 -0.00000][0.02558 -0.04073 0.13985 -0.17708 -0.17899 -0.14191 0.06101 -0.11460
 -0.05652 0.25092 0.19149 0.02574 0.17226 -0.14372 0.17422 -0.24387
 0.10692 -0.18856 -0.13857][-0.20617 -0.00074 0.18603 -0.21223 0.00283 0.14295 0.19056 0.22636
 -0.03155 -0.00733 -0.01662 -0.15199 0.09048 -0.15997 0.04766 0.11424
 -0.07930 -0.01452 -0.08524][-0.00000 0.00000 -0.00000 -0.00000 0.00000 0.00000 -0.00000 -0.00000
 0.00000 0.00000 -0.00000 -0.00000 -0.00000 -0.00000 -0.00000 -0.00000
 0.00000 -0.00000 0.00000][-0.13717 -0.12565 0.07348 -0.13589 0.21030 0.15793 -0.20292 -0.14192
 0.01123 -0.06683 -0.05984 0.22604 -0.07826 0.12727 -0.05660 0.07702
 -0.13861 0.06853 0.08146][0.00000 0.00000 0.00000 0.00031 0.00000 -0.00000 0.18657 0.00000 -0.00000
 0.00000 0.00000 0.00000 -0.00000 0.00000 0.00000 -0.01014 -0.02387
 0.00000 0.00000][0.02109 -0.02346 0.07193 -0.20492 -0.12767 0.03250 0.19823 0.05575
 0.08096 -0.01670 0.24711 0.27432 -0.23991 -0.04101 -0.27710 0.06277
 -0.06752 -0.20733 0.10309][-0.00147 0.11355 -0.00000 -0.20032 0.10533 0.16188 -0.20908 0.02640
 0.00774 -0.00320 -0.05749 -0.02884 -0.20632 -0.00503 0.09553 0.16029
 -0.22244 0.08748 -0.01684][0.00933 -0.10859 0.01628 -0.35555 -0.10379 0.41781 0.02311 -0.40165
 0.28025 -0.27968 -0.20766 0.10288 0.09190 0.11878 -0.45132 -0.13490
 0.25892 0.14480 0.39423][-0.18971 -0.12161 0.08877 0.04703 0.06363 -0.02254 0.15218 0.17909
 0.19271 -0.22211 -0.11185 0.13781 -0.00965 -0.18036 -0.08162 0.05156
 0.11835 0.12393 -0.15960][0.02906 0.08731 0.01496 0.02461 -0.05617 -0.23705 0.10991 -0.20368
 -0.20116 -0.06525 0.05176 -0.19466 -0.14562 0.13079 -0.31070 0.10572
 -0.03168 0.00983 0.00927][0.00695 -0.15203 0.17808 -0.24267 -0.26884 -0.04045 0.10438 -0.02817
 -0.13838 -0.19034 0.13114 0.16314 -0.17083 -0.13880 0.24461 0.17572
 0.05641 -0.29285 -0.15291][0.04123 -0.27277 -0.33228 0.05680 -0.11441 0.09627 -0.12446 -0.16812
 -0.07312 0.10711 0.16055 -0.10226 0.11976 0.21141 0.13267 0.13420 0.08740
 0.08074 0.00315][-0.18022 0.21854 -0.16113 0.28978 0.01255 -0.27160 -0.01585 -0.22947
 -0.25013 -0.02438 -0.25903 0.13681 0.09628 -0.22552 -0.00506 -0.10490
 0.10696 -0.07244 -0.13805][0.16150 0.09452 -0.22463 -0.14503 -0.28186 0.21024 -0.22421 -0.23312
 -0.04557 -0.14396 -0.15327 0.04485 -0.18205 -0.03833 0.08899 -0.18841
 -0.18422 -0.20597 -0.18088][-0.19980 -0.14885 0.04005 0.19329 0.08693 0.14630 0.00059 -0.06134
 0.18389 -0.17147 -0.12710 0.00621 -0.05572 0.12551 0.16808 -0.18081
 0.01803 0.04022 -0.13438][0.12526 -0.05738 0.00476 0.16769 0.18476 -0.08528 0.18761 0.16931
 -0.12372 -0.00000 -0.04994 0.16792 0.13647 -0.07986 -0.07713 -0.10099
 -0.18833 -0.15520 0.00007][-0.04685 -0.06692 0.06509 0.17628 0.22456 -0.09953 -0.12500 -0.15816
 -0.11135 -0.10304 -0.28809 -0.19442 0.12851 0.23478 0.11870 -0.08014
 0.02969 0.10720 -0.00274][-0.08366 -0.06499 0.23275 0.05453 -0.21470 -0.19079 0.06551 -0.04865
 0.03978 -0.12501 0.26254 -0.09158 0.22732 -0.13282 -0.02322 -0.16896
 -0.09676 -0.08138 -0.26007][-0.18776 0.08909 0.00264 0.08761 0.01829 -0.05370 -0.01993 0.25774
 0.17011 0.04328 0.14755 0.12796 0.03893 -0.06601 0.14511 -0.07180
 -0.05865 -0.24565 0.23291][-0.03188 0.06792 -0.17029 0.00181 -0.09339 -0.05176 0.01335 0.14176
 -0.11340 0.12415 0.02867 -0.07783 -0.11967 -0.10339 -0.17788 0.02239
 0.05519 -0.12838 0.07668][0.08823 0.03817 -0.24736 0.05691 -0.03531 0.13983 0.09654 0.14136
 -0.17454 -0.05408 -0.10898 0.07100 -0.17053 0.20245 0.27055 0.09222
 -0.03356 -0.16260 0.09255][0.21666 -0.12023 0.04131 0.11621 0.20088 -0.07106 0.08660 -0.08854
 -0.09255 -0.19149 -0.04190 -0.06389 -0.22331 -0.01114 0.07797 -0.00326
 -0.02709 -0.18522 0.11683][-0.12393 -0.11760 0.21829 0.00170 0.18075 -0.22636 -0.00950 -0.18380
 0.24811 -0.25912 -0.22616 -0.01383 0.04540 0.17224 0.00182 -0.12840
 -0.12241 0.10625 -0.20845][-0.51432 -0.33907 -0.20272 -0.01408 -0.33892 -0.70061 -0.56561 -0.36436
 0.41285 -0.44677 0.41251 0.35442 0.46801 -0.22932 -0.25405 -0.26948
 -0.23121 -0.00810 -0.43126][-0.01279 -0.23127 0.05292 -0.11755 -0.16743 -0.13105 0.14254 0.01937
 0.01232 -0.21207 -0.22684 -0.23490 0.09313 0.16291 0.00592 -0.17908
 -0.22293 0.08187 -0.01386][0.11372 0.17379 -0.19746 -0.22035 0.02605 -0.06118 0.07940 0.02555
 0.20295 -0.05542 0.12387 0.07958 0.09866 -0.09570 0.04180 -0.24250
 0.20895 -0.04373 -0.01546][-0.12818 -0.13025 -0.04812 -0.06000 -0.10942 -0.26724 0.02625 -0.28516
 -0.13992 0.23462 0.12509 0.02777 -0.05117 0.03035 0.17430 0.12973 0.12067
 0.01948 0.17726][-0.09297 -0.00263 0.17199 -0.13640 0.03397 0.07326 -0.19798 -0.13318
 0.03536 -0.01180 -0.14172 0.15396 0.11355 0.15256 -0.17974 0.10320
 -0.00968 -0.16683 -0.12017][-0.11014 -0.19274 -0.18474 0.10265 -0.08932 0.00465 0.15747 -0.04485
 0.08440 -0.14882 -0.08317 0.21145 -0.13797 -0.14816 0.14290 -0.19688
 -0.14170 0.07303 0.13937][0.02237 -0.04859 -0.18839 0.00229 -0.06156 0.16300 -0.13415 0.14906
 0.10659 -0.13614 -0.08636 -0.13257 0.13365 0.04573 0.02974 0.12168
 0.12782 -0.21937 -0.01545]