[-0.02750 0.09482 -0.18192 -0.09926 0.00000 -0.17245 -0.12688 0.00000
 -0.00000 -0.01439 0.00277 0.06198 -0.09408 0.13533 -0.16946 0.07640
 -0.02387 0.04100 -0.11202 -0.07568 0.20123 0.15702 -0.05359 0.07104
 0.14676 0.14252 -0.09096 -0.00000 -0.12574 0.16194 0.00000 -0.04744
 0.17837 0.04769 0.03371 0.02430 0.09608 0.27598 -0.18314 0.06976 0.00000
 0.16451 -0.27570 0.09155 0.00000 -0.04477 0.19982 -0.09672 -0.09162
 -0.00000 -0.00000 0.05554 -0.12407 -0.00000 0.02703 -0.16872 0.03882
 -0.15174 0.05842 0.07078 -0.18248 -0.01589 0.06963 -0.00000 -0.19370
 -0.03335 0.05334 0.00985 0.19138 0.00000 0.17895 -0.15229 0.00000 0.12134
 -0.04511 -0.07838 0.16001 -0.02660 0.05411 0.11230 0.13674 0.07125
 0.07613 -0.04818 -0.09979 0.13817 -0.00758 0.20631 0.03894 0.04444
 -0.14190 0.15597 -0.05719 0.05943 -0.03806 -0.12517 0.18691 0.02424
 -0.20878 0.01965][-0.11075 -0.01068 0.09468 -0.04313 0.00000 0.02657 -0.13899 0.00000
 -0.00000 0.16096 -0.02128 0.00000 0.16683 -0.00000 -0.24968 0.08341
 0.11992 0.13210 0.04025 -0.15887 -0.19046 -0.20652 -0.29661 -0.04690
 0.12683 0.00583 0.08859 0.00000 -0.16125 -0.13201 0.00000 0.16193
 -0.00000 -0.17324 0.17269 -0.21677 0.12215 0.34006 0.18166 0.11882
 0.00000 -0.09807 -0.43556 -0.08526 -0.00000 -0.17318 -0.07421 0.06459
 -0.00000 0.00000 -0.00000 0.11851 0.01227 0.00000 -0.04968 0.14980
 -0.16526 0.01443 0.20746 0.08949 0.11891 0.02684 0.11089 0.00000 -0.14176
 -0.00000 -0.19939 -0.03133 0.08768 0.00000 -0.10316 -0.00000 -0.00000
 -0.00447 0.01347 -0.00000 0.00000 0.41218 0.00343 -0.00911 0.05053
 -0.07952 0.04902 -0.18706 -0.10288 0.00000 -0.07964 0.02285 -0.06073
 0.09863 -0.05932 -0.22442 0.05331 -0.06296 0.18097 0.14037 -0.13474
 -0.08009 0.02162 0.12909][0.15759 0.00327 0.14161 0.02257 0.00000 -0.02516 0.07828 0.00000 0.00000
 0.13090 0.01956 0.16588 -0.20698 -0.00000 -0.12867 -0.01173 -0.20398
 0.17297 0.15666 -0.14353 -0.36010 -0.09685 -0.06383 0.15993 -0.10187
 0.15928 0.01406 0.00000 0.20412 0.11683 0.00000 0.00006 -0.00000 -0.07327
 0.05805 0.70968 -0.18055 0.09706 0.03778 0.18582 -0.00000 0.26452
 -0.39939 -0.10307 0.00000 0.03672 -0.18025 -0.04836 0.00000 0.00000
 0.00000 0.24532 -0.06097 0.00000 0.08834 0.13261 -0.02354 0.03228
 -0.08486 -0.00936 0.09346 0.11615 0.11454 -0.00000 0.08474 0.00000
 0.05751 -0.05074 -0.09071 -0.00000 -0.08588 -0.00000 0.00000 -0.01095
 0.17501 -0.00000 0.00000 -0.20865 0.06051 0.16626 0.09316 0.17555 0.10733
 -0.13712 -0.02019 -0.00000 0.07354 0.08507 -0.01938 0.04698 0.00768
 0.09995 -0.01024 -0.07122 -0.04501 -0.21223 -0.01501 -0.15517 0.18047
 -0.15285][0.11320 0.15057 0.07630 0.01396 -0.00000 -0.02976 -0.06864 -0.11514
 -0.00000 -0.10104 0.16935 0.13727 -0.08268 -0.15802 -0.10576 0.04202
 0.05542 -0.07609 -0.08558 0.12086 0.12234 0.08434 -0.07588 -0.13621
 0.04857 -0.00880 -0.16074 0.00000 0.03339 0.02301 0.00000 0.09999
 -0.08177 0.04132 0.13232 -0.31768 -0.07103 0.08641 0.13296 0.00010
 -0.00000 0.18345 0.40528 0.11649 0.00000 0.05350 0.06024 0.02440 0.10362
 -0.11367 -0.00000 0.11584 -0.10568 0.00000 0.03633 -0.05705 0.10894
 -0.03736 0.10078 0.18198 -0.03883 -0.16566 0.17344 -0.00000 0.19996
 0.07627 0.15652 0.03766 -0.00166 0.00000 -0.07871 -0.20817 -0.00000
 0.11276 -0.18549 -0.01739 0.13509 0.10122 0.13642 -0.13065 -0.01017
 0.05513 0.16903 -0.11851 -0.09033 -0.00000 0.11302 -0.06080 -0.14730
 -0.01323 -0.09518 0.13398 -0.02803 -0.09761 0.03281 0.12500 -0.02136
 0.10117 0.01843 0.02514][0.15464 0.11696 -0.16123 0.05565 -0.00000 0.15506 -0.10172 -0.00000
 -0.00000 -0.05654 -0.13546 0.04226 0.13087 0.06599 0.11314 -0.05120
 0.13268 0.01709 0.15655 0.08961 -0.08279 -0.17046 -0.21343 -0.12607
 0.02115 -0.15689 -0.16246 0.00000 -0.03851 0.06852 -0.00000 -0.03636
 -0.04544 -0.02590 0.09690 0.03333 0.16960 0.07745 0.10587 -0.15456
 -0.00000 -0.10266 0.03528 -0.21827 0.00000 0.14120 0.11732 0.14108
 0.00000 -0.00000 -0.00000 0.06260 0.14142 -0.00000 0.10999 0.09078
 0.14967 -0.05456 -0.09240 -0.13054 -0.07492 0.10340 -0.12908 -0.00000
 0.13633 -0.00000 0.14799 -0.07545 0.04146 -0.00000 0.15001 0.00000
 -0.00000 0.02924 0.16172 -0.18722 0.07947 0.11512 -0.19951 0.00480
 -0.07862 0.16723 -0.02185 0.07983 -0.01278 0.00000 -0.05504 -0.22411
 0.00120 -0.08520 0.02385 0.14926 -0.06468 0.01763 -0.05216 0.13271
 0.20390 0.14291 0.14846 -0.10803][-0.10315 -0.13367 -0.08492 -0.13393 -0.00000 -0.05280 0.11577 -0.13037
 -0.00000 -0.12853 0.02877 -0.08440 -0.14444 -0.11269 0.10042 0.00195
 -0.00948 -0.18060 0.05035 0.16686 0.59658 0.05291 0.20598 0.14141 0.06614
 -0.17677 -0.09010 0.00000 0.00251 -0.04568 0.00000 -0.11255 0.21388
 0.15869 0.12697 0.28242 0.09199 0.06456 -0.10991 -0.07031 0.00000 0.08787
 0.10894 -0.03854 0.00000 -0.20691 0.05719 -0.08647 0.17409 -0.06103
 -0.00000 0.02865 0.08370 -0.00000 -0.14898 -0.03635 0.02591 0.05004
 0.16261 -0.15664 -0.16318 0.01058 0.12085 0.00000 0.07218 0.07701
 -0.01431 0.22741 0.02289 0.00000 -0.01443 0.10725 0.00000 0.06792 0.06036
 0.07889 -0.00000 0.05354 0.06897 -0.02751 0.11836 -0.09391 0.14524
 -0.08530 0.07719 -0.04088 0.09862 -0.02740 -0.09356 0.14916 -0.11112
 0.04290 0.09432 -0.03451 -0.12298 -0.10621 -0.14501 -0.02232 -0.20177
 -0.16167][0.08567 0.11812 -0.14406 -0.10131 0.00000 0.14013 0.08125 0.01032 0.00000
 0.09822 -0.02662 0.13274 0.11056 0.00000 0.06708 0.21396 -0.14770
 -0.18659 -0.04465 -0.06378 0.24886 0.11652 -0.08505 0.02458 0.07306
 -0.10838 0.07551 -0.00000 0.06015 0.07063 -0.00000 0.10420 0.20335
 0.05344 0.08571 0.18572 0.18317 0.08373 -0.04252 -0.08534 -0.00000
 0.15774 -0.08868 0.01501 0.00000 -0.16512 -0.16178 -0.00000 -0.00805
 -0.05031 -0.00000 -0.18312 0.09479 0.00000 0.16039 -0.16225 -0.01186
 -0.18877 0.14702 -0.02507 0.03372 0.12630 -0.14666 0.00000 -0.10209
 0.10469 0.13681 -0.09766 0.11819 -0.00000 0.12862 -0.00766 0.00000
 0.09098 0.07689 0.23524 0.00000 -0.17616 0.17056 0.16202 0.14473 -0.01245
 0.14632 0.09789 -0.08654 0.09014 0.05403 0.08012 -0.00017 0.10580
 -0.20569 0.12070 0.14847 -0.03261 -0.20421 -0.07862 -0.09024 0.15410
 0.00476 -0.07975][-0.15940 -0.07958 0.06121 -0.09171 0.00000 -0.03750 0.13034 0.00000
 0.00000 0.03768 -0.09245 -0.02143 -0.05586 0.03926 0.15566 -0.01096
 0.10920 0.02788 0.09238 -0.09959 -0.05283 0.14739 0.01112 0.14168 0.03879
 -0.00976 0.14931 0.00000 0.02971 0.14342 0.00000 -0.13413 0.09167
 -0.10909 0.05772 0.03431 0.18649 0.11470 0.13039 -0.19959 0.00000
 -0.07692 0.03105 0.14249 0.00000 0.10958 0.14229 -0.04078 0.00000
 -0.00000 0.00000 -0.12411 0.14986 -0.00000 0.02599 0.13856 -0.03802
 0.05347 -0.03574 -0.00343 -0.05575 0.16169 -0.07270 0.00000 -0.09076
 0.00000 0.04607 0.03783 0.14127 -0.00000 0.10451 -0.00000 -0.00000
 -0.01123 0.05048 -0.13488 -0.07152 0.01367 -0.07952 -0.10255 -0.04766
 0.21151 -0.11296 0.19163 0.05739 -0.00000 0.16199 0.00930 -0.12300
 0.09893 -0.00840 -0.06452 -0.10147 0.05205 -0.09142 0.08544 -0.04151
 0.02808 -0.01690 0.13198][0.15279 -0.08254 0.03359 0.12868 -0.00000 0.14459 -0.08774 -0.00000
 0.00000 -0.13319 -0.15553 -0.04071 0.18334 -0.06926 0.11832 -0.07085
 -0.06736 -0.09784 0.12631 0.11667 0.04047 -0.11884 0.08466 -0.11031
 0.03277 -0.05800 -0.03273 0.00000 0.05086 0.08603 -0.00000 0.03946
 -0.06915 -0.06389 -0.02101 0.21913 -0.08750 -0.48895 -0.02607 -0.03626
 -0.00000 0.00934 0.13074 0.10695 -0.00000 -0.04348 0.01607 -0.15338
 -0.00696 0.00000 -0.00000 0.05899 0.03727 -0.00000 0.00390 0.18824
 0.14744 0.03879 -0.15008 0.04759 0.04463 -0.02495 -0.02847 -0.00000
 0.11631 0.05027 0.01414 0.18401 -0.13207 -0.00000 -0.17157 -0.08667
 0.00000 -0.13563 0.04127 -0.16216 -0.08573 -0.01417 0.09704 0.08153
 -0.05970 -0.09533 0.08066 -0.05144 0.10134 -0.01799 0.04004 -0.19495
 0.01764 -0.07864 -0.08632 -0.03501 -0.00675 -0.21297 0.18049 -0.08718
 0.11626 0.04020 0.12999 -0.07774][-0.09378 0.16535 -0.15746 0.15819 0.00000 -0.06436 0.17771 -0.17865
 0.00000 -0.20858 0.03648 -0.14089 0.07538 0.17462 0.15506 -0.00722
 0.05428 0.12469 0.00805 -0.00557 0.00559 -0.05467 -0.11671 0.08600
 0.00938 -0.02135 0.19109 0.00000 -0.01958 -0.09065 -0.00000 -0.02938
 -0.17811 -0.04968 -0.01498 0.11195 -0.12549 0.09900 0.00109 0.08602
 -0.00000 -0.15380 0.05278 0.09589 -0.00000 0.08661 -0.07408 -0.12606
 -0.19582 -0.02264 0.00000 0.06932 -0.17788 -0.00000 -0.17293 -0.14560
 0.05440 -0.05404 -0.04891 0.01652 0.20731 0.12690 0.07752 0.00000
 -0.16515 -0.15877 -0.02853 -0.04624 0.17066 0.00000 0.01731 0.12100
 -0.00000 0.15776 -0.10018 -0.04272 -0.06901 0.03913 -0.10473 0.07577
 -0.13186 -0.13134 0.14465 -0.09473 -0.05538 0.01412 0.03410 -0.15498
 0.16400 0.15981 0.12380 -0.08372 0.00631 0.00643 0.01799 0.17363 -0.05240
 0.07331 -0.07660 0.09972][-0.06307 0.15725 0.11343 0.08623 -0.00000 -0.12771 -0.18706 -0.07817
 -0.00000 0.04490 0.07442 -0.04527 0.12772 0.00452 -0.16435 -0.12849
 -0.14273 -0.04431 -0.16122 0.02372 0.03603 0.04022 -0.00573 0.13221
 0.00060 -0.18715 0.18614 -0.00000 0.13871 0.17056 -0.00000 -0.09940
 -0.16373 0.00023 0.12284 0.04047 0.01364 0.03333 0.10549 0.11063 -0.00000
 0.00044 0.04245 0.15538 -0.00000 0.02776 0.18722 -0.07711 0.14099
 -0.01746 0.00000 0.17699 0.05668 0.00000 0.15368 0.07915 0.03648 0.07205
 -0.07477 0.03281 0.13891 -0.17159 -0.14017 0.00000 0.05615 0.01752
 -0.11487 -0.06693 0.14596 0.00000 -0.16447 0.12166 0.00000 0.13833
 0.13991 0.03872 0.03422 0.03137 0.05006 0.14600 -0.07856 0.17072 0.02895
 -0.14131 -0.11620 0.02347 -0.07543 -0.13379 -0.10845 0.11916 0.04336
 0.17629 -0.06336 0.01942 0.03494 0.03643 -0.14899 0.10449 0.16143 0.00799][-0.16711 0.05291 -0.24988 -0.08127 0.00000 0.01205 0.15533 0.00000
 -0.00000 0.11641 0.03423 -0.00000 0.05373 0.00000 -0.11253 0.04055
 -0.19824 -0.12141 0.13422 -0.22478 -0.20403 -0.16132 -0.00000 0.05258
 -0.01523 0.15503 -0.07092 0.00000 -0.00872 -0.07028 0.00000 -0.04023
 -0.00000 0.03341 0.11045 -0.36620 0.18487 0.20600 0.09973 0.04976
 -0.00000 0.02734 0.38468 0.05787 -0.00000 0.04414 0.07320 0.06157
 -0.00000 -0.00000 -0.00000 0.07843 0.14053 0.00000 -0.08971 -0.08559
 -0.08491 0.10368 0.07833 0.06618 -0.03434 -0.10137 -0.09483 -0.00000
 -0.12902 -0.00000 0.01020 0.03427 -0.02521 -0.00000 -0.13211 -0.00000
 0.00000 -0.14553 0.08167 0.00000 -0.00000 -0.06884 0.06928 0.18014
 0.08954 0.06572 -0.14902 0.04550 0.15214 0.00000 0.16550 0.12584 -0.09534
 0.04565 0.21935 -0.13718 0.10819 -0.08878 0.13590 0.02658 -0.01524
 -0.08531 0.01956 0.15431][0.11143 0.04604 0.18470 0.00936 0.00000 -0.04182 -0.08688 -0.00000
 0.00000 0.15920 0.02449 -0.13697 -0.19404 -0.05894 -0.12903 0.05815
 -0.06536 0.19927 0.17826 -0.07564 -0.28532 -0.03516 -0.00226 0.11640
 0.01179 -0.03999 -0.04414 0.00000 -0.22102 0.13980 -0.00000 0.03733
 -0.05211 0.21322 -0.15828 -0.12832 0.17028 -0.56078 -0.00379 -0.19107
 -0.00000 -0.14795 0.11091 0.15266 0.00000 0.07188 -0.02018 0.10699
 -0.00245 0.00000 -0.00000 0.10953 -0.05700 0.00000 -0.07795 0.16581
 -0.07620 -0.09406 0.09175 -0.10708 -0.15050 0.16589 0.07068 -0.00000
 -0.04046 0.00594 0.07748 -0.11940 -0.13806 0.00000 -0.06722 0.07243
 0.00000 0.06990 -0.03321 0.01979 -0.14603 0.26508 -0.19084 -0.06656
 0.10580 0.06468 0.06816 -0.15247 0.10365 -0.01202 -0.06939 -0.11077
 -0.16253 0.07669 0.20488 0.15713 -0.09008 0.20536 0.01766 0.09014
 -0.03270 0.05175 0.11378 -0.16092][0.01771 -0.04313 0.05704 0.16127 0.00000 -0.05801 0.09951 0.04510
 -0.00000 0.04303 -0.02746 -0.15785 0.00641 -0.07255 -0.09622 0.17405
 0.04708 0.05635 0.10437 -0.00043 0.04491 0.15998 0.15885 -0.12800
 -0.07242 -0.16565 0.22653 0.00000 0.07660 -0.15922 -0.00000 0.00301
 -0.14782 -0.01231 -0.00180 0.06916 0.04530 0.08688 -0.04073 0.05510
 -0.00000 0.07727 0.05414 -0.07199 -0.00000 0.15086 0.04318 0.16568
 -0.03363 0.02864 -0.00000 0.10963 -0.00678 0.00000 -0.07323 0.01544
 0.09884 -0.18771 0.03831 0.10950 0.07579 0.16399 -0.16151 -0.00000
 0.17123 0.10691 0.01956 0.13881 0.15490 0.00000 0.19282 -0.16802 -0.00000
 -0.14962 -0.19146 0.22423 -0.15830 0.15163 0.07315 0.00543 -0.05387
 -0.03206 -0.09109 0.16315 0.07454 -0.19455 0.00951 -0.07646 -0.15928
 0.13439 0.10793 -0.06615 0.10909 0.00467 -0.07641 0.15592 0.20206 0.01775
 0.16285 0.14314][0.01046 -0.04054 0.09761 -0.03120 0.00000 0.17052 0.09312 -0.07343
 -0.00000 -0.14975 0.01953 -0.05038 0.14029 0.15638 -0.11156 0.14892
 0.14949 0.19430 -0.16675 -0.18572 -0.02554 -0.07637 -0.14980 -0.07964
 -0.03690 0.17172 0.03463 0.00000 0.01633 0.05259 0.00000 0.10063 0.13784
 0.16185 0.13304 0.07063 0.00243 0.02744 -0.10376 0.16032 -0.00000 0.16145
 0.08385 0.14392 -0.00000 0.12943 0.05661 -0.12846 -0.07029 -0.07676
 -0.00000 -0.15084 -0.14178 0.00000 0.08506 0.03035 0.13914 -0.11447
 0.06912 -0.18371 0.02478 0.13790 0.18634 0.00000 -0.08364 -0.10006
 -0.19167 -0.17591 -0.00035 -0.00000 -0.08265 0.02335 -0.00000 -0.07458
 0.02861 -0.00191 0.07400 0.01946 0.05327 -0.04589 -0.07669 -0.11638
 0.17024 0.12253 0.15578 -0.13357 0.18992 0.17387 -0.06191 -0.09893
 0.02395 -0.12141 -0.02648 -0.01854 0.16820 -0.01019 0.19709 0.06419
 -0.01602 0.17363][-0.13292 0.05875 0.07907 -0.03954 0.00000 -0.01985 -0.02500 0.10676
 0.00000 -0.07076 -0.09013 0.05263 0.21268 -0.13257 0.13461 -0.09169
 -0.19454 -0.11960 0.17647 0.13214 0.02599 0.16656 0.15399 -0.02579
 0.00595 0.04786 -0.08735 0.00000 -0.07449 -0.18760 -0.00000 0.02161
 -0.06495 0.13736 -0.15181 0.06273 -0.05552 0.04938 -0.15650 0.12155
 -0.00000 0.07589 0.02566 -0.20488 0.00000 0.13991 0.14399 -0.07956
 -0.19183 0.04408 0.00000 0.14932 0.05111 0.00000 0.16404 -0.01554 0.01846
 -0.01447 0.09298 0.06433 0.02635 0.12460 0.00337 -0.00000 -0.07255
 -0.11741 0.16114 0.10399 -0.08848 -0.00000 0.17628 -0.19055 -0.00000
 0.05911 -0.11129 0.14520 0.02264 0.08450 -0.14769 -0.14882 0.05263
 -0.01061 -0.15480 -0.04340 0.05407 -0.13196 0.17560 0.17926 0.19744
 0.07526 -0.03157 0.09221 -0.08543 0.00337 0.03758 0.02845 0.16448
 -0.08513 0.09180 0.16342][-0.18061 -0.06331 0.11274 0.13625 -0.00000 0.12166 -0.06768 0.13937
 -0.00000 -0.00000 0.16899 0.00559 0.00619 -0.00000 0.10251 -0.24117
 -0.10000 -0.13938 -0.01303 0.02735 -0.10887 0.21076 0.08981 0.03240
 -0.11079 0.19385 -0.06857 -0.00000 -0.04896 0.00707 0.00000 -0.07046
 -0.20124 -0.07369 0.12737 -0.24313 -0.20025 0.31405 -0.00000 0.16718
 0.00000 -0.17739 -0.14105 0.13232 0.00000 0.13482 -0.00989 0.00000
 0.05186 -0.00058 0.00000 -0.00188 -0.00000 0.00000 0.17403 0.00000
 0.11251 -0.07973 0.11674 0.00000 0.07056 -0.00578 -0.07000 0.00000
 0.18176 0.06921 -0.13647 0.15655 0.05457 0.00000 -0.10143 0.09453 0.00000
 0.04806 0.00000 0.14996 0.00000 0.11624 0.14124 0.00957 -0.10029 -0.05660
 -0.05343 -0.15658 -0.15289 0.09380 -0.21178 -0.06396 0.18926 0.20899
 0.02519 0.20354 -0.22146 0.35227 -0.00000 0.16159 0.15010 0.12098 0.01608
 0.19660][0.00000 -0.00000 -0.00000 -0.00000 -0.00000 0.00000 0.00000 0.00000
 0.00000 0.00000 -0.00000 -0.00000 -0.00000 -0.00000 -0.00000 -0.00000
 0.00000 0.00000 0.00000 -0.00000 -0.00000 -0.00000 -0.00000 -0.00000
 0.00000 -0.00000 -0.00000 0.00000 -0.00000 0.00000 -0.00000 0.00000
 -0.00000 0.00000 -0.00000 -0.00000 -0.00000 -0.00000 -0.00000 -0.00000
 -0.00000 -0.00000 0.00000 0.00000 0.00000 -0.00000 0.00000 0.00000
 0.00000 0.00000 0.00000 0.00000 -0.00000 0.00000 0.00000 -0.00000
 -0.00000 -0.00000 -0.00000 -0.00000 -0.00000 0.00000 0.00000 0.00000
 0.00000 -0.00000 0.00000 -0.00000 -0.00000 0.00000 -0.00000 -0.00000
 -0.00000 0.00000 -0.00000 0.00000 0.00000 0.00000 -0.00000 -0.00000
 -0.00000 -0.00000 0.00000 0.00000 0.00000 0.00000 0.00000 -0.00000
 0.00000 0.00000 0.00000 0.00000 0.00000 0.00000 0.00000 -0.00000 0.00000
 -0.00000 -0.00000 0.00000][0.20835 -0.05922 -0.01747 0.16086 0.00000 0.13793 -0.19811 0.00000
 0.00000 -0.00000 0.09570 0.07684 -0.02510 -0.06074 0.07241 0.04402
 -0.02132 0.08324 -0.00664 0.16817 0.11708 0.04508 0.23538 -0.22594
 0.10280 -0.19114 0.04101 0.00000 -0.08130 0.17706 0.00000 -0.17931
 0.10655 -0.11895 -0.01729 0.16061 0.06233 -0.47915 0.03074 0.05907
 -0.00000 0.04906 0.46339 0.07709 -0.00000 -0.04313 -0.04657 0.12537
 0.06647 -0.00000 0.00000 0.18105 -0.00000 0.00000 0.14082 -0.03152
 -0.15497 0.00000 0.18338 -0.15341 -0.09477 0.02821 -0.14449 0.00000
 -0.09819 -0.03542 0.02986 -0.06854 0.00156 0.00000 0.13204 0.04163
 -0.00000 0.04758 -0.00000 0.06266 0.05718 -0.20729 0.09743 0.03284
 0.18836 -0.08808 0.03719 0.16576 0.02722 0.07318 -0.04441 0.08931 0.22128
 -0.06867 0.10834 0.17808 -0.22758 -0.11218 -0.16467 0.06611 -0.15533
 0.18332 -0.04576 0.14640][-0.00000 0.00000 0.00000 -0.00000 -0.00000 -0.00000 -0.00000 0.00000
 -0.00000 -0.00000 -0.00000 0.00000 -0.00000 0.00000 -0.00000 -0.00000
 0.00000 0.00000 0.00000 0.00000 -0.00000 0.00000 0.00000 -0.00000 0.00000
 0.00000 0.00000 0.00000 0.00000 0.00000 -0.00000 -0.00000 -0.00000
 0.00000 0.00000 -0.00000 -0.00000 -0.00000 -0.00000 0.00000 0.00000
 -0.00000 -0.00000 -0.00000 0.00000 0.00000 -0.00000 0.00000 0.00000
 0.00000 -0.00000 -0.00000 -0.00000 0.00000 0.00000 -0.00000 0.00000
 -0.00000 0.00000 -0.00000 0.00000 0.00000 0.00000 0.00000 -0.00000
 0.00000 0.00000 0.00000 -0.00000 0.00000 -0.00000 0.00000 -0.00000
 -0.00000 0.00000 -0.00000 -0.00000 0.00000 0.00000 -0.00000 -0.00000
 -0.00000 -0.00000 -0.00000 0.00000 0.00000 -0.00000 0.00000 0.00000
 -0.00000 -0.00000 -0.00000 -0.00000 0.00000 -0.00000 -0.00000 -0.00000
 -0.00000 -0.00000 -0.00000][-0.03072 0.19291 0.08199 -0.10263 -0.00000 -0.00423 0.15962 -0.13055
 -0.00000 0.00000 0.13815 0.09425 0.02044 -0.12179 -0.18535 -0.08444
 -0.10912 0.07571 0.10706 -0.18139 -0.07705 0.06870 0.13774 0.15519
 -0.04432 0.02748 0.07961 -0.00000 -0.02866 -0.13514 0.00000 0.12892
 0.05709 0.14569 -0.01413 0.22360 0.08188 0.17967 -0.25425 0.11990
 -0.00000 -0.02245 -0.29346 0.16276 -0.00000 -0.15203 -0.01609 -0.11290
 -0.01281 0.05038 -0.00000 0.06485 0.00000 -0.00000 0.06816 -0.15812
 0.02048 0.08052 -0.12861 -0.14114 -0.15793 -0.15807 0.12812 0.00000
 -0.09075 -0.17315 0.03014 -0.12239 -0.04237 0.00000 0.01681 -0.05909
 0.00000 -0.05788 0.00000 0.14803 -0.14207 -0.04542 -0.08522 -0.06405
 0.10521 0.02097 -0.10350 -0.02571 -0.10352 0.06497 -0.10069 0.15756
 0.06020 0.02007 -0.08597 -0.09232 -0.00092 0.09291 -0.13673 -0.03432
 0.18246 0.04858 -0.09200 -0.09255][-0.03415 0.01492 0.06210 0.13904 0.00000 -0.11396 0.15328 0.09688 0.00000
 -0.05750 0.20849 -0.14427 0.11351 -0.09360 0.20349 -0.12895 0.15336
 -0.19951 0.03948 0.11611 -0.41557 -0.17759 0.11893 0.16297 -0.12591
 -0.01171 0.09016 0.00000 0.12960 0.07091 0.00000 0.21719 0.00000 -0.08104
 0.00316 -0.59945 -0.24381 -0.24623 -0.05220 -0.07782 -0.00000 0.02919
 0.70111 0.02601 -0.00000 -0.04894 -0.16010 -0.13462 -0.08946 -0.07930
 -0.00000 0.08234 -0.01233 -0.00000 0.04887 -0.14891 -0.14460 0.07993
 -0.01714 0.13723 -0.21976 -0.12409 0.01801 -0.00000 -0.23246 -0.11791
 -0.08830 0.10479 0.05369 0.00000 0.08995 -0.02928 0.00000 -0.08397
 0.00000 -0.17740 -0.00000 -0.10735 -0.07224 0.02180 0.05058 0.16332
 -0.05855 0.22451 0.10162 -0.00000 0.17285 -0.02097 -0.02199 -0.10227
 -0.03495 -0.04963 -0.09481 -0.30856 -0.06260 -0.02230 -0.16434 0.02117
 -0.06709 0.03649][0.00000 0.00000 0.00000 0.00000 -0.00000 -0.00000 -0.00000 -0.00000
 0.00000 -0.00000 -0.00000 0.00000 0.00000 0.00000 0.00000 0.00000 0.00000
 0.00000 0.00000 -0.00000 -0.00000 0.00000 0.00000 -0.00000 0.00000
 -0.00000 0.00000 0.00000 0.00000 0.00000 0.00000 0.00000 -0.00000
 -0.00000 0.00000 0.00000 -0.00000 0.00000 0.00000 -0.00000 -0.00000
 -0.00000 -0.00000 -0.00000 -0.00000 0.00000 -0.00000 0.00000 -0.00000
 0.00000 0.00000 0.00000 0.00000 -0.00000 -0.00000 -0.00000 -0.00000
 -0.00000 0.00000 -0.00000 0.00000 -0.00000 0.00000 0.00000 0.00000
 0.00000 -0.00000 0.00000 0.00000 0.00000 -0.00000 -0.00000 0.00000
 0.00000 -0.00000 -0.00000 -0.00000 0.00000 -0.00000 -0.00000 -0.00000
 -0.00000 -0.00000 0.00000 -0.00000 0.00000 -0.00000 -0.00000 -0.00000
 0.00000 0.00000 -0.00000 -0.00000 -0.00000 0.00000 -0.00000 -0.00000
 0.00000 0.00000 -0.00000][-0.00000 -0.00000 0.00000 0.00000 0.00000 0.00000 0.00000 -0.00000
 -0.00000 -0.00000 -0.00000 0.00000 -0.00000 0.00000 -0.00000 0.00000
 -0.00000 -0.00000 0.00000 0.00000 0.00000 -0.00000 -0.00000 -0.00000
 -0.00000 -0.00000 0.00000 -0.00000 0.00000 -0.00000 0.00000 -0.00000
 0.00000 0.00000 -0.00000 0.00000 -0.00000 -0.00000 -0.00000 0.00000
 -0.00000 0.00000 -0.00000 -0.00000 0.00000 0.00000 -0.00000 -0.00000
 0.00000 -0.00000 0.00000 -0.00000 0.00000 0.00000 0.00000 0.00000
 -0.00000 -0.00000 0.00000 -0.00000 -0.00000 0.00000 -0.00000 -0.00000
 -0.00000 -0.00000 0.00000 0.00000 -0.00000 -0.00000 -0.00000 -0.00000
 0.00000 -0.00000 0.00000 0.00000 0.00000 0.00000 -0.00000 -0.00000
 -0.00000 0.00000 -0.00000 0.00000 -0.00000 0.00000 -0.00000 -0.00000
 0.00000 -0.00000 0.00000 -0.00000 -0.00000 0.00000 0.00000 0.00000
 -0.00000 0.00000 0.00000 -0.00000][0.00000 -0.05632 -0.15750 0.12490 0.00000 -0.05522 0.15718 0.15695
 -0.00000 0.00000 -0.00415 0.09468 -0.00539 0.00000 -0.13332 -0.00000
 0.09537 -0.00000 -0.11412 0.03662 -0.39493 -0.14503 -0.09107 -0.03560
 -0.06600 0.13875 -0.14019 -0.00000 0.09416 -0.16723 -0.00000 0.11715
 -0.00000 -0.07163 0.10795 -0.64851 0.12951 0.29885 0.00000 0.17429
 -0.00000 -0.14145 0.19062 0.09157 0.00000 0.08957 -0.06756 -0.00000
 -0.01282 0.02859 -0.00000 0.17974 0.00000 -0.00000 -0.13306 -0.00000
 0.11877 0.15265 0.17293 -0.00000 0.00597 0.00837 0.07899 0.00000 -0.19666
 0.11715 -0.17516 0.13108 0.10503 0.00000 -0.07632 0.04290 -0.00000
 0.09391 0.00000 -0.20365 -0.00000 -0.02178 -0.01942 -0.01991 -0.20984
 -0.01959 -0.04163 -0.06103 -0.00000 0.00000 0.00325 -0.11090 -0.13368
 0.01581 -0.00000 -0.09763 -0.03281 -0.14626 0.00000 -0.09245 -0.00502
 0.04660 -0.09596 -0.01497][0.24308 0.07370 0.00264 -0.02122 0.00000 0.02232 -0.15280 -0.00000
 -0.00000 -0.00000 0.00160 -0.08983 0.18243 0.00000 0.00000 -0.00385
 0.02774 -0.30784 -0.14910 0.15165 0.15340 -0.00651 0.20527 -0.17394
 -0.04210 0.00000 -0.08859 -0.00000 -0.07866 -0.04257 -0.00000 0.00000
 -0.05847 0.16186 0.22519 -0.14592 0.13243 -0.00000 0.00000 -0.21279
 -0.00000 0.22134 -0.14042 0.18064 -0.00000 0.11663 -0.09125 0.00000
 -0.04014 0.00000 0.00000 -0.22158 -0.00000 0.00000 -0.07466 -0.00000
 0.01244 0.00000 0.22296 0.00000 0.15432 -0.07201 0.00030 -0.00000 0.06977
 -0.23096 -0.07523 -0.08279 -0.03278 -0.00000 -0.17971 -0.00000 -0.00000
 0.11883 0.00000 0.10696 0.00000 -0.00000 -0.19824 -0.07544 -0.08010
 0.05070 0.17180 -0.00777 -0.06351 0.10632 0.08308 -0.07727 -0.13898
 -0.09943 0.00000 -0.14508 -0.05768 -0.00867 0.00000 0.06992 -0.04795
 -0.11827 -0.01227 -0.24332][-0.00000 0.00000 0.00000 -0.00000 -0.00000 0.00000 -0.00000 0.00000
 -0.00000 -0.00000 0.00000 -0.00000 0.00000 0.00000 0.00000 -0.00000
 -0.00000 -0.00000 0.00000 -0.00000 -0.00000 -0.00000 -0.00000 -0.00000
 -0.00000 0.00000 -0.00000 0.00000 0.00000 0.00000 -0.00000 0.00000
 0.00000 -0.00000 -0.00000 0.00000 -0.00000 0.00000 -0.00000 -0.00000
 0.00000 0.00000 -0.00000 0.00000 -0.00000 -0.00000 -0.00000 0.00000
 0.00000 -0.00000 0.00000 0.00000 -0.00000 0.00000 -0.00000 0.00000
 -0.00000 -0.00000 0.00000 -0.00000 0.00000 0.00000 -0.00000 0.00000
 -0.00000 -0.00000 -0.00000 0.00000 -0.00000 -0.00000 0.00000 0.00000
 0.00000 -0.00000 -0.00000 0.00000 -0.00000 -0.00000 -0.00000 0.00000
 0.00000 -0.00000 -0.00000 0.00000 0.00000 0.00000 -0.00000 0.00000
 0.00000 -0.00000 -0.00000 -0.00000 -0.00000 0.00000 0.00000 0.00000
 0.00000 -0.00000 -0.00000 0.00000][0.15503 0.16626 -0.04534 -0.04265 0.00000 0.06756 0.16529 0.00000 0.00000
 -0.09357 0.12675 0.08618 0.10635 0.13506 -0.05741 -0.12484 0.05688
 -0.13219 0.06343 0.12675 -0.38826 -0.04660 0.18172 -0.04535 -0.27002
 0.00000 0.05024 0.00000 0.17078 -0.00343 0.00000 -0.10089 -0.09836
 -0.04057 -0.06872 0.58658 -0.11693 -0.03364 0.15897 -0.02961 0.00000
 -0.20261 -0.39742 0.14887 0.00000 0.07556 0.01572 0.09419 -0.00000
 -0.00000 -0.00000 0.10973 0.06069 0.00000 0.17552 0.16700 -0.19614
 -0.11069 -0.04471 0.11284 0.15661 0.03016 -0.17329 -0.00000 -0.15536
 0.10833 0.10230 0.03330 -0.00726 0.00000 -0.08144 -0.00000 0.00000
 0.03763 0.00000 -0.18274 -0.00000 -0.02472 -0.08971 -0.09674 0.03793
 -0.13978 0.00150 0.11620 0.17250 0.10240 -0.06877 -0.18597 -0.06623
 0.16449 -0.04112 0.05676 -0.13980 -0.32568 0.07918 0.06316 -0.10838
 -0.07913 0.17092 -0.15949][-0.00000 0.07273 0.13375 -0.19579 -0.00000 0.07762 -0.18157 0.00000
 -0.00000 -0.00000 -0.12843 0.01660 -0.02768 0.00000 -0.00000 0.00000
 -0.07713 0.00000 -0.00000 0.05496 -0.38613 0.18139 -0.07208 -0.15133
 0.29247 0.18051 0.01450 -0.00000 -0.26610 0.00000 -0.00000 -0.25095
 0.00000 -0.25487 -0.06049 -0.00029 0.26328 0.39679 -0.00000 -0.15514
 0.00000 0.19667 -0.82713 -0.07079 -0.00000 0.20580 0.13606 0.00000
 0.00000 -0.00000 -0.00000 0.18919 0.00000 -0.00000 -0.00215 -0.00000
 -0.01435 0.16961 0.20595 -0.00000 0.17603 0.06995 0.19978 0.00000 0.00069
 0.18301 0.05212 -0.03061 0.00912 0.00000 -0.00000 0.05786 0.00000
 -0.11944 -0.00000 -0.00006 0.00000 0.20500 -0.01390 0.19626 0.00000
 0.00000 0.08828 -0.00000 0.00000 -0.00000 0.12590 0.14763 -0.10345
 -0.09246 0.00000 -0.09874 -0.24885 -0.31739 -0.00000 0.15747 0.07521
 -0.06613 -0.13431 -0.11975][-0.06432 0.09744 -0.14483 -0.13585 0.00000 0.04782 0.05291 -0.00000
 -0.00000 -0.00000 -0.10120 -0.19752 0.11273 0.16355 -0.01993 -0.13715
 -0.02838 0.10056 0.12425 0.05529 0.56043 0.07397 -0.13787 -0.12822
 0.09840 0.20275 -0.18141 -0.00000 -0.27044 0.02827 -0.00000 0.07215
 0.01648 -0.24836 -0.21823 -0.14872 0.03209 0.16908 0.13914 0.08703
 -0.00000 -0.20089 -0.28396 -0.08991 -0.00000 0.06573 -0.09436 0.00940
 0.09213 0.08382 -0.00000 -0.04641 0.00000 -0.00000 -0.11621 0.05899
 0.07424 0.00000 -0.13284 0.00013 -0.03540 0.10767 -0.02944 -0.00000
 0.10708 -0.11802 0.03854 0.19438 0.06008 0.00000 -0.01260 0.11830
 -0.00000 0.15503 -0.00000 -0.08210 -0.08929 -0.01064 -0.05393 -0.08648
 0.10666 -0.05843 -0.20365 -0.18075 -0.04563 -0.01358 -0.05734 0.24114
 0.23888 -0.07864 0.16126 -0.17929 0.05285 0.27211 0.16528 0.09878
 -0.05916 0.00990 -0.10540 0.01864][-0.00000 -0.00000 -0.00000 0.00000 0.00000 0.00000 0.00000 -0.00000
 0.00000 0.00000 0.00000 0.00000 -0.00000 -0.00000 0.00000 -0.00000
 -0.00000 -0.00000 0.00000 0.00000 0.00000 -0.00000 0.00000 0.00000
 0.00000 -0.00000 0.00000 0.00000 -0.00000 0.00000 0.00000 -0.00000
 0.00000 0.00000 0.00000 0.00000 -0.00000 0.00000 0.00000 0.00000 -0.00000
 0.00000 -0.00000 -0.00000 -0.00000 0.00000 0.00000 0.00000 0.00000
 0.00000 0.00000 -0.00000 -0.00000 -0.00000 -0.00000 0.00000 -0.00000
 -0.00000 0.00000 -0.00000 0.00000 0.00000 0.00000 0.00000 -0.00000
 -0.00000 -0.00000 -0.00000 0.00000 0.00000 0.00000 -0.00000 0.00000
 0.00000 0.00000 0.00000 0.00000 -0.00000 -0.00000 0.00000 0.00000 0.00000
 0.00000 0.00000 0.00000 0.00000 0.00000 0.00000 0.00000 0.00000 0.00000
 -0.00000 0.00000 0.00000 -0.00000 -0.00000 -0.00000 0.00000 0.00000
 0.00000][-0.00000 -0.00000 0.00000 0.00000 0.00000 -0.00000 -0.00000 0.00000
 0.00000 -0.00000 0.00000 -0.00000 -0.00000 0.00000 -0.00000 -0.00000
 0.00000 -0.00000 0.00000 -0.00000 -0.00000 -0.00000 0.00000 -0.00000
 0.00000 -0.00000 -0.00000 -0.00000 -0.00000 0.00000 0.00000 0.00000
 0.00000 0.00000 0.00000 -0.00000 0.00000 0.00000 -0.00000 -0.00000
 0.00000 -0.00000 0.00000 -0.00000 0.00000 0.00000 0.00000 0.00000 0.00000
 0.00000 -0.00000 0.00000 0.00000 0.00000 -0.00000 -0.00000 -0.00000
 0.00000 0.00000 -0.00000 0.00000 -0.00000 0.00000 0.00000 -0.00000
 0.00000 -0.00000 -0.00000 -0.00000 0.00000 -0.00000 -0.00000 -0.00000
 0.00000 -0.00000 -0.00000 0.00000 -0.00000 -0.00000 -0.00000 0.00000
 -0.00000 -0.00000 -0.00000 -0.00000 0.00000 0.00000 -0.00000 0.00000
 -0.00000 0.00000 -0.00000 0.00000 0.00000 0.00000 0.00000 0.00000 0.00000
 0.00000 0.00000][-0.10231 -0.09367 -0.01394 -0.16692 -0.00000 0.03854 -0.03833 0.00000
 -0.00000 -0.00000 -0.00640 0.00000 -0.19337 0.00000 -0.00000 -0.00000
 -0.00324 0.00000 -0.16182 -0.21171 -0.29262 -0.08396 -0.07040 -0.00000
 0.01540 0.11681 -0.05593 0.00000 0.00000 -0.26299 -0.00000 -0.23934
 -0.00000 -0.04532 0.09736 0.84830 -0.15100 -0.56542 -0.00000 -0.18305
 -0.00000 0.07070 0.50970 0.12381 0.00000 0.15715 0.07274 -0.00000
 -0.10462 -0.00000 -0.00000 0.00129 0.00000 0.00000 -0.02127 0.00000
 -0.17804 -0.00000 0.03041 0.00000 0.21832 -0.04560 -0.15245 -0.00000
 0.25613 0.14803 0.07259 -0.08205 0.07205 0.00000 0.04980 -0.21473 0.00000
 0.09257 -0.00000 0.18452 0.00000 0.16709 0.06610 0.09130 -0.09347 0.00000
 0.26977 -0.00000 0.12557 -0.00000 -0.05766 -0.12343 0.03198 0.01666
 0.10482 0.03303 0.14531 0.43185 -0.00000 -0.09208 0.02520 0.14201 0.17488
 -0.02382][0.00000 -0.00000 -0.00000 0.00000 -0.00000 -0.00000 -0.00000 -0.00000
 -0.00000 0.00000 0.00000 -0.00000 -0.00000 0.00000 0.00000 0.00000
 -0.00000 0.00000 0.00000 0.00000 0.00000 0.00000 -0.00000 -0.00000
 0.00000 -0.00000 -0.00000 0.00000 0.00000 -0.00000 -0.00000 -0.00000
 0.00000 0.00000 0.00000 -0.00000 -0.00000 0.00000 0.00000 -0.00000
 -0.00000 0.00000 0.00000 -0.00000 0.00000 -0.00000 0.00000 -0.00000
 0.00000 -0.00000 0.00000 0.00000 -0.00000 -0.00000 -0.00000 0.00000
 0.00000 0.00000 -0.00000 0.00000 -0.00000 0.00000 0.00000 -0.00000
 0.00000 0.00000 0.00000 -0.00000 -0.00000 0.00000 -0.00000 0.00000
 0.00000 0.00000 -0.00000 -0.00000 0.00000 0.00000 0.00000 -0.00000
 0.00000 0.00000 -0.00000 -0.00000 -0.00000 0.00000 -0.00000 -0.00000
 0.00000 0.00000 -0.00000 0.00000 -0.00000 -0.00000 0.00000 -0.00000
 -0.00000 -0.00000 0.00000 0.00000][0.17810 -0.14385 0.10600 -0.10940 -0.00000 0.06914 0.10798 -0.00000
 -0.00000 -0.07065 0.28973 0.11561 0.03669 0.13604 0.16702 0.05694
 -0.03263 -0.18242 -0.09945 -0.02571 -0.30981 0.00543 0.04193 0.12606
 -0.17757 0.00000 -0.12275 0.00000 -0.00671 0.18946 -0.00000 -0.11995
 -0.00000 -0.05493 -0.06749 -0.41261 -0.28601 0.87449 0.12187 0.11643
 -0.00000 0.05348 0.48646 0.04222 -0.00000 0.02459 -0.15741 0.10317
 -0.00000 0.00000 0.00000 -0.06735 -0.08323 -0.00000 0.04087 0.10521
 -0.09071 0.10388 0.07362 0.11498 0.19715 -0.18590 -0.18683 -0.00000
 -0.00291 -0.00000 -0.10808 0.03473 0.16230 0.00000 0.20073 0.00000
 -0.00000 0.14539 -0.00000 -0.00000 0.00000 -0.30565 -0.05383 0.03293
 -0.07674 0.07886 0.04180 0.15697 0.07601 0.00000 0.00476 -0.11582 0.08182
 -0.12671 0.08115 -0.01666 -0.00000 -0.00000 -0.03849 -0.16193 0.12542
 0.11918 -0.12874 -0.03514][0.17530 0.03936 0.03389 -0.18270 0.00000 0.04379 -0.15952 0.16305
 -0.00000 0.08338 -0.07176 -0.16839 -0.06621 -0.07259 -0.00183 -0.11424
 0.05205 0.16284 0.10227 0.06603 -0.00613 -0.12179 -0.12934 -0.03238
 -0.13951 0.06513 0.21679 0.00000 -0.11540 -0.18143 -0.00000 0.20219
 -0.06829 0.08897 0.08058 0.00787 -0.05040 -0.01271 0.18442 -0.19316
 -0.00000 -0.08330 0.14477 0.06120 -0.00000 -0.13827 0.19025 0.09460
 -0.18731 0.06271 0.00000 0.00915 0.05408 -0.00000 -0.06272 -0.14284
 0.09763 -0.05578 0.00737 -0.10192 0.12426 -0.17660 -0.07831 -0.00000
 0.12439 0.04440 0.05943 -0.18361 -0.10676 -0.00000 0.01761 0.15688
 0.00000 -0.01008 0.00000 0.08693 -0.12427 0.10592 -0.12940 0.13443
 -0.12623 -0.02939 -0.08910 0.12951 -0.00422 0.12969 -0.09751 0.01762
 0.12853 0.15390 0.06893 -0.12089 0.10965 -0.04055 0.11624 0.14144 0.03506
 0.00504 0.16020 -0.20126][-0.16296 -0.09887 0.06144 0.00875 -0.00000 -0.09663 -0.12999 0.10415
 -0.00000 0.00000 0.10350 0.01380 -0.02733 0.00000 -0.07714 0.04948
 0.15830 -0.02185 -0.17362 -0.13786 -0.30306 -0.12349 -0.00818 -0.11072
 0.22290 0.12257 -0.09025 -0.00000 -0.12685 0.04766 -0.00000 -0.12769
 0.15713 0.21957 0.12927 -0.39784 -0.07781 0.12429 0.07377 -0.19981
 -0.00000 0.11924 0.55282 -0.08252 -0.00000 -0.09365 -0.14886 -0.10956
 0.17745 0.01018 -0.00000 0.08933 0.00000 0.00000 -0.17313 -0.10781
 0.15183 0.07494 -0.11587 -0.13029 0.04300 0.12054 -0.08162 0.00000
 -0.04467 0.16325 -0.11808 -0.15538 -0.15298 0.00000 -0.16327 0.00157
 0.00000 -0.04277 -0.00000 0.06171 0.08722 -0.08734 0.09575 0.04401
 0.11006 -0.04850 0.01220 -0.13058 -0.05030 -0.15003 -0.16249 0.02670
 0.01725 -0.04936 -0.16451 0.12915 0.18696 -0.03229 -0.13838 0.17569
 -0.23539 -0.01915 0.13456 -0.09202][-0.00000 -0.00000 0.00000 0.00000 0.00000 -0.00000 0.00000 -0.00000
 -0.00000 0.00000 0.00000 -0.00000 0.00000 0.00000 0.00000 -0.00000
 0.00000 -0.00000 0.00000 0.00000 -0.00000 -0.00000 0.00000 -0.00000
 -0.00000 0.00000 0.00000 -0.00000 -0.00000 -0.00000 -0.00000 -0.00000
 -0.00000 -0.00000 0.00000 0.00000 0.00000 0.00000 0.00000 0.00000 0.00000
 0.00000 0.00000 0.00000 0.00000 0.00000 0.00000 0.00000 0.00000 0.00000
 -0.00000 0.00000 0.00000 0.00000 -0.00000 0.00000 0.00000 -0.00000
 -0.00000 0.00000 -0.00000 -0.00000 -0.00000 -0.00000 0.00000 0.00000
 -0.00000 0.00000 0.00000 -0.00000 0.00000 0.00000 -0.00000 0.00000
 0.00000 -0.00000 -0.00000 0.00000 0.00000 -0.00000 -0.00000 0.00000
 -0.00000 0.00000 0.00000 -0.00000 -0.00000 0.00000 0.00000 0.00000
 0.00000 0.00000 -0.00000 -0.00000 0.00000 -0.00000 -0.00000 0.00000
 0.00000 0.00000][0.00000 -0.00000 -0.00000 -0.00000 -0.00000 0.00000 0.00000 0.00000
 -0.00000 0.00000 0.00000 -0.00000 -0.00000 -0.00000 0.00000 -0.00000
 -0.00000 -0.00000 0.00000 0.00000 -0.00000 -0.00000 0.00000 0.00000
 -0.00000 -0.00000 -0.00000 -0.00000 -0.00000 -0.00000 0.00000 0.00000
 0.00000 -0.00000 0.00000 -0.00000 0.00000 -0.00000 0.00000 0.00000
 -0.00000 0.00000 0.00000 -0.00000 0.00000 0.00000 0.00000 -0.00000
 -0.00000 0.00000 -0.00000 0.00000 0.00000 -0.00000 0.00000 0.00000
 -0.00000 -0.00000 0.00000 0.00000 0.00000 0.00000 0.00000 -0.00000
 0.00000 -0.00000 -0.00000 -0.00000 -0.00000 0.00000 0.00000 -0.00000
 -0.00000 -0.00000 0.00000 -0.00000 -0.00000 -0.00000 0.00000 0.00000
 -0.00000 -0.00000 -0.00000 -0.00000 0.00000 0.00000 -0.00000 -0.00000
 0.00000 0.00000 -0.00000 0.00000 -0.00000 0.00000 0.00000 0.00000
 -0.00000 0.00000 -0.00000 0.00000][0.00000 0.00000 -0.00000 0.00000 -0.00000 -0.00000 -0.00000 -0.00000
 0.00000 0.00000 -0.00000 -0.00000 0.00000 0.00000 0.00000 0.00000
 -0.00000 0.00000 0.00000 -0.00000 -0.00000 -0.00000 0.00000 0.00000
 0.00000 -0.00000 0.00000 -0.00000 -0.00000 0.00000 -0.00000 -0.00000
 0.00000 0.00000 0.00000 -0.00000 0.00000 0.00000 0.00000 0.00000 -0.00000
 0.00000 0.00000 -0.00000 0.00000 -0.00000 -0.00000 0.00000 0.00000
 0.00000 0.00000 -0.00000 0.00000 0.00000 0.00000 -0.00000 -0.00000
 0.00000 0.00000 -0.00000 0.00000 -0.00000 0.00000 0.00000 -0.00000
 -0.00000 0.00000 0.00000 0.00000 -0.00000 -0.00000 0.00000 0.00000
 -0.00000 -0.00000 -0.00000 0.00000 -0.00000 0.00000 -0.00000 -0.00000
 0.00000 -0.00000 0.00000 -0.00000 -0.00000 0.00000 -0.00000 -0.00000
 0.00000 -0.00000 -0.00000 0.00000 0.00000 0.00000 0.00000 0.00000
 -0.00000 -0.00000 0.00000][-0.13824 0.11358 0.07427 -0.19619 0.00000 -0.05661 -0.08746 0.00000
 -0.00000 -0.00000 0.10546 -0.12190 0.04027 0.05568 -0.02289 0.11061
 0.00617 0.16847 0.07698 -0.12531 -0.51812 -0.20518 -0.06181 0.05108
 -0.20686 -0.13745 0.15370 -0.00000 -0.21325 0.11734 0.00000 -0.18216
 0.07706 0.09987 0.08761 -0.30077 0.11548 0.30497 -0.22795 0.03271
 -0.00000 -0.16750 -0.39588 0.02327 -0.00000 0.16318 -0.03351 0.09426
 0.10184 0.00000 -0.00000 -0.19675 -0.00000 0.00000 -0.03342 -0.22498
 -0.22407 -0.00000 -0.14051 -0.00534 0.13094 0.02551 -0.09364 0.00000
 -0.09291 0.11175 0.15932 -0.03407 0.12431 -0.00000 0.09308 -0.07975
 0.00000 -0.13749 -0.00000 0.01426 -0.01229 -0.28342 -0.18644 0.02148
 0.17066 0.06728 -0.08785 0.10984 0.14910 0.13769 0.13041 -0.03417
 -0.00088 -0.02360 -0.01147 0.02933 0.07591 0.00755 0.20049 0.12290
 0.17401 0.06374 -0.02497 0.14483][0.00000 -0.00000 0.00000 0.00000 0.00000 0.00000 0.00000 0.00000 -0.00000
 0.00000 -0.00000 0.00000 -0.00000 0.00000 -0.00000 0.00000 -0.00000
 0.00000 -0.00000 0.00000 0.00000 -0.00000 0.00000 0.00000 0.00000 0.00000
 0.00000 -0.00000 -0.00000 -0.00000 -0.00000 0.00000 -0.00000 -0.00000
 0.00000 0.00000 0.00000 0.00000 -0.00000 0.00000 0.00000 -0.00000
 -0.00000 0.00000 -0.00000 -0.00000 -0.00000 -0.00000 -0.00000 -0.00000
 -0.00000 0.00000 -0.00000 0.00000 0.00000 0.00000 0.00000 0.00000 0.00000
 0.00000 -0.00000 0.00000 0.00000 -0.00000 -0.00000 -0.00000 -0.00000
 0.00000 0.00000 0.00000 0.00000 -0.00000 -0.00000 -0.00000 0.00000
 -0.00000 -0.00000 -0.00000 0.00000 0.00000 0.00000 -0.00000 0.00000
 0.00000 -0.00000 0.00000 -0.00000 -0.00000 -0.00000 -0.00000 0.00000
 -0.00000 -0.00000 -0.00000 -0.00000 -0.00000 0.00000 -0.00000 0.00000
 -0.00000][-0.00747 -0.16655 0.18363 -0.01675 -0.00000 -0.13550 -0.17798 -0.00412
 0.00000 0.00000 -0.18781 -0.18399 -0.15249 -0.13290 0.01289 -0.03126
 0.13677 -0.11391 0.13630 0.00559 0.42685 -0.20229 -0.13164 0.10992
 0.09757 0.03776 -0.14682 0.00000 0.12993 0.14454 -0.00000 -0.04475
 -0.03024 -0.13856 -0.14816 -0.48857 0.13848 0.14340 0.06012 -0.12362
 -0.00000 0.12408 0.17938 -0.01434 -0.00000 -0.17456 0.00644 0.04303
 -0.12082 -0.02143 0.00000 0.17966 0.00000 0.00000 0.14385 0.10038
 -0.08023 0.11504 -0.10788 0.22344 -0.04317 -0.12947 0.05453 0.00000
 0.20280 -0.03992 0.10962 0.07525 0.13259 0.00000 0.04252 0.02542 -0.00000
 -0.11414 0.00000 0.17115 0.10610 0.11043 0.12513 -0.20286 -0.13965
 -0.03474 0.08740 0.17440 0.04922 -0.02126 0.17313 0.02061 0.07567
 -0.21431 -0.18580 -0.13621 -0.03335 0.34327 0.12267 -0.03226 -0.19375
 0.03773 0.15386 -0.01552][0.00000 -0.00000 -0.00000 0.00000 -0.00000 0.00000 0.00000 0.00000
 0.00000 -0.00000 -0.00000 -0.00000 -0.00000 0.00000 0.00000 -0.00000
 0.00000 -0.00000 -0.00000 -0.00000 -0.00000 0.00000 -0.00000 -0.00000
 0.00000 0.00000 -0.00000 -0.00000 -0.00000 -0.00000 -0.00000 0.00000
 -0.00000 -0.00000 -0.00000 0.00000 -0.00000 -0.00000 0.00000 0.00000
 -0.00000 -0.00000 0.00000 -0.00000 -0.00000 -0.00000 -0.00000 -0.00000
 0.00000 0.00000 -0.00000 -0.00000 0.00000 -0.00000 0.00000 0.00000
 0.00000 0.00000 -0.00000 -0.00000 0.00000 -0.00000 -0.00000 -0.00000
 -0.00000 0.00000 -0.00000 -0.00000 0.00000 -0.00000 0.00000 0.00000
 0.00000 -0.00000 -0.00000 -0.00000 -0.00000 -0.00000 -0.00000 0.00000
 -0.00000 -0.00000 0.00000 0.00000 -0.00000 -0.00000 0.00000 0.00000
 0.00000 -0.00000 0.00000 0.00000 -0.00000 -0.00000 -0.00000 -0.00000
 -0.00000 -0.00000 -0.00000 -0.00000][0.05890 0.01589 0.01422 -0.17410 0.00000 -0.17670 -0.17679 0.07030
 -0.00000 0.00000 -0.06363 0.12936 0.06825 0.18082 0.07541 -0.05210
 -0.03943 -0.13697 0.02579 -0.04686 0.03269 -0.01352 -0.16085 0.06618
 -0.15348 0.01169 -0.15994 0.00000 0.15467 -0.03863 0.00000 -0.07627
 -0.02529 -0.15427 0.08401 0.44648 -0.11385 0.05003 -0.20544 -0.00407
 -0.00000 -0.19445 -0.12143 -0.17560 -0.00000 -0.21088 0.12909 0.04169
 -0.04839 -0.07973 -0.00000 0.16175 0.00000 0.00000 -0.16794 0.03652
 0.01521 -0.16790 -0.00358 -0.15194 -0.08849 0.00856 -0.09319 -0.00000
 -0.12309 0.02956 -0.15197 -0.07623 -0.09815 0.00000 0.03427 -0.04884
 -0.00000 0.08931 0.00000 0.09792 0.00000 0.00230 0.04534 -0.17004
 -0.04594 0.02879 0.11023 -0.08267 0.04742 -0.09679 0.03784 -0.12675
 0.19818 0.12838 0.19538 -0.07719 -0.16687 -0.08846 -0.19452 -0.03657
 -0.00556 -0.08936 -0.06223 -0.16482][0.01138 0.14601 -0.01931 -0.00441 -0.00000 0.03961 -0.18631 -0.09147
 0.00000 0.00000 -0.02389 0.15397 0.03488 -0.12221 -0.10711 -0.06818
 -0.19674 0.01387 0.11906 -0.03108 -0.05402 -0.11527 -0.12925 -0.16941
 -0.12298 0.15442 0.21579 -0.00000 0.04909 -0.03422 0.00000 0.08179
 -0.03647 -0.07365 0.00077 0.17839 0.18093 -0.21245 -0.22928 -0.01693
 0.00000 -0.15623 -0.09384 0.11387 -0.00000 -0.01535 -0.04182 -0.00984
 0.15271 -0.06189 0.00000 0.15442 0.00000 0.00000 -0.15639 -0.05182
 -0.14957 0.13810 -0.02438 -0.09635 -0.02648 -0.09871 0.02394 0.00000
 -0.09169 -0.01428 0.08934 0.07230 -0.13600 0.00000 0.02181 -0.09522
 -0.00000 0.14034 -0.00000 -0.05851 -0.04592 -0.21945 0.15664 -0.10886
 0.12870 0.18880 -0.01055 0.10625 -0.06957 0.10653 0.09687 0.20127
 -0.00659 0.08612 0.16935 0.14746 0.14766 0.09612 -0.07634 0.01373
 -0.09180 0.12849 -0.05871 0.11670][0.00000 0.00000 -0.00000 0.00000 0.00000 -0.00000 -0.00000 -0.00000
 0.00000 0.00000 -0.00000 0.00000 -0.00000 0.00000 0.00000 0.00000 0.00000
 0.00000 0.00000 0.00000 0.00000 -0.00000 0.00000 0.00000 0.00000 -0.00000
 -0.00000 -0.00000 -0.00000 0.00000 0.00000 0.00000 0.00000 -0.00000
 -0.00000 -0.00000 0.00000 0.00000 0.00000 0.00000 0.00000 -0.00000
 0.00000 -0.00000 0.00000 0.00000 0.00000 0.00000 -0.00000 -0.00000
 -0.00000 0.00000 0.00000 -0.00000 0.00000 0.00000 -0.00000 0.00000
 0.00000 0.00000 -0.00000 0.00000 -0.00000 -0.00000 -0.00000 -0.00000
 0.00000 -0.00000 0.00000 0.00000 -0.00000 0.00000 0.00000 -0.00000
 0.00000 0.00000 -0.00000 -0.00000 -0.00000 0.00000 -0.00000 0.00000
 -0.00000 0.00000 0.00000 0.00000 0.00000 -0.00000 -0.00000 -0.00000
 -0.00000 -0.00000 -0.00000 -0.00000 0.00000 0.00000 0.00000 -0.00000
 0.00000 0.00000][-0.00000 0.00000 -0.00000 0.00000 -0.00000 -0.00000 0.00000 -0.00000
 -0.00000 -0.00000 -0.00000 -0.00000 0.00000 0.00000 0.00000 0.00000
 0.00000 0.00000 0.00000 -0.00000 -0.00000 -0.00000 0.00000 0.00000
 0.00000 0.00000 0.00000 0.00000 -0.00000 -0.00000 -0.00000 0.00000
 -0.00000 0.00000 0.00000 0.00000 0.00000 0.00000 0.00000 0.00000 0.00000
 -0.00000 -0.00000 -0.00000 0.00000 0.00000 -0.00000 -0.00000 0.00000
 0.00000 0.00000 0.00000 -0.00000 -0.00000 -0.00000 0.00000 0.00000
 -0.00000 -0.00000 -0.00000 -0.00000 -0.00000 -0.00000 -0.00000 0.00000
 0.00000 0.00000 0.00000 -0.00000 -0.00000 -0.00000 -0.00000 0.00000
 0.00000 -0.00000 0.00000 0.00000 0.00000 0.00000 0.00000 -0.00000 0.00000
 0.00000 -0.00000 -0.00000 -0.00000 0.00000 0.00000 0.00000 -0.00000
 -0.00000 -0.00000 0.00000 -0.00000 -0.00000 -0.00000 0.00000 -0.00000
 -0.00000 -0.00000][-0.00863 -0.06149 -0.19576 -0.11706 -0.00000 0.05582 0.15140 0.00000
 -0.00000 -0.16722 -0.17197 -0.02390 0.15252 -0.11135 0.15628 -0.10852
 -0.16181 -0.02252 -0.12953 0.02931 0.65678 0.23775 -0.01807 -0.01884
 -0.06490 0.05404 -0.16551 -0.00000 -0.02444 -0.17151 0.00000 -0.00538
 0.00000 0.03215 -0.17628 0.34035 -0.14681 0.40875 0.00572 0.06200
 -0.00000 0.16282 -0.35461 0.09295 0.00000 -0.08756 0.04461 0.11756
 0.00000 0.07886 -0.00000 -0.10798 -0.03179 -0.00000 0.09025 -0.02302
 -0.08370 0.11425 0.19614 -0.07505 -0.01837 -0.13764 -0.13120 0.00000
 0.04787 0.10141 -0.04090 0.20824 -0.02697 0.00000 -0.14712 -0.02598
 0.00000 0.05773 -0.14283 -0.05856 -0.00000 -0.02216 0.02190 0.16037
 -0.21784 -0.01646 -0.15903 0.13066 -0.13736 0.00000 -0.08405 0.06180
 -0.07568 -0.11563 -0.11444 -0.04938 0.25755 0.44632 -0.06633 0.04814
 -0.05798 0.00001 0.16940 0.04181][0.08372 -0.16372 -0.15703 0.06419 -0.00000 0.17289 0.00316 0.00000
 -0.00000 0.00525 0.14338 0.15338 -0.10751 -0.19714 0.00762 -0.20139
 0.00976 0.04764 0.01313 0.12185 0.36771 0.08244 -0.22118 -0.08584 0.13526
 0.14405 0.13373 0.00000 -0.02070 0.17044 0.00000 -0.18953 0.03738
 -0.17282 -0.02308 0.34706 0.04180 0.35270 0.16304 -0.05799 -0.00000
 0.16591 -0.45637 0.09239 -0.00000 -0.08424 -0.23687 -0.11514 0.00000
 -0.00000 0.00000 -0.04647 -0.14742 -0.00000 0.08587 0.07879 0.05957
 0.13306 0.17085 0.09597 -0.03134 -0.06264 -0.21874 0.00000 0.26055
 0.00000 -0.07716 0.18258 0.14397 0.00000 -0.18044 -0.00000 -0.00000
 0.19868 -0.00076 -0.13310 -0.02353 0.08415 0.02915 0.13312 0.12030
 0.14707 -0.06092 0.07464 -0.10048 -0.00000 0.14469 0.08075 0.07803
 -0.05095 -0.11632 0.06457 0.14149 0.35054 0.15296 -0.11971 0.06052
 -0.03727 0.18728 -0.09201][0.01881 0.05721 -0.24026 0.16881 -0.00000 0.02187 -0.11456 0.00000
 -0.00000 0.07880 0.14157 -0.00000 -0.21629 -0.00000 -0.09317 0.18662
 -0.11461 0.08918 -0.05964 -0.13838 -0.18031 -0.05587 0.00000 0.20743
 0.08913 0.02992 -0.05892 -0.00000 -0.05311 0.03506 -0.00000 0.02192
 0.00000 0.04597 0.06655 -0.31249 0.13594 0.18496 0.02225 -0.19032 0.00000
 0.16813 0.32810 -0.13941 -0.00000 -0.13751 -0.08826 0.06291 0.00000
 0.00000 -0.00000 -0.16643 -0.05893 0.00000 0.18073 0.01547 -0.07991
 -0.19960 -0.01517 0.14726 -0.02643 0.14443 -0.00673 -0.00000 -0.12239
 0.00000 -0.08143 -0.21291 0.05043 -0.00000 0.08347 -0.00000 0.00000
 0.03425 0.18386 0.00000 0.00000 -0.16932 0.02666 0.22734 0.14667 -0.06291
 0.09788 -0.14331 0.01493 -0.00000 0.20362 0.00129 -0.00898 -0.09377
 0.20039 0.03657 -0.22106 -0.07431 -0.02331 -0.19795 -0.03958 -0.04743
 -0.22318 0.09503][0.08831 0.09684 0.14619 -0.11966 -0.00000 0.03900 0.14151 0.00000
 -0.00000 -0.12472 -0.15134 0.00000 0.16384 -0.00000 -0.00000 -0.10427
 0.20109 -0.01868 0.14313 -0.00000 0.66670 0.00093 0.00000 0.06031 0.06555
 0.16807 0.07767 0.00000 -0.01172 0.01447 0.00000 -0.07663 -0.00000
 0.19339 0.00489 0.36680 -0.07411 0.33710 0.01095 -0.04366 0.00000 0.11045
 -0.21281 -0.07810 -0.00000 -0.20002 -0.10441 -0.00000 -0.00000 -0.00000
 -0.00000 0.00800 -0.06183 -0.00000 0.17726 0.11797 -0.06187 -0.00000
 0.11989 0.26589 0.17660 0.03460 -0.20028 0.00000 0.11289 0.00000 0.10572
 0.16448 -0.03841 0.00000 -0.11401 0.00000 0.00000 -0.02832 -0.17964
 0.00000 0.00000 -0.30327 0.22399 0.15677 0.19949 -0.11913 0.05812 0.13387
 0.05617 0.00000 -0.14218 -0.15511 0.10241 0.12627 -0.03229 0.08383
 0.04772 -0.06118 -0.17108 0.10258 0.13964 -0.06306 -0.19412 0.19112][0.05328 -0.02325 -0.07582 0.05814 -0.00000 -0.19647 -0.04903 -0.10404
 0.00000 0.07305 0.01304 0.05393 -0.08182 -0.00000 -0.19612 -0.11169
 -0.02182 -0.19311 0.08931 0.10080 -0.06403 -0.02023 0.07853 -0.02759
 0.03707 -0.02931 0.02782 0.00000 -0.02108 -0.05446 -0.00000 0.16291
 -0.16366 -0.14137 0.11066 -0.11775 0.09748 0.27632 0.15092 -0.07483
 -0.00000 -0.00031 -0.39127 -0.10065 -0.00000 -0.01736 0.19005 0.13639
 -0.01868 -0.04894 0.00000 -0.12566 0.04380 0.00000 0.18240 -0.08425
 -0.14869 0.02026 0.07478 -0.07657 0.18056 0.14115 0.08967 0.00000
 -0.03680 -0.10978 0.12943 -0.11053 -0.08613 -0.00000 -0.04988 -0.19289
 -0.00000 0.12011 -0.00960 -0.10699 0.00000 -0.09459 0.04823 -0.12503
 -0.02000 -0.10361 -0.08069 0.02014 -0.04797 0.13810 0.01214 0.15037
 0.04443 -0.21453 -0.12548 -0.19253 0.03966 -0.00868 0.13588 -0.00912
 0.11304 0.09469 -0.08112 0.02417][-0.03312 0.06174 0.18338 -0.04102 -0.00000 -0.08130 0.01845 0.12777
 0.00000 0.09862 0.01670 -0.12340 -0.00552 -0.13644 0.16937 -0.15784
 0.01432 -0.13291 -0.06131 -0.15305 0.03558 0.04734 0.14606 -0.01991
 0.12120 0.03465 0.22403 -0.00000 0.13610 0.12594 -0.00000 -0.01535
 0.01365 0.21576 0.15372 0.07969 0.00872 0.08542 0.11758 -0.10532 -0.00000
 -0.10381 0.05323 0.15496 0.00000 0.09954 -0.17344 -0.01539 -0.09353
 -0.04349 0.00000 0.02193 0.09056 0.00000 -0.12172 -0.03811 -0.13264
 0.11186 -0.13926 0.13063 0.11066 0.13600 0.15028 -0.00000 0.03256
 -0.06995 -0.10609 -0.17347 0.00921 -0.00000 0.15444 -0.11929 0.00000
 0.06571 -0.19624 -0.10410 -0.01618 0.06806 0.12457 -0.02239 0.16803
 0.06117 -0.18743 0.07479 -0.12162 -0.19856 0.11439 0.02704 0.12936
 -0.17020 -0.05090 -0.07763 0.02205 0.01590 0.10498 -0.12751 0.04889
 0.06397 -0.02537 0.01690][0.18494 0.10439 -0.02838 -0.03947 0.00000 -0.17247 0.04105 -0.15656
 0.00000 0.03450 -0.11807 0.08254 0.12113 -0.08104 0.03876 0.06669 0.09366
 -0.09562 0.07742 0.10701 0.03424 -0.00713 0.02559 0.16723 -0.15327
 0.02556 0.03952 0.00000 0.08014 0.10080 -0.00000 -0.17334 -0.09801
 -0.15317 -0.08219 0.07008 0.13275 0.08511 -0.00752 0.05574 -0.00000
 0.08019 0.04814 0.00517 0.00000 -0.13741 -0.08937 0.01238 -0.10170
 -0.05340 -0.00000 0.16303 0.12739 -0.00000 -0.15945 0.11698 -0.12559
 0.04769 0.14782 0.17212 -0.12409 0.00788 0.13525 0.00000 0.09884 0.11469
 0.11015 0.07513 0.15552 0.00000 0.17219 0.01926 0.00000 0.05012 -0.06539
 0.16361 -0.02922 -0.12183 0.18152 0.14503 0.02820 0.08917 0.19338
 -0.12362 0.00144 -0.05491 0.03997 -0.14450 -0.00178 -0.02747 0.04094
 0.06107 0.03014 0.03446 0.02802 -0.02959 0.01840 -0.01800 -0.12092
 -0.10977][-0.01274 -0.01728 0.12396 -0.04451 -0.00000 -0.14480 0.11229 0.06020
 0.00000 -0.08295 0.07143 -0.12684 -0.08142 -0.10761 -0.07838 -0.02383
 0.10025 0.18966 0.06068 -0.15619 0.03441 0.16212 -0.04849 0.04483 0.18456
 -0.01683 0.04359 0.00000 0.17950 0.15245 -0.00000 0.05539 0.03727
 -0.10038 0.03089 0.06664 -0.11731 0.05244 -0.07015 0.15271 0.00000
 0.14593 0.05289 -0.03085 -0.00000 -0.16944 0.19502 0.05575 -0.08770
 0.07085 0.00000 -0.15027 -0.16355 -0.00000 -0.09656 -0.16943 0.00027
 -0.17620 -0.00221 -0.10651 0.04141 -0.02438 0.13025 -0.00000 -0.09225
 0.17382 -0.03145 -0.16899 -0.15745 0.00000 -0.10847 -0.16470 -0.00000
 0.10715 0.16537 -0.09793 0.14156 0.10194 0.02406 -0.15541 0.11482 0.14336
 0.10041 0.02524 0.03856 -0.03745 -0.04926 -0.10459 0.12444 0.15350
 0.05074 0.01207 0.14222 -0.05090 -0.07840 -0.05278 -0.15971 0.01637
 0.15850 0.10842][0.01698 0.09765 0.13401 -0.09889 -0.00000 0.02347 0.06793 0.00000
 -0.00000 -0.16502 0.02396 0.01492 -0.19798 -0.03643 0.02526 0.08413
 0.12053 -0.14646 -0.07524 0.06617 0.08825 -0.04760 0.23345 -0.17198
 0.18073 0.04502 0.05240 -0.00000 0.02173 -0.08196 0.00000 -0.00097
 0.19001 0.03728 0.04431 0.07333 -0.09190 -0.38239 0.17623 0.05406
 -0.00000 -0.05647 0.21291 0.00517 -0.00000 0.14266 -0.03446 0.06993
 0.09807 -0.00000 0.00000 0.00099 -0.13679 -0.00000 0.05548 -0.10723
 -0.04760 0.05240 0.21275 0.01290 0.06919 -0.06628 -0.00422 0.00000
 0.21049 -0.17348 0.11527 0.21771 0.00822 0.00000 0.16394 -0.11686
 -0.00000 -0.02714 -0.16174 -0.08609 -0.01217 -0.23847 -0.10723 0.12529
 0.11391 0.14283 -0.17729 0.10919 0.10559 -0.19829 -0.03469 0.13630
 0.18865 0.17550 0.02224 -0.09175 -0.00863 -0.08253 0.06002 0.00250
 0.16080 -0.04897 -0.10753 -0.20377][-0.11653 -0.14771 -0.11740 0.11407 0.00000 -0.11787 0.15038 -0.00000
 0.00000 -0.14163 -0.01259 -0.17173 -0.18400 0.00000 -0.04605 0.10823
 0.04055 0.04917 0.00107 0.09734 -0.28312 -0.10475 0.01711 0.17482
 -0.03103 0.15287 -0.13657 -0.00000 0.21058 -0.19125 -0.00000 0.11207
 -0.00000 -0.01029 -0.06619 0.67012 0.19113 0.08210 -0.10696 0.14887
 0.00000 -0.00286 -0.33754 -0.08413 -0.00000 -0.14016 -0.00429 -0.06980
 0.00000 0.00000 -0.00000 -0.12710 -0.04217 0.00000 0.17745 0.10529
 -0.20814 0.03104 0.05827 0.04690 0.05689 -0.17086 0.07060 0.00000
 -0.10858 0.00000 -0.02586 0.10684 0.01291 -0.00000 -0.02929 0.00000
 0.00000 0.12159 0.05975 -0.00000 0.00000 -0.20844 -0.00581 0.05921
 -0.24187 0.01372 -0.00171 0.12565 -0.09524 0.00000 0.19644 0.08238
 0.11944 -0.20317 0.04622 0.00187 -0.10460 -0.04690 0.17496 -0.21432
 0.09269 -0.07650 -0.04034 0.10260][-0.14024 0.16925 -0.03566 0.16138 0.00000 -0.05207 -0.08041 0.00000
 -0.00000 0.07340 0.12802 0.17368 -0.14364 -0.11561 0.19616 0.07118
 0.01360 -0.01972 0.12126 0.04030 0.03136 -0.00546 -0.17024 0.00594
 -0.07872 -0.02467 -0.13695 -0.00000 -0.04579 -0.01989 -0.00000 -0.14871
 0.08556 0.07432 -0.07672 0.17001 0.14590 -0.38212 0.04976 0.12247 0.00000
 -0.06976 0.12562 -0.05157 -0.00000 0.09841 -0.15014 -0.04148 -0.09851
 0.00000 -0.00000 -0.03172 -0.04008 -0.00000 0.05183 -0.08994 -0.03045
 0.13163 0.05254 0.01850 0.16268 -0.09845 0.18889 0.00000 0.11148 0.04670
 0.12294 0.05454 -0.06790 -0.00000 0.13788 0.14168 0.00000 0.20266
 -0.18390 -0.03211 0.09309 0.13408 -0.11740 0.17913 -0.12064 0.04405
 -0.03945 0.12738 -0.14972 -0.13106 0.05601 -0.12538 0.10769 0.00843
 0.17438 0.09131 0.02856 -0.19077 -0.17120 0.01490 0.19627 -0.12549
 -0.03738 -0.20629][0.07550 -0.17568 0.00003 -0.12166 0.00000 0.03864 0.05194 0.00877
 -0.00000 0.09148 0.15465 -0.04226 0.05831 0.03826 0.09871 0.04596 0.09180
 0.14250 0.03165 0.12999 0.01444 -0.03776 0.06990 -0.15279 0.10178
 -0.00957 -0.00283 -0.00000 -0.03545 -0.10187 0.00000 0.11641 -0.06023
 -0.09636 -0.16295 0.08370 0.10119 0.02057 -0.14552 0.13831 -0.00000
 -0.07395 0.02226 0.10045 -0.00000 0.03633 -0.12386 0.05553 -0.13787
 -0.03047 -0.00000 -0.07306 -0.15559 -0.00000 0.06913 -0.03822 0.16958
 0.08062 0.03652 0.01867 -0.05002 0.00375 0.09976 0.00000 0.00347 0.16009
 0.11509 -0.09525 0.09376 0.00000 0.01191 0.03156 -0.00000 -0.15040
 -0.03775 -0.07120 0.07319 -0.06574 -0.02200 0.13321 0.11304 0.15938
 -0.00495 0.16906 -0.19094 0.15435 -0.03366 0.12683 0.19236 0.13709
 0.08000 0.06406 0.17677 0.01513 -0.15439 -0.18983 0.16547 -0.17249
 0.16242 0.02147][0.05513 0.16769 0.14514 -0.06618 -0.00000 -0.00780 0.12605 0.00000
 0.00000 -0.05608 0.17819 0.06295 -0.09573 -0.14888 0.02712 0.22638
 -0.05707 0.22497 0.03408 -0.06564 0.21600 -0.07719 -0.15628 0.04727
 0.10308 0.05596 -0.05940 0.00000 0.05567 -0.18379 0.00000 0.11093
 -0.14461 -0.01572 0.02555 -0.33088 -0.11826 0.10151 0.02311 0.13854
 -0.00000 0.05533 0.08767 0.02092 0.00000 -0.17590 0.14642 -0.12181
 -0.05642 0.00000 0.00000 0.18889 -0.00504 -0.00000 0.10808 0.18605
 0.03479 0.05958 0.06230 0.04417 0.05080 -0.06396 0.00315 -0.00000 0.13753
 0.00597 -0.01614 -0.07530 0.16630 0.00000 -0.15151 0.00000 0.00000
 0.00520 -0.01990 -0.03130 0.01762 0.02539 0.03308 -0.11342 0.05691
 -0.13605 -0.10219 0.01009 0.02501 0.00000 0.06908 -0.15610 0.05650
 0.16204 0.20448 0.14178 -0.12972 -0.02692 0.17837 -0.00518 0.05442
 -0.14922 0.16235 0.16184][0.14256 0.07366 0.00943 0.15759 -0.00000 0.11153 0.01678 -0.17386
 -0.00000 -0.13392 -0.17637 0.05991 0.18207 0.00620 0.05587 -0.04707
 0.13505 0.01661 0.02282 0.10448 -0.43048 -0.18554 0.10332 0.12345 0.01049
 -0.00214 -0.08655 -0.00000 -0.09624 0.11874 -0.00000 0.09594 -0.03882
 -0.20965 0.07038 0.58083 0.00616 0.06784 -0.17128 -0.12428 -0.00000
 -0.15745 -0.09547 0.05904 0.00000 0.07042 0.02501 0.04038 -0.07380
 -0.00765 -0.00000 -0.07392 -0.12715 -0.00000 0.04543 0.04609 -0.16397
 -0.13773 0.03899 -0.18899 0.10924 0.03723 -0.13797 0.00000 0.02964
 0.19903 -0.18332 0.12737 -0.17417 -0.00000 -0.05451 0.03354 -0.00000
 0.11027 0.06755 -0.15959 -0.10938 0.13122 0.09618 0.11748 -0.16592
 -0.14575 -0.08707 0.16535 -0.03641 0.07537 -0.07605 0.09910 0.01430
 0.15929 -0.09217 -0.14776 0.02499 0.01153 -0.14256 0.04452 0.07238
 -0.11762 0.08020 0.02400][-0.14789 -0.00547 0.14505 0.17754 -0.00000 -0.05077 -0.18890 0.16795
 -0.00000 0.14466 0.14029 -0.09729 0.12569 0.04071 0.17273 0.13944
 -0.15009 -0.07552 0.10491 0.01672 -0.12556 -0.03780 0.03802 -0.14592
 -0.07332 -0.14345 0.17789 -0.00000 0.16980 0.13569 0.00000 -0.16835
 -0.10357 -0.15411 0.07915 0.37691 0.20228 -0.00720 -0.05057 -0.01781
 0.00000 -0.05365 0.29631 0.05351 0.00000 -0.06707 -0.21750 -0.17581
 -0.17725 -0.09426 0.00000 0.10980 -0.07445 -0.00000 0.05734 0.08182
 -0.17127 0.02909 0.06325 0.10843 0.08648 0.02481 0.17280 -0.00000 0.09033
 -0.10535 0.08871 -0.05908 -0.12360 0.00000 -0.07115 0.03900 0.00000
 0.00189 0.09337 -0.03668 0.00000 -0.13159 -0.15282 -0.00592 -0.05664
 0.09700 -0.10939 -0.09424 0.18544 -0.04209 0.20786 -0.07406 0.19642
 -0.18813 0.08821 0.15135 -0.00518 -0.00751 -0.13264 0.02776 -0.15419
 0.12419 -0.03716 -0.08388][-0.02014 -0.17059 -0.16268 -0.17689 0.00000 0.06645 -0.16617 0.00000
 0.00000 0.13775 0.18006 -0.04614 -0.13389 -0.06472 0.17763 0.09707
 -0.01075 -0.00182 0.17885 0.23387 0.29149 0.12565 -0.05234 0.18093
 0.00792 -0.13165 0.03240 0.00000 -0.02226 -0.06519 0.00000 -0.10915
 0.09571 0.06804 -0.08294 -0.33826 -0.17759 0.10925 0.03768 -0.09032
 -0.00000 0.24604 0.10333 0.03202 0.00000 -0.11391 0.10693 0.05853
 -0.03097 -0.00000 -0.00000 -0.14794 0.12554 0.00000 0.08007 0.03156
 0.10128 0.01488 -0.13018 0.08390 0.00874 0.01272 0.09694 -0.00000
 -0.14824 -0.17370 -0.09159 -0.08875 0.10828 -0.00000 -0.15214 -0.00000
 0.00000 0.13048 0.06020 0.15837 -0.13706 -0.01294 0.17922 0.19819
 -0.10527 0.04763 -0.20259 0.02163 -0.01289 0.00000 0.03912 0.03110
 0.12818 0.10756 0.19959 -0.02487 -0.17565 0.03592 0.10888 -0.13756
 -0.08416 0.04148 0.17558 -0.04788]