 -1.70860 -3.25331 0.69804 0.99808 -0.15234 0.02164 0.71437 0.34215 -0.96258 1.02554 -1.99241 -0.35507 -1.48997 0.51837 -0.54163 -0.63536 0.61836 0.03674 0.00424 -0.26463 0.14990 1.62708 -0.51742 -1.13957 -0.13240 -0.74790 1.04991 -0.36669 0.45317 0.75604 -2.63737 -1.13922 -0.20490 1.34300 1.11277 -0.34264 -1.15479 1.17164 0.46094 -0.00350 -0.67721 1.16277 -0.42023 -1.74110 0.24628 1.36339 0.61842 0.31471 1.37732 0.65504 -1.36990 1.58734 0.15018 0.61999 -0.55522 3.21672 0.84295 0.71540 -0.06725 2.38197 0.90178 3.14502 1.18759 0.95438 0.05750 -1.14198 -0.61658 -0.70753 -0.68879 2.03356 0.53597 3.57876 1.13242 -2.74703 0.76713 0.87854 0.92467 2.78797 -0.19282 -1.58156 0.94049 0.24260 -1.99053 -1.06096 -0.52574 0.53736 0.65824 0.90610 0.28914 0.09212 0.98838 -0.85282 0.78490 1.52878 -0.67683 -0.77646 1.09821 -0.24700 -2.00322 -0.54248 -0.90294 0.46250 -0.28018 -1.29820 0.20828 0.94835 1.15998 -2.15362 0.17914 0.73941 -0.22708 -0.96249 -2.93126 -0.22867 -0.50307 -0.54041 0.25051 -0.75278 -0.76024 0.85156 0.78698 -2.03988 -0.02207 0.41488 0.03080 0.72294 0.57487 0.42386 0.17360 -0.82924 -0.78129 -1.46938 -3.98106 0.04185 0.37879 0.40343 -3.01782 0.99868 -0.26561 -3.48081 -0.26692 -1.46840 -1.43890 0.24046 0.31290 0.08422 0.53251 -0.24765 -2.49725 -1.40295 -2.13771 -0.66644 -1.98303 -2.31718 1.76833 0.79761 -2.39729 0.05054 -1.98451 0.19875 -0.81776 -0.22435 -1.44634 0.60387 -0.57595 0.21858 -3.13234 1.44968 0.47458 1.08519 -2.76494 1.08714 -1.21807 0.93888 1.16584 -1.95298 -1.77285 -2.41880 1.79925 -1.93291 2.18502 -3.66627 0.76010 0.73967 0.48951 -3.42669 0.82874 0.16898 0.35372 -3.94094 -0.49755 -1.96719 -2.07740 0.55858 -2.41394 1.03044 0.10288 0.20908 -0.13906 0.07526 -0.33614 -1.52848 1.59038 -2.06561 1.14253 0.83450 0.20760 -0.36707 -0.10984 -1.45424 -2.70312 -3.46959 0.37183 -4.02341 -3.19920 -6.12750 -2.47664 -0.74742 -2.02260 -3.60155 -4.22718 -1.32958 -0.58441 -5.02823 -6.44412 0.53009 -2.75548 -1.72555 -4.61119 -5.11130 -2.83278 -0.12051 -1.48232 -3.69871 0.88504 1.02613 -3.82236 -2.87379 -0.92468 -1.29700 -3.61684 -3.26999 -4.77889 -0.38082 0.50135 -4.01058 -0.72013 -2.04091 1.12923 -1.09736 -5.03363 -1.39249 -4.71210 -3.10692 -2.04690 0.90361 -0.93924 -4.64216 1.49231 -3.98725 -1.65010 -3.11461 0.36182 -4.30669 1.06973 -0.74995 0.93738 -3.05872 -0.23086 -4.30493 0.06642 -3.96102 -0.05425 -2.32881 -0.02848 -1.15054 -4.56157 -0.16727 -1.59819 0.30827 -0.37436 0.76600 0.08779 0.70651 0.28215 1.04632 -1.63833 0.69628 -2.67465 1.15996 -0.77999 -2.89142 1.14549 -0.49922 0.97146 -0.70017 1.02690 -3.43930 -0.16024 0.33035 0.77210 0.64013 1.31693 -3.68470 0.29486 -4.74422 0.38060 1.55445 0.17033 0.12848 -0.88371 -0.31615 1.40195 -0.07216 -0.88917 0.56450 -0.32001 0.41924 0.70932 -1.05789 0.08679 -0.71749 -1.85080 0.80398 -1.56181 -2.07113 -4.05724 1.06736 -5.59425 0.00850 -2.52991 -1.23488 1.16672 -2.77887 1.38798 0.87761 -3.88488 -0.85959 -1.25721 -0.14463 -0.22699 -1.01487 0.34927 -0.26213 1.81785 0.66658 -0.56467 -0.39708 1.30066 -0.09141 -0.88523 1.11810 0.91354 -0.28428 -4.79382 -3.28345 -0.89467 -2.02884 -1.28553 -4.58695 0.43995 -0.99003 -2.61113 -1.10180 1.43897 -2.31528 0.54665 -4.20072 0.85304 -3.57036 -0.35529 1.27670 -4.82646 -1.25402 1.25655 -0.08331 0.62154 -1.12143 0.85333 -1.76263 0.44413 -0.03974 -0.12968 -0.32288 -0.35540 0.09401 0.26509 0.88588 -0.20833 1.22729 0.22128 4.25141 1.54299 0.14381 0.17534 -0.03189 1.13297 1.82130 -1.04888 -4.63863 -1.99221 -4.74825 0.43486 -3.02618 -0.95771 -1.77915 0.71053 -3.16820 -3.40701 -0.96896 -0.93119 0.62633 -4.39846 0.56797 0.90827 -3.04884 -2.39342 -2.25631 0.37478 -2.69696 1.06329 0.02715 0.13569 0.69242 -2.82863 0.12026 -2.85495 0.87377 -2.55955 -3.84452 -0.02539 0.71911 -4.21448 0.30919 -3.89861 -0.38788 -3.93163 -5.36375 -0.00615 -1.07368 -0.01492 -0.77534 -0.93444 -0.14499 0.15680 1.74221 0.74128 4.82866 0.96179 -1.63416 0.38231 0.54165 1.24127 0.57817 -1.62763 -0.21560 -0.99773 -0.18836 -2.01227 -0.14739 -1.88917 0.38928 -0.62641 -3.96038 -4.18421 -0.88971 -0.66524 1.06953 1.34131 -3.28519 -2.31008 0.39108 -5.93148 -1.90016 -5.22416 -2.07789 0.21571 1.08759 0.08175 -3.34704 -0.26311 -3.99162 -2.38680 -1.00043 0.00650 -0.60506 0.56265 1.07352 -3.87945 -1.37079 -0.30179 -0.61373 -0.99442 -0.16547 -1.79448 0.62297 -0.40227 0.63342 -0.05048 1.29047 0.30822 -0.69787 0.06050 0.35181 -1.35875 -2.89562 0.53460 -3.61393 0.45383 -0.14336 0.79343 -1.71829 -0.49991 -2.81410 0.25672 0.84557 -1.39382 0.54152 -3.14619 0.84167 -3.53798 1.32923 -2.74362 -3.40819 -1.60752 1.44341 -0.86170 -1.77570 -1.94337 -1.26114 -4.18443 -2.82488 -4.86749 -4.81520 -0.96728 0.41922 -0.72539 -0.70461 -1.15660 -1.66320 -0.86434 -1.65265 -0.91905 -0.10027 -0.90051 0.65670 -0.36638 -0.06452 -1.21612 -0.86215 0.90630 0.58090 -4.34962 0.57279 -4.50762 -0.96652 -0.86769 -3.54854 0.45949 -2.50954 -5.94404 -5.61794 0.76796 -0.03227 -3.44951 -2.09190 -3.73429 -1.93373 -1.01601 -5.07227 -0.94769 -0.08147 -0.02822 0.62575 -0.51182 -0.69244 0.72023 0.05015 -1.03583 0.62841 -1.61609 -0.07816 -2.09713 0.46316 -2.98676 -2.76931 -3.80333 -0.46046 -2.00404 1.24806 0.02009 1.78022 0.61981 -1.37121 -3.98186 -0.70659 -1.89582 1.08788 -5.68102 -4.01059 -3.98111 -0.45889 0.60260 0.35894 -0.47541 -2.05942 -5.41597 -6.29561 -4.56321 -2.14622 -2.04921 -3.78647 -2.04471 -1.93826 -2.06715 -3.34721 -2.06555 -4.34378 -6.01252 -2.05991 -4.16335 -5.58641 -5.86920 -3.51192 -2.06722 -1.98932 -2.01350 -5.96054 -5.91657 -2.04845 -3.46960 -4.81609 -6.67273 -0.71405 -0.24611 -0.64910 -0.82010 -0.83336 0.15760 -0.74315 0.15485 -0.41749 -0.38212 0.12439 -0.63288 0.70941 1.88620 1.54826 1.58413 -2.05715 -3.33826 -3.36929 -1.28871 -4.24946 -3.47458 -7.80866 -2.85024 -0.18579 -4.59763 -2.30613 -3.27100 -0.75259 -2.36993 -2.02037 -1.74524 -5.40259 -2.08255 -2.91218 -2.09025 -6.10377 -2.03590 -1.39367 -4.86495 -2.44966 -6.54054 0.45657 -0.12393 -0.58535 -1.42625 -0.98561 -0.56445 -1.58479 -1.33461 -0.97852 -1.02693 -0.80895 -1.97660 -0.34542 0.19322 0.65551 1.06515 -3.27186 -5.01798 -2.00607 -4.42168 -0.67642 -2.04551 -1.95283 -1.23192 -3.72374 -1.97431 -3.59215 -3.84349 -2.02220 -1.78076 -1.15602 -1.21358 -4.55870 -6.07271 -1.73053 -3.85366 -3.54968 -5.62673 -2.02975 -2.16933 -5.64010 -5.16961 -0.71322 -3.91915 -1.98088 -6.81895 -5.39465 -5.28609 -6.35661 -2.02136 -2.05945 -0.75283 0.00267 -0.08954 -0.26114 -1.59228 -0.83190 -1.66911 -1.50703 -2.20616 -2.45569 -1.75333 -0.70341 -0.55972 -0.03121 -0.59869 1.50517 -1.35975 -1.12376 -1.40705 -2.01828 -2.02372 -2.07018 -2.01783 -3.13254 -0.81552 -5.67352 -0.69730 -2.06816 -5.49123 -0.74847 -4.23037 -2.94279 -1.56755 -0.61240 -2.03904 -2.05407 -2.51692 -2.44353 -5.35372 -1.45010 -0.20284 -3.95519 -6.44609 -1.67126 -3.65749 -2.09903 -3.39366 -4.77491 -1.03028 -4.73406 -1.06540 -1.96191 -7.52190 -0.31447 1.10450 0.31674 0.36567 0.26320 -1.61445 -0.70099 -2.26329 -2.50138 -2.73175 -1.49609 -0.54699 -0.44325 1.06894 1.69764 0.92813 -2.04324 -1.68948 -1.36104 -2.84369 -2.07511 -2.12016 -2.37478 -3.12582 -2.84488 -4.07942 -4.90415 -5.66108 -4.81573 -0.73542 -0.01820 -2.54630 -2.09795 -0.95117 -2.54338 -2.03377 -4.70558 -2.06186 -1.05377 -4.43660 -4.52233 -2.02703 -3.63624 -0.26843 -11.20215 -2.01481 -2.18606 -5.53786 -2.05202 -3.82176 -4.13424 -6.51422 -0.57313 -0.02022 0.18437 0.01002 -0.50324 -1.76263 -1.58093 -1.95865 -3.81591 -2.13586 -1.13378 -1.45365 0.66120 -0.21098 0.62052 1.30319 -3.53905 -2.18533 -1.95663 -2.77084 -0.96267 -3.31433 -3.92375 -3.14273 -3.59757 -3.33115 -1.23869 -6.76576 -0.63766 -1.38877 -4.33808 -1.94295 -3.49538 -3.80094 -0.59297 -1.41635 -1.44430 -2.05858 -0.43143 -5.56223 -0.27798 -2.12609 -2.06838 -4.91032 -1.98946 -2.60799 -3.96279 -2.01732 -6.32954 -4.06405 -0.64656 -1.15191 0.28876 0.18875 0.11515 -0.81529 -1.53646 -1.76331 -1.44645 -1.40335 -1.46210 -0.17151 -0.06633 0.51531 1.91651 1.21680 -2.07404 -3.63760 -1.07794 -2.08867 -3.60632 -3.66428 -2.86294 -2.02960 -1.35838 -5.79795 -2.40756 -1.79844 -2.57949 -0.63942 -0.33410 -3.47158 -4.41944 -2.01330 -1.39290 -1.99961 -4.68660 -2.00422 -2.02028 -2.03911 -2.04237 -0.13438 0.38596 -0.66958 -0.24851 -0.98187 -0.79109 -1.14191 -1.12720 -0.55342 -0.23836 -0.94695 0.57608 -0.53828 0.30239 0.56507 0.88087 -4.48413 -5.28810 -2.09104 -2.48572 -4.75395 -3.37197 -7.47692 -2.79127 -5.61082 -3.10934 -7.20219 -4.54886 -0.77222 -2.06009 -5.37923 -5.46103 -2.85091 -2.04003 -0.77278 -0.32962 -1.98432 -2.93363 -1.30508 -7.49072 0.42805 0.53223 -1.11602 -0.58024 -0.72955 -0.70352 -0.87589 -1.08429 -0.64412 -0.96031 -1.65948 0.08908 0.30650 0.82679 0.78916 1.79257 -1.41139 -4.35430 -2.06918 -4.38143 -6.98096 -4.04447 -2.74388 -4.59615 -2.79523 -6.30491 -2.06194 -1.97740 -3.33432 -2.70448 -3.26699 -4.45379 -3.88246 -2.08826 -4.06161 -6.36952 -2.41897 -4.22795 -2.05134 -2.38961 -2.05750 -1.88096 -5.99633 -2.28490 -5.60109 -3.04993 -0.85607 -4.91987 -4.20678 0.20936 -0.32868 -2.28733 -3.21389 -2.03568 -4.08489 -4.01034 -2.68558 -3.19815 0.09602 -2.36057 -1.89814 -2.68543 -2.71419 -5.07682 -4.13747 -1.93425 -4.68740 -2.10527 -3.50188 -0.98292 -4.60887 -3.52997 -6.07615 -5.81574 -6.10384 -4.87294 -3.37789 -2.03359 -7.70740 -4.83660 -2.69037 -5.91767 -2.24803 -2.66156 -4.23590 -2.53587 -0.97207 -4.47963 -4.11168 -0.63389 -0.65812 -2.38075 -2.45507 -1.99131 -2.92680 -1.40831 -1.23333 -1.18951 -4.99723 -1.35650 -2.02122 -4.42402 -4.07666 -1.12084 -2.80716 -5.20811 -4.58142 -4.17587 -3.28083 -4.40728 -1.70670 -1.34335 -1.70547 -2.70025 -1.90024 -5.99957 -1.95275 -4.21141 -2.46468 -1.74253 -4.35548 -2.33338 -1.49269 -5.80125 -4.60481 -2.11479 -4.04099 -3.29833 -5.73841 -1.65844 -4.55892 -2.80286 -4.70710 -2.23976 -3.41142 -1.00058 -5.20851 -5.14047 -1.90470 -2.00445 -2.26739 -5.02920 -0.84586 0.35008 -3.52101 -4.34275 -1.73689 -1.36544 -1.53030 -0.68612 -1.65681 -3.83645 -2.96659 -5.28721 -1.07982 -3.47071 -3.70486 -1.38998 -2.04324 -4.79100 -1.16690 -4.52760 -1.24732 -0.04868 -5.48672 -2.28487 -0.30425 -0.61960 -5.16595 -3.61136 -2.06463 -2.04376 -2.19002 -2.91370 -1.70090 -2.74713 -1.80487 -5.68816 -5.41580 -0.78149 -4.11208 -1.52050 -1.87990 -3.74746 1.36408 -4.83147 -0.96062 -6.13541 -1.93421 -2.25826 -3.91024 -3.07350 -4.46213 -2.01642 -2.81278 -5.76134 -4.22477 -1.16484 -5.41533 -3.71315 -4.61726 -2.25472 -5.68252 -2.06632 -6.07908 -4.60143 -4.07360 -2.28800 -0.49255 -3.34736 -3.54607 -2.78047 -5.37176 -1.33220 -2.27462 -0.13117 -0.82698 -4.85220 -3.35660 -4.29849 -2.38830 -0.37498 -1.94146 -0.15180 -1.19596 -4.73107 -0.54363 -2.29069 -0.93729 -4.09985 -0.98064 -1.11631 -0.84191 -0.48245 -1.73478 0.17317 -0.34559 -4.06156 -5.62855 -1.60492 -0.62099 0.15038 -0.88076 0.02491 -0.41268 -0.07220 -5.15494 0.20608 0.29104 -0.29525 -1.31917 -5.71172 0.03832 -1.29043 -4.88761 -3.40296 -0.34436 0.02475 -3.41029 -1.03585 -4.18940 -6.11459 -5.86921 0.06070 -1.32060 -4.17668 -6.49939 -5.92201 -1.06258 -4.52548 -3.44582 -0.69016 0.47651 -0.54615 -1.79516 -1.65315 -0.91776 0.04360 -2.22681 -0.56474 -1.99420 1.02364 -0.46851 0.59002 0.28529 0.27295 0.32156 0.15529 -2.21380 -0.35544 -5.15706 -0.23165 -2.30175 -1.26640 -0.29441 0.04224 -0.74070 -4.07598 0.50023 -2.17726 -0.91623 -5.17321 -0.38308 -0.72830 0.38465 -0.54580 -0.52808 0.16685 -5.58460 0.13243 -8.36795 -4.32594 -2.61734 -2.69302 -0.32346 -1.48981 0.68141 -3.75493 0.71362 -3.94661 -0.60593 0.72786 -2.55924 -0.66795 -0.95966 -3.42559 -6.28805 -3.99617 -3.98552 -2.45389 -0.14431 -1.76907 -0.29860 -1.82442 -0.81489 -5.70558 -3.52181 -3.49961 -2.72807 -0.92133 -4.21684 -3.93448 0.71654 -1.37031 -2.08506 -2.06044 -3.86382 -1.21671 -1.16497 -7.71049 -4.23183 -0.35479 1.03985 0.11165 -1.76518 -1.41628 -1.12880 -1.13989 -2.43310 -0.71251 -1.42665 -0.02834 -1.61987 -0.99072 -0.20980 0.61274 2.59377 0.28172 -4.83396 -3.49857 -1.64745 -1.86520 0.49030 -0.64268 -4.06865 -0.38958 -1.00786 0.03352 -1.69548 -4.18400 0.26129 -1.76096 0.14307 0.57016 0.14321 -0.46469 -0.95810 -2.25080 0.11949 -4.93135 -2.31101 0.74015 -0.23275 0.00905 -1.86057 -3.03737 -1.47508 -1.84510 -2.29884 -0.09157 -0.56384 -5.01432 -1.80581 0.06773 -1.25885 -3.23031 0.60616 0.02724 -5.62417 0.00597 -4.47262 -3.32110 -5.29927 -0.99826 0.85268 -2.05992 -3.96857 -0.99506 -0.34916 -2.37060 -1.02983 -5.83215 -4.18969 -2.00389 0.61259 0.20282 -0.04329 -0.03088 -1.29760 -1.39114 -2.15154 -0.50575 -2.03611 -0.30223 -1.38960 -0.88202 -0.58575 -0.14970 1.06293 -0.02600 -5.88825 -2.00700 -2.49714 -1.75518 -3.60300 0.26065 1.48069 -5.70393 -2.29861 -2.12380 -3.72089 -4.61183 0.60680 0.65719 -0.31296 -2.99529 -0.20337 -2.58521 0.17199 -4.78125 -0.62425 -1.60614 -0.46934 -0.16278 1.02256 -1.71430 -1.92878 0.60459 -1.52303 -0.22641 -4.38527 -1.50267 -0.46149 -0.01772 -0.84834 -0.51666 0.20949 -4.50058 -0.20357 -2.02723 0.67721 -0.18420 -5.34937 -0.57870 -2.66101 -1.14756 -4.99055 -0.26166 -5.75029 -2.05749 0.43980 0.93698 -1.32090 -5.22161 -1.29981 -5.85336 -1.02151 -4.00705 0.42459 -4.18004 -4.80217 -0.25372 0.59698 0.02458 0.92016 -0.21201 -1.05088 -1.38137 -1.37312 -0.93786 -3.82202 -0.77408 -1.79734 -0.72738 -0.22638 -0.12485 1.51247 -1.16005 -3.57379 -6.58412 -4.56739 -0.39066 0.66732 -5.23446 -3.37137 -4.74850 -1.25253 -3.17436 -0.67530 1.04084 -3.79119 -2.07901 -1.36779 -0.81599 -1.72698 -1.37438 -2.06637 -0.93659 0.07187 -0.34277 -2.68503 0.77415 -1.10038 -4.48031 -1.16063 -3.14176 -0.37266 -2.72409 0.08252 -5.41842 1.00174 0.09128 0.32883 -5.46331 -2.07588 -1.24433 -3.68260 -2.33768 -0.60629 -1.03859 0.55886 -3.83791 0.71419 -0.12628 0.23901 -4.73160 -0.15985 -3.83022 -2.40923 -3.74869 1.19280 0.79790 -0.31126 0.02960 -4.40870 -0.93835 -3.67132 -1.31464 -4.44098 -0.91550 -4.23086 -0.40037 -1.85638 -4.64995 -5.25306 0.25637 0.97430 0.54359 0.52039 0.12469 -1.22939 -1.78662 -0.93871 -1.64430 -4.34998 -1.64015 -2.60308 0.23498 -0.43957 0.19451 1.45285 -0.91185 -4.75634 -2.32226 -2.76561 -0.06796 -0.46193 -5.24869 0.11053 0.64161 -0.49622 -1.82467 -0.38148 -4.54979 0.04113 0.37848 -0.56769 -4.16927 -5.71094 -1.99821 -5.27303 -1.17688 0.38443 -4.80760 0.06532 0.17454 -1.05604 -0.56916 0.55516 -1.38780 -0.61415 -1.10145 -0.21767 0.09580 -2.47958 -0.13640 -2.77530 0.18978 0.12286 -1.10614 -2.39866 -2.10831 -2.07144 -2.77328 -6.26153 -4.52840 0.66427 0.77578 0.39069 -2.19998 -1.34826 -1.19054 -1.97186 -1.24769 -4.30605 -5.10190 -4.57505 -4.88764 -1.91825 0.47942 -3.68188 -1.29846 -3.14665 -0.41336 1.01501 0.00834 -0.07063 -0.67533 -1.49087 -2.81106 -1.24532 -1.38596 -0.71702 -2.72727 -0.23753 -0.36181 -0.29171 1.69886 0.73077 -3.38351 -3.79813 -3.60882 -0.68412 -0.73941 -3.84310 -4.59320 -1.08612 -6.05829 -1.75439 -2.09891 -3.84171 -1.99839 -2.93781 0.17362 -1.58599 -0.77851 -0.97816 -5.29510 -4.34371 -0.92492 -0.16521 -0.16747 -0.41107 -1.53326 0.59520 -1.20961 -2.05116 -5.00429 -3.80397 -1.79696 -0.56601 -4.76959 0.87061 -0.43269 -0.91226 0.15425 -0.61954 -0.29782 -0.32646 -5.11676 -0.43742 -6.18196 0.57908 0.05763 -0.07908 -0.14355 1.21501 -4.59681 -1.83382 -3.58207 -5.39212 -2.40308 -2.41457 -1.57332 0.69804 -3.70155 -2.11033 -0.88616 -0.86404 0.46289 -0.14832 0.00808 -0.83188 -1.66339 -1.45877 -1.48762 -1.45528 -1.44155 -1.56053 -1.91689 -1.32049 -0.91642 -1.78548 0.19146 -0.52224 -0.20426 -6.21931 -2.13732 -3.17454 -3.54832 -4.88385 -6.89296 -2.06972 -3.93850 -4.08117 -1.30857 -0.90343 -5.28916 -5.68474 0.47506 -1.15040 -4.25541 -4.58986 -5.05660 -3.84944 -5.75702 1.01178 -0.44353 -0.04497 -0.63097 -1.30734 -5.43208 -0.26998 -0.20167 0.38277 -0.88199 1.09179 -3.39860 -5.03323 -3.32423 -0.86457 -4.06830 -1.58900 -3.98002 0.07826 0.92693 0.19452 -3.77313 -0.42000 -2.11761 1.15669 -2.54500 -1.54280 -2.01377 -1.54712 -4.59114 -1.80332 -1.00615 -0.15293 -0.11965 -3.92976 -5.61481 -1.68222 -1.76101 0.36264 -0.82726 0.96753 -0.29652 -1.46743 -1.90882 -0.64847 -1.33049 -1.49796 -1.52917 -1.40823 0.41843 -1.28124 -0.82945 -0.04212 0.72735 -0.33921 -1.36709 -0.45302 -6.15628 -3.73228 -0.36808 -5.58917 -2.53604 -0.53826 -5.25687 -4.70367 -4.23432 -4.91526 -0.70036 -3.42253 -2.51152 -4.51471 -5.30243 -5.35334 -4.55276 -1.83769 -1.06780 -1.61935 -1.56820 -1.65172 -0.77836 -2.00207 -3.80900 -6.07837 -0.69689 -1.51532 -3.81238 0.26612 -0.92400 -0.20260 -1.88354 -3.78667 -1.59161 -2.56815 -1.34398 -4.55793 -0.80455 -4.68192 -5.34307 0.15047 -0.55454 -0.32723 -3.26007 -6.48480 -0.58615 -1.03415 -1.90619 -1.64782 -0.21549 -1.01539 -1.05710 -0.18835 0.72387 -1.56567 -0.25206 -4.69736 -1.77769 -4.59104 -2.24585 -0.40019 -3.43623 0.61673 -0.06032 -5.41745 -0.58078 -0.50101 0.41735 -2.34010 -0.43839 -0.19504 -0.27934 0.14077 -0.64298 -0.00097 -1.35273 0.38529 -1.20913 0.49095 0.38664 0.64653 -0.03278 -0.46385 -0.00184 0.87023 -0.43483 0.14690 -0.19283 0.28621 -1.86838 -0.53443 -0.03512 0.30876 -0.90953 -0.48903 -0.06890 -0.01562 -0.56809 0.15950 0.04869 -0.08306 0.29622 0.63081 -2.06880 0.43130 -0.48117 -2.38703 -6.58857 -0.01224 -0.60437 -1.06985 -0.41631 -0.31395 1.35012 -1.03727 -0.44944 -1.59932 -4.05799 0.34887 1.17154 1.12147 0.95031 -0.64000 1.17077 -1.18009 1.02967 -0.77305 0.63490 -0.93416 -2.99155 -1.87533 -2.00462 -0.94780 -0.39671 -0.15611 0.51425 0.23249 -0.16712 0.42776 0.12412 0.43066 -0.47310 0.42839 0.83792 -0.05780 0.85019 0.67151 -2.03926 0.44733 -0.35349 1.06978 0.36187 1.57040 -0.53479 1.53029 -1.31945 0.92976 1.05967 0.36973 0.51575 -0.98094 0.81097 -0.02365 1.40559 -0.41910 0.77892 -0.93402 -2.28541 -2.68495 -4.50024 -1.98330 -0.29656 -0.52347 -0.51517 -0.69351 0.64233 0.27052 -0.09523 0.35157 0.34153 2.03926 1.22925 -1.01870 -2.00558 -0.47585 0.73004 0.26359 0.46674 -1.37017 0.17238 -0.18124 0.71471 -0.90587 -0.06162 -1.57098 -5.34638 0.18451 -0.08917 0.60541 0.42261 -0.83320 1.02516 -0.59796 -0.32184 -0.58549 1.03461 -0.22657 -3.31410 -3.88202 0.39289 -0.35764 -1.28288 -7.44493 -0.03783 0.19877 -0.59971 0.01767 0.42260 -0.22559 0.69599 0.38228 -3.05709 0.26658 1.02706 0.11553 0.53964 1.21140 -1.38470 0.59235 -1.27002 0.20568 -0.32501 1.29088 -0.89232 -3.19321 1.00122 0.62254 0.01384 -0.39297 -1.80345 -0.06189 -0.96152 1.03549 -0.74721 1.93026 -1.28886 -5.06065 -5.70469 -1.32867 -0.26912 0.24540 -1.11896 -0.02879 0.63855 0.00621 -0.18018 0.21590 -0.15801 1.09667 0.16432 1.69988 1.07935 -1.35516 0.70161 -3.56392 -0.01661 1.49752 -0.46679 1.47583 -0.83343 0.83428 -0.20387 1.48728 -1.52918 0.35806 -0.30722 -1.25974 0.17581 0.66751 0.61683 0.68362 -0.19580 0.74059 -0.52163 0.94331 -0.85974 -0.70304 -1.81888 -0.14724 0.01419 -0.84887 -0.28354 0.50976 -1.32954 0.21901 0.13569 -0.43263 1.05837 -0.40698 0.55887 -0.50132 -4.21639 1.01393 0.68376 0.66150 -0.84584 0.52434 0.17043 1.38751 -0.63040 0.94203 -0.70643 -1.09990 -0.07263 0.33976 0.68334 1.33580 0.72166 1.30125 -1.11143 1.17128 -1.24989 0.75655 -0.66937 -2.55143 0.47067 0.58356 -1.33540 -0.31186 0.08578 0.79445 0.88274 -0.01796 0.35838 0.35589 -0.39457 -1.77154 -0.07438 -0.07965 -0.52960 -2.69257 0.38451 0.58816 0.06337 0.41383 -0.74660 0.20454 -0.45387 0.52440 -0.45952 -2.98714