[-0.04117548  0.1933962  -0.2008159   0.11833832 -0.00027313  0.1896082
  0.00412984  0.02158078 -0.06664397  0.18017269  0.01607411 -0.23608283
 -0.14557179 -0.21293787 -0.11959126 -0.14793796 -0.09562346  0.08121821
 -0.02885608]
 [ 0.00475719  0.15817143  0.20733217  0.03211245  0.15887229 -0.11907518
  0.11536038  0.20416569 -0.19525688  0.00244142 -0.09281532  0.01040801
  0.02598921 -0.14035214  0.22204858 -0.12060396  0.08664416  0.13561391
  0.25689519]
  [ 0.28473401  0.09332471 -0.05617967  0.07941663  0.05098801 -0.10036211
 -0.2286851   0.15981529 -0.11407186 -0.22720957  0.05582399  0.12539545
  0.19358941 -0.21194232  0.00765005 -0.0113196  -0.02173811 -0.01393788
 -0.052384  ]
 [-0.19978747 -0.20078482  0.15201236 -0.18136294  0.15105377 -0.03222827
  0.19582363  0.17273525 -0.07121987 -0.09355091 -0.22652262 -0.10481104
 -0.15176323 -0.04166525  0.0214245   0.13425051 -0.19112413  0.12923938
  0.1457339 ][ 1.16503882e-55  7.38806935e-54  2.60925354e-56  5.60179745e-36
  2.64721521e-76  3.88830701e-36 -2.54321872e-52  2.56566261e-36
  3.54343751e-49  1.48755614e-57 -2.67780000e-35  4.97991069e-72
  3.96606305e-42  3.60659673e-58 -2.19760425e-71  5.93790712e-72
  8.23096956e-46  2.99913654e-35  1.51694461e-51][-0.13032746 -0.17682937 -0.03771298 -0.02605449 -0.01452143  0.12744141
  0.11671068 -0.00968242  0.15677541 -0.16938582 -0.0594005  -0.04203881
  0.10020963  0.13773199  0.11673185 -0.16345457  0.02899029 -0.01345241
  0.06808714][-0.26520786 -0.10187259 -0.19225841 -0.06867359  0.15447157 -0.16726047
  0.03454128  0.06957492 -0.05739559  0.05174742 -0.18685417 -0.22115497
  0.08829668 -0.15150436 -0.16455599  0.19240231 -0.18543672  0.0655463
 -0.16147855][-1.42706249e-47  4.59365616e-59 -4.57306329e-59  5.79108647e-08
 -9.39442637e-02 -1.48284932e-10 -4.04686999e-02  4.20358212e-02
  3.47934267e-44 -3.10801960e-47  1.71462687e-74  4.32682772e-23
 -4.39196131e-03 -1.10735318e-42 -2.88984588e-54  4.86577513e-02
 -1.00695554e-21 -7.10531100e-02 -3.56125537e-67][ 3.08061397e-70  4.98230637e-39 -1.12444214e-55  5.09612295e-74
 -7.41644071e-53 -1.08110611e-70  2.71870437e-59 -1.88912248e-45
 -1.60238985e-49  5.83060860e-64  6.08449943e-73  9.25345691e-43
 -9.85987782e-64  7.79026972e-49 -3.71237779e-76 -2.61457324e-43
 -1.91026604e-43 -3.26344858e-45  1.36734897e-76][ 2.81122720e-02 -2.26347755e-01 -1.19020810e-09  1.96352808e-01
 -1.17569311e-01 -3.61228623e-02  4.62409950e-02  7.37519091e-02
 -1.84099581e-01 -7.86614736e-02  1.25020506e-01 -6.86010516e-02
  7.78822075e-02  1.13976344e-01 -4.39044289e-02 -1.61501045e-01
  1.51610351e-01  1.48311613e-01 -5.21855008e-02][-0.07073285 -0.02225305 -0.21014087  0.0331828   0.04194444 -0.17371699
  0.18433982 -0.14646392 -0.036515    0.1015453   0.02345298  0.1450152
 -0.10454909  0.17295524  0.3128443  -0.26154926  0.00285504  0.13520364
 -0.23334261][ 0.07094435 -0.06792752 -0.07242608 -0.0753746  -0.0633436   0.03985284
  0.17769305  0.06382261 -0.1022665   0.08601222 -0.21482816 -0.09005486
 -0.16622364  0.05324419  0.0774869  -0.09223013 -0.11583935 -0.17237566
 -0.10827274][-0.12355782  0.20400043 -0.10161956 -0.25253112 -0.01691449  0.01560878
 -0.28854594 -0.06737898  0.2156509   0.1425968  -0.10607435 -0.24123753
 -0.14732436 -0.16968885  0.16330329 -0.09713231  0.0521104  -0.06504597
 -0.02390537][ 9.16406655e-02 -1.23225819e-04 -3.81870932e-74  1.05989880e-02
 -1.28200045e-05  1.01171273e-01  1.77956592e-01 -9.29706195e-02
 -1.45209890e-01  9.59600413e-77  3.00286701e-06  2.56891922e-13
 -4.13570021e-02 -2.28473290e-25  7.75740515e-02  3.22239893e-05
 -2.95351495e-04 -1.93867075e-01  6.60549412e-02][-0.05279889  0.04516328 -0.13838627  0.21429146 -0.15618307  0.25087475
 -0.24249882  0.04812916  0.11233779  0.15535726  0.12820372 -0.21837738
 -0.09421859 -0.1948906   0.13494195  0.0571815   0.10823527 -0.15636291
 -0.29779078][ 0.25413979  0.05439685  0.1453974   0.00824345 -0.24659016  0.09771564
  0.26959853  0.06108516 -0.14418786  0.09831365 -0.35284334  0.10738523
 -0.36649599 -0.08745099  0.03145961  0.15981412  0.03446433 -0.30592213
 -0.2717519 ][ 0.08630152 -0.06268022  0.02961064 -0.02501913  0.17913671  0.1226188
  0.05742148 -0.17855786 -0.17174175  0.20504806  0.10342863 -0.13431976
 -0.16527713 -0.16413433  0.16932914  0.17962023  0.10616053  0.12282827
 -0.18555817][ 0.24141837 -0.02241316  0.00050248 -0.05280121  0.11629085 -0.30101396
 -0.18023581 -0.2162489  -0.01721931 -0.26548645 -0.13775472 -0.06968826
  0.20946303  0.07893845 -0.21552222 -0.25933149 -0.04251638 -0.14598394
  0.19015001][-0.1344919  -0.03390352  0.1037529   0.16971595 -0.20170796  0.17223403
 -0.08390731 -0.18289714 -0.06764935  0.17786563 -0.20155557 -0.14893883
  0.05753863 -0.00728524  0.02968489  0.14734044 -0.19893819 -0.04733781
 -0.07733529][-0.2634045  -0.01599446 -0.12657907  0.20939011 -0.18193002  0.25144725
  0.02619541  0.21166271 -0.17640608 -0.01504848 -0.06879792 -0.11713447
 -0.07477575 -0.29674105  0.00613872  0.15862727 -0.16728471  0.13453194
  0.03841779][-0.45194865 -0.51631574  0.41280765 -0.50744557 -0.568715    0.39282541
  0.54068776  0.23153143  0.28488155  0.47628624  0.2033067  -0.01687378
  0.45324651 -0.52573981 -0.56667885  0.21218137 -0.42001431 -0.52784965
  0.25376849][ 0.12646997 -0.24450007 -0.13457341 -0.06434339 -0.00517236  0.05541589
  0.12286275  0.07093045  0.17561617  0.04527367  0.07262872  0.16762482
 -0.21724973 -0.18138341 -0.13799191  0.01427679  0.15067743 -0.14803874
  0.06101899][ 0.02526324  0.16518223  0.02487158  0.12543008  0.06741336 -0.17420836
  0.17084233  0.28800459 -0.22700251  0.0437891   0.09257733  0.04234919
 -0.15904311  0.11782221  0.02615556 -0.22965314 -0.00037348 -0.23136069
 -0.34797008][-0.13359456 -0.17863485 -0.15173748 -0.01782275  0.27391574  0.08255544
 -0.23017389  0.11483866 -0.06323352 -0.26441899 -0.03827174 -0.03509443
 -0.04496011  0.12630139 -0.21901215 -0.05037602 -0.000395    0.13007156
 -0.16551941][ 0.21438514 -0.09650107  0.2499959  -0.16841355 -0.12952852  0.06812169
  0.04508068 -0.01288204 -0.05968698  0.00304824 -0.15577596  0.06584702
  0.17036084  0.10962195 -0.24117293  0.10509853  0.04843695 -0.20048436
 -0.09228505][ 0.11668223 -0.11360212  0.01217583 -0.02127693 -0.17886933 -0.11247657
  0.14263156 -0.13286723  0.07400187  0.16372611  0.01765549 -0.11970544
 -0.24072117 -0.05722472 -0.17548218 -0.18764211  0.00765147 -0.18016802
 -0.14544498][ 0.09565833  0.18351245 -0.05764519 -0.12673771  0.14978268  0.03013726
 -0.18676975 -0.00282249 -0.32265632 -0.01172524  0.1208635  -0.31522085
 -0.10222524 -0.06452697 -0.12862196 -0.11310594 -0.19946393  0.18586299
  0.12288243][ 5.67342461e-77 -7.33241415e-62 -3.67631290e-43 -1.36388544e-57
 -3.39295135e-62 -1.96171696e-77 -6.86893535e-43  9.52126778e-52
 -2.27626376e-76 -9.94538013e-74 -2.86952569e-47 -9.06813330e-69
  1.09676870e-67 -1.65397129e-64  8.89519836e-57  3.63814014e-35
 -9.66863099e-59  2.02959951e-64  1.60053084e-65][ 0.047075   -0.06393913  0.07601361  0.14781111  0.28026227 -0.29413136
  0.09607243 -0.33119018 -0.28743855  0.05964575 -0.19238379  0.126408
  0.03940471  0.03375923 -0.17805195 -0.05518089 -0.07057242  0.05530999
  0.09308357][-0.15894144  0.01336917  0.27308255  0.02653859  0.08920582  0.09165551
  0.05752345 -0.16429333  0.11841103 -0.1250637   0.09589604 -0.24915313
 -0.17571254 -0.02874935  0.21736279 -0.06180704 -0.12797547 -0.18089004
  0.09865164][-1.96313688e-60  5.64426036e-43  5.97874889e-73 -3.73355973e-44
  6.45061373e-38 -4.07962547e-46  2.88154341e-67 -1.16434414e-42
 -4.70499366e-46 -8.55764942e-75 -6.76080150e-65  1.71705670e-58
  2.01558718e-72 -1.87781908e-49 -2.51177420e-61  1.75935128e-74
 -1.77941561e-58  5.35667210e-44 -7.50137149e-72][ 0.01367136  0.0908241   0.08560152  0.15118696  0.14487369  0.17114111
  0.10339355 -0.02541094  0.29940909  0.06298367 -0.24516053 -0.35237812
  0.15193798  0.07836507  0.02239755 -0.25265985 -0.09622384 -0.03159392
  0.05642708][-3.28337555e-01  6.22565905e-02  8.62060398e-03 -2.58561563e-02
 -1.13205270e-01  1.91359499e-01  6.92855719e-05 -1.30829578e-01
 -1.78244561e-01  1.20372228e-01 -1.26670516e-01 -8.44508747e-02
  4.84850402e-02 -2.01340076e-01  1.47900998e-01 -2.40143161e-01
 -1.75730925e-01 -2.11501005e-01 -1.41910434e-01][ 0.13189055  0.18230499  0.08600625 -0.1190095   0.13255852 -0.31605373
  0.22214583 -0.20994513 -0.2258898  -0.13956046 -0.12407495 -0.13206909
 -0.37604159 -0.19362462  0.06423713  0.10117492 -0.14240056 -0.14883559
 -0.2764482 ][-0.02196019 -0.01348166 -0.18263828 -0.08444827  0.04372011 -0.2556209
 -0.03903038 -0.09637912 -0.12454925 -0.10231314 -0.13914632  0.19682543
 -0.17946877  0.05451645 -0.16088334 -0.11677328  0.10638272 -0.01426327
 -0.12913014][-0.82264993  0.66849007  0.27582418  0.46235774 -0.52921504 -0.40816661
 -0.44374908 -0.89909567 -0.84421317  0.106108   -0.1320752   0.13632137
 -0.55009118 -0.55007643 -0.16664309 -0.02140009 -0.71600561  0.3083809
  0.48441085][-0.05301498  0.05794453  0.21184084 -0.02701869 -0.1114519   0.11324592
 -0.14779409 -0.31373886 -0.02039903 -0.27858761 -0.00153426 -0.15420586
  0.24578695 -0.05684228 -0.14677596  0.25371965  0.10840445 -0.08917055
  0.09487187][-1.30087435 -0.48344787 -0.98331174 -1.21254455 -0.13418599 -1.34673331
 -0.66981335 -0.40954807  0.27245964 -0.01580467  0.32153376 -0.60144832
 -0.45044698 -0.06418627 -0.17567143  0.21175201  0.5458438   0.08969999
 -0.61914325][-0.00429111  0.03891333 -0.10746109  0.09037518  0.00707041  0.21276041
 -0.12396891 -0.03487886 -0.14629922 -0.26261497 -0.03260225 -0.04031369
 -0.11113882  0.05227787 -0.24350127  0.01426751  0.17133783  0.24765621
 -0.22686509][-0.21700912 -0.21377327 -0.05957191  0.19184594  0.00984915 -0.08244003
 -0.05383686  0.17437763  0.05623531 -0.13185183  0.01584884 -0.16433424
  0.0579089  -0.17157898 -0.15043164  0.06840637 -0.02427284  0.20161397
  0.05776253][-2.74038172e-56 -6.24959107e-47 -2.31244118e-54 -3.03575321e-54
  1.58735736e-64  3.57885937e-35  1.61399099e-53 -1.46050318e-54
 -1.89819414e-35  2.30522892e-39 -8.19860853e-73  3.58789161e-49
 -1.24351648e-61  3.44440893e-71  2.12428000e-72 -1.59069341e-62
 -8.77367196e-47 -8.86970788e-75 -2.10557001e-52][ 0.08631956 -0.01535724 -0.14032745  0.15153821  0.06737089 -0.2999173
  0.17719739 -0.14647367 -0.07188797  0.13305459 -0.21856177 -0.14741688
  0.1616078   0.08122484 -0.29925303  0.24124502  0.19439543  0.05919969
 -0.51183117][ 0.68627241 -0.40607125 -0.30210178  0.11141665  0.48231517  0.48435195
  0.14657045  0.47131854 -0.43168505 -0.27996369 -0.61533649  0.15659605
 -0.05944858  0.2602952   0.29166847 -0.57424912 -0.48913875 -0.66225529
 -0.58951597][ 0.10333524  0.13071086 -0.02961322 -0.15201351  0.02995514 -0.17753506
  0.11286941 -0.01818075  0.19916752 -0.14453935  0.09118994  0.14328427
  0.10192572 -0.01818483  0.04550404  0.02506435 -0.19849168  0.20264231
 -0.07006742][ 4.28114109e-67  4.40499800e-46  3.58553367e-50  3.18363969e-76
  4.32549571e-62 -8.29936202e-77 -2.23208509e-43  7.44896263e-72
  4.16872525e-59 -7.99938418e-72 -1.09455273e-50 -6.27022750e-38
  5.13002531e-74  3.11290807e-62  7.19245409e-41 -2.26923064e-66
  4.09329502e-76  3.86002208e-54 -2.70423493e-41][ 0.13050602 -0.19671594 -0.04597826  0.08893756 -0.23196714  0.09296026
  0.19561854 -0.12155673 -0.13114208 -0.17997059 -0.1878993  -0.05039519
  0.15246881  0.02406652 -0.01203724 -0.1586172   0.2211427   0.10564584
 -0.02489477][ 0.21703635  0.024721   -0.0954597  -0.0216574  -0.09729863 -0.07073045
  0.05995807  0.07477877 -0.09351922  0.01979184  0.16934543 -0.15149484
  0.09838457  0.17910073  0.09930075 -0.12221676 -0.0762921   0.0683057
  0.10197623][ 1.93167569e-01 -8.64029649e-02 -3.52234265e-14 -3.24090078e-02
  2.86558013e-02  2.15425375e-03  1.91072793e-01  7.52385213e-02
 -1.89570639e-02  8.25819818e-03 -1.34877664e-01 -1.36848582e-01
 -4.36473657e-02 -9.01977433e-02 -7.48702028e-02 -1.47752156e-01
 -4.94569442e-02 -1.03532462e-01 -1.32628730e-02][ 0.08001286 -0.16204129  0.0662419  -0.1329941  -0.20334302  0.04960656
 -0.18193508 -0.00168291  0.00321613  0.11260205  0.11589631  0.00962672
  0.14802134  0.11340661 -0.0793672   0.05679456  0.07326063  0.05267591
 -0.05156105][-3.18489319e-39 -4.71617719e-69  2.83899761e-37  1.66938837e-57
  2.92095738e-32 -1.07940129e-74  1.55109338e-52  8.07132523e-25
 -2.01033380e-16  1.04152881e-62  1.43855204e-59  5.06600592e-46
  4.48321868e-72 -7.64250266e-63  6.91639315e-74  3.70517630e-35
  6.49400876e-69 -1.06991642e-64 -1.22326945e-53][ 1.76668324e-56 -1.53504653e-54  5.05549404e-68 -6.11329080e-40
 -6.34029144e-54  2.70382026e-47 -5.11618544e-36  6.25251199e-39
 -1.36834676e-76 -1.39368064e-62  1.18871331e-62 -8.11310051e-60
 -5.09544919e-47 -1.68816923e-53  3.22149185e-70  7.51255933e-54
  1.30090950e-55 -8.10583474e-77  1.29294835e-55][ 0.04820002 -0.11335358  0.03071289  0.21836669 -0.10588161 -0.1114226
 -0.05119028  0.14740219  0.14553505  0.14413724 -0.04084497 -0.10072294
  0.03668055  0.04209192 -0.06365463 -0.14545222  0.07279583 -0.07641289
  0.01390918][-3.36797381e-02  4.65568318e-05 -7.97154586e-43 -2.98660722e-02
  5.62165434e-02 -1.28653062e-01  1.60041978e-01 -1.18512227e-01
 -1.12874199e-02  5.58457061e-69 -4.04065477e-07  8.99541278e-07
  1.35294002e-01 -1.04246262e-01 -4.77730059e-03 -8.68107202e-04
  1.21253364e-01 -8.44089658e-03 -5.46894966e-06][-3.50321461e-62 -1.82937112e-60  1.36814274e-74  3.34177562e-62
  3.66885091e-44  8.31058462e-38  2.99558388e-49 -1.70212852e-53
  2.32340018e-74 -9.60356298e-64 -5.60615887e-66 -1.22533382e-46
 -7.72789351e-46  2.34459271e-52  6.34453216e-75 -2.71251686e-35
 -1.60235090e-39  1.96237290e-42  7.63488442e-72][ 0.12978373 -0.03428424 -0.41114929  0.07938722 -0.09681246 -0.17485415
 -0.19270059  0.19346454 -0.24832863  0.05651187  0.00736344 -0.15777837
 -0.12252539  0.13312055 -0.12371346  0.15423104 -0.16561651  0.21956005
  0.02329965][-0.03436286 -0.28688271 -0.16727583 -0.0767836  -0.26253     0.06692499
  0.04344538  0.06415759 -0.04337351 -0.20375467 -0.25129639 -0.02274171
 -0.10669059 -0.07731337 -0.25955633 -0.1113238   0.01067289  0.26069654
  0.0794675 ][ 0.08940826 -0.12982443 -0.12608964 -0.0418107   0.09409134  0.19466231
  0.11285364 -0.13048869 -0.08941725  0.22989112  0.11040791 -0.13760094
  0.11540049  0.12565256 -0.06542319 -0.23439565  0.11412191 -0.22151511
 -0.0544909 ][-1.28423766e-01  5.71013232e-04 -2.60719839e-35 -1.30781380e-01
  1.25589758e-01 -1.06517587e-02 -4.67773537e-02 -1.37548250e-01
 -7.28462200e-02 -3.15905690e-02 -1.15646363e-04  1.22661317e-02
  1.56026666e-01 -1.41450579e-01 -1.47033169e-02  4.39951117e-02
 -1.65385672e-01 -5.83206879e-03 -3.45306743e-05][-0.27577725  0.14804332 -0.19872946 -0.04197482  0.06897005  0.20374439
 -0.11514462  0.17519709 -0.01130395  0.10983477  0.23929249 -0.00936357
 -0.15373151  0.01933417 -0.28068784  0.08588011  0.10292442  0.00716419
 -0.09466357][-0.25915757 -0.18724125 -0.23055291 -0.03283934 -0.13556448  0.1418999
  0.07575766 -0.04734877  0.01825862 -0.04252101 -0.20083089  0.05052792
  0.18426005 -0.06393247  0.15417747  0.1200209   0.0674268  -0.04491584
 -0.28083464][ 0.02008942  0.06102827 -0.11406372 -0.35689123 -0.00480821 -0.16555328
  0.08500492 -0.16932825 -0.04547686  0.15132195 -0.2945133   0.01847099
 -0.15012897 -0.27211853  0.04388083  0.01173173  0.30137777 -0.09525345
 -0.25572266][ 0.02440941  0.12716781 -0.08903858 -0.1346873  -0.27733108  0.09578141
  0.01972523 -0.05415092  0.05988898 -0.29328587  0.12397955 -0.12671589
 -0.1663982   0.1599746   0.04095966  0.10223703 -0.18010032 -0.15144221
  0.02667306][ 0.18397527 -0.29194805  0.01290192 -0.20631495  0.20910884 -0.02761531
  0.09610065  0.14211516  0.07032425  0.09628336 -0.04314512 -0.15118698
  0.0611807   0.28771979 -0.14326927  0.09563508  0.12691485  0.0134467
 -0.19375452][-3.22043350e-49 -1.44869530e-72  7.59907669e-55 -1.38725906e-71
  3.01386504e-58 -1.57503063e-50  6.15758572e-60 -1.58640497e-44
 -5.21512383e-55  2.62833784e-47  6.19788514e-43 -7.15645232e-43
  1.57363226e-35 -2.05927940e-62  2.60560788e-46 -1.59680907e-58
 -8.88773261e-78 -2.44698582e-73 -6.88691301e-36][-0.25008492  0.00487743  0.04911831 -0.20493589 -0.35117849 -0.15757976
 -0.2038519  -0.11344433 -0.10256042 -0.1866417  -0.02846543  0.2869407
  0.15873885  0.12477435  0.046469   -0.13498302 -0.00086226  0.13770359
 -0.18581887][-0.21399707 -0.15670211  0.01597592 -0.19349615  0.12388253  0.00775625
 -0.13850455 -0.31674745 -0.09264857 -0.02195429 -0.1913896  -0.13640924
  0.17390777  0.07268714 -0.17256211 -0.12807833  0.14458131  0.1943134
 -0.14273393][-0.20124892  0.14648556  0.0205383   0.02455544 -0.0292363   0.06014551
  0.08896341 -0.09367253  0.13717281 -0.17432743  0.02971744 -0.04979937
  0.03829025 -0.12153569 -0.06823503  0.0915206  -0.12445838 -0.00445004
  0.14832527][ 0.12077355 -0.22369054  0.07372665  0.02168198 -0.0211471   0.21517254
  0.02012176  0.20569853  0.18862173  0.26799675 -0.08606166 -0.07654446
 -0.24160253 -0.0582479  -0.18428514  0.05508123 -0.27059354  0.08980805
 -0.09158493][ 0.16267741  0.07483548  0.10240345 -0.22033114  0.02124335  0.11992316
 -0.10517077  0.00641138 -0.08509128  0.02240261 -0.08416279  0.0055232
  0.2086158  -0.11175907  0.00742057  0.1075726  -0.15564707  0.17094789
 -0.01110895][-5.95707022e-65 -2.53187374e-73  9.53879758e-58  1.12398607e-53
  1.08652123e-45 -1.02459855e-49  2.58513494e-67 -1.19858375e-47
  1.87097989e-70 -3.22846621e-35 -1.22547810e-52  1.17533337e-58
  1.62964832e-69  1.07141019e-70  1.38665232e-62 -3.57977383e-62
  8.03743631e-67  4.68355699e-40 -3.23087037e-70][ 0.02558304 -0.04073222  0.13984691 -0.1770768  -0.17899241 -0.14191106
  0.06101115 -0.11460143 -0.05651948  0.25092094  0.19148556  0.02574132
  0.17226243 -0.14371593  0.17422319 -0.24386988  0.1069249  -0.18856211
 -0.13856975][-0.20617299 -0.0007433   0.18603351 -0.21223253  0.00283114  0.14295278
  0.19055568  0.22636219 -0.03155069 -0.0073289  -0.01661571 -0.15199122
  0.090476   -0.15996934  0.04766044  0.11423697 -0.07929827 -0.01451976
 -0.08523553][-2.90229101e-39  1.19640864e-58 -2.68837204e-52 -6.77840141e-75
  9.11867093e-58  1.00609777e-38 -3.70109913e-51 -1.44960141e-72
  5.07315803e-69  3.98347827e-55 -2.85527656e-70 -4.93777739e-74
 -6.96304679e-65 -9.81153642e-52 -6.54330082e-48 -2.44631236e-56
  9.67446659e-45 -6.49811088e-69  5.18538262e-66][-0.13716996 -0.12564761  0.07348022 -0.13589375  0.21029719  0.15792928
 -0.2029193  -0.14191525  0.01122998 -0.06683019 -0.05984373  0.22603998
 -0.07825626  0.12726938 -0.05660204  0.07702003 -0.1386136   0.06852529
  0.08145509][ 2.63649486e-39  6.32030955e-73  5.11402149e-39  3.14115448e-04
  4.02709202e-64 -6.40820446e-56  1.86573526e-01  9.37376602e-23
 -6.62530044e-52  1.70148294e-35  4.17939691e-39  2.92592635e-67
 -1.64164003e-07  4.63718308e-53  5.41724448e-29 -1.01414374e-02
 -2.38680677e-02  9.49461956e-30  1.63805982e-35][ 0.02108721 -0.02345577  0.07192925 -0.20491731 -0.12766742  0.03250109
  0.1982285   0.05574921  0.08096416 -0.01670218  0.24710966  0.27432218
 -0.2399105  -0.04101189 -0.27709934  0.06277269 -0.06751807 -0.20733101
  0.10309251][-1.47179303e-03  1.13549669e-01 -2.78415635e-13 -2.00323236e-01
  1.05332627e-01  1.61878764e-01 -2.09081645e-01  2.64015358e-02
  7.73681812e-03 -3.20422845e-03 -5.74872404e-02 -2.88362518e-02
 -2.06321172e-01 -5.02803192e-03  9.55284373e-02  1.60289573e-01
 -2.22437365e-01  8.74828976e-02 -1.68392847e-02][ 0.00933333 -0.1085902   0.0162765  -0.35554562 -0.1037884   0.41781229
  0.02310648 -0.40164808  0.28024921 -0.2796765  -0.20766446  0.10288478
  0.09189554  0.11877929 -0.45131553 -0.13490417  0.25891716  0.14480434
  0.39422955][-0.18970804 -0.12161047  0.08876898  0.04702634  0.06363173 -0.02254191
  0.15218437  0.17909078  0.19271255 -0.22211462 -0.11185272  0.13780864
 -0.00964882 -0.1803617  -0.08161634  0.05155946  0.11835169  0.12393143
 -0.15959946][ 0.02906469  0.08731357  0.01495682  0.02460664 -0.05616528 -0.23705303
  0.10991388 -0.20367618 -0.2011561  -0.06525258  0.05176338 -0.19465673
 -0.14562116  0.13079081 -0.31069856  0.10571534 -0.03167927  0.00983493
  0.00926791][ 0.00695392 -0.1520289   0.17808015 -0.24267223 -0.26884243 -0.04045155
  0.10438069 -0.02816881 -0.13838155 -0.19033987  0.13113658  0.16314073
 -0.17082511 -0.13880173  0.24461351  0.17572393  0.05640984 -0.2928518
 -0.15290572][ 0.04122867 -0.27277425 -0.33228339  0.05679601 -0.11441195  0.09626773
 -0.12446242 -0.16811779 -0.07312247  0.10711256  0.16055001 -0.10225506
  0.11975643  0.21141342  0.13266623  0.13420164  0.08739874  0.08073941
  0.00315437][-0.18022381  0.21854097 -0.16113395  0.28978146  0.01255003 -0.27159875
 -0.01584625 -0.22946959 -0.25013394 -0.02438049 -0.25903101  0.13680735
  0.09627609 -0.22551795 -0.00506155 -0.104899    0.10696432 -0.0724362
 -0.13805023][ 0.16150166  0.09452297 -0.22462889 -0.14503404 -0.28186097  0.21024331
 -0.22420739 -0.23311757 -0.04556637 -0.14396002 -0.15326862  0.04484877
 -0.18205114 -0.03832902  0.08899306 -0.18841374 -0.18422484 -0.20597463
 -0.1808754 ][-0.19980415 -0.14885297  0.04005313  0.19329132  0.08692755  0.14629565
  0.00058606 -0.06134203  0.18388895 -0.17147334 -0.12709849  0.00621272
 -0.05572016  0.12551131  0.1680844  -0.18081398  0.01803362  0.04021766
 -0.13438395][ 1.25263138e-01 -5.73763073e-02  4.75764801e-03  1.67690085e-01
  1.84763909e-01 -8.52823922e-02  1.87613579e-01  1.69306505e-01
 -1.23716534e-01 -5.39195251e-14 -4.99433476e-02  1.67916016e-01
  1.36465330e-01 -7.98624613e-02 -7.71341741e-02 -1.00986879e-01
 -1.88333080e-01 -1.55204217e-01  7.00160213e-05][-0.04684651 -0.06691831  0.06508865  0.17627622  0.22456126 -0.09952841
 -0.1250008  -0.15815752 -0.11134745 -0.10303945 -0.28808548 -0.19442492
  0.12850613  0.23478431  0.11869785 -0.08014341  0.02969285  0.10720043
 -0.00274187][-0.08365745 -0.06498901  0.23275055  0.05452698 -0.21469615 -0.1907909
  0.06551425 -0.04865377  0.03978047 -0.12500658  0.26254447 -0.09157787
  0.2273226  -0.13281809 -0.02322246 -0.16895666 -0.09675666 -0.08138057
 -0.26006673][-0.18775551  0.0890887   0.00263578  0.08761039  0.01829474 -0.0536982
 -0.01992653  0.25774166  0.17010749  0.043275    0.14754858  0.12795722
  0.03893427 -0.06600847  0.14510563 -0.07180408 -0.05864663 -0.24564687
  0.23290729][-0.03187598  0.06791797 -0.17029219  0.00181323 -0.09338742 -0.05175752
  0.01334649  0.1417615  -0.11339675  0.12415094  0.02867345 -0.07782898
 -0.11967347 -0.10338969 -0.17787915  0.02239178  0.05518909 -0.12838136
  0.0766823 ][ 0.08823465  0.03816639 -0.24735704  0.05691208 -0.03530633  0.13983159
  0.09654083  0.14136372 -0.17453566 -0.05408307 -0.10898301  0.07100434
 -0.17052871  0.20244676  0.27054958  0.09222285 -0.03355757 -0.16260028
  0.0925531 ][ 0.21666122 -0.12023127  0.04131443  0.11620573  0.20087868 -0.07106482
  0.08659673 -0.08854116 -0.09255441 -0.19149267 -0.04189636 -0.06388797
 -0.22330653 -0.01113929  0.07796998 -0.00326071 -0.02708907 -0.18521625
  0.11682837][-0.12393183 -0.11760389  0.21829095  0.00169943  0.18074702 -0.22636181
 -0.00950078 -0.18379625  0.24810531 -0.25912322 -0.22616178 -0.0138337
  0.04539878  0.17224084  0.00182131 -0.12840057 -0.12240817  0.10625049
 -0.20845224][-0.51431869 -0.33906642 -0.20271824 -0.01408018 -0.33892294 -0.70061271
 -0.56561122 -0.36435983  0.4128469  -0.44676742  0.41251465  0.35442142
  0.46800958 -0.22932345 -0.25405251 -0.26948046 -0.23120689 -0.00809604
 -0.43126007][-0.01279496 -0.23126531  0.05291993 -0.11755178 -0.16743085 -0.13105473
  0.14253611  0.01937135  0.01231562 -0.21207437 -0.22684097 -0.23490044
  0.09313456  0.16290692  0.00591763 -0.17907764 -0.22293347  0.08187215
 -0.01385773][ 0.11371888  0.17379193 -0.19745665 -0.22035345  0.02605235 -0.06118086
  0.07939514  0.02555482  0.20295252 -0.05541735  0.12387003  0.07958259
  0.09865564 -0.09570241  0.04180298 -0.24249597  0.20894877 -0.04372991
 -0.0154576 ][-0.12818492 -0.13024519 -0.0481213  -0.05999708 -0.10942132 -0.26723669
  0.02625252 -0.28516464 -0.13991542  0.23461823  0.12508847  0.02776898
 -0.05117124  0.03035152  0.17430339  0.12973492  0.12066922  0.01947803
  0.17725782][-0.09297137 -0.00262565  0.17198701 -0.13639591  0.03397213  0.07326037
 -0.19797643 -0.13317546  0.03535792 -0.01179618 -0.14171726  0.15395568
  0.11355117  0.15256376 -0.1797425   0.10320453 -0.00967755 -0.16682622
 -0.12017428][-0.11014378 -0.19273636 -0.1847353   0.10264913 -0.08931996  0.00464744
  0.15746913 -0.0448452   0.08439758 -0.14882411 -0.08317016  0.21145062
 -0.13796797 -0.14816204  0.14289821 -0.19688069 -0.14169592  0.07303152
  0.13936791][ 0.0223676  -0.04858526 -0.1883869   0.00228898 -0.06155722  0.16299644
 -0.1341539   0.14906462  0.10658506 -0.13613945 -0.08635595 -0.1325684
  0.1336517   0.04572889  0.02973657  0.1216787   0.127821   -0.21936685
 -0.01544642]