-8.637474260893216460e-01,2.611552440248007256e-01,6.322051251502404379e-02,6.332014760221890172e-03,-1.243472555012255842e+00,-4.206933067864681020e-01,-4.149117658954349329e-03,-1.268823863823419218e-01,-5.224785335412285639e-03,-1.972086798714991762e-01,-2.732036857388729922e-01,2.849978091934346480e-02,4.939264746740207324e-02,-2.190094144098375939e-01,-7.796339285063315187e-03,8.391433459608980960e-02,2.526346511477147935e-02,1.696230275610644267e-01,-2.391960814894550369e-02,-4.471740254448378082e-02,5.226090564743689909e-02,2.192336686375687127e-01,-1.598815757454457448e-02,6.871042445410673050e-02,1.021602134253125904e-02,2.057797799663749205e-01,2.976462257045337650e-02,3.769856377547248227e-02,3.279716878866491270e-02,2.177728380580523371e-01,-8.123815149217869513e-02,-6.834808711078450838e-02,1.908433926451868767e-01,-1.096418619412014434e-01,-4.705794249286545522e-03,8.747535604309140955e-02,5.021960927624950083e-02,2.758263114761385082e-01,-2.629690403475795635e-01,6.043870529132179537e-02,2.246253576526370532e-01,5.660525607735988896e-02,-2.036310612253125485e-01,2.410810098842304516e-01,-1.310628119498206401e-01,-5.784538466197693823e-02,2.296681134899428989e-01,2.256940344584869307e-02,-4.220665460290030646e-01,1.105342141268413486e-01,-3.812832151691175619e-01,2.061359561186914408e-02,2.057012156666816055e-02,-8.734944150972248633e-02,-1.794033329760750736e-02,1.088078679939343506e-02,5.911309418373279084e-02,-9.782610191790521575e-03,-1.010794277799684088e-01,1.089922612516031619e-01,-1.475232633107002589e-01,-5.395396808239476261e-02,3.121262775080498736e-02,6.754116986853515858e-02,-1.711963050110575368e-01,-1.786290478462951026e-01,8.825130611767628697e-02,3.891535448087406202e-02,1.690318234967433039e-02,4.197468634880433674e-02,9.503117957626497359e-03,-1.286509076238639693e-01,-1.228302762666822895e-01,1.625673331659593934e-02,-3.431005193683791393e-02,-9.376419120991176526e-02,2.672863158254111249e-01,-3.162143099890247222e-01,1.522805778737051641e-01,-1.978966521726261973e-01,3.711608387859076374e-02,1.668089757314205335e-01,9.544432756939306983e-02,1.367227600188038530e-02,6.754336081362999344e-02,9.117169365980172524e-02,-3.890921641158702204e-01,4.580643486629893540e-02,-4.579303000797798062e-01,3.564657250437294755e-02,-1.222202126236010128e-01,9.835013882951217090e-02,3.354788650104732761e-02,2.346834769522434042e-02,3.540249990685748194e-02,8.915954352029439867e-02,-3.591266938330233555e-02,2.183532844983361032e-01,-1.546935506063089327e-01,-5.072255880618902202e-01,-1.411413256712698294e-01,5.161524303615069864e-02,1.300719043215959048e-01,3.804313816285767418e-03,-2.495076589605553855e-02,9.290126443039838436e-03,-3.923717128214926353e-01,5.763610286299780672e-02,1.838292065873144143e-01,-5.369464746290156937e-02,6.209872382007116005e-03,5.210614172059653548e-02,1.608692870548374954e-01,2.410810427423129565e-02,-1.687749023431822371e-01,7.280166784234523569e-02,1.468128579102526143e-01,8.186472639113071686e-03,-9.521320064777548386e-02,-1.655198556240337557e-02,-1.583934073707356505e-01,-1.280494483027998509e-01,-4.402772495022888588e-01,6.333555966128806558e-03,6.078828145235821989e-02,1.806070129300890448e-01,-3.678190952042553058e-02,4.502520681750794146e-02,3.362245766303999933e-02,-1.654581877602858131e-01,3.955167431152371502e-03,7.745017997149640510e-03,2.053633777109399594e-02,-1.305136933814572686e-01,4.721480327715382036e-02,-5.410457005028970756e-03,1.524326243045460161e-01,-1.507180093910888974e-01,1.124927179611275169e-01,6.554258315047227501e-02,2.537383014926619662e-01,-4.781997698976175881e-01,-2.618757036672191840e-01,-2.400687693276424839e-01,-4.993347443654850282e-01,-1.333969064734444321e-01,-1.426180348354515182e-01,1.053216776319656350e-01,-1.071827250174675755e-01,7.626779356164405457e-03,1.587650465842120259e-02,1.876721214780182334e-01,-8.627299517832036357e-02,-4.798288707753098348e-01,1.368683429403556584e-01,3.641967180226991178e-03,2.533957283000894123e-02,1.633644582098128240e-01,2.903105758072207707e-02,5.721201924336674627e-02,6.480350130594426938e-03,2.761838098688510282e-02,-1.413313200781843582e-01,7.570338216218257255e-02,-1.550461123138700548e-01,-1.654891154811160984e-03,-5.355498616808431755e-01,4.043489000577380615e-02,1.888271362520415331e-01,3.188381770868767978e-02,1.398901872547117856e-02,4.766852803852096587e-02,2.819548898839999498e-02,6.786840024087070766e-02,-8.236095149340173782e-02,1.947818028172490154e-02,-3.237197854848974932e-02,1.823034201265597010e-02,-1.050075661889953299e-01,6.351413003262480761e-02,6.366825639530507286e-02,6.354471668075353796e-02,6.585983149258196889e-02,-3.598300025899504873e-02,-5.077397377771292186e-01,7.437542490893889191e-02,-2.471028084860043272e-01,6.788843801690865043e-02,1.090506175012702916e-01,2.388046653616424098e-02,-1.719314196911953807e-01,-3.138096941884655489e-01,1.291191642049147326e-01,2.305244942866190305e-01,-1.251401903961010982e-02,3.324676395619031166e-01,-1.085501856052475955e-01,-1.837908779439221263e-01,8.360659941620397773e-02,4.404825491288983513e-02,1.305269041927996643e-01,1.891115565179165084e-02,2.474332844904850864e-02,1.262473980037801501e-02,6.985541806745776405e-02,1.046949243990114159e-01,-1.013512191187098677e-01,-2.902928129277002750e-02,4.209490948952941680e-02,2.293470944204282491e-01,9.832458730373574984e-02,1.341138124466288717e-02,-1.925034239154119545e-02,-1.247385498140276411e-01,3.898341844330627248e-02,3.390529629638411920e-03,1.384435706671959670e-02,1.024005757331933886e-01,1.367390934057350904e-01,-2.981225107274299360e-02,-2.863585260220956677e-02,2.381601856982733592e-02,2.181749376765704587e-02,1.115538185409512273e-01,3.307104318124137049e-02,9.430948708422481896e-03,2.923124825495608536e-02,1.126166889420354561e-01,-6.739461699522823757e-02,-9.375649013801994058e-03,4.100046933452156095e-02,3.068911428967302513e-02,-4.260921580264960540e-02,-1.500019807433468355e-01,6.594687942697750882e-02,1.443481525859431798e-02,4.659355215999835126e-02,3.081168888382656568e-01,1.782357308055299294e-01,-2.286782054222887689e-03,-8.248263163383144914e-01,1.300250659546291904e-02,1.974649877536704609e-02,-1.175832201793313159e-01,2.429568831153249703e-02,4.635449950671759883e-02,-2.407430555759113300e-01,-3.438308812746072168e-02,1.556869390015638011e-01,4.374307132551442656e-01,6.531512455596408251e-02,2.784120888311595321e-01,1.351562443770714175e-02,1.041104369240753724e-01,-3.669293005778273813e-03,1.004286824326213190e-01,-3.823968112729284746e-02,-3.412263062005738146e-02,7.057179213856659694e-02,1.330802893777393581e-01,-3.385652212639475751e-04,1.544722798838049360e-01,-7.999054507454965435e-02,-4.777667182632291953e-02,1.196031260669342539e-01,2.843463880453586320e-02,1.950214280305350434e-01,-2.923778553268778502e-02,2.759776099520677012e-02,4.514345993208722374e-02,5.117751188923799072e-02,5.294648028730505190e-02,1.285538087995896986e-02,-1.790789280520024562e-01,9.043679173374702396e-02,2.671042316794922794e-02,1.842945836706322282e-02,1.517414103185397156e-01,-5.767273853553158552e-03,1.142255452836806462e-01,-6.613613381723921526e-03,-5.185679360290068596e-02,6.772236440755997899e-02,2.589778930116116550e-03,-3.950687631687354595e-01,7.020753097304226198e-02,1.013390944523148290e-01,1.116902437320571179e-01,1.597266608187697112e-01,7.768079175526021452e-02,-8.610048140506197656e-02,6.185179289387008131e-03,1.535230608277624864e-01,-2.757680109177513411e-02,-9.367693473621208078e-02,-1.600508385214265417e-01,-1.843343040241232911e-01,-4.285648984180395055e-02,1.937321191983450500e-02,-4.083042681384411177e-01,1.288159805848656907e-02,8.549033708908437834e-02,-3.477864921371793400e-02,3.527275467768663936e-02,4.143676981734765313e-02,-8.611637167013252991e-02,1.117648058368596181e-01,-2.644858366174208664e-01,7.111886697048422357e-02,-2.952845306172791062e-01,3.752033285703345461e-02,2.318295999571979085e-02,2.474974355217210778e-02,-9.033752635976452505e-02,8.984537712810353183e-02,8.940401519645169159e-02,-8.666352211420759455e-02,1.755379777445013334e-01,1.823747884047913909e-02,4.340929750126130970e-02,-5.480185862607090536e-02,1.341209790954689118e-01,-2.881377311280854392e-01,-2.922985624718285047e-01,1.660196824842796737e-02,-5.760292101835356310e-03,-6.216462547889942680e-01,8.288593139487331757e-03,7.008648293411190444e-02,4.967140374825911725e-02,4.988818588739504095e-03,1.048616852904403068e-01,-9.044737322539168900e-02,7.900996674768825945e-02,1.632424199689841704e-01,-6.910544954890341929e-01,6.626479911349728025e-02,2.707379886233643798e-02,1.730762968560355386e-01,8.051377379042518045e-02,1.897807685495290358e-02,-1.736097750023881392e-01,9.076546522532892569e-02,2.116597704060826368e-01,-5.793663994772018516e-02,2.136789725185713265e-02,5.203275872943232717e-03,2.653985889078346386e-02,6.233145258492483326e-03,-5.906847339992643206e-03,6.046849136227849288e-03,1.510614206763885407e-02,-6.990124664154606648e-01,2.079502218961518448e-02,-3.851906021669944113e-01,-8.873294237002771201e-02,-8.951585651059018600e-02,-2.886341082085762122e-01,3.101858192158161165e-01,3.619099479579246936e-01,8.595820919227160906e-02,-9.429565027713934788e-02,8.051897070478995777e-02,1.195398260378506272e-01,2.365936328315371984e-01,-1.158986888532599797e-02,1.619163177621983640e-01,6.753098992980338666e-02,-1.607059272691719609e-01,-2.754555925772946279e-01,-2.470707093615772398e-01,-1.318899987647396410e-01,-1.092571975210710755e-01,-3.104689329973742487e-02,1.301547284990848576e-02,-6.520472038726271569e-02,5.078346252164520763e-02,-1.136397235441063622e-02,1.899890075532679676e-02,-2.800643800506993353e-01,-7.025339934636115613e-02,4.107526989697841274e-02,1.772102365793282730e-01,-4.313573040354602706e-02,-2.238746335986836755e-02,-2.386160813356020816e-01,2.244720108675588369e-02,-1.486736924389273073e-01,3.846666105441255007e-03,1.392304962016345515e-02,-1.036214723884650191e+00,3.667455206836468112e-02,-1.086795648696923383e-01,-1.210132151838328035e-01,8.509378807818780352e-03,-2.105133479606932211e-03,-1.310242059501958052e-02,-9.979585660067735731e-03,5.024721502141801799e-02,6.173733788680526441e-02,8.497871494132741566e-02,3.264620651177948391e-02,-2.550337859473894575e-01,3.816134832062333115e-02,9.364256480791482984e-02,9.218688741925339103e-02,1.314014566488515279e-02,2.928839054090293451e-02,7.130490742767689114e-03,-5.392232555291543578e-02,-9.201535127419625815e-02,-1.272582689629611109e-02,-1.804813454404106260e-02,3.199098959900537609e-01,1.303032367824772386e-01,-1.085471142626652681e-02,7.567176450780215002e-02,8.635220391055759004e-02,1.791731380968832887e-01,1.039684596855162957e-01,2.184081612097187042e-02,-1.690929159232824330e-01,-9.631035351319044979e-02,-1.467550001218522263e-02,-8.625227877989173619e-03,-1.158267649335278371e-01,4.552827742272707451e-02,5.805592716577093713e-03,1.215381051414478331e-01,1.508710251958529126e-02,-7.385619129972986752e-02,-1.168223961409109446e-01,6.129893635817821977e-03,5.132623697128498030e-02,-3.115692715227280293e-02,1.185715360972376259e-01,-1.669816671087817894e-01,6.487558139328919449e-02,1.348615909152840187e-01,7.569867779581046507e-02,7.937499232961470197e-02,-5.214327102571226363e-02,8.019193585818344683e-02,-1.495553481326063194e-02,8.961801026098542566e-02,2.812474878861943028e-01,-7.107786628185569500e-02,2.306656645655489335e-01,-2.622646533126322121e-01,2.831837897673886509e-02,-2.272359281676543385e-01,-2.321729131091305187e-01,1.449711174656429791e-01,2.065311144092095152e-01,1.184984754077540899e-02,3.339765506741575879e-02,9.922332990869872638e-02,-2.772436342573829848e-04,2.308049403650175302e-02,1.562702255883158156e-04,-2.655227447946401087e-01,-2.919564967165836911e-01,-2.170818693224251250e-01,1.103644725670517718e-01,-6.878506527246408542e-02,-2.644671616813287218e-01,6.873590474628105129e-02,2.388883106622353980e-02,3.044158704330931706e-02,7.449571542994885831e-02,1.031612245289338092e-01,-3.050822961787750254e-01,-1.587354139167149458e-01,-1.711170305875450159e-01,3.230309184274327006e-02,-1.311951849605433752e-03,5.829036664986027988e-02,-6.103750451811317673e-02,-2.393173125960548764e-01,-2.031238855971573276e-02,8.903885231962754832e-02,1.348774133824574006e-01,3.173283355245386239e-02,7.444092497232522587e-02,-4.441442927491196652e-02,1.215551341605877189e-01,-1.596831049146102688e-01,3.318867374382762636e-02,-3.784358141465332757e-03,-1.487010038602596673e-01,5.064620063218418927e-02,-6.501129934016627865e-02,4.711992868478361712e-02,-2.380198608819202588e-01,-1.276209146055218117e-02,8.474672009257679106e-02,2.405811429727486295e-02,2.644291607774456043e-01,-1.764911460765217557e-02,1.605528801368046043e-01,-7.299155816276074391e-03,-8.575417979457143972e-03,1.296228319614655400e-01,-4.363089960758932406e-01,-8.171538295551769582e-02,1.585748142244578773e-01,1.461633819884456953e-01,1.185135473405515699e-01,-1.381658077768995081e-02,-8.078357743602275487e-02,3.189187569022391283e-02,-4.662298615533751883e-02,-7.179855431275272704e-01,-2.544399991220072099e-01,8.271108270209675054e-03,-4.419441666529574930e-02,-3.228820495494105075e-02,-2.559308811048439103e-01,9.912135788046266827e-02,4.888790064768274712e-01,8.988703672934045263e-02,1.146062018595775667e-01,1.125299349146800659e-01,3.014902776809992579e-02,5.174088521147511555e-02,6.440845860556471125e-02,-5.236059260830987824e-04,-1.777169729284074906e-01,5.675711624200887977e-03,6.996296536637318722e-03,-1.719642896487196260e-01,2.771909916280589428e-02,5.577094028970620843e-02,1.593979243855476180e-01,-7.589851283059269316e-02,1.285468205603614855e-01,2.321953698591156523e-01,1.190597206003380509e-01,-8.820385225174859345e-02,2.442644974867320615e-02,-1.026847561295444883e-01,-7.268323508683709189e-02,2.893189166373244525e-02,-1.397395716238504226e-01,1.362995328002419015e-01,-2.604546002503795310e-01,1.264184533555450241e-01,-8.928994889310612124e-03,1.080718649212249888e-01,2.542466893134546352e-02,-1.044646770586671932e-03,-1.755292100365646226e-03,1.156070886054583711e-02,-1.447419460372729137e-02,2.808418870767538308e-02,1.368968758832753985e-01,-3.164900158751320358e-01,1.770927181935469386e-02,8.426961266726336330e-02,6.845907094486097799e-02,1.360138118024743076e-02,2.156048886445052493e-01,3.405871546949746365e-01,-2.566881847172034804e-03,6.066884853572447611e-02,-8.718062042345613161e-02,-3.501359572483081668e-03,1.241861260884053048e-01,2.943022215182558923e-02,2.405691179646382571e-02,6.344037764966516113e-02,1.872771943519540849e-01,5.733870055869395160e-02,1.115490677411080239e-01,-2.819674046191057715e-02,-1.856201564087932021e-01,-3.733649934155054972e-01,-7.936403969477866249e-02,2.282534872286703237e-02,3.735466611124246133e-02,1.762722749744228407e-02,1.640471249465424780e-03,1.613490348176862266e-01,8.237797468157835243e-03,-4.935910085865376495e-01,-4.469107951853562165e-04,1.523585739472310963e-01,2.253676877419269128e-02,-3.422776612805835672e-01,-5.618712880386433905e-02,-1.181532206628937015e-01,-2.387549408920506405e-02,1.665669033793746104e-02,-6.384544253763468902e-02,-1.546165981667177725e-01,-3.110483779688278175e-03,-1.588475777759476570e-01,-1.788006381036811795e-02,-4.220679449348668094e-02,-1.132444045871922461e-01,-7.097862510124325341e-02,-2.402070495850603879e-02,2.123823519962641376e-02,1.407344342030261188e-02,-1.710214314765566013e-01,4.018080235621226265e-02,7.449826249790457433e-02,8.628402874727887639e-02,-2.295142886685698491e-01,-1.307284268224761029e-02,-5.070778227829735030e-02,7.909337826291204521e-02,4.274760417061249096e-02,-6.594418428941066501e-02,4.595835864850680852e-02,1.734815632818370590e-01,-1.037112645329149457e-01,5.635659001268573248e-02,-3.901703825712758977e-01,2.175317347965462569e-02,-7.296307535785213905e-02,3.555833236090009952e-02,-9.605852248850301756e-01,-1.352273075964989246e-01,1.115939559879980739e-02,-1.534045140836469423e-01,1.205749184938885443e-01,1.409722192636598918e-02,4.072548104350070391e-02,4.833758291850822481e-02,-8.778370859877785912e-03,8.250302259161859664e-02,2.713194337010685353e-02,-1.720535780131566828e-01,9.334281809491482354e-03,-4.501723954277216805e-02,1.615672980177403906e-01,-1.954905118221846871e-01,-7.941284967986173005e-02,-2.226379824945244890e-01,-2.175059906480530658e-01,1.092972780265235033e-01,-2.279380154024275573e-01,6.062774716500802206e-03,-6.225966689592153658e-02,1.510360750979240219e-01,-4.570258644121274333e-02,-2.465066596131905777e-02,2.675873047038174191e-02,-2.325858561087617571e-01,-1.194056661655221313e-01,-1.293877277003113446e-01,2.663752092900714338e-02,-1.252608443301929109e-01,9.725812546191819549e-03,-1.063140384383725184e-01,1.947380587217187060e-03,-6.139836378826714347e-02,1.131679448132911214e-01,-1.117582322295247732e-01,2.790089507223533424e-02,2.204417753435062785e-02,-5.936667961099203472e-01,4.302314673634760611e-02,1.589370206765988378e-02,5.950512713954696220e-02,1.962435084119581313e-02,-8.023994653706764679e-02,2.990917535891443255e-02,-9.034580064985798381e-03,2.232715710925946631e-02,1.430850806460845330e-02,-1.620171601954140117e-01,4.113573308132113110e-02,4.913844876832159508e-02,7.033743371120312893e-02,-1.780300385172546226e-02,9.582572710725417720e-02,8.231787642827775864e-02,-1.504296500722279162e-01,1.219162544361708511e-01,4.945182291984191736e-02,8.126871837099590434e-02,2.376435127942523595e-02,-2.584155485218840309e-01,5.286426260437779301e-02,-1.498913267771336266e-01,-1.575423281463274594e-01,2.319220594852832926e-02,2.813540059371401683e-02,-5.909720376000531239e-01,2.672600803905824524e-02,1.120947507735164245e-02,4.623134996410786096e-02,3.352181812837867064e-02,-3.968965795518085149e-01,-2.037890643293412685e-01,6.462205145403844553e-02,8.114320835088000006e-02,1.534495323197013206e-01,1.388481953547946249e-02,-1.919544988714697809e+00,-1.078858671904962818e-01,5.019010592667533938e-02,6.427370519347999894e-05,-7.674495622212593182e-02,1.651158987868066863e-01,4.991196034744951882e-02,-3.225612496940655771e-01,1.341801169691083165e-02,6.051531732849670109e-02,-2.602551528501528474e-02,5.041665217204265720e-02,5.840638538027868171e-02,5.504403104466238511e-02,-2.559154832064522087e-02,7.538447133398915034e-02,5.720137231609209727e-02,-1.057054093235269138e-01,-1.855136895854290757e-01,-6.205788865815545230e-02,1.650649418596600859e-01,1.677749965836614066e-02,-3.666708774929573061e-03,2.499892610461185161e-02,-1.318350733531133134e-01,6.741021592888479796e-02,-2.700738904597497214e-01,2.873623281264816101e-02,1.180995405308903588e-02,7.522252126482154022e-02,1.264062631400725972e-02,4.058503564388255512e-03,-2.964459270622523887e-02,3.201100526984190231e-01,7.146746283871885028e-03,4.067407639205015274e-02,1.069074341117908361e-01,6.394845488690086011e-02,-2.052377683576604994e-01,2.078720344226833994e-01,-2.523194240889914397e-01,2.414838907593398754e-02,4.983896907344239919e-04,-4.517514143319600328e-01,1.479604441149356131e-01,9.565559945154149257e-02,-6.358330983786648904e-02,1.950911948562697729e-01,-5.544353419293093083e-02,-1.140393252164452302e-02,-4.187165935576936393e-01,3.480220526825551774e-02,1.874636152601009131e-01,-1.013534945565603695e-01,1.167357165193469784e-02,1.633481477650604308e-01,-3.453325128453384879e-02,-4.340348110327574976e-02,8.902544064671485263e-03,-1.134770573139026184e-01,2.380411295522401882e-01,-5.011399350636415173e-01,-1.854223022349427985e-01,1.403262483633449520e-02,1.273500309580564288e-02,1.883875508448800140e-01,1.713503986831660039e-02,5.307689289231994761e-02,-4.131594608788455129e-03,3.807094616412045052e-01,4.492422397356447133e-02,8.824098941874988777e-02,-3.767994479781645173e-02,-5.145772793341139156e-02,1.122308020160244640e-01,-1.527220451922337574e-01,8.754999038823624291e-02,2.104397686812598672e-02,3.665156291293329704e-02,-6.679980100712570867e-02,6.433939445689856873e-02,-2.154662492660347761e-01,2.046338243604039348e-02,-3.258181147720854570e-02,-7.346270836728101272e-02,1.144905973664461230e-01,-1.651364834466710271e-02,1.875719371506251454e-02,2.155314249065585497e-01,7.924349099847144418e-02,2.173671939476924664e-02,1.435499740794920209e-01,-8.220293244509406516e-02,-8.740843387859575930e-02,1.535095465573141915e-01,3.952045436196446188e-02,-1.075471463654882869e-03,6.990815697065730361e-02,3.742515038110347941e-02,2.105574135569621141e-02,1.083291371707537781e-01,1.972352690379159182e-02,9.228662787069083842e-03,-3.226544127303204723e-02,2.667850029928555897e-02,-1.980497075213668440e-02,-2.909151115698588308e-02,9.726145515302858646e-02,-2.458758487301103413e-01,-3.501262580476968145e-01,-4.839463217495556385e-02,1.662477720362409706e-01,-1.309003006540045977e-01,-3.030083405769181878e-02,-9.165378322214762230e-02,-2.999409247503707389e-03,1.097815349588247558e-01,2.039717741591901001e-02,-1.254692471611189852e-01,-5.534679464771709648e-03,7.818394945915049798e-02,1.514389159756888426e-01,-1.458821375667774534e-01,-6.999998393339018632e-02,8.418286418713127883e-02,-1.004841388173278866e-01,-8.935232247988078580e-02,1.226944362275202149e-01,-1.162955369758988805e-01,1.686382721249469474e-01,7.124226730228355731e-02,6.243968015339436406e-02,7.956362243741385565e-02,-1.428490277851551526e-01,1.962510116378166081e-01,-5.845944638963389284e-02,-1.602714324151973957e-01,1.735593402443885019e-02,-1.124854617887795054e-02,-4.702270823561116586e-01,2.211019373637531857e-02,-1.981115480724313371e-01,-1.022806007331079903e-02,3.791203526697548010e-02,-8.877422189926506557e-02,1.757794888471869987e-01,3.400135265651861582e-02,3.653691998798535429e-02,-1.325463670079105871e-01,1.084793069555903544e-01,1.881044611123568189e-01,8.413649956270284613e-02,-3.295848040303263338e-02,9.078569467628597178e-02,9.456797895839802459e-02,2.611079438141268583e-02,1.414491682438094033e-01,2.352070433725819004e-02,2.546657356255815907e-02,1.283040032787972559e-02,-1.289278233675150431e-01,1.014016928893453351e-01,-9.973854014474252405e-03,2.212184729286316986e-01,-1.729598600515690546e-02,1.032922974080002915e-01,-4.254288397008042059e-03,4.280296521935929993e-02,1.348036985165085022e-01,-1.458835588537430172e-01,-7.121540224380858985e-01,-3.521530193805404163e-02,1.521032994580578251e-02,-2.872167424042786771e-02,-2.756330493232733159e-01,3.554139717210384047e-02,-2.016605491112141019e-02,3.454260540936852919e-02,1.137108235354433866e-01,2.582088858065791082e-02,2.381176384135004140e-02,-6.071123883193443871e-02,6.061504139060776286e-02,8.280734085769977937e-02,-3.557969084624083567e-01,-2.736146732265446954e-02,-1.176298139845564361e-01,1.148124205846472179e-02,-1.053173108025634575e-01,2.991012789378609885e-02,5.926888145241338696e-02,-3.516626803668143064e-01,-8.605012148621932200e-02,9.486808725817197363e-02,-3.177312857506648519e-02,1.579408015003929133e-01,-9.542092859539897873e-03,1.379844118173502443e-01,1.276938337304760751e-01,-6.697704760359111942e-02,-2.541441630598029536e-02,-6.598088084072378789e-01,6.826143293734140971e-02,9.428250203925730988e-02,2.178703879580408745e-02,3.478922289195741230e-02,-2.377425263774642916e-01,1.703365742731035790e-02,-1.107102506933880653e-01,6.688156357681449005e-02,-9.014195769346844411e-01,-2.008012342812509343e-01,2.173681572395866498e-04,1.662473426330412715e-02,2.243815943755268511e-03,-1.378043362737324529e-01,1.875819909598770360e-02,4.916083391341389414e-02,3.316149361637580478e-02,6.631539545842390915e-02,1.545492221935672594e-01,-8.670541782441093526e-02,5.140517839589628553e-03,-4.429924895533526169e-02,9.250595211730718026e-02,-3.411985078902586566e-02,7.557688464830078501e-02,-3.740816463964112028e-03,4.739502492283085427e-03,-1.325982096588690928e-01,-9.086231523145072569e-03,-2.540266228312189623e-01,3.227485042049023367e-02,4.057207362739467804e-02,1.405673479009689197e-01,1.914869945443990274e-03,6.216767985704598626e-02,1.776568760111955081e-01,1.951585005983390991e-02,-2.229030823099111547e-01,-3.147186619516920136e-01,-2.943744828554571008e-02,-9.010850129403670528e-02,-1.182275071303059005e-01,-8.896615284683165314e-02,-3.103522662203373264e-02,-1.388838346875494872e-02,-1.175667678295154728e-01,4.834081790832452097e-03,1.874790217284762889e-02,4.966551416378082312e-02,-1.951925089074463548e-01,-1.451054596978933742e-01,-7.133358273672406324e-02,7.081274976163558221e-02,1.322020440392014315e-02,-1.086667061721365846e-01,-6.816256587650062482e-01,-1.783464254672678384e-01,1.337138695340912287e-01,2.642469778195848940e-01,-5.299829921649525100e-02,3.439232216574333867e-01,6.499561811591355806e-04,-3.973189128079500088e-01,-2.048645167057784600e-02,-7.938416363075967430e-02,4.650061197565014681e-01,1.652707233706245116e-02,-1.423129654077634476e-01,-4.259863917484535412e-01,1.412243410541324518e-01,1.711664643824384047e-01,1.366511273931265416e-03,1.415046829347425296e-02,6.873197439922061613e-02,-7.690844235412415408e-02,7.362735176311854465e-03,5.069312928455337736e-02,-1.615787255878605722e-01,-1.397785559904289598e-01,8.146424783375094680e-02,2.902233946483866178e-02,-2.314418915212164071e-02,1.891289760844342902e-02,-3.294201947549834086e-01,-1.715945169797035708e-01,3.497590840632105666e-03,5.670933052118631856e-01,-1.261676293851825836e-01,-2.594621701126691438e-01,-8.653512437759579567e-01,-1.732935128673630809e-02,1.083356791120636438e-02,2.149670003864037615e-02,-4.178402152450313989e-02,2.671224054641762463e-02,1.331303574848917946e-02,3.370026793547779842e-02,1.420795511003399292e-01,4.790398654230623027e-02,1.337285583258659705e-01,4.520997119598329367e-02,1.570308554235018694e-01,1.417015487077500843e-02,-1.496722208293194689e-01,-2.656120233364869243e-01,-5.995411839744740901e-02,6.665276952266380173e-02,3.265018330422905790e-02,-1.330618128290557145e-01,1.049745163214301363e-01,-6.437322763617589483e-02,-8.976897349974835016e-01,-2.276222257373758939e-01,-2.811582824259057922e-01,-6.501587620987344662e-01,-9.093916483663377903e-02,7.610489955237381698e-02,2.178934704217957291e-02,-5.027950802935263891e-02,2.724324156686803999e-02,2.356570677749705855e-02
-4.708429250498015473e-02,-4.955821527364572682e-02,2.074899492757347266e-02,3.582378524793360802e-02,9.415984291062970413e-02,-1.062955008087963088e-01,9.244061825969127066e-02,-1.998765553105870674e-01,8.260559674223982851e-03,-1.522587209589838508e-01,1.573489595775549310e-01,-2.184794828779357545e-01,1.444230032197990343e-01,-2.307908538792506278e-02,1.343792510078177793e-01,3.859074610507967629e-02,1.250110676615092970e-03,1.141828254981592933e-01,2.065558883951410310e-02,1.083342486604834815e-01,6.295708032637634122e-02,2.943594989907223972e-02,8.251678810865362840e-03,1.596865323305499389e-03,-3.205466122192537470e-03,-1.622485612248636411e-01,3.106419440950897344e-03,2.582906544091501111e-02,-1.018008386748276393e-02,-9.021349431601550783e-01,2.363307139899725393e-02,-9.716036121840022910e-02,-2.394422282035666150e-01,-6.337285838389031603e-03,4.932724737903758589e-04,3.422407832969674712e-02,1.417284298600924794e-02,-8.897549604014897140e-01,-3.810427946774804786e-01,1.026415706597270383e-01,1.766890401478126149e-01,3.297332757068889564e-02,-5.302415907987236832e-01,-8.488469949387010827e-01,4.690847752137654314e-02,6.346838385490459478e-02,-7.933087581045500380e-01,1.300970236537812852e-02,-1.413976189496476410e-01,1.547503830979562456e-01,6.244455753546301890e-02,1.019998583968361461e-01,-3.788971512032431738e-02,-4.181318967966500414e-04,-4.747688549140177683e-01,2.215164200506311298e-01,-5.126022932340781185e-02,8.229424673491326780e-01,-8.100867256992649867e-02,-6.628831520363349661e-01,-2.534210746519073298e-01,-1.337437629320976096e-01,5.692274899667424531e-03,-8.820111820885967457e-02,-4.439851548377871659e-01,2.381221136869200380e-02,9.179458463876517815e-02,3.541474251154455577e-01,-4.072247930578611064e-02,1.732148984065931263e-01,-4.164546582941777188e-03,5.053490481601828621e-02,1.169651571619116995e-02,2.320842094365373892e-02,1.396452789293352592e-01,-2.252893064063736517e-01,-3.314222876592134992e-01,1.654345377181741239e-01,-7.362875850572251357e-01,1.120649300466977916e-01,-3.715995146230252621e-02,2.210629519633291740e-01,8.464297975185729184e-02,7.025790377689042007e-03,2.070218890819393032e-01,3.488683106375032872e-01,-8.507896906089976174e-02,2.315522058469076869e-02,1.164963718800217547e-02,5.731758773959723385e-02,-4.354678752097656536e-01,-9.852067821894978927e-02,-4.904084935415080060e-01,-8.520270213217330524e-02,9.598700031667074806e-02,1.394457128091176543e-02,-3.244105073505357956e-02,-4.998163520080443206e-02,1.841154690769036262e-01,-4.541838974598461087e-01,7.505810534322697458e-02,4.174157337546345430e-03,1.653674480916948741e-02,-2.325124041746718662e-01,-1.440532332149533634e-01,-1.958641994018839871e-01,-3.860785139245809239e-01,-3.937515308787067903e-01,2.561810595521654341e-02,-1.658717412160985172e-01,4.130347462400415191e-03,9.117906672437225968e-02,8.289082838233403916e-02,-5.078578781729078950e-02,-1.950082706485649353e-01,1.637467446490838974e-01,-2.036203968336980918e-01,1.086766487087747861e-02,-7.017540883345638747e-01,-3.567044845772070899e-02,-8.519818440913010105e-02,-7.589150634330076549e-03,2.158047668357188781e-02,1.427025125292079180e-03,-1.901938453228971260e-01,1.289758441365539479e-02,-1.330548150704746191e-01,1.869071774080671433e-01,6.887389302036069083e-02,6.907818980538633913e-02,-7.904088484868214692e-01,1.285816312655087799e-02,-7.560729308756299061e-02,-9.560461220449559261e-02,1.386024558331625835e-02,8.169297179406739828e-02,8.557888995487498984e-02,-5.747115674388754147e-01,2.347243428144691127e-02,1.480458229530541292e-01,9.304031261494717653e-02,-1.286895882452620266e-01,3.794441524009734001e-02,1.901632467152787262e-02,-5.573143290088750784e-02,-5.940641449655504475e-02,-7.240786818759223364e-02,-2.098356603379982269e-02,-1.499556212379575260e-01,3.727345203320373002e-02,-2.801548892598169221e-02,-5.628745949662650183e-01,-4.412174499923814108e-02,7.916079282686427562e-03,-2.647942127565204307e-01,4.524259904229292750e-02,2.417084651309019810e-02,1.360028802163341932e-01,1.470199118897482470e-02,1.546482926023799165e-01,-3.170987061055795947e-03,-3.181900393615630929e-01,4.409190519414441650e-02,2.248777412113131882e-02,-8.136643429747507372e-02,-1.340036058331539864e-03,1.019018743477612815e-01,-3.803487926073680775e-02,-1.298315112061575460e-01,5.963833497019079694e-02,6.418428995283874394e-02,2.409677460974942592e-02,3.243463025603887748e-03,-9.968158554367058388e-02,-1.661702059034108891e-01,8.859148543083740501e-02,1.297953104582225126e-01,-1.322796490260621793e-01,-6.814996110307827704e-02,5.391736336341459990e-02,1.356596737461383297e-02,8.954283498764641080e-03,9.550373316846028082e-02,2.106952934601767635e-02,-4.096219850615930858e-01,9.137073663347115848e-02,-1.579124873101072635e-01,-2.044486546332976995e-01,-5.152577651762513256e-02,-7.325963590730955044e-03,-6.448609812036886213e-01,-3.293759876873174619e-01,2.771427523106534396e-02,2.074484826469717158e-01,6.666074773005188636e-02,-1.489418958216590927e-01,-8.863723176483333244e-02,-1.600681418949141399e-01,-1.338427411363353747e-01,2.142780793263761585e-01,-2.552076932273308341e-01,-1.423914757910768516e-03,-1.290316292177158541e-02,-4.692446861975888527e-03,2.199560934335223136e-02,1.046630930535296516e-01,-9.821306182042847943e-02,-5.006414002366812305e-03,-7.400638478610196969e-02,2.459607465028842144e-01,4.608032849146552305e-03,-1.970599197370484935e-03,1.969068446915857307e-01,1.654403616900543550e-01,3.823089656768766803e-02,-8.771901867875502717e-03,1.114115567074092789e-02,8.541205984226541911e-03,-2.465555075750404113e-01,2.507753352391421942e-01,2.928758384464006867e-02,8.258675676200230575e-02,-2.453539342125041559e-02,-8.151354081471169633e-02,-2.395419411741763621e-02,1.362781086285710930e-02,-3.463583084243454773e-03,2.100858907948188192e-01,-2.350279929500908860e-01,-1.551547750098370981e-01,-4.933529047218862540e-02,1.944997119339763811e-02,1.386158132092369377e-01,-2.316275796722953861e-01,-4.093615615384304379e-02,8.058184747950540572e-02,3.358152513138228101e-02,1.378158845390193774e-02,1.805368966626017813e-01,-6.803787877263978157e-01,-4.946245888461491269e-01,1.387445293390336502e-02,6.414232299224420508e-02,-1.482709813904031226e-01,-2.248810277825652015e+00,-2.475985773755805253e-02,-4.324535577643814216e-02,5.341708715358622211e-02,-1.038120329089204513e-01,-1.018685157696810201e-01,4.464839677649237032e-02,-3.128889887675408987e-01,5.185114505442183115e-03,-3.954176055310696936e-01,-2.959649258097118985e-01,-4.193906179464312878e-02,2.318425752173477739e-01,1.974430599874047454e-01,6.503636954947565607e-02,-1.983365944673086412e-02,1.434281384819516558e-01,2.002919984724407798e-01,-1.030583766252479438e-01,-5.956197629538344529e-01,-4.234138938300324173e-01,7.433587906264123302e-02,2.105324255190799410e-01,7.924454463096787526e-02,-1.433057695443856229e-02,-7.102543505014925068e-03,-2.636104200304073553e-01,-3.345876824301236441e-03,1.635296233363874377e-02,-1.487811594891521802e-02,-3.372095745985429632e-02,-1.213492104972161562e-01,-4.291383656418105152e-01,-5.168884661412548320e-01,-2.106185143493852496e-01,1.681414871966465940e-01,5.213730869643438265e-02,1.488095975785198866e-01,-2.909706489334453264e-02,-4.863363273812891518e-02,8.128218983858634394e-02,4.648564366212687426e-02,2.853077963206234260e-02,-9.541602632103673987e-02,-1.705549306398868870e-01,2.427874230399704181e-02,-3.964793493948613745e-02,-2.017015140053456460e-02,1.807088235008491306e-01,-2.423590169905264977e-02,-8.880065649374330183e-02,1.024479217901695383e-01,-1.007824624260282298e-01,1.407864613491681127e-01,2.909403494806172066e-02,1.082405447793590228e-02,-8.139369842131173594e-02,-7.253233320516279115e-01,1.051345817726270088e-01,-7.005133614439729151e-01,4.411596907386419048e-02,-4.801703468350654314e-02,-6.808345396939889937e-01,-3.153098216350382899e-01,4.471355527115571799e-02,-2.079353908814765561e-01,6.948867669627077637e-02,-4.312834965220660975e-03,-1.164455722907489429e-02,-1.945916873982135586e-01,-6.249363194819878425e-02,1.531412255024757266e-02,6.534212073957669509e-02,2.500459034544778580e-01,-2.155762527013667662e-01,6.203551529569512751e-02,2.681684344423547126e-02,8.341806440877333473e-02,2.016998298276590496e-01,-5.385865667464775908e-02,3.284462385564869673e-03,-1.230009406238156272e-02,3.882644404766980722e-02,-9.204056496428844603e-03,-3.787333703934596309e-03,-5.381350425695196060e-01,1.476499419452524386e-01,-9.283482589160714504e-02,-3.937340116241247641e-03,-2.177322451485947941e-01,-1.576257652965883105e-01,1.250983653986123267e-01,8.651028604109373479e-03,3.762024052565434568e-02,-6.288135987058640630e-02,-9.781975438520691679e-02,1.031467367619567227e-02,-5.061244342901993765e-01,1.009266714369546347e-01,2.711681590084008553e-01,-1.725554961636957541e-02,7.334099247331558880e-02,-7.326072618634103459e-03,-1.918971795808373793e-01,-3.157769154810152051e-02,5.508843773111684293e-03,-6.019561627185790811e-03,2.328833621207172799e-02,-5.631690162932260213e-01,1.083195847010350737e-02,7.098925878329673256e-02,-3.121816079538875521e-01,-1.851992672180589050e-01,-4.778513425775491458e-02,1.589552292945984047e-01,1.973305700168734578e-01,-1.853357970125743548e-02,-3.347640583546300785e-01,-6.109969145979522037e-02,-1.805540602742789213e-01,-1.812435729831488873e-01,1.155058766843468643e-01,1.343938886194341598e-01,-1.631009897401719255e-01,3.452683961062033135e-03,5.797967232362870316e-02,-3.698024945114863349e-01,6.821287841588538972e-03,-2.196058021649273037e-02,7.858598043973903657e-02,3.433331726982145893e-03,6.051911115950441185e-03,1.357049391128354321e-01,-6.322079649312141447e-02,-3.136273058241840356e-02,-2.461273075621314976e-01,1.636595783812457364e-02,1.133377797968706246e-01,9.919352797813711653e-02,-3.035921550990524076e-01,3.055360483377442694e-03,2.573985257778110131e-02,-7.448917620237191506e-02,1.353478007927347848e-01,1.070186763711483274e-01,3.430872388606016031e-03,-1.996818482960566188e-01,1.269167423383278370e-01,1.742908961679590640e-01,-1.748533577824856466e-01,-7.245889657743689316e-01,-9.861104520531974171e-02,-6.163599997588601331e-01,-2.481719604324499617e-01,5.860855399240552654e-02,-1.378851338692256845e-01,1.028657986376190492e-01,7.064398186216536146e-02,8.945916751851938631e-02,-3.270325019807616973e-02,3.781657030739505460e-03,4.646536596289822102e-02,5.886267029688592011e-04,2.409302546149972787e-02,-8.355636278041828069e-02,2.859515344886762178e-01,6.239681874245789350e-02,-2.274862903958099238e-03,-7.076624906853805352e-02,-9.233641379415162553e-02,-2.739603700204025494e-02,2.108314164865597862e-01,5.071060243002985940e-02,6.313796844818864162e-02,1.755950211366500424e-01,9.900157131582099090e-02,-4.218212855599682079e-03,-7.631744142049574908e-02,8.131626602122358355e-03,-6.271041165156131247e-02,9.716252443139045125e-02,-4.028144142583429954e-02,-1.008817589165863504e-01,-5.022948050438769650e-04,-1.411494525434919545e-01,-4.811223738915034950e-03,1.232750733946167028e-02,4.735588318116139284e-02,-2.143698250252018267e-01,6.505948749049848823e-02,-1.635880380071806361e-01,-2.023331621154872417e-01,-1.583486279471469846e-02,1.793687238493895664e-01,1.199026757438328844e-01,-1.129752096382914267e-01,-4.528088157537771274e-01,-5.289705105257105910e-02,-1.937915024632509350e-02,-8.128823070033203146e-02,-2.899949581929939790e-01,-8.266066676665938529e-01,-1.197870533589379533e-01,-1.450951500043767273e-01,-4.232008749846347118e-03,-2.638088990239011167e-02,-1.396454595506743321e-02,-6.637217322462438118e-02,1.404470942160115643e-01,9.101056812415554698e-02,6.490007319181000968e-03,5.437556366640088762e-02,7.391180590963947195e-02,-5.777088942540938854e-01,-1.489274091502211517e-01,7.110211784035960769e-02,3.441279433579642194e-02,-6.117766231675343669e-02,-1.873459450840272711e-01,-2.059238474314899550e-02,1.084007512103883283e-02,1.937849113880214455e-02,4.223900315842710890e-02,-6.486814876353710346e-01,1.376320247349153286e-02,-8.125659043594542219e-02,1.261034199072914586e-01,-1.675346767877187310e-02,-1.058476505592506958e-02,-4.080255652688599133e-01,-3.239602829607470674e-02,-1.192923037380152623e-01,-6.282958207350727298e-01,3.196427127752277109e-02,1.727874752340650966e-02,-3.475100608127226071e-02,-1.698067072519056087e-01,9.296559694392264594e-02,-1.530967134137599661e-01,-8.488243363625067039e-03,-1.428117171142430641e-01,-7.429761923471216167e-02,-4.265418826857991230e-01,1.908267300612868644e-01,1.901302790583206670e-01,-1.797416922742849366e-01,1.127769218735414913e-01,7.902041240078389039e-02,-7.270652641835242957e-02,7.586486708374939880e-02,-4.488934122718775399e-02,9.070679723643133852e-02,5.632995686969002533e-03,1.294422730812105904e-01,1.388025576975733255e-01,-1.587105612363208240e-01,7.338188509547427518e-02,-9.253440076505331296e-04,-7.049296232665916428e-02,-5.351255958503519095e-01,5.463160653967235464e-02,9.830650402861466908e-02,1.326651013909043997e-01,5.653441000943057460e-02,1.073053489379840741e-01,3.091969987303388318e-02,-3.890965613153440916e-01,-4.491747167662843432e-01,-3.804289508009177090e-01,-2.051181882757992583e-02,-6.168889609568212196e-02,6.096657777972317588e-02,-5.445292831276079409e-02,-8.450246817151142731e-02,-5.212358985542172585e-01,-2.363468399726999930e-02,-3.526462083457829362e-03,-1.101490371785459194e-01,7.739257947103031499e-02,-3.712496983610475559e-02,-1.239750020233149480e-01,2.431555649044893960e-04,4.884679986983136990e-03,1.195636474011624456e-01,-2.622187279857382189e-02,-7.618799373474325135e-03,2.932333804700723578e-01,1.939345842353394633e-02,8.227977556346563470e-02,1.561681296695417026e-02,-4.639614836096807304e-02,1.130111610775569181e-01,-2.830405304092438179e-01,1.886237053884503856e-01,-1.208306916111690221e-01,1.467009449671649035e-01,-5.947128948263390447e-01,-8.946847624594229664e-01,1.080807417641689722e-01,5.802355142021416168e-02,5.112806939602953377e-02,-1.588752763841570215e-01,5.713306170765744540e-02,-8.228280248108456665e-03,-5.296774621774849034e-01,2.981829580788609990e-02,-3.941724169412601508e-01,1.279196924332645369e-01,-5.841872215640876373e-03,1.617609542403425638e-01,6.313215695082923136e-04,3.188835755369812119e-02,-4.947609129757088442e-02,-2.271707061828488472e-01,1.942486980485536724e-02,3.548485241454864270e-02,1.249153815266254922e-02,3.120013010466129444e-01,1.536930707016459230e-01,4.128370058223734818e-02,1.368264608524878412e-01,1.299304138156143207e-02,4.787346084161246684e-02,1.172584947453816501e-01,-2.020639248045665581e-01,2.004951035259887673e-02,1.754853810818405579e-01,-2.332497461159471763e-01,1.564531463049720905e-01,-4.493542662253735553e-02,-1.351661748392769813e-01,2.177548361994821602e-01,-1.692259499461242489e-01,4.210056758522257025e-02,5.231806844323719924e-02,1.635717582744580512e-01,3.835838670556326879e-02,3.733798419673720753e-02,-2.710450073791574876e-01,-2.210214345904464722e-02,-1.317236875208774027e-01,-5.065186640834964393e-01,2.181505855713499753e-01,1.116816259555795388e-01,-1.097343495433401594e-01,-8.365144989991704638e-02,-2.910768379261840511e-01,-2.302265350700018476e-01,3.471905086445725101e-03,7.644200706668909107e-02,3.866649873159788003e-02,-1.632103223182720594e-02,3.949749094427272567e-02,8.833905701655735132e-02,-7.810300146068784033e-02,3.796822930587744060e-02,-5.174063667169873093e-02,7.412186854950311710e-02,-2.445495831254322974e-02,1.640351356594978161e-01,-1.917018247261324804e-01,1.772343075607931903e-02,1.781395023401658173e-01,4.133941375100207843e-02,-9.880652364649122887e-02,9.646009497265541077e-02,2.652672839833337126e-01,1.271898442641245519e-01,7.420511269339096459e-03,1.365633821282562742e-02,-3.561836534629511664e-02,2.773234813671970334e-01,8.190054265644225451e-02,3.908005568198006209e-04,5.146650530617326302e-02,-5.037345066191420417e-02,-2.762967786085444022e-01,-1.011615766956642792e-01,-1.165253713866474528e-01,-5.794464059945006462e-02,7.032440235151902336e-03,-9.818689870458649493e-02,2.426369953612948771e-02,-1.197597560924374034e-02,1.744965246902713957e-02,3.935435894178590521e-02,5.242848318089422463e-03,-4.984488402310633393e-01,-1.204582274275365142e-02,-3.563459874716078946e-01,-1.006597097243642526e-02,-3.570546073755473393e-02,1.324269476170422677e-01,-3.848939662302656717e-01,-3.649188851028094538e-01,7.984607752859136653e-02,-4.855231030585908936e-02,1.459412071862544458e-01,-1.925327467066580422e-01,-1.288793385312051731e-01,-9.031333952159234513e-02,-1.470879681507074321e-01,-3.330665254481609550e-01,-3.640582396741599142e-02,2.018235808297277889e-02,-1.718741711829345209e-01,1.657299958630620643e-02,1.284000576296788765e-01,3.702532622672417839e-02,1.345223601746396158e-01,3.179206806757884848e-03,-1.539213849952374702e-01,-5.156541656659285877e-01,2.002737670064659303e-01,-1.469554870329640439e-01,-1.667959484199656173e-02,-2.299098615708619966e-02,8.014496459401252576e-03,-3.080066939970250162e-01,-2.546570613370696123e-01,1.078630869208053490e-02,2.374059497816925490e-01,1.587893491191000664e-02,-1.913721686175317294e-01,-1.935853305289349180e+00,2.091258456389562606e-02,8.139911743932608246e-02,8.129173889611075732e-02,-7.434428195111135451e-02,9.300446888902119680e-02,-4.797505036107624354e-01,-1.652572074018771042e-02,-1.323465654616096110e-01,1.281202521130721805e-01,2.125128669165065876e-01,-4.389794846425098401e-02,-3.116656208298477782e-01,7.190068864735454923e-02,1.018057089249129743e-01,-1.612129593424694862e-01,-9.825251390150354647e-01,-6.460431355609375093e-01,-1.233735110827264281e-01,-2.564240602979535599e-01,8.907897632077789105e-03,-2.621627314406821396e-02,4.565792879609086724e-02,-2.811394632325909778e-04,-1.034418375544150281e+00,-7.022115763417850764e-02,-1.509416742796194366e-01,-4.548538521143954405e-01,1.415449121340831562e-01,-2.380554977843306053e-01,1.000226406246754324e-01,1.324062331275331350e-01,1.013705672592862400e-01,-3.775797989887105244e-01,3.474718479042127051e-02,-2.855135715812383984e-02,1.952670718874251893e-02,-1.461402847761252843e-01,1.646585720183076917e-01,7.724059954284752394e-02,1.868343218742476650e-02,1.587011504239684706e-02,-3.349405575546656605e-02,1.371408701819910002e-02,-1.669266598141685293e-02,-2.375929443224126733e-02,-2.820995281336746013e-02,-1.594174135017754068e-01,1.439939344990828068e-02,9.422949111070883302e-03,-3.503573842680433870e-02,-2.857848419035355914e-01,-3.316271805776097731e-02,3.916780527894639374e-02,-2.347860687912560126e-02,-7.433182393704465540e-02,-1.672865592810990898e-01,1.584217230423924649e-01,1.239765098622587353e-01,-1.383272601597112517e-01,-7.287711335072585839e-02,1.312179428634506761e-01,-3.039118281900966487e-02,1.160118953622725838e-02,7.939758975521628639e-03,-3.906960192944136101e-01,-6.823478558172181296e-01,6.840405682688728388e-03,2.533198342036806910e-02,-1.576072691611089815e-02,-1.548462881008054182e-01,9.252130500652817890e-02,-4.165784407311716453e-02,-2.122956435664246841e-02,-2.281046866008427099e-01,3.644645173142915112e-02,-3.122906377400029854e-01,1.334355806220176577e-01,-6.459225452879353846e-02,-5.460245020803828481e-02,1.070100302792904717e-01,-4.912285357635111649e-01,-1.761560247557246786e-02,2.200864833352199068e-01,1.142685144241896156e-01,-6.054787613921421841e-01,-1.196466632999164947e-01,4.955919948064222563e-02,-4.241399011688359345e-03,2.943672084425105057e-02,-2.016875354369913609e-01,1.568772267565555698e-02,5.595998274294334413e-02,-1.258489339547144426e-01,2.738448662180690066e-02,8.890840268476539465e-02,1.444510137717844867e-01,7.218161588444307018e-03,7.600579748385549728e-02,6.507415802527242998e-02,2.192999519344614456e-01,5.970770251398638262e-02,1.597412982186801125e-02,-9.779810225601349993e-02,1.228587519255408197e-02,-1.751016128676175232e-01,-6.044210729389196124e-02,3.869171632170213988e-03,3.167218074640269776e-02,3.447237856110749871e-02,6.928859317432331175e-03,-1.182112378486791480e-02,-3.256307404978150272e-02,-1.943992092816481526e-02,-2.675652588776285534e-01,-5.674300646130034202e-03,-2.772651244661224479e-01,9.980756762186956260e-03,-6.379054733391482934e-02,1.202728030356279079e-02,1.691209456049610690e-02,5.698533672472742839e-02,5.267278660631382475e-02,-1.403230021028022134e-02,2.460585316465177530e-01,-1.514956760224940059e-02,7.622339895628797712e-02,1.247943110999458899e-01,-6.581125210711146617e-03,3.392841562893510188e-02,1.324895143869544469e-02,-1.022258195925130009e+00,4.835577094114423824e-02,-2.357366624008164213e-01,2.085430142178569882e-02,1.193345947598011408e-01,-7.507666502149432791e-03,6.651317000820662628e-02,1.760485975148374377e-02,-1.250466602593490462e-01,1.670801126246710400e-01,2.573353950930557313e-02,-2.031047538106374728e-01,-7.680423752616144517e-02,-1.865124757922328180e-01,-1.274008618461448805e-01,-6.163692965637072863e-02,-4.408475503707137005e-02,6.445112216375419034e-02,-7.688432700206067338e-02,1.152812430609062924e-02,1.690344276541909385e-02,-1.951427435067556448e-01,1.001218214961254876e-01,6.048019258966200185e-02,3.504739431976502950e-01,-4.249777461135322704e-02,-7.052271040755284659e-01,-1.389063128440462813e-01,1.423444995798612556e-01,3.865360362527732463e-02,1.010767024186036006e-01,1.095559457083993132e-01,1.264638024327952581e-01,-4.128802851740814295e-01,-5.795696183900400644e-01,1.381006256300663371e-01,-1.709505189831219962e-01,-5.474821684138034827e-01,-4.834814118081232764e-02,4.058279202092011234e-03,7.854280822222757530e-02,-2.155193393519601319e-01,1.339122907246351711e-02,-2.718187284554673400e-01,-1.736225981065371848e-01,6.425882193503522355e-02,7.642405063429752454e-02,2.528420896995844380e-01,3.800305150318990938e-02,-2.427219599531517391e-02,-1.367365373271052509e-01,-3.413089056307203051e-01,-1.129541317666682837e-01,1.853715956658305575e-01,-2.927927555333143528e-01,6.114486199333626221e-02,-1.252083462697311522e-01,1.945592180242413372e-01,3.022488113214102587e-02,-1.880345257808575463e-02,-1.906305499705353767e-03,3.866499336055206470e-03,-1.660246807736396879e-01,8.550810624536288318e-02,-1.051705658851968209e-03,7.407208035903765919e-02,1.395257211682652820e-01,2.013578780952990366e-01,5.927437055500647117e-02,-1.753430745137729780e-03,7.650946638202033023e-02,-1.458818909139256992e-01,-1.995349242408628876e-01,-7.553768572081548394e-01,6.017066655435773098e-02,-6.177668971809523457e-01,-3.914808517889712958e-01,1.258551402995719028e-02,-1.883943006894386041e-01,6.334152869229364713e-02,2.047737863241470280e-01,1.028655621733114839e-02,1.957103093312365788e-02,-5.535526635352873148e-01,-1.201909988770010068e-01,1.575900598925468465e-02,-5.774861630708256754e-01,-7.020698303981113275e-01,4.925683853324284989e-02,-1.226592611539976674e-01,1.674507999894693511e-01,-1.048811112738597812e-01,-2.582845735894697889e-02,-1.960635942519805275e-01,-4.078753429965545352e-02,1.773782179332257167e-02,-1.410199562257607453e-01,-4.704080579761692887e-03,1.356108047425187701e-01,8.377540585499315684e-02,4.915848379273558139e-02,-8.801505715565213772e-02,-5.401881306961671125e-01,-1.302929500172318733e-01,-7.465303230717652561e-01,1.084543628442626723e-01,-1.500551569132286406e-02,-1.219209648605831670e-01,-1.141091191719501990e-01,-5.209443894549591059e-02,6.806422050121620215e-02,1.247093870523548198e-01,-1.085096801490063712e+00,9.454455894172988928e-02,-6.078867705992051507e-01,-1.180363099023573961e-02,4.651886081393354078e-02,-9.446770862545353017e-03,-1.123077057529893799e-02,-1.881853581606795500e-01,6.506033436983409135e-02,1.765817899694250570e-01,-2.371773307159365518e-01,-3.725779448726068005e-02,4.122807765376113216e-03,-1.092091699722947534e-01,-5.364977393155392904e-02,2.071964273287025537e-01,3.267422103494067170e-02,8.091459397284821858e-03,-1.725571201712917599e-03,-9.074015326339825160e-02,9.065652048597235002e-02,-3.833240088408521595e-01,2.426049527929229413e-02,-8.930871963187364537e-02,-5.716218490395917895e-01,2.157354735437686521e-01,1.999214752251165517e-01,-3.546637249192845232e-02,9.698567567911604848e-03,-2.872064775047272062e-02,3.463733999389849716e-01,5.706773374790395648e-02,-6.833112174889199864e-02,3.994240138118221317e-02,-2.581489317355824611e-02,-2.880517819723507622e-02,2.079477056929209759e-03,-1.269081775275589796e-01,1.713066778877166824e-02,-2.031045691592987465e-02,-1.193335475596529228e-02,-1.971066203222209268e-01,-2.146304478787487702e-01,-7.993949634911941271e-02,1.277459148632328900e-01,2.423314867371452637e-03,-3.239768953990153078e-01,1.443786816520978011e-01,-1.139664212177918107e-01,8.645602334358942764e-02,-4.556276226499818977e-02,-3.769843285981223646e-01,-5.814782457291635120e-01,-4.621950994101109433e-02,-6.664892593286123601e-01,1.164553447963974642e-01,-2.026449993632758739e-01,-7.950815983327408354e-01,-2.919594704815095879e-02,3.256816501895343913e-02,-9.299647198667732040e-02,-1.851755598725600693e-01,2.121348898804449601e-01,-4.191041007550685427e-01,-8.197039985290522496e-03,-1.520652081781715022e-02,1.321746226209565556e-01,5.744155484598564149e-02,1.303564083323389099e-02,-4.038348849362997234e-02,7.131980471493973295e-02,1.226923734301548774e-01,-2.359185103971993269e-01,1.725645530293381733e-02,-2.618434059666615785e-02,2.037409256649268807e-01,1.547028097619081721e-01,8.367733502646250432e-02,-4.745997796858178464e-01,-5.070207308127729906e-01,-1.407239174370267465e+00,-2.881941754652763144e-01,-4.363233023463941596e-02,1.713469066912170049e-03,-3.999100274092987628e-01,3.210377679404097934e-02,-7.024461838829570981e-02,1.821865074891365274e-02,1.667018115865685074e-02,6.786328367720054211e-02,-8.944747824378504117e-03,9.608632854989716809e-02,5.695443605497550223e-03,7.972356080647406695e-02,-3.349350309415581317e-01,-3.489308801755316297e-02,-9.939152368662315662e-02,7.822116324385224029e-02,-1.747474219234440573e-01,2.381842027766842979e-03,5.394900321010177163e-02,3.532516757132258406e-02,-1.222722034230183247e-01,-3.327696752843072314e-01,-3.045112217134087265e-02,-4.833732439008729632e-04,-6.639307892392161126e-01,1.204849265918460886e-02,9.156446046007182815e-02,-2.289525606362751917e-02,6.200622560152741630e-02,-8.421466830769089307e-02,-6.996058289903449301e-02
-2.408669893873810197e-01,1.286930507583758376e-01,-3.659605505918381990e-02,-8.468388290815735350e-05,9.146912871158888181e-02,-1.344321986195448071e-01,9.590565830682377946e-02,-3.825185240051381941e-01,1.597486037585216581e-03,7.548755534028540881e-03,-4.003813316539892031e-02,1.128034524353790369e-01,-1.029532914875649734e-02,-3.833764656933615900e-01,2.117616208989925031e-01,-2.637998922952453085e-02,2.033805584823542012e-02,-3.884098370261258037e-01,1.541234176993764859e-01,-7.546458427207682063e-02,7.203340539589928038e-02,-1.148688381816231008e+00,9.023853319204996719e-04,1.093387192363655253e-01,9.903120848276564941e-03,-1.449197028704443946e-01,-1.762448813095979575e-02,1.213753543743296276e-02,1.135467509339865497e-02,3.889401763973614201e-02,-1.748289996637083787e-01,-2.673687159465617472e-03,-3.995141239052191207e-01,1.190821983350820318e-01,5.420227996038167427e-03,8.238970556992446237e-02,1.319511866280450446e-02,7.526629636312463789e-02,-4.995287338114621223e-01,3.780375458617536016e-02,1.080900053036603636e-01,7.899017815696719735e-02,-1.432404895817913359e-01,-4.397210078030156510e-01,-2.588053630713386261e-02,-4.130513790039717914e-02,-2.365748608598364500e-01,7.296635010639400051e-03,2.997054276851806101e-02,1.254961856543821697e-01,-6.865426527155077396e-02,-3.017864343071850475e-01,-3.042338843442208337e-03,-5.905618867643532693e-02,-1.311152199000778507e-01,1.672630651207182573e-01,4.435814004967827268e-02,-5.214344559515054350e-02,1.814740771290051791e-01,1.474848289306557314e-01,-1.830024203747557601e-02,-2.403413193187148578e-01,5.888820573697060683e-03,6.170987403708370206e-02,-3.236940891181568358e-01,-2.776011851116139684e-01,2.028619423154329748e-01,2.549271989857683149e-02,2.898999636365804169e-02,-4.362707122105970170e-02,-1.445306426900497265e-02,-6.698542198778087431e-02,-9.463125562319825435e-02,-4.763955155199933178e-01,1.451516767683758711e-03,3.320590913997910343e-02,-5.813043981355529022e-01,-3.471942401474927831e-01,1.027856166422949913e-01,7.770275595179681680e-03,-3.260749714166443630e-02,1.762919744382468179e-01,1.092856500159836292e-01,7.103756790464165610e-03,-5.233245191883698771e-02,2.976517501580832475e-02,2.039096510338161694e-01,4.174084788484744984e-02,-9.552168375255359889e-01,3.485670369512351707e-02,6.301273432090299942e-02,1.700387809620036161e-01,4.445358692963406050e-02,-4.031128235854501002e-02,-1.249509200085320570e-02,3.145345571423278919e-02,-1.660338367170142646e-02,-1.024489605766736380e-02,-1.843544832202659023e-01,-3.493533216923280782e-01,-3.633747999894494929e-01,-1.881882906481439632e-01,6.060657286403424437e-02,-8.793925208421236872e-02,-2.045044832529820025e-03,-8.289710807534191039e-02,-1.473384683949557350e-01,4.289012184843617875e-02,-2.516827872691110302e-02,-3.274807848361502849e-01,-3.082322367933658658e-01,-8.829151601638869640e-02,-2.094531785092442963e-02,-1.652183800289545035e-01,-6.524911140550726518e-01,3.057347785572680707e-02,-3.144439606972123658e-01,-3.119678202130248337e-02,-2.702990580335787874e-01,-1.103442695229740617e-01,-2.104889218324031697e-01,-3.662951376681444771e-01,3.534565433381316180e-02,9.179479484819651203e-02,1.570415706489164953e-01,-8.735294066615112429e-02,2.131100263666481712e-02,1.506186910417524061e-01,4.537571031022367973e-02,-2.070036139141713250e-01,-4.855721733996209988e-02,-1.460034236378557814e-03,9.858000675913390631e-02,1.499691975477370764e-01,-6.159962651550075991e-04,1.734782500998439669e-01,1.526626083180065707e-01,-4.385273459697942022e-01,-1.871816093466018016e-02,7.574040742395934944e-02,-6.762411789647093663e-01,-6.682134958794963553e-02,-2.755629255321961901e-01,2.255333060575670512e-02,-1.935523672267813189e-01,-1.561379506185933963e-01,-8.087139711683943855e-02,-2.694836131226991185e-02,-7.444630888957833037e-02,-9.051794739587714148e-03,1.471830956971336701e-01,7.921128040998322295e-02,-4.775344546140917155e-03,-1.167418780501530279e-01,1.309556855756406624e-01,-8.115172069175760616e-02,3.102642164017314214e-02,-2.043348388728172538e-01,1.756961095167212591e-02,1.165285191270219040e-01,1.461814190168274873e-02,7.419685348783693069e-02,-2.940194952865993749e-01,5.705580614183849986e-02,7.740739683332142906e-02,-1.746342854367973971e-02,9.206705142715976287e-02,4.062810255102511370e-02,3.497274369807322481e-02,2.123149280806637881e-02,2.369440177934378430e-02,5.313826429612561464e-02,3.344629689669192246e-02,2.329460432480646992e-01,-1.653776976964962085e-03,-1.852502626566629755e-03,3.461546567394433588e-02,-2.201251257431908331e-02,2.803680815915819084e-03,-3.987742840868808460e-03,-2.508869609767769640e-03,1.000711931571384161e-01,5.174008685770799428e-03,1.370242025629595656e-02,6.038515289606890060e-03,3.734828853539434029e-02,-4.327792690098071215e-01,-1.563725126703908452e-01,9.480288477536615022e-02,-1.122387805292938967e-02,-3.592177072175111729e-01,-6.290603650630314236e-01,-4.319128301106523599e-02,6.920563339217546128e-02,-1.225606538135054768e-01,-2.391217720380859890e-01,-2.661109193947803764e-01,-8.573738237415319541e-02,7.253138191368901748e-03,1.429535242425985023e-02,8.758743806125551812e-02,-1.106894985771119007e-02,-1.865012898343460044e-03,4.442793179162959211e-03,-6.253208367132616526e-03,-7.692373549769442043e-02,-1.633693732768578544e-01,-1.820028433960704239e-01,-2.348893562450218020e-01,-3.790515025476036692e-01,8.374257756954490983e-02,-4.961070874176075861e-03,1.163138204202233683e-01,-3.474138826694759818e-01,6.322046204963910343e-02,-5.389871489502362500e-02,3.135496074162691382e-02,8.180250748664046057e-02,2.274054267815803776e-01,6.083312271344332167e-02,1.232880970829609846e-02,-1.191412823447440469e-02,-1.320536972089823152e-02,3.994769459965581693e-02,1.647629752462627731e-02,-8.163176358465270774e-03,9.829538114237132418e-03,1.732164288158317134e-01,-4.145594784043878100e-02,4.549182892952739754e-02,1.962364391965008004e-01,3.784210368442706557e-03,1.245023883415389554e-01,-1.013021580456759385e-01,9.621870494460166290e-02,1.048263389787278538e-01,-1.981343052240207639e-02,1.279431513583612623e-01,1.753424008111317822e-01,-2.723714149249948369e-01,-5.935982898329426050e-01,2.474124686289660285e-02,-1.383603388293153449e-02,-1.975142208151582646e-02,1.984267145025285159e-02,-1.227227204532409660e-01,-1.031318118449456173e-01,-2.743192313233454027e-01,9.667193441136739951e-02,2.594809492689449937e-01,5.281769116192239211e-02,-1.801775045910514461e-01,-9.653688278763464248e-03,1.068123292415034120e-01,4.260431823539978513e-02,-9.558695223100266425e-02,8.803672360987145618e-02,6.695660875339597140e-02,1.070537125525291254e-02,2.546354802973981035e-02,-5.338653697411506471e-02,-8.615485371841694051e-02,-8.290072378627591498e-02,-2.452887946482188164e-01,1.000259411889054539e-01,-1.320178664068067942e-01,-6.937032977167072179e-02,3.584823820863876354e-02,9.830298187040514488e-03,5.875023303123773528e-03,1.451451888942358881e-01,-2.669489875333379003e-01,-9.495403826964702795e-03,-2.720387220152417629e-01,-4.511574503173623046e-02,-4.954459881513754715e-01,2.400729214322854920e-03,5.888253344593161187e-02,8.693667951224012813e-02,-3.269244104167864234e-02,-8.979787498716847172e-02,-1.602929273030351820e-01,1.710083195389658708e-02,1.707827454553608737e-01,-2.254445227758518633e-01,2.631790803458780928e-02,2.015615232419384548e-02,5.096554708567747893e-02,-1.098902775550249095e-01,-1.001848613981464187e-01,-4.723748093752323796e-02,-1.863263716278474799e-02,2.157651279298866687e-01,1.378157163243138861e-01,4.030800426615565972e-03,-5.607252405946097085e-01,-9.677275040508477588e-02,5.607415709602086434e-03,6.328293132453617631e-02,-1.019584525518101303e+00,2.279741933663748804e-02,-3.080192193517563085e-02,-2.023483814696871164e-01,8.328675793151142648e-02,5.109791194399460751e-03,2.253054330201139169e-02,-4.329263131394116559e-01,-1.744971745445124955e-01,6.344936152773986149e-02,-8.809060118723582855e-02,-1.092053102375974312e-02,-1.734190125305307400e-03,9.957112471939625134e-03,2.732781271991804178e-02,4.753847754240671242e-02,8.109308970135184480e-02,2.172833988212748927e-03,-1.673988732621667017e-02,-3.147310325901355732e-01,2.941967654691124076e-02,-2.120338987101144310e-02,-5.101506670652873332e-01,-3.699431441900790651e-01,-5.657348370669268434e-02,-7.152460532580941178e-04,-1.977086768893401014e-01,-1.272623316851858449e-02,1.815383983819881045e-02,-1.473805648763470699e-01,-3.569261149008480238e-01,-1.115084377309692384e-02,3.463842364596982082e-02,-5.097812600142203904e-04,1.076163958982393892e-01,1.904644884648855731e-03,-4.934213710283852361e-02,-4.121752891138593111e-01,8.955263112547920401e-02,-2.387525556674711114e-01,4.224690029192126883e-02,-1.799584345463181578e-02,-5.883225579097958735e-02,7.865257648895056242e-02,-4.621820679274455390e-01,7.679990909513971786e-01,-2.064452563872505586e-02,2.603633222114187448e-03,3.278819178816511082e-02,-1.212197821504481729e-02,7.023766627688938016e-03,8.179852259694062738e-03,4.582940604924866899e-03,5.240870291103307821e-01,1.232151446271988540e-02,-4.733815872583745088e-02,7.641655086982576672e-02,-1.143203710590091349e-01,-9.888561218821527443e-02,8.464907025899379156e-02,4.758409589567321185e-01,2.397578957683265885e-02,-2.138517199351952780e-01,1.407132301677483377e-01,6.258688484486096826e-02,-1.110994176897620728e-01,1.973760666233585759e-01,6.794085888775967808e-02,-5.342386107798697825e-01,2.123377309869276808e-01,-2.346454095884366597e-01,-3.071274688644396247e-02,1.064570184142924480e-01,-6.172481630186814616e-01,-6.107067017863763991e-02,6.109365816952763532e-03,2.409528123751536813e-02,5.100434594573042407e-02,-1.755987042924689323e-02,-4.999739360874164845e-02,-4.212673971720137245e-01,5.100008819794724091e-02,-6.205424176451956875e-01,1.505776230149458439e-01,7.781323418321725582e-02,-8.398480674681882419e-02,3.315284868244057492e-02,3.945584136019821692e-02,-1.994259033080084675e-01,-1.053134361583410034e-01,1.373143217337685976e-02,-3.694924420388912001e-01,1.435116529479176783e-01,-3.650510352879558079e-02,3.894379784672815509e-02,-2.284086741451396008e-01,-5.445511709871642819e-02,1.145326425580125013e-01,-7.802967034595881257e-02,-3.941646699417035438e-02,1.999767890298817866e-02,9.096937066520942305e-02,1.142663907610729918e-01,-4.015482786275894472e-02,9.045326651341356605e-02,-6.397345330906514457e-03,-2.315869272279093838e-01,-2.538833842618009977e-03,-3.749068671388642304e-01,3.041344980887078497e-02,1.005746778615433934e-01,1.822636636692090417e-02,-3.394800239464577235e-02,3.971853324369454402e-02,-1.625436691886175331e-02,3.521375900734466380e-02,1.933082181733964192e-02,8.163687137830813456e-02,1.396066794638629871e-01,-6.844358679641596166e-02,1.040666379647498946e-01,-3.142579640020224697e-03,-6.773396484867766354e-02,9.047513838056858715e-02,-9.470620568132133432e-02,-7.247913791038289311e-02,-1.790338911689192958e-01,4.242380667762481183e-03,-6.075952763390992696e-03,-3.552199388209531516e-01,-1.674399115057973245e-02,-7.987255986849645106e-02,5.967132332888356455e-02,-2.560356742195140090e-01,1.376341080608186329e-01,-2.900585974050106652e-01,1.133696210967856943e-01,-5.073397644053269095e-01,3.860999327533336245e-02,-4.054237043841499299e-01,-2.361336607842716706e-01,-1.069712710511919601e-01,-1.390272069432245405e-02,1.434664533265823105e-01,-2.679409813834664200e-02,-2.832000544341686799e-01,-1.677669517500475216e-01,2.460872241501728674e-01,9.884452698490760192e-02,-2.868998496956261524e-01,1.156643516942491290e-01,-2.839968847202760105e-01,-1.352990217505156967e-01,1.684965858767574765e-01,-6.076592950598300735e-01,3.414485727778054057e-03,-3.077366023609134221e-02,1.609619778109818711e-01,-8.100757983673394572e-03,-2.270084808619342309e-02,2.161673383902962264e-02,1.874290568732037490e-02,6.261855956274024748e-02,-2.222913060488582171e-01,1.477472706599379515e-01,5.107437301008994207e-02,-7.810568996180762558e-02,2.266755126495951793e-05,-3.597263606851906770e-02,1.726792194167439329e-02,4.830575529027456017e-02,2.511464591999042900e-02,-2.491139773006856573e-01,2.163564335195646698e-02,-4.652689695556938565e-02,-1.343271630936620532e-02,-2.997924513076680175e-02,-5.469021100289510329e-03,1.435455663641391211e-01,1.807470267569900521e-02,3.853497524803294744e-02,1.716039865537753173e-01,-1.230666554573143709e-02,1.452355949261124601e-01,-2.721231874790931704e-02,-2.923558402126540945e-01,5.996239337914796574e-02,1.866146392982851454e-01,8.267549623668775383e-02,1.031871720151949362e-01,-5.895888839547757110e-01,-4.258556436096170295e-01,-5.120236070064628775e-01,-2.674336140812332702e-02,-6.459957136107687126e-02,-2.962019791530733775e-02,2.972392057317223280e-02,3.196777181678983615e-02,1.155254716614177724e-01,-2.218702687905224902e-01,-3.195818287577787409e-01,9.793987948764958096e-02,6.444818681477116219e-04,9.000544451698497261e-02,-5.099599191811187565e-02,-1.091061585593876337e+00,-1.177628179985586443e-01,-1.987128306075371387e-01,9.445729064798925878e-02,1.929699954832396827e-02,-5.210981290869956539e-02,5.025053715185901632e-02,-2.125748249331764206e-01,-9.256419380418387868e-03,-4.081003018286463724e-01,-2.584966427759982643e-02,-1.207423573987447818e-01,3.725233824109340508e-02,9.003202490112899303e-02,3.531741714523138620e-02,1.182895036955941559e-01,-1.025646718366910043e-01,-4.863786771576215917e-02,-5.755102102330490466e-01,-2.927510426417185077e-02,2.356468880823626988e-02,2.270449735733755942e-02,-8.505788107689139094e-03,1.521354670562997113e-01,-1.831774257732668720e-01,2.850947175707121972e-03,-5.762152277846458448e-01,1.440273114638610311e-02,3.822907141412613952e-02,5.634730008163062881e-02,-1.267390250553881124e-02,-1.415760492927968517e-01,9.685929696119041643e-02,-8.485705384059050171e-02,-1.039671526236352062e-01,3.888440922908010383e-02,-1.289849610602272333e-03,-4.943869872768954510e-01,2.179466191343534254e-01,-1.187748035102529215e-01,1.399146031335792295e-01,-2.601846396659398541e-01,2.468966992700394325e-01,7.009576536140160914e-03,3.268183075633659951e-02,-2.728958581980155812e-02,1.563422818609502274e-01,-4.461504279753422501e-03,2.348010138733050856e-03,9.767605192025095862e-03,1.026117592974823932e-02,1.238681384452145623e-01,-5.579597690049572511e-01,2.172025989109191424e-02,2.485648646818821098e-02,3.566286194760624056e-02,5.191387980575626337e-03,6.912512322665527453e-02,-7.096981923565680306e-02,-1.102229051508894497e-01,3.477423600354453276e-02,1.998013230776174431e-02,-2.938397766480316808e-01,1.299809993664495511e-01,-5.411013536483239017e-02,1.537453012958665474e-02,-1.465659275927149452e-01,-9.037826289321033990e-02,1.887762451501850125e-01,2.259641691816515197e-01,1.941210263487566090e-01,1.289055875814351659e-01,2.292955059795920847e-01,1.170083982994259419e-01,3.666762020440713504e-02,1.089203790188410514e-01,3.109539809172168906e-02,3.617289420720140591e-02,5.928961541682925551e-02,-3.576865733681740614e-03,-3.393191216633252294e-01,-1.833516892155286071e-02,-6.158097512309421706e-01,-1.792596515142434385e-02,2.193369217000107896e-01,-2.668428188320117744e-01,-3.183201272515945868e-01,-1.778215215930213089e-01,1.468054236606877640e-03,-3.947159393894152102e-02,-1.853904557054244714e-02,-1.014354534170698770e-02,-1.601101064367058124e-01,-1.183812904635433427e-01,-3.707171028472175389e-02,1.678451005060181134e-01,-9.102778607614242512e-02,-8.219530355668540345e-02,3.260081651552027785e-03,7.838605504912928013e-02,6.041695302766983931e-03,1.472588507020309613e-02,6.998762716945060303e-02,6.455989523967456400e-02,-1.947496958426366345e-02,-3.794410239589994516e-02,1.591084204819276371e-01,-3.036760828362070064e-02,-2.333336948586469447e-03,8.014548083872692630e-02,-3.290413587353852032e-02,-1.229198422633153293e-01,8.781259660146145674e-02,9.808492653173531139e-03,2.698266171493029497e-01,1.823543601715226989e-02,1.290983407045894621e-02,-6.811808297328121597e-02,2.065835040593316796e-01,3.014826629323391072e-01,1.713269026019227301e-02,-3.411029455911214203e-01,1.049264518664141943e-01,2.466317700196637985e-02,-7.568175837160799786e-03,2.488430331028895076e-02,1.864386973918327273e-03,-2.261668966934523017e-01,1.040319731823217686e-01,-6.324275885711476419e-02,1.056857813303399563e-02,8.093796048870173232e-01,1.008892828192954200e-01,-2.296966418438062263e-01,-2.213428397599969399e-01,1.926248473748576884e-01,-1.033596989241826331e-01,5.297865387016376798e-02,-2.263874541233570556e-02,-6.157965127972091918e-02,-9.201357886650637918e-02,8.250838434735521809e-02,7.513794046480068434e-02,-4.590233878198391598e-03,-6.068945614173548893e-03,4.150047098417743163e-02,-1.568703920708614322e-02,1.251503763209090292e-01,3.807163574461511213e-02,5.777579570267755982e-02,5.592806351288841411e-03,-1.937895035093267077e-02,-1.606639358871554957e-01,2.430468533211879723e-01,2.624665306297027656e-03,4.237692080022607555e-01,4.877176421909316939e-02,1.230443759867771991e-02,1.059294025652754573e-01,1.487252531976234471e-01,-2.286691325614348055e-02,1.058830677803903886e-01,-6.861270284602235536e-01,-4.388073151111762105e-01,-3.282482019874386186e-03,1.474509159891780607e-02,4.931532564053777573e-02,2.046371238714699697e-02,-1.291369465244035786e-01,-1.373888577945013845e-01,1.112743788272666512e-01,-1.368558641328690428e-01,-1.366024180365491558e-01,1.128294330111517668e-01,5.879316420935905979e-02,-5.167514479018546769e-01,-1.456696512370138710e-02,-3.105739589965222230e-02,1.178247137178889126e-01,9.043826984569113339e-03,-1.239589813061792948e-03,-1.680651085324222638e-01,-2.210886100528996201e-01,-7.384967418455145628e-03,1.905320991224919913e-03,1.843395242076258447e-02,1.540456915282752692e-01,-2.107788854229069100e-02,-8.781739995601862692e-01,2.179134874425755694e-02,7.824408782149074038e-02,2.340866385255409854e-01,6.908621901222052053e-02,1.174666227536911856e-01,4.131773398559888261e-02,1.065704660376552287e-01,-3.016839683814560580e-01,-3.977586829233659138e-01,6.617689948824477530e-02,1.871485327341777111e-02,1.324835811267410964e-02,-1.312420804868751345e-01,3.462214207070190425e-02,1.703793602575132959e-01,-1.636962790128204670e-01,3.234347041204083811e-02,4.976560757902163956e-02,-1.477764439112198291e-01,-4.211266247040328786e-02,8.433264605977892903e-02,9.600303898404061176e-02,-1.004733583809751807e-01,5.011547240416028282e-02,1.838018050821463856e-01,7.457567381551070962e-02,8.950999779841974091e-02,1.205733511708103195e-01,-2.426023356788438168e-01,-6.008663555741484974e-03,-5.278898181382789545e-01,9.070209673708203024e-02,-2.893836367650602370e-01,-1.487674480366077967e-01,-1.270079193193702875e-02,-1.972878117565507738e-01,-2.431846202830718548e-02,-1.027904260031494155e-01,-3.316102216421402526e-03,6.636981364290730524e-03,-5.502720931995915832e-01,-6.107280948850803970e-01,1.366574577599031191e-02,1.755518089789551150e-02,7.398373096268495708e-02,-1.615134832386691532e-01,-1.503210661984427099e-01,-7.055808932667716714e-03,3.057302303770889282e-02,-2.075746874646049456e-01,3.770138969193648649e-03,-3.861558954540149635e-01,-9.210143115010855919e-01,1.406224602731494244e-01,-2.437761296970601677e-02,-4.322067309207424657e-01,6.155624389271954246e-03,4.871621967954299637e-02,-1.052789973794640024e-04,-8.496841814250161162e-02,-1.555244197465728839e-01,-1.246442310943118720e-01,1.537947101040860499e-02,-5.596290346122618359e-02,-3.646914607598567698e-02,-2.888117144303913308e-01,1.848010744253146542e-02,2.812586284471020881e-01,-7.029294112863722077e-01,5.486831405536622686e-02,2.811121773806913270e-03,1.052516195074095356e-01,-8.064252500374820623e-03,7.572976007673198895e-02,-7.894833943051522696e-02,-1.091965194104849435e-01,6.756863902666171429e-02,1.710199596993507501e-02,-2.686247399153603513e-02,1.472469790065634720e-01,-1.235536821466054480e-01,-1.338820499306199452e-01,3.778030161324081194e-03,-5.065862859824576958e-01,1.052975045963624179e-01,1.725254486623925554e-02,1.453356689146660663e-02,8.968560007849506188e-03,3.659573065689886162e-02,-3.914112286707296384e-01,-9.870333220088737397e-03,-3.480978255839438096e-01,-1.225471692999489381e-01,8.427869465534434945e-02,2.784985921523996238e-02,-6.111076055454655633e-03,-1.629449314753851283e-02,2.155046143904238917e-02,-2.423615143065780894e-02,-2.307602464448951229e-01,1.441298578300080624e-01,7.103724774181861823e-02,6.669507153386815268e-02,2.255905615994749716e-02,3.328069603347746236e-02,-1.048365069142797923e+00,-2.409324015474468075e-03,-2.694315308200032621e-01,-9.048483680319369116e-01,-1.708562105022158606e-02,9.044736192988495072e-02,1.053678695828447372e-02,-2.730661875032083241e-01,9.194659960393768844e-03,7.534312117731210021e-04,-5.672699853998036147e-03,2.943766883427413952e-02,1.845092216378749483e-01,-7.658332668355031236e-01,1.335265454979664146e-01,-4.553331317246898935e-02,1.554744818152095920e-01,-9.369224183576437825e-01,-1.072491885495842345e-02,2.177705528531166945e-01,1.041551835548004679e-02,-1.461340090152268567e-01,1.522785482710667659e-01,-1.386950108939056549e-02,-1.014668861673482109e-01,9.759126310478410948e-02,-1.833534108381719152e-01,-7.098755581515159285e-02,5.354060474976228556e-02,-1.436666885040382979e-02,-6.180729524705150940e-02,6.126732073440816981e-03,1.569608140974554089e-01,3.525044583601356224e-02,-3.333162230433374673e-01,-1.877236500809733449e-02,3.735040892043936522e-02,1.043519233536544244e-01,4.330476314419653278e-02,-3.542429897171417430e-01,-2.674605585432331123e-03,1.389283783807317429e-01,-2.557471510086414268e-01,-1.112342583781269004e-02,-3.832224519218180303e-01,-2.166607431248268947e-02,8.961716914772670586e-03,-2.029679451980922339e-02,-3.588000281392108581e-01,5.941624077755561228e-02,-1.134346511560613627e-02,-2.504741347153872644e-01,-2.435721553255135521e-02,-4.949177826318143514e-01,2.263700303937972724e-01,-1.283886691871599928e-01,-7.678540470965862508e-02,-5.710751279894362709e-01,3.140913918786612065e-04,7.042577169123645595e-04,1.928348375882618301e-02,1.150050556091653583e-04,-5.755313343439183958e-03,-8.159376604857354609e-02,5.258978204496710107e-02,-1.091552577163591664e+00,1.612845038159494981e-01,2.791599005049516177e-02,1.660710594591689737e-01,-2.061632166896208707e-01,1.562469902202624772e-02,2.922685863748663571e-01,-5.391799991607464371e-01,8.884819672436755546e-04,-3.739427173757166323e-02,-4.591789408139945045e-02,-6.550661848200597936e-02,-2.632603725416092777e-01,2.137752638378274603e-02,2.377041623628569078e-01,1.191846603841958674e-01,9.082406776935417203e-02,9.971634390608217699e-03,3.824038209918279724e-02,-1.401702227927761613e-01,1.462327699310178863e-01,2.937212472043962061e-02,-4.799160473356535728e-01,6.243030480141883824e-03,9.514249230554974734e-02,-3.131801722033132895e-01,-3.454882323676494726e-02,7.750532305424831514e-02,8.909821967698250411e-02,5.667488014445351552e-02,-1.846202826950931186e-01,6.847312675627832690e-02,4.678475825315706049e-02,-1.147317615310065528e-02,-3.584636832408107099e-02,-1.277875732505890094e-01,-1.056062426829483536e-01,-1.565798087609291400e-01,7.616270687397535231e-03,-2.283083770160889980e-01,1.102415087530915216e-01,-4.369942807056061973e-01,-2.891681351566116262e-02,-1.724327801153632544e-01,9.631040464626686171e-02,1.688382095406276706e-01,5.888915328528272763e-02,-1.994493294807726455e-02,-1.691033261816532463e-01,-1.783018812177429580e-01,-9.580052292395779823e-02,3.944307348567672317e-02,-1.306094593384500013e-01,-3.001118097418791208e-01,1.473231682990969182e-02,1.322095643612769822e-01,5.280184550460222115e-02,4.989666996212983180e-02,2.656778387683207399e-01,2.691356135880001998e-02,-1.783929406701941509e-03,6.893247126707188754e-02,1.709712800582618153e-01,1.706296343036112217e-02,-9.879115918007428387e-01,6.166556348681929804e-03,8.749671173704039531e-03,-8.956540809533734826e-02,-4.790372981852614731e-01,-1.761680623474808915e-01,1.833749400698291357e-02,-3.178173324247789144e-02,1.067749363500512944e-01,1.967092802082282266e-01,1.796393547610092845e-01,-7.711159845378889703e-03,3.133607702672609741e-02,1.448306163194570950e-01,-3.405724294134152962e-03,2.843868292182564206e-01,-7.300086053918600215e-02,-6.125664216145156743e-02,-6.822975597282862070e-01,1.354855584420986379e-02,-1.518991857179929493e-04,-1.096277440065479558e-01,1.765911013658608836e-02,8.542554351712730934e-03,5.320212733100143036e-04,-2.069768805085113461e-01,-3.953507487932106934e-01,-3.499700178497665570e-01,1.387919791014842197e-01,1.079801403483428152e-01,-3.251273650329854215e-02,5.162908714701665985e-02,1.150520305400394398e-02,8.567085656815796521e-03,1.335492891103678970e-01,-9.632595728486179065e-02,-2.228799002773583782e-01,-3.662702307433367277e-03,4.609508787142636843e-02,1.361852894234164557e-01,1.263204734998771006e-01,-6.135294472682991662e-01,-1.846688638373676162e-03,-6.295834439186782650e-01,-5.338167300919164499e-02,-3.993105594862888519e-01,2.073708947337559172e-01,-8.662829262421177512e-02,3.717092640613818555e-02,2.585615667894935674e-02,-2.260389994093486496e-02,4.168616087887382082e-02,-3.058307233998136098e-03,3.128343201407837032e-02,9.595328458424685902e-02,-3.546067440774679225e-02,1.756209050175733255e-01,3.052172058763871765e-02,1.951941912907564913e-02,-2.545217201804592655e-01,-1.081400140522102843e-01,7.267476109741650980e-02,-5.960300483499604285e-01,-9.198718041899206152e-03,-4.513616251129841384e-02,3.157501165066424753e-01,-5.005730836385027804e-02,9.436357951351472678e-03,-5.922336262317882266e-02,7.343896189926345242e-02,-2.471648819646542553e-02,1.679147290384429281e-02,8.479478785328961599e-02,5.001534931723840283e-02,-3.099747612469020905e-02,-3.114630325619657802e-02,2.785555807184380769e-02,7.119764914216654417e-02,1.581371923604620588e-01,5.158818466536488345e-02,5.542446487920938553e-02,1.002411441132035515e-02,-8.850171997945183514e-03,-4.354275368908801409e-03,-2.496641226346971165e-01,7.724289019961082248e-02,8.014165632690883889e-02,-3.864670194697452099e-01,-3.968837540247266427e-02,-1.220548343522706858e-01,-7.213078826704595325e-01,-2.146144391078727842e-01,8.424379865580413837e-03,-5.449496103865934804e-02,-9.143052540698309513e-03,-3.440846972200154591e-02,-9.457473904819604926e-02
7.331698535514405424e-02,-4.922360685434347405e-02,9.771735631609543282e-02,2.810172805159999107e-02,2.220740305656658808e-01,-4.805697382216942981e-01,-4.024871725183171156e-02,-2.000105621309979653e-01,2.044701854521414897e-02,2.881912080134758219e-02,8.857359249474321128e-02,3.106449715295320213e-02,8.164382077703040419e-02,-4.315539105144821641e-01,1.348376658340690593e-01,5.944058773582037991e-02,3.871882707682444431e-03,-1.033107872317165221e-01,-4.366526549978958643e-02,-1.027672681046778447e+00,6.412864983137805952e-02,7.474892047231895820e-02,6.492237437410985565e-03,1.134002882320440247e-01,2.712568359041764993e-02,-1.577347943934104268e-01,7.935652971972175784e-01,5.997523301249428444e-03,5.749021242304267788e-03,-5.184865173589701115e-01,1.486234079075332004e-01,-8.899494236960257820e-03,-3.299403677337201524e-01,-1.954125529551996587e-01,6.481783220745908174e-03,8.541687259076084782e-02,1.538038277615824331e-02,1.452541191517071062e-01,7.210547297946451328e-02,-7.111375564548040318e-01,-8.751107377508787755e-02,9.988016225061881193e-02,-2.509554998133426973e-01,9.613083956503559735e-02,-1.222355377742070752e-02,-8.562377649172969729e-02,1.268534823491646035e-01,1.892419341280170142e-02,-9.194579735019353661e-02,3.923399632132556353e-02,-5.210790845400028494e-03,1.744064365206187545e-02,-1.143287390745242882e-02,-4.696390085985788221e-01,1.701608685404490950e-01,-2.010443855534040369e-01,1.176821938744690259e-02,-2.154724430361011373e-03,6.204857912701704226e-02,8.043614308370099567e-03,-3.826662001164294891e-01,-3.048677632828090123e-01,3.046518946170691591e-02,9.456999920812350635e-02,4.897653362957005152e-02,2.977757505168464047e-01,2.696621538496898340e-01,-1.381053334898791063e-01,1.082599175985397011e-01,1.101718680735503941e-01,-1.035478538129528401e-03,-6.033191945364121400e-01,-4.664200873750672938e-01,1.350717949428666305e-03,1.967037524653998323e-02,6.878958567985263284e-02,-6.233227594253282905e-02,-8.728166155184681474e-02,7.060401043267572341e-02,-1.612439568979901969e-02,-2.140876481349751892e-01,2.442790729515634529e-01,-3.137321336833571311e-02,2.911445303737333380e-04,1.374370287145347813e-01,5.511029729961877677e-02,-2.281430732442636111e-01,-2.953523965985542423e-03,-4.693894009585359434e-02,3.534711676119531298e-03,-4.491745299255292534e-02,3.293222253888520613e-04,1.408616407022876896e-02,-1.092010222289846677e+00,7.114422300260184184e-02,1.871770852075840472e-02,7.798958969656366591e-02,1.968296496949950292e-01,9.560055531486193192e-02,4.407457623002819513e-02,-2.820372050082949750e-02,-1.125223267071136096e-01,-3.404029895175043723e-03,-3.745368289509470872e-03,-1.474078259787467600e-02,-2.708242363229179106e-01,-5.296204725561721727e-01,1.010788388754320644e-01,1.657950336543699832e-01,-2.650741911076476276e-01,1.154430580403685846e-01,1.809957158177261660e-01,2.050875670739449042e-01,-5.530758490020762363e-02,-8.143595168437460161e-03,1.118573816045622532e-01,-7.803103625631778728e-01,3.111665103266344698e-02,-1.343361059261048984e-01,-4.634770537841939597e-01,6.718018151006965866e-02,-2.377931267435689222e-01,3.375169864427503275e-02,1.858582069322326502e-01,-1.871004105003534479e-01,2.039662299609024954e-01,-1.890429889284158532e-02,2.508097015683490860e-01,7.263228827742038152e-02,-1.474672234251396263e-01,-4.705289944112666517e-02,2.506255100168228514e-02,7.020192320279121379e-02,6.471877319719988864e-02,-7.751396637888614133e-03,9.539384730715114169e-02,5.922692799629524635e-02,-4.579715239998823073e-02,-4.375197325816446159e-02,1.135818726771735919e-02,-1.442309626074275430e-01,-3.013991734250159871e-01,6.315922705983489926e-02,1.279033785727866010e-02,8.359279075312292528e-02,-1.662891016861918481e-01,-7.054432458145263284e-03,-1.645783154408214377e-01,5.142742951160859943e-02,1.565360958513014808e-02,4.301143378153696878e-02,-1.801149769854026583e-01,-4.795319859426599995e-02,1.796615508177629994e-01,1.255092096284921854e-01,-2.911847299482786186e-03,2.259898448742702921e-03,-7.536923664195696038e-01,2.103170407905560410e-02,7.603099447443244230e-02,4.688823731100572045e-02,-1.025705505251281978e-02,-8.537497913085770329e-02,2.973081199830455990e-02,8.808742008630333908e-03,-1.101905250609952827e-02,-8.006768788644726825e-03,-2.751063487865377036e-02,-1.339897141343393272e-01,3.089474741846837472e-02,-1.358014184561847360e-01,9.652924977694861408e-02,1.895338977391886059e-02,1.180054147822054422e-01,-1.625143114041135376e-03,-3.102278709125536049e-01,-2.634992316659896527e-01,7.312190316650624133e-02,-3.865017490843774411e-02,1.520603028759902678e-02,2.713794198549903669e-01,-2.249525992745025210e-02,3.729117310594763646e-02,5.181673546098599509e-02,-5.944433933143672411e-01,2.479484449862496553e-01,-9.289515251755310621e-02,9.276187175313874156e-02,8.824612191509212389e-02,3.007863160205619460e-02,-1.437844985869912162e-01,-4.280821349033367418e-01,1.211384135920736543e-01,6.523856857888127303e-02,-2.231212746193298943e-02,3.325672326329305872e-01,-2.035972715864695914e-01,-8.655598751660834034e-02,-1.373324752728810952e-02,-6.046842329382446854e-03,1.467020106208954122e-01,-4.450021535571597325e-02,-5.630696879108595954e-03,3.055433879286079124e-02,-6.305527029628693603e-01,-7.844557099516365206e-02,-2.040658229659529921e-01,-1.633205165830664725e-03,-5.087331861443101788e-01,-2.610445964503764760e-01,8.391244205756905050e-02,3.431794399984466198e-02,5.535788274628890629e-03,1.187425289108319168e-02,-5.330992377399320498e-02,-4.917696317557440633e-02,4.592601605075095905e-03,8.133185009404633736e-02,2.850340477205429157e-01,1.307055001008125827e-01,1.115824759316637604e-01,7.972283629809774619e-02,-4.594509705222127316e-02,-2.732369943621690018e-03,2.373625728928921430e-02,2.266364504897047660e-02,2.100742292151558735e-02,2.242201653674504025e-01,-2.103712677061337355e-01,-8.974463325596043414e-03,8.772575839772004877e-03,3.162447653703769068e-02,-3.441230894402143581e-01,-1.423251747442758584e-02,3.401415340991306019e-03,3.080993044641474124e-02,7.261079306267299860e-03,3.143498128978871597e-01,1.072784430976798792e-01,-7.812438122092740800e-02,1.399700220714819865e-01,1.611305559197922024e-02,8.343639479531952258e-03,4.704730545639571049e-02,-1.257222756388835143e-03,4.952153113509204924e-02,7.567706450592527612e-02,5.081430120391162292e-02,-2.794331050599132005e-01,-1.840444002148158009e-01,-1.949101412798900923e-01,2.430472949395414417e-01,-2.058764498017444269e-04,-3.128023692369519826e-01,-3.881807209542228465e-01,2.996718233019098412e-02,-6.554592401770216459e-02,-6.561437643462932935e-03,6.031444163589664426e-02,1.699124112126851327e-02,-1.575593947886027024e-01,1.849671333069894397e-01,-1.008060922811069987e-01,-2.350371710354521443e-02,-8.433411463115164305e-03,8.570829922630396336e-02,-7.736915649334451528e-01,-7.003811819792868376e-02,1.169987209980053768e-02,6.453891572191587309e-03,3.249006274651012466e-03,-3.014333860260847153e-01,8.765316335596406777e-04,-1.318544749128055804e-01,-4.529619132191133879e-01,6.051820544354463705e-02,9.047086714378393957e-02,-2.631678256771112778e-01,-1.620448895728046068e-01,9.936784810372337184e-02,1.549468699376091441e-02,-2.713437672817714183e-02,-9.206454270727691767e-04,-5.396301266680105652e-02,1.101902590655620684e-01,5.883826350323653753e-02,3.849410035823417897e-01,1.035056191812494808e-01,-8.708762657053212286e-03,-1.202686074773203773e+00,-1.456501672596170749e-01,2.060190038589330974e-02,2.217225525009038356e-01,1.050742155315324833e-01,-1.836346216449301627e-01,-1.055756655177974429e-01,-5.686615465717055617e-02,-9.810304425233264125e-03,2.878623660485274752e-02,-1.687152902491103335e-01,-2.390888236024667490e-01,5.589342629044562888e-02,-4.794043378134599936e-02,-8.874295278945754095e-02,4.937699052438065256e-02,-2.628458583564721729e-01,2.628282714751691285e-01,-2.030723263336142725e-01,5.618121726683830697e-02,-2.285003138945499723e-01,-1.870816736148224746e-01,-4.331372386774732901e-03,1.852543801186104511e-02,8.780054235410120200e-02,1.878764139655283438e-01,9.152594687918445826e-02,1.111958827546237656e-02,1.124609432630180456e-01,-1.281297884048469282e-01,-6.980248858237149412e-02,-2.646219712709935168e-02,6.752952693744808388e-02,1.473168378841360066e-02,-4.385626123498581608e-02,1.489430520520660349e-02,-1.120506287392108863e-01,-2.424453801411806733e-02,-9.475685377410684486e-05,2.984493579367288318e-01,2.702382747903758764e-02,6.326122663045516403e-02,-4.071011865106737015e-02,-1.371548887813041073e-01,7.579645248523671219e-02,-1.398511894712244075e-01,-1.271535828513764219e-02,1.155248322463707650e-01,2.165976738491518297e-02,2.188216042126695515e-01,2.009679123838714609e-01,1.074322545375103188e-02,-8.430262025569310036e-02,1.337449685998329529e-01,-1.956468577991453961e-01,4.010136995000495273e-03,1.227683313380140140e-01,1.441422933017823087e-02,3.624850761713314246e-02,3.164990183286739422e-02,3.345484282521018343e-02,8.915387350134872362e-04,-4.725499760743636680e-03,1.450199202051959992e-02,-2.367300558248064402e+00,8.539753257597093583e-03,4.922586042710079546e-02,-4.950379991230925009e-02,-6.352585222501726248e-02,4.245946053370035916e-02,-1.474094985281437509e-01,-1.580358722841856967e-01,1.462147943780555716e-02,-2.954925371758967412e-01,-7.415974929444517317e-04,1.936447355717000884e-01,1.004332907858086349e-01,5.873640364488876692e-02,2.157271477414644256e-01,-3.350135314156174049e-01,-3.168871117905424639e-01,-5.336490555396764673e-02,-1.621059255743259875e-01,-8.125630887603102481e-02,8.315527304195571845e-02,1.447629965846053239e-02,3.115028945123341636e-02,-3.632952773286476922e-02,4.704923529168878599e-02,-5.974853054404664077e-01,-1.859023153668420136e-01,-3.717877827130217083e-02,-1.066395519339822240e-01,6.338589044121584193e-02,2.010862156177357085e-01,5.146749424276652468e-02,1.336107687553100276e-01,7.952063327059073761e-02,-2.530827878896063643e-01,2.143942627943684620e-01,8.334923596345553826e-03,-4.124330369040667965e-01,-4.071575907550629148e-01,4.370932536357391429e-02,-4.688736485144543442e-01,-6.267813356504371713e-02,-1.150821667106470686e-01,2.192717727407431372e-01,-7.842292451854915303e-03,1.829784346111878318e-02,1.835172015135499157e-01,-3.827262597609014383e-02,1.250008117834718324e-01,-1.232381234111257495e-01,1.178260644607600355e-01,1.522456725174272107e-01,1.369757050732519077e-01,1.746758907466217786e-02,-5.633583892491177830e-02,-9.429662818190742701e-01,1.462232628879593099e-01,3.679834676377526786e-02,2.076873476489936310e-01,-1.485759532168383634e-01,3.752757656883394799e-01,7.944745304632203076e-02,-1.290526136339281704e-01,1.769986012765436406e-02,-1.208327218367346856e-01,-3.553820806540646249e-01,-9.989593662823514908e-02,-3.190370949107157461e-02,-3.134231504696661785e-01,-1.271761117898087268e-01,-1.842280516857548386e-02,-1.215798296715115745e+00,9.338748559830148399e-02,-3.065914618445498424e-02,1.216531503526437422e-02,2.014330964490874259e-02,1.425885438178071431e-02,-6.847389576970733249e-02,-1.548884787819989894e-01,-1.942742008726029354e-03,1.596247819537458257e-01,-2.358946083121276835e-02,-2.156192537843424836e-02,-1.947857878164298562e-01,2.078462691239000570e-01,2.057013344865059323e-02,-2.285253934535224629e-01,-3.414755980108393207e-01,8.560626256821917898e-03,-1.850195403709254394e-01,-5.261107181672469713e-01,1.236605189160458612e-01,3.641372594788117728e-02,1.748052985866289932e-02,-4.539032203608184823e-01,-1.260264956838642036e-01,-9.180806866839537339e-02,-6.045326784466218406e-01,-1.507375148045365654e-01,-9.920000378031097743e-02,-1.487243399529186161e-01,2.485652677805505473e-02,3.659064883974399301e-02,-4.304884753427795085e-01,-9.604882280643797787e-02,1.470410241111707456e-02,2.543636085206157360e-01,1.390880970927430293e-01,-3.058233584941869587e-01,-1.392227296833991879e-01,6.247509988171977280e-02,2.874531771109215678e-02,7.480846767935389607e-02,8.203408383275109794e-02,-2.529278791696422668e-01,3.152281350108352559e-02,-6.445435735755399020e-02,1.977760160815620616e-01,-1.636822609852399968e-01,1.143970614901160671e-01,-3.469021912140616837e-01,1.854584379353193049e-02,1.453721466901144455e-01,-6.566687382925833205e-01,1.594269930843288385e-01,2.216283082930049775e-01,7.439180019298937546e-03,-6.050573141252724857e-02,-7.566210926802467984e-01,-9.022631505899979601e-03,-3.149665270073562784e-01,7.446291387053201316e-02,7.207876112832542481e-02,-1.179659892739372967e-01,-2.244354420978403319e-02,1.019264357526508402e-01,-5.461046970704847014e-02,-4.470342763304950839e-01,-2.150547419347646205e-01,1.299060772401619199e-02,5.818809880854959593e-02,1.080867507402092226e-01,6.057119278544832036e-02,2.641158483933339976e-02,6.689108782064098757e-02,-1.510284014204193170e-01,1.138015637736807806e-01,-6.175498500045437794e-02,-1.441242938397438271e-02,-3.768488129084087146e-01,-3.590573357324253418e-04,-1.288886367452624637e-01,1.892903501885872530e-01,-4.431886484559652284e-01,1.740153838892497251e-01,1.099810045697240633e-02,5.078642547765665344e-02,2.309813814234288123e-02,1.770260239956204518e-01,-4.413781564538286212e-02,7.029476735133420584e-02,-1.211310125020271578e+00,2.451124087260780557e-02,-9.185532645775744409e-02,3.043482858920828482e-01,9.194645509302095657e-05,1.060397153665303821e-01,1.131322011601038902e-01,-6.113498176045247812e-01,1.333698476420363543e-01,1.799252479082957129e-02,7.704941229041663286e-02,5.837356658232416978e-02,-2.523742767906190284e-03,-4.950675451569436919e-02,-2.858234985849283372e-01,6.539805293159589800e-04,-2.309272047320016785e-01,1.728805620693151315e-02,3.759793150776070264e-02,1.355774859763886897e-01,-5.738373322479459193e-02,1.138604153284039633e-01,5.242853829089986345e-02,6.792496196009984583e-03,-4.515315559693604264e-02,1.043024236746153272e-01,-9.329043553349194995e-02,-2.926731475455253140e-01,5.478410088817353696e-02,6.256316007860766859e-02,8.786881439430836715e-02,-1.920562186964768769e-01,-4.697814602809534112e-01,-3.324473388327291862e-02,-1.776362464299249821e-01,1.929582993531161680e-02,-9.614709273918715937e-02,-3.492276738142840453e-01,-1.417884186810225823e-03,-8.713863690928071171e-02,2.252921613410696980e-02,1.597223119694967386e-01,-2.419793330571975640e-02,1.909073626742620669e-02,5.066117268297042758e-02,3.200281067895763276e-02,1.757132716889027446e-02,6.835744105114863189e-02,3.661299627236075938e-01,-2.011298772659211309e-01,-3.637930153587450310e-01,1.571012391443692841e-02,8.533622900322494764e-02,-1.942751109651150165e-01,-4.024949662674147111e-01,1.165352252145004062e-02,-1.599519629607547011e-01,-3.302865757848247319e-01,-2.570308985879780558e-02,9.256909657370349098e-02,-4.458386541415929050e-01,-4.190325039139402574e-01,1.538239382237759079e-01,1.255595578895627763e-02,-2.063105252221617350e-02,-1.518319342687139140e-01,2.766216637715531584e-02,4.243692594059098738e-02,9.495405846377454051e-02,6.482676142933426096e-03,1.435972527885745753e-01,-6.765094661295649459e-02,-6.149453345186562531e-02,2.789336841142360177e-02,-3.395619125946667399e-02,-3.707682160922173842e-02,2.758310007984235979e-01,-1.022271192943398216e-01,2.459192144240759936e-02,7.634905651533496415e-03,-7.451228558844935623e-02,-1.772882363717515064e-02,-1.749476988450611170e-01,6.664152294476666238e-02,-8.288269207910977515e-03,-8.099502722782006559e-02,-2.499520757261250101e-02,3.869560941612148336e-02,-1.580751881285282975e-02,5.074574654426458609e-02,-1.357397235844278460e-01,3.964039661849886459e-02,9.071395343349471230e-02,1.005094466802065878e-01,-7.395778511933907839e-02,-9.727712886336621623e-03,1.348529850225158033e-01,-9.792682546233863472e-02,3.355483671058038381e-02,-1.157429252619116000e-01,3.410390045673114545e-02,-1.012747752139676466e-01,5.696601294041567058e-03,3.207995908704571603e-02,-2.192487350694218018e-01,2.134628602314428761e-02,1.236841592972681980e-01,1.127545098339934743e-01,-1.476278173410234540e-01,6.027711526435523826e-02,4.666631481473570292e-03,3.991120305164335552e-02,-2.250010994587381755e-02,1.270074753490533712e-02,5.267637317341453823e-02,3.315393886236978060e-02,8.667619412639217605e-03,-6.807111385096673573e-01,-7.000697768389071984e-02,-2.617588377868233507e-01,-1.996213954356546375e-02,-4.493288482743971329e-03,4.735123496218565653e-02,-9.300559047282035141e-02,-2.310353591213020474e-01,-3.474306678395625708e-02,-1.353674380375449737e-01,9.147413680192528762e-02,-5.274371481602069256e-02,8.793722816424319119e-03,-1.428070271791474499e-01,5.869913943678143481e-03,-4.570699770977536963e-02,-1.704393338153483567e-02,-1.822735270906405275e-02,7.244540298737263406e-02,-4.281974996228271046e-01,-2.946461985308839945e-02,-4.415687462153564721e-04,8.193091107757091707e-02,2.571741341716273638e-02,1.254395497884740196e-02,1.369911431214436148e-01,-2.478264454813342010e-02,-4.941264136757070324e-02,1.144690417269735375e-02,-1.954233311320374478e+00,3.738644898892869595e-03,1.200414938708938353e-02,-3.041271928594178539e-02,-7.827889129461387124e-03,-2.922628602550159660e-01,3.338734400111588452e-02,1.924892371491827570e-01,-2.306861888780002701e-02,4.239425253345824873e-01,-1.006542980134580122e-02,9.449573598762975313e-02,-3.434889144496690028e-01,-1.807407230156325706e-01,-3.979994686793467129e-02,-1.469588211846935832e-01,-1.398283996971544652e-01,-6.364460537071674195e-02,1.639665144300973543e-01,-3.694161953334264559e-01,-1.357470239807130052e-01,3.192281567387098007e-02,1.172974103996514417e-01,-1.487704461066498562e-01,-1.132763499117705602e-01,4.912585061630666411e-02,-2.786693347412213528e-01,-1.665592563366937728e-01,-1.874071978315689294e-02,1.939496894033696656e-02,2.398436071168257855e-01,1.233465185334949900e-02,5.689995546483949534e-02,1.261126848899349687e-02,2.562553869716567567e-02,-3.682094094143306684e-01,-2.726875166130372612e-03,-1.196133490456680604e-01,1.495944828301355445e-01,1.167664724300124524e-01,-2.288186053591291069e-04,-2.812262791803994966e-01,-3.976640742040346010e-01,1.869680146095684461e-02,-1.366241730944222320e-02,7.348619747554847870e-02,-6.012705279056697327e-02,1.892201545902607307e-01,-2.516996068257311703e-01,6.973996912610590931e-03,3.296057088109666244e-02,4.469329645443726601e-02,1.691986961042886428e-02,8.143652517649895006e-02,1.090295413253283968e-01,4.510855549376990153e-02,-1.616174332250618351e-01,9.770429800609353732e-03,-1.242231671511453694e-01,2.611844306705137994e-02,-9.392215533630934865e-02,-4.253707783779057255e-02,5.606745907585309469e-02,1.485943585861004002e-01,-3.481319045020753733e-01,1.012048268400597556e-01,2.516796616098576633e-02,1.876820876562534657e-01,-3.444415063048520409e-01,-2.344850784718860437e-02,1.063535477384158351e-01,1.590978030201123383e-02,1.370207551001823357e-02,1.435407506888889961e-01,-3.167844833204632726e-01,-5.187234694259833419e-03,3.611992204621299746e-02,-6.259314065620861234e-01,-3.291682906917363649e-01,-3.619950922251344849e-01,2.569039445239963415e-01,-4.153136869776456568e-03,-7.173910597035498826e-02,-1.229377762345194719e-01,-1.480047454979252775e-01,4.603004094701448196e-02,-2.338076351025491773e-01,8.538953704962658209e-02,-3.334953643446791210e-02,-4.943065000583467261e-02,-5.864540939832382782e-02,-4.361638607500964993e-01,9.829322558591738201e-02,-1.410609708142568711e-02,-3.717538467401198306e-03,9.719741723744362849e-02,-9.364551902198625655e-02,1.368771267885167398e-02,1.872049358012086995e-01,3.220415423478737577e-02,1.005928744616034348e-01,-8.617938379453015108e-01,1.763900844840803894e-01,-1.714084596712609210e-01,3.875515984129380975e-02,-1.331314526614782792e-02,1.159845912887594727e-01,-5.241273488956688098e-01,-1.463743075635448865e-01,5.363325405485883102e-02,3.470869644626594502e-02,4.793070078165725945e-02,1.836240359954831591e-01,2.302707633009678026e-02,8.644527546587024713e-03,3.574937956894895796e-01,1.331255608423571601e-01,7.496761888126261819e-02,1.958104020485921387e-02,4.252570623767873426e-02,4.067192460288514277e-02,-1.202086888911665097e-01,7.721266820446009982e-02,3.136284898680113259e-02,-3.294242740603770536e-01,-1.621789686416075793e-01,2.423429160578534081e-01,2.552827228212884228e-02,4.504636487382048795e-04,1.860063654023661750e-01,1.965249696237297838e-01,1.269742087612454537e-02,-8.439913761922032687e-02,-7.062573453033367532e-02,-4.917024477083227207e-01,1.055205803847440449e-01,2.033897068851185305e-02,-1.530923131039082716e-02,5.833894754058133181e-02,2.751029215352295693e-02,-8.675956861752377736e-02,1.004783113150719692e-01,1.971048187957747874e-03,6.424344431158607316e-02,1.490709068705111939e-01,-3.374016624976971385e-02,-2.669781424291080632e-02,5.375325278997895861e-02,7.935148994525312305e-02,4.870020111080041597e-02,1.127620161579743485e-01,1.602456260945169519e-01,1.409297596327430124e-01,-7.071316469038056718e-02,-1.789018990858728397e-01,1.303473613415081223e-01,1.428156370524397145e-01,-2.440918729631703574e-02,1.296612978584002138e-02,5.972815576991315906e-02,-2.577061728069638541e-02,1.811677473933901994e-01,2.732310581195868671e-01,5.119575637760491460e-02,5.205467519495603733e-03,-9.568828221790647015e-02,1.077587733103133744e-01,7.731780283422175215e-02,3.129773597841280924e-02,1.433187168993186322e-01,9.404781112145813027e-02,6.545119047353256669e-02,-1.188869738254030584e-01,3.181322829425747845e-02,1.380565674530408737e-01,5.553947770233472539e-03,-1.652657690942621882e-01,-1.548289838046188957e-02,2.200671756867807541e-02,-2.869521970392448565e-03,-9.100553587844277537e-02,7.897026958719266868e-03,-1.978549889970113995e-01,-1.827875726916785015e-01,3.657706362018260660e-02,2.165613320872230088e-02,-3.813962483641689799e-02,1.934872843387377139e-01,3.025841844461896191e-02,6.593992448492100311e-02,1.441891468738547288e-01,4.718737445611924375e-02,-4.978738900153697154e-03,