[-2.75012445e-02  9.48212097e-02 -1.81916124e-01 -9.92556993e-02
  3.87978630e-53 -1.72449396e-01 -1.26880809e-01  5.17318992e-68
 -2.05610206e-71 -1.43924705e-02  2.77492612e-03  6.19777814e-02
 -9.40777423e-02  1.35332431e-01 -1.69464165e-01  7.63995111e-02
 -2.38666737e-02  4.10026966e-02 -1.12021659e-01 -7.56834127e-02
  2.01227644e-01  1.57023432e-01 -5.35880895e-02  7.10405456e-02
  1.46761114e-01  1.42522639e-01 -9.09599494e-02 -6.85216866e-44
 -1.25739886e-01  1.61940000e-01  4.27564341e-49 -4.74445391e-02
  1.78367867e-01  4.76879196e-02  3.37084023e-02  2.43021365e-02
  9.60754029e-02  2.75975522e-01 -1.83141915e-01  6.97559564e-02
  2.08224722e-11  1.64505527e-01 -2.75697456e-01  9.15510770e-02
  2.74900564e-49 -4.47744377e-02  1.99820849e-01 -9.67159606e-02
 -9.16207244e-02 -1.30967085e-51 -7.07763404e-43  5.55393651e-02
 -1.24071064e-01 -3.59519123e-62  2.70336263e-02 -1.68721461e-01
  3.88231955e-02 -1.51739051e-01  5.84240409e-02  7.07819263e-02
 -1.82475458e-01 -1.58892154e-02  6.96266914e-02 -1.24339322e-72
 -1.93698739e-01 -3.33518528e-02  5.33418417e-02  9.84722469e-03
  1.91379960e-01  1.43222514e-72  1.78949631e-01 -1.52294393e-01
  2.53738078e-52  1.21336436e-01 -4.51132671e-02 -7.83770673e-02
  1.60010445e-01 -2.66049354e-02  5.41111193e-02  1.12304713e-01
  1.36741571e-01  7.12526352e-02  7.61341881e-02 -4.81829200e-02
 -9.97946570e-02  1.38174280e-01 -7.57829843e-03  2.06313547e-01
  3.89414191e-02  4.44400054e-02 -1.41898829e-01  1.55972434e-01
 -5.71907946e-02  5.94281273e-02 -3.80648623e-02 -1.25169086e-01
  1.86907503e-01  2.42378616e-02 -2.08775897e-01  1.96471703e-02][-1.10753431e-01 -1.06767248e-02  9.46833399e-02 -4.31348581e-02
  1.24950928e-48  2.65688412e-02 -1.38992733e-01  1.90047006e-47
 -5.51824254e-66  1.60960109e-01 -2.12795764e-02  2.63408640e-52
  1.66827847e-01 -5.82736216e-65 -2.49678104e-01  8.34141159e-02
  1.19919654e-01  1.32104104e-01  4.02510146e-02 -1.58874114e-01
 -1.90461318e-01 -2.06518953e-01 -2.96612252e-01 -4.69042790e-02
  1.26825698e-01  5.83090785e-03  8.85862773e-02  1.27889638e-53
 -1.61247364e-01 -1.32009110e-01  1.22199637e-72  1.61934097e-01
 -3.64642805e-74 -1.73242177e-01  1.72687150e-01 -2.16774344e-01
  1.22151925e-01  3.40056900e-01  1.81656425e-01  1.18821751e-01
  2.85805029e-74 -9.80684429e-02 -4.35558940e-01 -8.52553579e-02
 -1.63265737e-44 -1.73180157e-01 -7.42117098e-02  6.45866389e-02
 -2.81080755e-74  9.85549647e-43 -3.38017613e-47  1.18512522e-01
  1.22681917e-02  1.19303535e-57 -4.96815473e-02  1.49802021e-01
 -1.65258431e-01  1.44267977e-02  2.07460654e-01  8.94934504e-02
  1.18910469e-01  2.68406153e-02  1.10894080e-01  1.07010794e-56
 -1.41764565e-01 -6.56476397e-43 -1.99391816e-01 -3.13281210e-02
  8.76758956e-02  8.52144864e-74 -1.03160059e-01 -1.68033280e-42
 -1.36453894e-72 -4.47090558e-03  1.34686242e-02 -7.45848182e-62
  3.86920357e-67  4.12184620e-01  3.42912294e-03 -9.10911395e-03
  5.05259920e-02 -7.95187644e-02  4.90161749e-02 -1.87061511e-01
 -1.02876092e-01  1.35207609e-57 -7.96441052e-02  2.28476473e-02
 -6.07254552e-02  9.86322704e-02 -5.93208707e-02 -2.24418411e-01
  5.33061763e-02 -6.29562510e-02  1.80967375e-01  1.40367911e-01
 -1.34741273e-01 -8.00933652e-02  2.16204451e-02  1.29090893e-01][ 1.57589391e-01  3.26506372e-03  1.41610759e-01  2.25670664e-02
  9.97682954e-71 -2.51625569e-02  7.82833750e-02  3.12910816e-74
  4.17215764e-47  1.30899183e-01  1.95595498e-02  1.65877326e-01
 -2.06980193e-01 -4.42425712e-51 -1.28668303e-01 -1.17275144e-02
 -2.03978517e-01  1.72972004e-01  1.56663175e-01 -1.43526430e-01
 -3.60101376e-01 -9.68505648e-02 -6.38271614e-02  1.59931671e-01
 -1.01865205e-01  1.59283200e-01  1.40609861e-02  1.21217021e-50
  2.04120323e-01  1.16825755e-01  1.53116388e-75  5.66168701e-05
 -1.58522479e-57 -7.32667717e-02  5.80465415e-02  7.09676586e-01
 -1.80552113e-01  9.70637363e-02  3.77784343e-02  1.85822090e-01
 -5.37443469e-66  2.64515735e-01 -3.99390079e-01 -1.03073958e-01
  1.67419299e-58  3.67164624e-02 -1.80254273e-01 -4.83550123e-02
  4.46328758e-67  2.17759442e-47  1.00690369e-41  2.45322988e-01
 -6.09730670e-02  5.55666293e-43  8.83422912e-02  1.32612898e-01
 -2.35401859e-02  3.22788182e-02 -8.48623068e-02 -9.35570542e-03
  9.34617391e-02  1.16152372e-01  1.14543097e-01 -6.68284662e-65
  8.47429282e-02  1.68373647e-67  5.75125310e-02 -5.07352634e-02
 -9.07117863e-02 -6.46446806e-73 -8.58760099e-02 -3.34805864e-66
  3.19180711e-71 -1.09461085e-02  1.75009134e-01 -5.28880316e-68
  1.45036172e-57 -2.08650635e-01  6.05097328e-02  1.66256954e-01
  9.31637094e-02  1.75549398e-01  1.07331364e-01 -1.37115538e-01
 -2.01880467e-02 -7.63316297e-53  7.35372733e-02  8.50710600e-02
 -1.93790590e-02  4.69810029e-02  7.68288117e-03  9.99478438e-02
 -1.02381579e-02 -7.12187621e-02 -4.50115111e-02 -2.12229931e-01
 -1.50113034e-02 -1.55165360e-01  1.80472422e-01 -1.52852964e-01][ 1.13196033e-01  1.50568657e-01  7.62974192e-02  1.39585973e-02
 -7.41793236e-54 -2.97623860e-02 -6.86401917e-02 -1.15144682e-01
 -4.06045006e-72 -1.01039432e-01  1.69352255e-01  1.37265598e-01
 -8.26847666e-02 -1.58015872e-01 -1.05756162e-01  4.20246096e-02
  5.54246788e-02 -7.60906922e-02 -8.55836179e-02  1.20855702e-01
  1.22335721e-01  8.43382597e-02 -7.58791098e-02 -1.36206469e-01
  4.85664775e-02 -8.79891751e-03 -1.60739664e-01  1.62685366e-71
  3.33946167e-02  2.30125567e-02  9.14267306e-53  9.99941415e-02
 -8.17728372e-02  4.13193906e-02  1.32319571e-01 -3.17675122e-01
 -7.10320543e-02  8.64069983e-02  1.32963239e-01  9.99498870e-05
 -6.58118716e-12  1.83447390e-01  4.05284627e-01  1.16488458e-01
  4.29168730e-49  5.35020674e-02  6.02445575e-02  2.44013340e-02
  1.03618543e-01 -1.13669713e-01 -3.56233722e-59  1.15839603e-01
 -1.05683685e-01  4.52544175e-62  3.63330017e-02 -5.70531560e-02
  1.08936655e-01 -3.73591266e-02  1.00775309e-01  1.81979634e-01
 -3.88275443e-02 -1.65662464e-01  1.73439916e-01 -5.97133161e-75
  1.99962060e-01  7.62682289e-02  1.56520016e-01  3.76639232e-02
 -1.65642157e-03  1.85069097e-52 -7.87064061e-02 -2.08168102e-01
 -8.37994815e-54  1.12758420e-01 -1.85489769e-01 -1.73875687e-02
  1.35092091e-01  1.01222485e-01  1.36418551e-01 -1.30654479e-01
 -1.01676653e-02  5.51256967e-02  1.69030741e-01 -1.18513398e-01
 -9.03282068e-02 -2.63243240e-62  1.13016332e-01 -6.08014370e-02
 -1.47296798e-01 -1.32312145e-02 -9.51776738e-02  1.33975498e-01
 -2.80332764e-02 -9.76101157e-02  3.28149550e-02  1.24996515e-01
 -2.13565843e-02  1.01174170e-01  1.84333237e-02  2.51377588e-02][ 1.54639924e-01  1.16955268e-01 -1.61233976e-01  5.56511407e-02
 -8.56364482e-75  1.55062647e-01 -1.01717569e-01 -3.24466904e-62
 -2.15004242e-47 -5.65370008e-02 -1.35458557e-01  4.22642910e-02
  1.30873602e-01  6.59935876e-02  1.13142413e-01 -5.11994483e-02
  1.32677134e-01  1.70917995e-02  1.56552126e-01  8.96147684e-02
 -8.27874572e-02 -1.70461331e-01 -2.13425751e-01 -1.26074561e-01
  2.11510037e-02 -1.56893413e-01 -1.62456682e-01  2.83389629e-61
 -3.85135477e-02  6.85156463e-02 -1.12218282e-74 -3.63585468e-02
 -4.54354367e-02 -2.59036476e-02  9.68968616e-02  3.33265286e-02
  1.69597493e-01  7.74467325e-02  1.05865954e-01 -1.54556513e-01
 -1.57512005e-13 -1.02660744e-01  3.52782585e-02 -2.18272782e-01
  3.19997849e-45  1.41200211e-01  1.17324199e-01  1.41081554e-01
  6.48626519e-53 -1.32236085e-53 -2.29071516e-56  6.26004865e-02
  1.41424203e-01 -2.66366615e-42  1.09986675e-01  9.07843911e-02
  1.49671472e-01 -5.45625014e-02 -9.24019181e-02 -1.30536847e-01
 -7.49192175e-02  1.03404441e-01 -1.29083252e-01 -3.57709159e-62
  1.36325053e-01 -1.24565066e-66  1.47994395e-01 -7.54533815e-02
  4.14648567e-02 -5.83678626e-66  1.50006338e-01  1.78199843e-69
 -7.99624319e-74  2.92443054e-02  1.61718850e-01 -1.87223729e-01
  7.94743117e-02  1.15116919e-01 -1.99508354e-01  4.79656694e-03
 -7.86183460e-02  1.67234612e-01 -2.18538118e-02  7.98291105e-02
 -1.27822216e-02  1.95551477e-70 -5.50402951e-02 -2.24108071e-01
  1.20442675e-03 -8.51987441e-02  2.38519883e-02  1.49260437e-01
 -6.46796182e-02  1.76290301e-02 -5.21571843e-02  1.32709269e-01
  2.03899521e-01  1.42912451e-01  1.48456647e-01 -1.08030454e-01][-1.03146301e-01 -1.33671985e-01 -8.49241583e-02 -1.33931379e-01
 -3.41598484e-72 -5.28001235e-02  1.15774452e-01 -1.30372498e-01
 -4.49802872e-65 -1.28529633e-01  2.87707510e-02 -8.43962527e-02
 -1.44436547e-01 -1.12686742e-01  1.00422136e-01  1.95081927e-03
 -9.47596568e-03 -1.80597902e-01  5.03526816e-02  1.66856720e-01
  5.96580584e-01  5.29123877e-02  2.05978751e-01  1.41406377e-01
  6.61437015e-02 -1.76769294e-01 -9.00998004e-02  1.48888203e-46
  2.51227347e-03 -4.56761304e-02  6.38347468e-43 -1.12551145e-01
  2.13881409e-01  1.58689376e-01  1.26967278e-01  2.82420492e-01
  9.19905679e-02  6.45586241e-02 -1.09905637e-01 -7.03065809e-02
  2.52410122e-76  8.78663791e-02  1.08944499e-01 -3.85444380e-02
  2.69304562e-52 -2.06913881e-01  5.71942465e-02 -8.64716220e-02
  1.74094379e-01 -6.10345230e-02 -1.26137865e-67  2.86509650e-02
  8.36999137e-02 -8.10429083e-75 -1.48983018e-01 -3.63512207e-02
  2.59115377e-02  5.00369485e-02  1.62605224e-01 -1.56643580e-01
 -1.63179096e-01  1.05837093e-02  1.20850840e-01  9.60382323e-43
  7.21768908e-02  7.70050600e-02 -1.43122600e-02  2.27406704e-01
  2.28922400e-02  7.59204253e-42 -1.44280738e-02  1.07252209e-01
  2.35244501e-55  6.79181461e-02  6.03605912e-02  7.88909274e-02
 -5.44461456e-63  5.35368625e-02  6.89666839e-02 -2.75072619e-02
  1.18359759e-01 -9.39090653e-02  1.45243422e-01 -8.53012583e-02
  7.71925995e-02 -4.08771635e-02  9.86175497e-02 -2.73992245e-02
 -9.35600996e-02  1.49155334e-01 -1.11121989e-01  4.29034561e-02
  9.43155541e-02 -3.45118077e-02 -1.22979537e-01 -1.06213427e-01
 -1.45013716e-01 -2.23194811e-02 -2.01772614e-01 -1.61665516e-01][ 8.56748442e-02  1.18122362e-01 -1.44055167e-01 -1.01311182e-01
  2.18307633e-58  1.40125019e-01  8.12537068e-02  1.03197801e-02
  4.55543873e-65  9.82215134e-02 -2.66159711e-02  1.32737245e-01
  1.10558917e-01  1.93541447e-76  6.70823983e-02  2.13956748e-01
 -1.47704939e-01 -1.86589389e-01 -4.46547573e-02 -6.37780295e-02
  2.48855787e-01  1.16524634e-01 -8.50520035e-02  2.45828217e-02
  7.30645982e-02 -1.08379534e-01  7.55063829e-02 -2.10119969e-62
  6.01508129e-02  7.06297629e-02 -3.37576277e-65  1.04197653e-01
  2.03349070e-01  5.34443014e-02  8.57144959e-02  1.85717898e-01
  1.83174427e-01  8.37279498e-02 -4.25170702e-02 -8.53408405e-02
 -2.66571231e-47  1.57739840e-01 -8.86787875e-02  1.50107192e-02
  1.31497759e-76 -1.65120781e-01 -1.61779682e-01 -4.02389399e-47
 -8.05425054e-03 -5.03140077e-02 -6.01278065e-69 -1.83124831e-01
  9.47920657e-02  1.30679537e-49  1.60385826e-01 -1.62251992e-01
 -1.18621610e-02 -1.88769063e-01  1.47022853e-01 -2.50708220e-02
  3.37208523e-02  1.26296156e-01 -1.46658527e-01  4.58974362e-74
 -1.02087696e-01  1.04685000e-01  1.36813824e-01 -9.76644350e-02
  1.18190363e-01 -7.25119435e-43  1.28618286e-01 -7.65719672e-03
  7.54906547e-72  9.09751529e-02  7.68889354e-02  2.35237903e-01
  3.80347996e-64 -1.76163266e-01  1.70556881e-01  1.62022478e-01
  1.44730205e-01 -1.24547219e-02  1.46322204e-01  9.78930635e-02
 -8.65434847e-02  9.01441112e-02  5.40307990e-02  8.01233693e-02
 -1.65266600e-04  1.05802998e-01 -2.05694870e-01  1.20701322e-01
  1.48474740e-01 -3.26088436e-02 -2.04209361e-01 -7.86239438e-02
 -9.02421976e-02  1.54101926e-01  4.76326323e-03 -7.97475797e-02][-1.59403185e-01 -7.95768469e-02  6.12143704e-02 -9.17145289e-02
  8.19450151e-75 -3.75034315e-02  1.30340064e-01  5.67007959e-73
  5.12356308e-68  3.76834426e-02 -9.24484251e-02 -2.14305890e-02
 -5.58575769e-02  3.92603598e-02  1.55661646e-01 -1.09572397e-02
  1.09200354e-01  2.78779443e-02  9.23770295e-02 -9.95884901e-02
 -5.28262119e-02  1.47385016e-01  1.11150283e-02  1.41684744e-01
  3.87910757e-02 -9.76376674e-03  1.49305893e-01  4.30411158e-47
  2.97117997e-02  1.43423497e-01  4.08673429e-76 -1.34133650e-01
  9.16673542e-02 -1.09091131e-01  5.77195759e-02  3.43050336e-02
  1.86491547e-01  1.14704032e-01  1.30389819e-01 -1.99586237e-01
  2.11329289e-11 -7.69177789e-02  3.10465095e-02  1.42492661e-01
  3.62920335e-42  1.09578324e-01  1.42286305e-01 -4.07845205e-02
  6.48001539e-62 -8.34768013e-58  2.41319250e-76 -1.24113111e-01
  1.49862883e-01 -2.37122497e-49  2.59943411e-02  1.38563497e-01
 -3.80247997e-02  5.34686052e-02 -3.57401598e-02 -3.43037869e-03
 -5.57491825e-02  1.61693818e-01 -7.27009920e-02  2.63837934e-49
 -9.07589518e-02  2.91681277e-43  4.60671428e-02  3.78285220e-02
  1.41274662e-01 -2.03394119e-76  1.04511073e-01 -4.84006295e-65
 -2.17110582e-59 -1.12299420e-02  5.04837903e-02 -1.34880052e-01
 -7.15240048e-02  1.36748866e-02 -7.95197447e-02 -1.02545404e-01
 -4.76624470e-02  2.11508545e-01 -1.12963326e-01  1.91626971e-01
  5.73888627e-02 -3.92536942e-70  1.61994287e-01  9.30463912e-03
 -1.22998515e-01  9.89252890e-02 -8.40027420e-03 -6.45182018e-02
 -1.01473814e-01  5.20527436e-02 -9.14218326e-02  8.54375257e-02
 -4.15135059e-02  2.80819064e-02 -1.69016050e-02  1.31979155e-01][ 1.52788743e-01 -8.25433659e-02  3.35890395e-02  1.28681175e-01
 -5.27227304e-74  1.44589486e-01 -8.77363781e-02 -5.18154844e-71
  3.18171148e-66 -1.33188683e-01 -1.55530016e-01 -4.07125938e-02
  1.83337139e-01 -6.92566654e-02  1.18320139e-01 -7.08520829e-02
 -6.73600020e-02 -9.78382559e-02  1.26308474e-01  1.16665185e-01
  4.04703783e-02 -1.18838427e-01  8.46554828e-02 -1.10314998e-01
  3.27676644e-02 -5.80033188e-02 -3.27315440e-02  7.71225891e-46
  5.08588592e-02  8.60288334e-02 -2.92765750e-70  3.94589625e-02
 -6.91460528e-02 -6.38891111e-02 -2.10069960e-02  2.19127301e-01
 -8.75018189e-02 -4.88949488e-01 -2.60697272e-02 -3.62608394e-02
 -2.64311214e-12  9.34151652e-03  1.30743167e-01  1.06948415e-01
 -1.66270420e-57 -4.34799923e-02  1.60664122e-02 -1.53384653e-01
 -6.96173149e-03  1.65926248e-65 -2.25935355e-52  5.89866088e-02
  3.72714403e-02 -6.45045102e-51  3.89881756e-03  1.88236465e-01
  1.47436293e-01  3.87907802e-02 -1.50077650e-01  4.75890341e-02
  4.46309958e-02 -2.49533119e-02 -2.84749855e-02 -3.96694641e-73
  1.16311345e-01  5.02697482e-02  1.41358759e-02  1.84007714e-01
 -1.32065607e-01 -3.90011878e-42 -1.71565631e-01 -8.66690421e-02
  1.35200841e-72 -1.35633329e-01  4.12651061e-02 -1.62156049e-01
 -8.57302901e-02 -1.41687838e-02  9.70419777e-02  8.15311215e-02
 -5.96997758e-02 -9.53258067e-02  8.06637294e-02 -5.14410867e-02
  1.01337775e-01 -1.79915116e-02  4.00402940e-02 -1.94952151e-01
  1.76406183e-02 -7.86445138e-02 -8.63198806e-02 -3.50131660e-02
 -6.74826959e-03 -2.12966868e-01  1.80486678e-01 -8.71809254e-02
  1.16255378e-01  4.02032765e-02  1.29990324e-01 -7.77351316e-02][-9.37764637e-02  1.65351189e-01 -1.57464992e-01  1.58192974e-01
  2.59614889e-74 -6.43627871e-02  1.77707642e-01 -1.78649328e-01
  3.34100338e-76 -2.08575154e-01  3.64823244e-02 -1.40886146e-01
  7.53813028e-02  1.74624126e-01  1.55060258e-01 -7.22491732e-03
  5.42750249e-02  1.24685245e-01  8.05112217e-03 -5.57315378e-03
  5.58616511e-03 -5.46720466e-02 -1.16706226e-01  8.59974769e-02
  9.38129638e-03 -2.13532270e-02  1.91087216e-01  2.24347483e-77
 -1.95829319e-02 -9.06490343e-02 -3.40787829e-47 -2.93824045e-02
 -1.78107849e-01 -4.96815121e-02 -1.49844005e-02  1.11947476e-01
 -1.25492233e-01  9.90029511e-02  1.08717808e-03  8.60219941e-02
 -2.85543227e-12 -1.53801639e-01  5.27761057e-02  9.58928079e-02
 -9.54255795e-57  8.66081032e-02 -7.40844594e-02 -1.26062822e-01
 -1.95817705e-01 -2.26364641e-02  3.02422661e-70  6.93176793e-02
 -1.77881546e-01 -1.60011833e-53 -1.72925600e-01 -1.45602165e-01
  5.44012772e-02 -5.40379468e-02 -4.89135793e-02  1.65245705e-02
  2.07310541e-01  1.26902179e-01  7.75159910e-02  2.05389967e-47
 -1.65145223e-01 -1.58774719e-01 -2.85345478e-02 -4.62416167e-02
  1.70658090e-01  3.18452833e-76  1.73055213e-02  1.20997769e-01
 -5.42195001e-74  1.57761290e-01 -1.00177082e-01 -4.27238113e-02
 -6.90133512e-02  3.91307501e-02 -1.04730323e-01  7.57663744e-02
 -1.31864429e-01 -1.31340732e-01  1.44653943e-01 -9.47281898e-02
 -5.53770535e-02  1.41228123e-02  3.41015400e-02 -1.54981456e-01
  1.63995967e-01  1.59806650e-01  1.23799795e-01 -8.37243144e-02
  6.31424111e-03  6.42673423e-03  1.79863341e-02  1.73631667e-01
 -5.23962152e-02  7.33111093e-02 -7.65973210e-02  9.97203525e-02][-6.30663041e-02  1.57245007e-01  1.13426486e-01  8.62307338e-02
 -3.42298469e-75 -1.27708140e-01 -1.87059161e-01 -7.81736632e-02
 -1.03847293e-43  4.49043873e-02  7.44180954e-02 -4.52682011e-02
  1.27720743e-01  4.52376438e-03 -1.64349044e-01 -1.28487833e-01
 -1.42733307e-01 -4.43059455e-02 -1.61218422e-01  2.37211539e-02
  3.60349336e-02  4.02161250e-02 -5.72963694e-03  1.32206686e-01
  6.01826890e-04 -1.87146247e-01  1.86141742e-01 -4.82395188e-68
  1.38714903e-01  1.70561970e-01 -7.20046385e-46 -9.94001189e-02
 -1.63732764e-01  2.30825701e-04  1.22838853e-01  4.04652498e-02
  1.36366117e-02  3.33327222e-02  1.05489448e-01  1.10627591e-01
 -4.78247519e-12  4.36539022e-04  4.24462890e-02  1.55380352e-01
 -8.26367040e-46  2.77579115e-02  1.87217725e-01 -7.71117856e-02
  1.40994800e-01 -1.74597083e-02  9.55016668e-60  1.76985993e-01
  5.66788219e-02  1.75365889e-46  1.53679580e-01  7.91498009e-02
  3.64761057e-02  7.20474888e-02 -7.47669003e-02  3.28101437e-02
  1.38911148e-01 -1.71590976e-01 -1.40171660e-01  1.35391827e-53
  5.61514466e-02  1.75218499e-02 -1.14874450e-01 -6.69302821e-02
  1.45960726e-01  1.44768461e-72 -1.64466849e-01  1.21657461e-01
  1.17149397e-57  1.38326496e-01  1.39907033e-01  3.87161797e-02
  3.42229897e-02  3.13684516e-02  5.00646030e-02  1.46000192e-01
 -7.85625843e-02  1.70715484e-01  2.89533162e-02 -1.41306262e-01
 -1.16196633e-01  2.34700280e-02 -7.54311246e-02 -1.33793812e-01
 -1.08454861e-01  1.19164281e-01  4.33567373e-02  1.76290097e-01
 -6.33618266e-02  1.94211362e-02  3.49388169e-02  3.64268428e-02
 -1.48991718e-01  1.04494867e-01  1.61429468e-01  7.99167121e-03][-1.67111748e-01  5.29085547e-02 -2.49879727e-01 -8.12669784e-02
  1.82766365e-47  1.20451373e-02  1.55334041e-01  2.16680979e-71
 -7.46315111e-56  1.16412524e-01  3.42275224e-02 -9.19397738e-51
  5.37259088e-02  2.73673399e-74 -1.12530997e-01  4.05543498e-02
 -1.98244007e-01 -1.21410448e-01  1.34223749e-01 -2.24784676e-01
 -2.04026452e-01 -1.61319805e-01 -1.01072223e-41  5.25781185e-02
 -1.52290115e-02  1.55032656e-01 -7.09168517e-02  4.79163585e-75
 -8.71963805e-03 -7.02844851e-02  3.76530099e-65 -4.02294881e-02
 -2.57664454e-61  3.34060387e-02  1.10448320e-01 -3.66196126e-01
  1.84872579e-01  2.05996603e-01  9.97282907e-02  4.97584344e-02
 -2.68219174e-47  2.73448228e-02  3.84678633e-01  5.78723742e-02
 -4.72428715e-74  4.41395590e-02  7.32028993e-02  6.15650967e-02
 -3.23523729e-70 -1.03224099e-53 -2.54313146e-60  7.84252511e-02
  1.40532020e-01  1.67813825e-59 -8.97073477e-02 -8.55864573e-02
 -8.49102661e-02  1.03682526e-01  7.83264739e-02  6.61830498e-02
 -3.43429717e-02 -1.01365939e-01 -9.48325323e-02 -4.19625384e-70
 -1.29022611e-01 -3.21555337e-56  1.01971161e-02  3.42677951e-02
 -2.52138955e-02 -4.54199081e-48 -1.32108036e-01 -3.87257387e-75
  1.45714262e-57 -1.45526866e-01  8.16724475e-02  3.28118420e-63
 -3.60772545e-67 -6.88365727e-02  6.92782987e-02  1.80140114e-01
  8.95361527e-02  6.57225466e-02 -1.49024572e-01  4.54956663e-02
  1.52135408e-01  4.06779255e-65  1.65500664e-01  1.25843632e-01
 -9.53445139e-02  4.56538447e-02  2.19350393e-01 -1.37184701e-01
  1.08190545e-01 -8.87804778e-02  1.35896655e-01  2.65784752e-02
 -1.52442347e-02 -8.53134051e-02  1.95622388e-02  1.54311492e-01][ 1.11432846e-01  4.60390409e-02  1.84703956e-01  9.35574333e-03
  1.14581218e-57 -4.18202807e-02 -8.68811021e-02 -4.49412989e-42
  2.31020565e-70  1.59201268e-01  2.44940274e-02 -1.36973345e-01
 -1.94039504e-01 -5.89362572e-02 -1.29032671e-01  5.81477705e-02
 -6.53600608e-02  1.99273296e-01  1.78259748e-01 -7.56407738e-02
 -2.85315106e-01 -3.51606014e-02 -2.26312628e-03  1.16396796e-01
  1.17858472e-02 -3.99880076e-02 -4.41388983e-02  3.24293606e-48
 -2.21018614e-01  1.39799302e-01 -2.03450388e-56  3.73274240e-02
 -5.21104272e-02  2.13218279e-01 -1.58280708e-01 -1.28319063e-01
  1.70280631e-01 -5.60783079e-01 -3.79496790e-03 -1.91066863e-01
 -3.77909914e-16 -1.47948475e-01  1.10914773e-01  1.52655974e-01
  3.78982021e-51  7.18762959e-02 -2.01838629e-02  1.06987343e-01
 -2.45353076e-03  2.01247442e-69 -2.33271336e-63  1.09528646e-01
 -5.69982372e-02  2.05760947e-76 -7.79520211e-02  1.65813241e-01
 -7.62007840e-02 -9.40559315e-02  9.17504438e-02 -1.07075098e-01
 -1.50495677e-01  1.65892546e-01  7.06849701e-02 -8.23004380e-73
 -4.04612209e-02  5.93841885e-03  7.74789475e-02 -1.19397140e-01
 -1.38058355e-01  1.46004597e-50 -6.72194807e-02  7.24321834e-02
  7.60480112e-62  6.98955463e-02 -3.32132144e-02  1.97851524e-02
 -1.46030455e-01  2.65082774e-01 -1.90842746e-01 -6.65563117e-02
  1.05799940e-01  6.46783832e-02  6.81592399e-02 -1.52470681e-01
  1.03653395e-01 -1.20207948e-02 -6.93890622e-02 -1.10766331e-01
 -1.62530845e-01  7.66863355e-02  2.04884616e-01  1.57127621e-01
 -9.00789025e-02  2.05359821e-01  1.76582865e-02  9.01351640e-02
 -3.26959120e-02  5.17542939e-02  1.13778396e-01 -1.60919496e-01][ 1.77132983e-02 -4.31322693e-02  5.70425014e-02  1.61272000e-01
  5.08985717e-72 -5.80091602e-02  9.95137395e-02  4.51010666e-02
 -1.19101332e-71  4.30301871e-02 -2.74644843e-02 -1.57850596e-01
  6.40775760e-03 -7.25479576e-02 -9.62211774e-02  1.74047487e-01
  4.70756725e-02  5.63521163e-02  1.04371131e-01 -4.33072247e-04
  4.49067922e-02  1.59982485e-01  1.58845536e-01 -1.27995840e-01
 -7.24216592e-02 -1.65648625e-01  2.26534030e-01  7.95473448e-60
  7.66043647e-02 -1.59218591e-01 -1.19459085e-58  3.00883000e-03
 -1.47820256e-01 -1.23078772e-02 -1.79639008e-03  6.91586638e-02
  4.53036866e-02  8.68763591e-02 -4.07275005e-02  5.51030991e-02
 -1.60418306e-12  7.72662114e-02  5.41360847e-02 -7.19920598e-02
 -2.67405009e-70  1.50858095e-01  4.31784470e-02  1.65684722e-01
 -3.36331315e-02  2.86406829e-02 -9.38195337e-44  1.09626576e-01
 -6.78464102e-03  7.50626522e-42 -7.32344092e-02  1.54448527e-02
  9.88384297e-02 -1.87712648e-01  3.83108111e-02  1.09502997e-01
  7.57916554e-02  1.63989638e-01 -1.61507422e-01 -6.74957902e-64
  1.71229811e-01  1.06909363e-01  1.95607894e-02  1.38809345e-01
  1.54895232e-01  4.96758414e-43  1.92824950e-01 -1.68020520e-01
 -1.87159540e-47 -1.49621913e-01 -1.91457273e-01  2.24232516e-01
 -1.58295631e-01  1.51633883e-01  7.31491291e-02  5.43331318e-03
 -5.38692340e-02 -3.20595061e-02 -9.10884664e-02  1.63148888e-01
  7.45368018e-02 -1.94548714e-01  9.51380741e-03 -7.64617870e-02
 -1.59282868e-01  1.34390143e-01  1.07926433e-01 -6.61545645e-02
  1.09092028e-01  4.67177694e-03 -7.64136451e-02  1.55923755e-01
  2.02059490e-01  1.77525048e-02  1.62854651e-01  1.43144234e-01][ 1.04558281e-02 -4.05443929e-02  9.76080258e-02 -3.12019481e-02
  1.95680949e-71  1.70522908e-01  9.31176429e-02 -7.34266345e-02
 -3.47041548e-48 -1.49749320e-01  1.95277298e-02 -5.03815389e-02
  1.40294270e-01  1.56379263e-01 -1.11561291e-01  1.48915426e-01
  1.49494149e-01  1.94301284e-01 -1.66745742e-01 -1.85718897e-01
 -2.55362382e-02 -7.63680748e-02 -1.49801274e-01 -7.96392795e-02
 -3.68976967e-02  1.71718931e-01  3.46325055e-02  4.65976694e-64
  1.63339606e-02  5.25885604e-02  1.72371738e-50  1.00630996e-01
  1.37843119e-01  1.61854700e-01  1.33043142e-01  7.06278469e-02
  2.42657774e-03  2.74402080e-02 -1.03763455e-01  1.60317117e-01
 -1.82115809e-12  1.61451564e-01  8.38527452e-02  1.43916256e-01
 -1.58158495e-53  1.29430810e-01  5.66057421e-02 -1.28458664e-01
 -7.02872017e-02 -7.67583017e-02 -3.70275136e-74 -1.50839998e-01
 -1.41777629e-01  7.55215321e-58  8.50583609e-02  3.03511947e-02
  1.39139407e-01 -1.14466462e-01  6.91243300e-02 -1.83705402e-01
  2.47775650e-02  1.37895237e-01  1.86339584e-01  2.80474865e-42
 -8.36385716e-02 -1.00060915e-01 -1.91665816e-01 -1.75905213e-01
 -3.47409928e-04 -1.21303915e-44 -8.26503904e-02  2.33519415e-02
 -6.63273164e-65 -7.45754576e-02  2.86056658e-02 -1.90672900e-03
  7.39951888e-02  1.94579527e-02  5.32730021e-02 -4.58854395e-02
 -7.66865457e-02 -1.16381718e-01  1.70237484e-01  1.22531864e-01
  1.55775769e-01 -1.33565085e-01  1.89916637e-01  1.73869478e-01
 -6.19050823e-02 -9.89343276e-02  2.39454514e-02 -1.21405991e-01
 -2.64820561e-02 -1.85431825e-02  1.68204963e-01 -1.01929268e-02
  1.97087377e-01  6.41859720e-02 -1.60241307e-02  1.73630957e-01][-1.32915665e-01  5.87488103e-02  7.90686647e-02 -3.95425000e-02
  6.35199172e-46 -1.98526212e-02 -2.49992016e-02  1.06755064e-01
  5.18405442e-62 -7.07615478e-02 -9.01318803e-02  5.26324428e-02
  2.12675207e-01 -1.32568457e-01  1.34613058e-01 -9.16949223e-02
 -1.94540336e-01 -1.19600387e-01  1.76471467e-01  1.32135778e-01
  2.59916554e-02  1.66563443e-01  1.53993071e-01 -2.57854748e-02
  5.95294161e-03  4.78646857e-02 -8.73495350e-02  5.19597037e-44
 -7.44936471e-02 -1.87596013e-01 -2.45331045e-67  2.16141721e-02
 -6.49523444e-02  1.37359184e-01 -1.51814846e-01  6.27292752e-02
 -5.55199325e-02  4.93753051e-02 -1.56496874e-01  1.21550257e-01
 -3.73827372e-12  7.58919638e-02  2.56636983e-02 -2.04875052e-01
  1.13099600e-74  1.39907225e-01  1.43986409e-01 -7.95637237e-02
 -1.91825793e-01  4.40787901e-02  3.51461610e-57  1.49315730e-01
  5.11058773e-02  7.92464138e-57  1.64035418e-01 -1.55386732e-02
  1.84594515e-02 -1.44689898e-02  9.29842279e-02  6.43347737e-02
  2.63514492e-02  1.24600150e-01  3.37001855e-03 -1.23162683e-55
 -7.25459151e-02 -1.17407322e-01  1.61141669e-01  1.03991429e-01
 -8.84800377e-02 -9.77296280e-73  1.76278562e-01 -1.90547792e-01
 -1.46421359e-47  5.91087573e-02 -1.11294172e-01  1.45203864e-01
  2.26373651e-02  8.44971553e-02 -1.47690724e-01 -1.48823466e-01
  5.26326522e-02 -1.06066476e-02 -1.54804354e-01 -4.33955276e-02
  5.40734315e-02 -1.31956161e-01  1.75600733e-01  1.79260194e-01
  1.97444835e-01  7.52606496e-02 -3.15678418e-02  9.22083948e-02
 -8.54281840e-02  3.37106827e-03  3.75824356e-02  2.84488427e-02
  1.64475163e-01 -8.51296597e-02  9.18007938e-02  1.63424447e-01][-1.80614217e-01 -6.33136285e-02  1.12740345e-01  1.36254825e-01
 -2.31156863e-56  1.21655383e-01 -6.76818402e-02  1.39371756e-01
 -4.72875437e-43 -9.70430409e-48  1.68994106e-01  5.58800250e-03
  6.18522153e-03 -3.23375483e-55  1.02506350e-01 -2.41166274e-01
 -1.00003442e-01 -1.39379600e-01 -1.30261986e-02  2.73497140e-02
 -1.08870693e-01  2.10764697e-01  8.98115436e-02  3.23960541e-02
 -1.10788270e-01  1.93854296e-01 -6.85710571e-02 -1.97374810e-49
 -4.89630240e-02  7.07236883e-03  2.79009891e-66 -7.04592736e-02
 -2.01239895e-01 -7.36893610e-02  1.27366317e-01 -2.43133473e-01
 -2.00250191e-01  3.14054824e-01 -2.19233771e-76  1.67182891e-01
  5.41018530e-74 -1.77386797e-01 -1.41047578e-01  1.32320620e-01
  9.33501031e-65  1.34819613e-01 -9.88748465e-03  3.25725995e-76
  5.18609648e-02 -5.84544820e-04  2.73057541e-59 -1.87980360e-03
 -1.51158507e-61  1.73845567e-53  1.74025355e-01  8.98384180e-47
  1.12509393e-01 -7.97270057e-02  1.16740281e-01  2.72262148e-62
  7.05602506e-02 -5.78001779e-03 -7.00030636e-02  4.45322093e-48
  1.81761943e-01  6.92084529e-02 -1.36474881e-01  1.56548276e-01
  5.45724697e-02  9.65373335e-62 -1.01425717e-01  9.45272516e-02
  1.54935489e-60  4.80566398e-02  2.02585474e-64  1.49959461e-01
  8.81460530e-71  1.16239667e-01  1.41239659e-01  9.57339914e-03
 -1.00288016e-01 -5.66008658e-02 -5.34317888e-02 -1.56578567e-01
 -1.52889421e-01  9.37978293e-02 -2.11784339e-01 -6.39633245e-02
  1.89261176e-01  2.08986682e-01  2.51946880e-02  2.03538856e-01
 -2.21456013e-01  3.52269232e-01 -3.31997760e-66  1.61591623e-01
  1.50104993e-01  1.20975010e-01  1.60786740e-02  1.96602575e-01][ 3.12856268e-62 -1.38966925e-46 -2.87415572e-70 -1.26305141e-43
 -2.36036259e-43  3.79079634e-63  5.49988807e-74  2.32760122e-76
  9.15238485e-63  8.00808999e-68 -6.11635750e-62 -3.63013815e-59
 -1.68069882e-57 -3.75209364e-78 -1.56932793e-47 -3.20781370e-59
  7.82923453e-75  1.06815475e-62  1.70859417e-76 -3.56052718e-72
 -4.25114816e-43 -4.43860701e-43 -6.29754434e-47 -6.48741936e-48
  6.11251465e-71 -1.65626420e-58 -2.79995030e-70  6.12376575e-56
 -4.37490973e-58  7.61200606e-62 -2.09001293e-64  1.30496010e-47
 -3.86372794e-49  8.53272440e-75 -2.63851487e-52 -1.65518938e-69
 -1.03007520e-41 -7.74051312e-74 -6.12105234e-65 -3.75178651e-44
 -2.46583724e-42 -8.56670770e-75  3.60837280e-62  2.62497496e-69
  5.68090432e-64 -5.66793826e-46  2.72333676e-47  4.00811240e-47
  5.17673066e-74  1.27490342e-43  9.73875402e-64  1.56566222e-71
 -2.14397667e-71  2.53129451e-70  6.94793148e-65 -6.67664914e-57
 -6.54628695e-48 -3.47003619e-44 -2.32452015e-45 -7.24540066e-54
 -2.17204936e-71  1.60362923e-44  2.38316005e-50  1.27713303e-69
  2.44287775e-77 -4.27679035e-69  1.31558943e-57 -5.23301483e-60
 -2.03258103e-44  2.96456251e-65 -4.89841925e-68 -2.87351683e-74
 -9.66392703e-64  3.79813528e-50 -4.56134519e-46  1.54975664e-53
  1.42875252e-68  6.94109261e-71 -7.02764138e-74 -4.08318054e-76
 -1.87263057e-46 -2.42603082e-52  2.23818488e-76  4.89337313e-74
  6.67115519e-51  8.66406636e-46  1.77907978e-70 -3.59145217e-62
  3.05131823e-69  1.97263671e-47  4.21454442e-54  5.20542197e-74
  3.38972228e-52  4.97054116e-54  9.81137671e-57 -9.68892324e-52
  8.22083259e-75 -4.25653826e-49 -3.83384750e-59  1.42059355e-72][ 2.08351051e-01 -5.92236873e-02 -1.74650244e-02  1.60860937e-01
  1.07701952e-56  1.37928764e-01 -1.98114468e-01  1.82072497e-70
  1.04411931e-59 -1.66019242e-65  9.56984187e-02  7.68352190e-02
 -2.51048731e-02 -6.07424764e-02  7.24120346e-02  4.40191605e-02
 -2.13168184e-02  8.32398003e-02 -6.63670422e-03  1.68173875e-01
  1.17076796e-01  4.50838754e-02  2.35381103e-01 -2.25935972e-01
  1.02801722e-01 -1.91136679e-01  4.10118340e-02  3.99052881e-70
 -8.13019637e-02  1.77060757e-01  8.67694188e-71 -1.79306874e-01
  1.06547226e-01 -1.18951493e-01 -1.72907214e-02  1.60611244e-01
  6.23282460e-02 -4.79145994e-01  3.07365795e-02  5.90676904e-02
 -8.87468703e-15  4.90579849e-02  4.63394830e-01  7.70881715e-02
 -2.38842739e-70 -4.31332210e-02 -4.65743779e-02  1.25371398e-01
  6.64743951e-02 -2.61651090e-56  6.05743610e-74  1.81045257e-01
 -8.70608484e-54  1.73573074e-53  1.40818284e-01 -3.15238084e-02
 -1.54966050e-01  2.55108662e-53  1.83379880e-01 -1.53413275e-01
 -9.47683675e-02  2.82085274e-02 -1.44494611e-01  6.81841682e-43
 -9.81901802e-02 -3.54213290e-02  2.98611027e-02 -6.85410077e-02
  1.55737761e-03  3.00230814e-76  1.32043398e-01  4.16273416e-02
 -6.37068535e-75  4.75755553e-02 -2.99997482e-75  6.26599953e-02
  5.71825748e-02 -2.07286395e-01  9.74276052e-02  3.28409146e-02
  1.88356474e-01 -8.80846318e-02  3.71948951e-02  1.65756965e-01
  2.72237257e-02  7.31751211e-02 -4.44085465e-02  8.93093639e-02
  2.21276165e-01 -6.86694504e-02  1.08337947e-01  1.78083890e-01
 -2.27578896e-01 -1.12179191e-01 -1.64672399e-01  6.61109864e-02
 -1.55326697e-01  1.83322716e-01 -4.57630071e-02  1.46395966e-01][-1.99859069e-56  2.04079928e-74  1.69256407e-53 -7.87035457e-72
 -5.30133506e-75 -1.93731605e-76 -6.21756599e-73  2.76928467e-74
 -4.49522079e-57 -7.95088639e-51 -1.15388149e-53  2.20159714e-46
 -1.33983696e-74  1.52657781e-53 -2.74655096e-69 -4.18433032e-47
  7.15254684e-73  1.48945980e-71  7.93338956e-73  1.76019199e-56
 -7.39541639e-46  1.27614363e-51  1.42306989e-65 -2.23700300e-75
  3.43234747e-66  5.67542896e-43  5.45315121e-43  7.81090154e-56
  1.80921981e-49  6.10896898e-57 -1.67538386e-57 -2.50839838e-62
 -3.92819054e-59  1.05054312e-73  8.33988141e-54 -3.20499731e-74
 -1.95798800e-46 -2.27219486e-69 -2.65072551e-70  7.04406297e-43
  6.62817196e-69 -1.20658729e-44 -7.79411103e-75 -3.79309910e-67
  5.98133715e-75  3.06121240e-64 -1.03297039e-50  4.30012389e-67
  2.11077953e-66  2.09213109e-52 -3.36469046e-52 -1.58766007e-57
 -1.22404507e-55  4.87490819e-69  7.85621696e-58 -1.97254326e-62
  8.75530050e-73 -6.58056374e-75  3.61612838e-76 -6.49766842e-75
  8.78804847e-54  1.38375756e-51  2.06781015e-56  1.04330839e-50
 -8.01954120e-74  1.30499805e-43  6.17311154e-72  2.21369840e-71
 -1.53837330e-66  1.96944146e-66 -2.72538993e-47  9.58501258e-53
 -1.19379867e-51 -5.26865250e-68  1.20270806e-55 -7.65471296e-69
 -1.75686751e-44  1.69219977e-59  1.35316766e-43 -3.04981531e-76
 -1.08005375e-53 -4.85018266e-76 -8.22307690e-46 -6.52177729e-53
  2.32802399e-71  4.84868705e-64 -3.90860931e-60  1.20598300e-60
  7.60865288e-62 -1.30436039e-47 -2.14956363e-52 -5.22576706e-74
 -3.40933779e-74  3.28945400e-62 -1.13921075e-57 -5.36569001e-74
 -2.45206732e-56 -1.52043912e-56 -3.05309331e-43 -4.91304623e-46][-3.07223099e-02  1.92908614e-01  8.19876062e-02 -1.02627344e-01
 -9.62798431e-66 -4.23185598e-03  1.59620052e-01 -1.30547162e-01
 -3.19584969e-76  4.81535860e-68  1.38148805e-01  9.42486066e-02
  2.04445515e-02 -1.21793027e-01 -1.85351651e-01 -8.44374313e-02
 -1.09119259e-01  7.57066486e-02  1.07064497e-01 -1.81389692e-01
 -7.70503525e-02  6.87034746e-02  1.37736674e-01  1.55190811e-01
 -4.43209982e-02  2.74830065e-02  7.96116866e-02 -1.70206006e-76
 -2.86563704e-02 -1.35141979e-01  2.70274085e-64  1.28916160e-01
  5.70905193e-02  1.45692775e-01 -1.41325154e-02  2.23601623e-01
  8.18777056e-02  1.79672407e-01 -2.54249454e-01  1.19897502e-01
 -1.61254351e-12 -2.24546668e-02 -2.93464988e-01  1.62763203e-01
 -3.72639829e-47 -1.52034283e-01 -1.60858117e-02 -1.12902761e-01
 -1.28050420e-02  5.03759851e-02 -5.39444904e-53  6.48544701e-02
  1.47603372e-60 -2.55145724e-56  6.81596467e-02 -1.58123363e-01
  2.04848150e-02  8.05158601e-02 -1.28614351e-01 -1.41135650e-01
 -1.57931951e-01 -1.58067270e-01  1.28121962e-01  2.09584884e-49
 -9.07498635e-02 -1.73146125e-01  3.01419558e-02 -1.22392038e-01
 -4.23724945e-02  2.53209706e-52  1.68121016e-02 -5.90901643e-02
  3.45823982e-76 -5.78826428e-02  2.97175118e-49  1.48032606e-01
 -1.42074963e-01 -4.54230098e-02 -8.52209963e-02 -6.40483540e-02
  1.05212978e-01  2.09739507e-02 -1.03502530e-01 -2.57067644e-02
 -1.03521199e-01  6.49716319e-02 -1.00694719e-01  1.57555878e-01
  6.02003639e-02  2.00661100e-02 -8.59671513e-02 -9.23170641e-02
 -9.19245610e-04  9.29140400e-02 -1.36731105e-01 -3.43224097e-02
  1.82457403e-01  4.85794302e-02 -9.20046537e-02 -9.25500763e-02][-3.41515948e-02  1.49168495e-02  6.20961068e-02  1.39044772e-01
  1.88686626e-66 -1.13955085e-01  1.53281838e-01  9.68818710e-02
  1.77227225e-65 -5.74958738e-02  2.08491051e-01 -1.44265557e-01
  1.13505678e-01 -9.36047604e-02  2.03492291e-01 -1.28948620e-01
  1.53364960e-01 -1.99514217e-01  3.94788972e-02  1.16112121e-01
 -4.15570178e-01 -1.77588247e-01  1.18930616e-01  1.62969123e-01
 -1.25907199e-01 -1.17137922e-02  9.01611753e-02  2.72937740e-51
  1.29598042e-01  7.09145148e-02  1.64144070e-56  2.17186450e-01
  1.01114571e-41 -8.10442138e-02  3.15807181e-03 -5.99445709e-01
 -2.43813677e-01 -2.46231200e-01 -5.22007643e-02 -7.78197308e-02
 -1.68884653e-79  2.91902607e-02  7.01112198e-01  2.60135021e-02
 -4.54563123e-73 -4.89354698e-02 -1.60103593e-01 -1.34619612e-01
 -8.94580331e-02 -7.93021802e-02 -2.94510938e-72  8.23356090e-02
 -1.23303489e-02 -4.89150196e-67  4.88658060e-02 -1.48914844e-01
 -1.44598215e-01  7.99291694e-02 -1.71422061e-02  1.37232306e-01
 -2.19764406e-01 -1.24089290e-01  1.80133845e-02 -5.06980106e-65
 -2.32456940e-01 -1.17905592e-01 -8.82951271e-02  1.04789485e-01
  5.36867440e-02  4.27020838e-50  8.99471886e-02 -2.92797564e-02
  3.19790877e-67 -8.39676790e-02  2.56088301e-76 -1.77401057e-01
 -6.64726612e-43 -1.07351208e-01 -7.22398474e-02  2.17969895e-02
  5.05777896e-02  1.63321291e-01 -5.85502412e-02  2.24514327e-01
  1.01623935e-01 -1.85666484e-77  1.72849447e-01 -2.09717522e-02
 -2.19875350e-02 -1.02266806e-01 -3.49527444e-02 -4.96325629e-02
 -9.48144761e-02 -3.08561874e-01 -6.25981448e-02 -2.23016818e-02
 -1.64344394e-01  2.11708307e-02 -6.70852879e-02  3.64869758e-02][ 3.19169389e-62  2.74759950e-74  2.48485485e-67  2.92727294e-60
 -1.04457375e-41 -1.67672452e-62 -6.51926398e-46 -9.45719853e-59
  4.27962912e-78 -4.14490812e-56 -5.80202358e-64  7.81127621e-65
  2.62411332e-74  2.78084240e-61  2.68781629e-47  1.29368066e-74
  2.95167763e-76  1.14453711e-46  6.68118964e-71 -6.79976536e-75
 -1.99595445e-49  2.76472042e-50  2.54057617e-62 -4.05169118e-75
  6.30757670e-72 -3.63356813e-43  3.89622900e-53  4.60736753e-64
  7.99878592e-42  3.91535437e-67  1.47487336e-51  5.70989648e-75
 -8.67540715e-75 -3.75094258e-70  6.55476456e-65  1.71541553e-69
 -8.76972909e-73  1.24129977e-56  1.55417279e-57 -2.01899605e-68
 -4.50981735e-62 -1.59469534e-68 -5.52823442e-45 -1.55178321e-53
 -3.82674766e-57  7.86622557e-77 -2.18392944e-69  1.41940891e-50
 -4.05434672e-49  1.96063113e-65  2.46306836e-61  7.76377106e-64
  9.06448607e-70 -1.51437365e-64 -1.38387034e-72 -1.60982017e-58
 -1.80144209e-66 -1.08932735e-50  1.06653623e-43 -4.11957133e-77
  3.83315817e-47 -7.59467476e-62  7.64314898e-75  2.84493449e-61
  2.53158077e-70  5.30605757e-65 -1.07862691e-76  1.16937131e-64
  3.73942924e-65  1.00314634e-42 -2.79637079e-62 -1.20250731e-57
  1.04429569e-47  4.17790548e-70 -2.22348565e-52 -1.17447541e-61
 -4.12422232e-76  2.68451167e-61 -1.92836769e-52 -2.06482190e-46
 -5.20297314e-68 -6.04851266e-53 -3.95112195e-62  8.97103545e-63
 -1.98772254e-52  3.80365853e-47 -4.20483036e-49 -2.22315782e-71
 -1.32263473e-47  8.74803664e-56  2.31657050e-75 -7.21052384e-75
 -1.27093093e-55 -2.62447377e-43  1.06955902e-50 -1.67434472e-43
 -2.27710147e-65  1.45081060e-72  4.20344057e-69 -4.33735012e-70][-2.57549453e-63 -3.12126137e-76  9.04598903e-51  4.65333012e-74
  2.47945601e-67  1.24838945e-74  4.64678049e-43 -3.83968958e-62
 -7.15176485e-69 -4.70302048e-68 -8.16260724e-75  1.47524406e-50
 -3.33890546e-63  8.29799348e-50 -1.08105936e-56  2.58693882e-70
 -5.59085816e-53 -1.67202270e-62  4.28777091e-70  2.54122179e-70
  3.07902745e-72 -1.23457469e-45 -7.09890019e-62 -2.43822368e-65
 -1.22183311e-71 -1.49141503e-70  2.78673183e-67 -7.66673713e-48
  3.48381388e-74 -1.34938101e-43  4.62762047e-43 -3.80390491e-72
  3.78064897e-70  3.89516368e-53 -5.87825860e-65  4.86443098e-50
 -2.61688480e-66 -1.78643296e-59 -1.00105134e-64  2.73248978e-44
 -3.57124128e-65  3.99894370e-70 -3.83808187e-48 -2.46175301e-62
  3.97604422e-47  3.28497391e-68 -4.05771260e-59 -1.68451508e-73
  1.65037222e-54 -6.78364481e-65  4.16831586e-53 -2.31124899e-70
  8.67913805e-64  1.29461603e-47  1.32907248e-57  1.30495402e-64
 -5.42807161e-45 -5.34520746e-74  5.59681828e-75 -5.46072749e-73
 -5.79755296e-50  3.94607099e-68 -5.36008152e-74 -7.95114389e-54
 -1.28678821e-72 -4.98248004e-68  5.28002049e-64  2.05607754e-76
 -9.71446775e-71 -9.04054491e-53 -2.25949741e-43 -4.56517162e-51
  3.55084326e-76 -6.67871453e-43  4.32210573e-70  4.10127467e-49
  1.65626372e-62  5.33707888e-73 -1.45381543e-50 -1.79684964e-62
 -7.46472510e-43  1.62179980e-45 -1.81196922e-70  5.69513027e-72
 -5.38450320e-43  1.07697099e-70 -9.80447450e-75 -9.88912639e-48
  5.96210007e-64 -3.47137860e-70  3.75100613e-67 -2.62007856e-56
 -1.24609134e-76  1.77026370e-58  3.50433610e-49  1.28306623e-71
 -5.64255093e-43  5.56399610e-42  6.19538829e-46 -4.04850471e-76][ 4.22403403e-47 -5.63223134e-02 -1.57495420e-01  1.24900279e-01
  3.57396518e-76 -5.52243695e-02  1.57179299e-01  1.56953977e-01
 -2.83598186e-63  1.58589085e-57 -4.15424490e-03  9.46842516e-02
 -5.38790882e-03  1.40953049e-72 -1.33323176e-01 -2.41089828e-57
  9.53733185e-02 -4.74968407e-54 -1.14119094e-01  3.66247072e-02
 -3.94929940e-01 -1.45025034e-01 -9.10669480e-02 -3.55991402e-02
 -6.60043222e-02  1.38748522e-01 -1.40194095e-01 -3.96292460e-69
  9.41630228e-02 -1.67231630e-01 -1.63427180e-52  1.17152749e-01
 -1.32959671e-50 -7.16347847e-02  1.07946428e-01 -6.48511939e-01
  1.29513922e-01  2.98847860e-01  2.67675677e-52  1.74294035e-01
 -2.84251203e-44 -1.41449341e-01  1.90623090e-01  9.15747842e-02
  8.20724576e-75  8.95695691e-02 -6.75645074e-02 -1.27876151e-54
 -1.28229035e-02  2.85870500e-02 -6.01065855e-75  1.79739081e-01
  7.63058524e-68 -8.47111373e-62 -1.33055262e-01 -4.33891520e-70
  1.18773558e-01  1.52646853e-01  1.72926916e-01 -2.15600128e-62
  5.97003558e-03  8.37151344e-03  7.89941388e-02  1.35654589e-70
 -1.96659954e-01  1.17151270e-01 -1.75157225e-01  1.31076916e-01
  1.05028668e-01  1.92766448e-64 -7.63238655e-02  4.29019946e-02
 -2.05400907e-71  9.39109034e-02  1.76513151e-58 -2.03653822e-01
 -2.90650615e-66 -2.17839401e-02 -1.94191090e-02 -1.99124014e-02
 -2.09841340e-01 -1.95918441e-02 -4.16283882e-02 -6.10314702e-02
 -2.66272249e-74  2.69713529e-68  3.25341917e-03 -1.10897259e-01
 -1.33675419e-01  1.58109088e-02 -8.04654914e-72 -9.76285936e-02
 -3.28055555e-02 -1.46264057e-01  3.14974455e-55 -9.24531085e-02
 -5.02335049e-03  4.65996358e-02 -9.59630595e-02 -1.49708022e-02][ 2.43075311e-01  7.37021182e-02  2.64180997e-03 -2.12194117e-02
  4.59600255e-69  2.23202132e-02 -1.52797259e-01 -3.82938768e-67
 -3.00035605e-76 -2.89874455e-51  1.60292865e-03 -8.98327754e-02
  1.82429119e-01  3.29308117e-69  4.58976972e-59 -3.85118695e-03
  2.77390638e-02 -3.07843464e-01 -1.49102952e-01  1.51645767e-01
  1.53401499e-01 -6.51352017e-03  2.05269965e-01 -1.73941435e-01
 -4.20993040e-02  1.71280255e-47 -8.85936903e-02 -1.89762619e-61
 -7.86573688e-02 -4.25718653e-02 -4.09449126e-66  7.76644876e-46
 -5.84747069e-02  1.61863422e-01  2.25186328e-01 -1.45917976e-01
  1.32434723e-01 -2.96937736e-51  5.61645798e-53 -2.12793750e-01
 -8.05308124e-75  2.21336505e-01 -1.40423219e-01  1.80643153e-01
 -2.03927584e-56  1.16631194e-01 -9.12452096e-02  7.65307200e-46
 -4.01367430e-02  4.35631899e-74  3.90037711e-43 -2.21581516e-01
 -5.96636701e-63  1.89007489e-49 -7.46590073e-02 -1.94998625e-64
  1.24415978e-02  3.15390276e-68  2.22955026e-01  7.24102887e-59
  1.54315088e-01 -7.20123764e-02  2.95591832e-04 -1.59648374e-58
  6.97653916e-02 -2.30955814e-01 -7.52330118e-02 -8.27942344e-02
 -3.27781390e-02 -2.61701814e-64 -1.79712708e-01 -1.53768243e-50
 -2.77912101e-66  1.18834801e-01  2.55294643e-58  1.06963802e-01
  2.62166375e-62 -1.01166905e-43 -1.98238059e-01 -7.54415465e-02
 -8.00953481e-02  5.06966697e-02  1.71801528e-01 -7.76663980e-03
 -6.35114707e-02  1.06315125e-01  8.30807657e-02 -7.72707494e-02
 -1.38980124e-01 -9.94322089e-02  2.64720801e-62 -1.45084749e-01
 -5.76752339e-02 -8.66890868e-03  1.65026299e-53  6.99189662e-02
 -4.79465092e-02 -1.18266691e-01 -1.22721065e-02 -2.43323483e-01][-1.94570151e-64  2.66200896e-68  4.67471445e-64 -8.45257477e-48
 -1.41297243e-76  1.52435638e-58 -7.86360358e-46  8.39953335e-78
 -6.16225685e-72 -2.08169419e-64  3.58470364e-54 -4.95397222e-52
  3.04420822e-62  3.59697328e-62  3.01535849e-56 -1.41153308e-72
 -6.73195618e-72 -5.72358326e-51  1.62614539e-58 -2.08066205e-70
 -3.62218806e-70 -5.60699809e-65 -8.51036624e-43 -2.78435024e-74
 -1.96872804e-52  9.56783949e-73 -5.18280626e-68  4.22937086e-47
  3.14780173e-67  5.91250107e-65 -2.12852532e-70  4.98615895e-69
  9.73712319e-68 -1.09788524e-70 -8.50360558e-54  1.25950552e-76
 -7.17748606e-46  3.80963920e-70 -1.86902430e-56 -4.41148768e-75
  1.07117374e-53  1.39307711e-53 -8.49011336e-56  1.62050803e-42
 -3.25499237e-62 -9.81095676e-42 -1.43211466e-50  3.19671369e-76
  6.62889191e-59 -1.04077846e-50  1.97808762e-67  2.56803167e-76
 -2.97078027e-57  1.17951701e-50 -5.10011439e-57  9.93531326e-72
 -9.86636741e-63 -2.36735622e-74  6.61746541e-71 -1.51543120e-50
  1.25363327e-65  1.47447257e-72 -2.19444592e-71  3.01487659e-67
 -1.72237867e-53 -1.43226742e-56 -3.62362975e-49  3.83061594e-70
 -8.11113445e-46 -3.74730344e-70  6.06999533e-59  8.14489836e-77
  4.38593418e-75 -3.03385931e-68 -1.71015112e-51  3.81983495e-70
 -1.55568973e-58 -2.27584544e-43 -3.67873460e-63  7.71085377e-57
  6.85363044e-51 -2.23684849e-47 -2.37329444e-56  1.53573647e-65
  2.40940067e-47  3.52010381e-62 -7.45734601e-43  6.20070184e-44
  2.94498357e-66 -1.49993078e-66 -2.81152018e-77 -4.60441102e-73
 -4.33266665e-70  5.42220105e-51  6.20882640e-63  1.14331228e-44
  6.70878184e-69 -3.22303736e-46 -8.55378936e-77  5.12626782e-69][ 1.55033200e-01  1.66257821e-01 -4.53373321e-02 -4.26523837e-02
  1.72242776e-56  6.75588322e-02  1.65288208e-01  7.41316178e-43
  3.94526293e-56 -9.35693991e-02  1.26754806e-01  8.61786668e-02
  1.06353799e-01  1.35062864e-01 -5.74121642e-02 -1.24837779e-01
  5.68781966e-02 -1.32185793e-01  6.34266358e-02  1.26751419e-01
 -3.88262954e-01 -4.65989870e-02  1.81722458e-01 -4.53534922e-02
 -2.70019518e-01  1.66535076e-56  5.02371332e-02  3.34358849e-46
  1.70780492e-01 -3.43119562e-03  2.12113210e-47 -1.00889406e-01
 -9.83557975e-02 -4.05653527e-02 -6.87160079e-02  5.86583188e-01
 -1.16930839e-01 -3.36393422e-02  1.58972014e-01 -2.96074320e-02
  2.78283837e-49 -2.02606002e-01 -3.97421743e-01  1.48869425e-01
  1.58580422e-58  7.55644596e-02  1.57156794e-02  9.41944143e-02
 -5.49274345e-44 -3.61881838e-62 -4.46938574e-65  1.09734124e-01
  6.06919593e-02  1.01837457e-55  1.75522979e-01  1.67004326e-01
 -1.96136515e-01 -1.10691422e-01 -4.47118471e-02  1.12835538e-01
  1.56613191e-01  3.01570711e-02 -1.73292541e-01 -8.59769722e-73
 -1.55362844e-01  1.08334394e-01  1.02299898e-01  3.32970929e-02
 -7.25817700e-03  4.18398031e-49 -8.14355989e-02 -1.29644095e-50
  8.14288990e-59  3.76253377e-02  4.49792821e-59 -1.82742842e-01
 -7.96336577e-63 -2.47182993e-02 -8.97095649e-02 -9.67380006e-02
  3.79334549e-02 -1.39784996e-01  1.49999190e-03  1.16200827e-01
  1.72497648e-01  1.02397912e-01 -6.87707040e-02 -1.85973802e-01
 -6.62322142e-02  1.64491182e-01 -4.11232135e-02  5.67604609e-02
 -1.39795022e-01 -3.25676167e-01  7.91811312e-02  6.31630887e-02
 -1.08376788e-01 -7.91327373e-02  1.70917227e-01 -1.59488715e-01][-7.00887852e-48  7.27325927e-02  1.33747054e-01 -1.95793240e-01
 -1.55030339e-76  7.76222508e-02 -1.81571432e-01  1.76274036e-42
 -4.56576980e-51 -1.50001743e-43 -1.28429396e-01  1.65986889e-02
 -2.76772467e-02  2.94368770e-42 -9.99639552e-73  1.43983867e-65
 -7.71302388e-02  4.18409671e-43 -2.47988573e-54  5.49590858e-02
 -3.86130865e-01  1.81392468e-01 -7.20812277e-02 -1.51333994e-01
  2.92472461e-01  1.80508039e-01  1.45046066e-02 -7.96686844e-72
 -2.66096068e-01  1.27448594e-55 -1.30865563e-72 -2.50948373e-01
  6.82530552e-65 -2.54871112e-01 -6.04938201e-02 -2.86923972e-04
  2.63276717e-01  3.96787563e-01 -9.88704426e-42 -1.55143562e-01
  1.98533565e-61  1.96669850e-01 -8.27129398e-01 -7.07932621e-02
 -1.31057901e-49  2.05795927e-01  1.36064488e-01  1.05908723e-43
  5.24524036e-42 -4.50170111e-73 -3.06651906e-73  1.89188726e-01
  3.64078344e-70 -1.54019459e-48 -2.14712380e-03 -6.28556356e-43
 -1.43466303e-02  1.69605643e-01  2.05952227e-01 -1.57780474e-53
  1.76034772e-01  6.99495103e-02  1.99780085e-01  4.23472594e-59
  6.91964928e-04  1.83009101e-01  5.21232118e-02 -3.06125146e-02
  9.12257646e-03  3.51007963e-60 -5.92396655e-43  5.78570351e-02
  8.55834216e-68 -1.19438585e-01 -2.39852964e-70 -5.71740145e-05
  1.28783820e-57  2.05002740e-01 -1.39024512e-02  1.96255083e-01
  2.01413052e-43  3.03188187e-74  8.82770017e-02 -2.98693802e-70
  1.78784097e-78 -1.14894370e-74  1.25902741e-01  1.47629201e-01
 -1.03448082e-01 -9.24556754e-02  4.73350235e-74 -9.87360575e-02
 -2.48852199e-01 -3.17391496e-01 -9.39960704e-63  1.57469421e-01
  7.52087235e-02 -6.61340498e-02 -1.34308489e-01 -1.19748687e-01][-6.43244562e-02  9.74429002e-02 -1.44830052e-01 -1.35846506e-01
  1.65465923e-75  4.78161321e-02  5.29109188e-02 -5.89772187e-66
 -9.04549645e-44 -1.09807617e-72 -1.01201548e-01 -1.97524790e-01
  1.12730682e-01  1.63548646e-01 -1.99288063e-02 -1.37151528e-01
 -2.83757850e-02  1.00560597e-01  1.24253823e-01  5.52867313e-02
  5.60428047e-01  7.39650302e-02 -1.37874574e-01 -1.28221066e-01
  9.84000669e-02  2.02747266e-01 -1.81414847e-01 -1.19832799e-65
 -2.70442281e-01  2.82651769e-02 -9.01163037e-59  7.21530322e-02
  1.64840824e-02 -2.48359411e-01 -2.18230544e-01 -1.48722847e-01
  3.20896806e-02  1.69079625e-01  1.39141645e-01  8.70287213e-02
 -2.74186693e-16 -2.00894487e-01 -2.83957684e-01 -8.99088190e-02
 -7.41947622e-43  6.57317172e-02 -9.43647152e-02  9.39791080e-03
  9.21294952e-02  8.38208213e-02 -2.23283696e-70 -4.64070122e-02
  3.60889507e-50 -4.18737496e-47 -1.16209604e-01  5.89892993e-02
  7.42395911e-02  2.03249074e-58 -1.32838528e-01  1.27221211e-04
 -3.53967368e-02  1.07667646e-01 -2.94376017e-02 -4.69543786e-65
  1.07075525e-01 -1.18020651e-01  3.85414243e-02  1.94380220e-01
  6.00837799e-02  5.74344898e-74 -1.25960256e-02  1.18298270e-01
 -1.81806481e-42  1.55034436e-01 -5.65157495e-73 -8.20968168e-02
 -8.92875345e-02 -1.06445536e-02 -5.39331946e-02 -8.64826184e-02
  1.06661715e-01 -5.84290711e-02 -2.03654557e-01 -1.80748133e-01
 -4.56281808e-02 -1.35820452e-02 -5.73394236e-02  2.41141631e-01
  2.38876327e-01 -7.86379327e-02  1.61259087e-01 -1.79293873e-01
  5.28465385e-02  2.72111340e-01  1.65280987e-01  9.87828308e-02
 -5.91635704e-02  9.89650124e-03 -1.05398843e-01  1.86402015e-02][-4.23654961e-58 -1.32652010e-43 -1.05332416e-56  7.23548763e-43
  6.62783945e-44  2.29607999e-74  5.94114746e-69 -1.17658530e-62
  4.87026767e-45  3.47541755e-67  4.36309820e-67  1.86932307e-42
 -3.36570350e-53 -1.45889180e-59  5.49499943e-66 -9.15141443e-63
 -1.51910805e-53 -9.52134291e-64  3.69116871e-49  1.38000187e-64
  1.00379480e-41 -3.87861005e-59  2.78180205e-76  9.18865854e-58
  1.71075242e-62 -5.04558564e-66  1.51294528e-50  1.33952365e-56
 -4.40768760e-46  3.90458140e-43  4.58870471e-65 -2.68317912e-52
  1.30591756e-53  9.84431899e-73  2.07231567e-69  7.74636425e-64
 -5.87699683e-42  6.47285010e-62  2.96770715e-47  1.73056928e-73
 -1.96235745e-46  7.12269380e-54 -1.63038903e-53 -7.17135796e-73
 -1.26491398e-67  6.77991407e-72  7.99332260e-42  2.61102193e-67
  7.28284393e-54  3.22459322e-46  1.75832804e-49 -4.66685022e-65
 -7.51700858e-78 -1.54369174e-78 -4.27818538e-70  2.13816767e-71
 -1.07395261e-53 -5.50952807e-64  1.68807160e-53 -4.14755573e-74
  3.56423580e-78  1.87269678e-62  1.72151049e-62  3.33421166e-47
 -4.11049722e-65 -3.01569135e-70 -8.61746403e-63 -4.92393522e-65
  4.28348070e-62  2.22567727e-56  1.62248821e-42 -1.38173477e-54
  1.27044343e-75  1.19563838e-64  2.29490431e-76  1.04464253e-50
  6.63170233e-43 -8.40243532e-75 -2.46364032e-59  9.55328186e-77
  3.71375687e-67  4.43980404e-59  4.66817601e-50  7.46451518e-43
  2.62347807e-56  1.87368945e-64  1.24600400e-72  2.14576864e-70
  1.00452859e-55  1.00253993e-72  2.33233586e-65 -4.04348026e-43
  2.40731832e-70  3.05944029e-47 -6.00027003e-56 -6.66844112e-73
 -2.10469686e-66  2.82821718e-59  1.93980760e-44  2.47464178e-74][-8.31065613e-59 -5.99471152e-62  5.01157252e-44  3.06288843e-60
  1.26040008e-49 -2.39737255e-56 -1.67548253e-59  2.00796091e-64
  3.17871541e-74 -4.90678867e-58  3.95509776e-76 -1.40397541e-72
 -1.59799574e-50  1.49911011e-50 -2.34938192e-63 -3.82719930e-70
  1.34510328e-43 -1.71184687e-56  1.62091372e-43 -4.06048498e-68
 -2.15237857e-51 -4.26802008e-59  4.23249239e-45 -2.18449843e-74
  3.66927386e-66 -5.48426305e-43 -1.99462511e-42 -2.28134375e-66
 -6.73352555e-43  1.02894206e-56  5.26303643e-43  2.80460950e-62
  9.97187850e-42  2.80550667e-46  5.29374696e-73 -3.23324572e-67
  1.57834156e-50  4.42297812e-51 -1.02547574e-42 -4.22446991e-64
  8.93336909e-51 -1.26081490e-66  1.81923964e-50 -1.06797433e-52
  5.57145573e-65  1.16155829e-72  6.05621205e-69  2.01504509e-71
  1.43663091e-72  3.05959506e-70 -9.63958566e-51  8.02104991e-75
  2.07181178e-59  2.83944480e-61 -2.77571575e-67 -3.34467274e-47
 -2.13089934e-42  2.92987909e-59  4.34870163e-59 -3.17036885e-43
  9.94011090e-77 -2.52535285e-69  2.18428181e-75  4.00114990e-68
 -1.31549806e-57  5.12677458e-43 -1.32478176e-64 -4.04438646e-65
 -4.90031438e-43  1.73369810e-53 -3.42277948e-74 -5.77633845e-72
 -8.34467261e-57  4.63766417e-59 -1.74055201e-53 -6.91353518e-71
  8.39369123e-51 -2.94700365e-76 -6.53254810e-70 -1.04103128e-50
  5.08919033e-68 -1.58983466e-47 -7.76915346e-76 -1.76917272e-68
 -3.69251234e-70  2.60271115e-56  1.03032739e-59 -3.46415238e-70
  6.11469690e-65 -3.75129637e-48  3.79282458e-65 -2.84409745e-47
  3.89604705e-44  9.18069506e-63  3.56387429e-49  1.75366073e-58
  1.14025570e-70  4.01027496e-48  6.13304663e-77  3.38144576e-51][-1.02308924e-01 -9.36748300e-02 -1.39431614e-02 -1.66915125e-01
 -4.01341264e-67  3.85432130e-02 -3.83318981e-02  1.27546882e-50
 -2.18371440e-62 -7.10241075e-69 -6.40050776e-03  5.03963842e-74
 -1.93370229e-01  1.22665370e-55 -5.27060386e-46 -2.28686595e-70
 -3.23688187e-03  7.97185024e-46 -1.61816606e-01 -2.11705172e-01
 -2.92619017e-01 -8.39607043e-02 -7.03969860e-02 -1.65369566e-53
  1.54012964e-02  1.16810059e-01 -5.59349105e-02  1.21325465e-43
  1.76589333e-72 -2.62990742e-01 -5.77386221e-73 -2.39342982e-01
 -5.97854326e-66 -4.53210522e-02  9.73623032e-02  8.48297900e-01
 -1.51000460e-01 -5.65417853e-01 -1.73113520e-76 -1.83052199e-01
 -1.49076907e-53  7.07046918e-02  5.09695709e-01  1.23805640e-01
  5.18609124e-74  1.57147129e-01  7.27377534e-02 -1.79545653e-74
 -1.04617587e-01 -1.25595027e-69 -1.88457755e-69  1.29406837e-03
  6.57153423e-49  8.86399431e-59 -2.12746968e-02  8.79630921e-72
 -1.78041471e-01 -2.78662215e-68  3.04069514e-02  3.58100130e-47
  2.18324725e-01 -4.56032098e-02 -1.52447049e-01 -4.20531884e-67
  2.56134102e-01  1.48029726e-01  7.25867662e-02 -8.20498214e-02
  7.20462066e-02  2.87902947e-68  4.98001802e-02 -2.14727828e-01
  8.61695428e-51  9.25736782e-02 -6.56135928e-43  1.84521431e-01
  1.79116859e-52  1.67088735e-01  6.60985727e-02  9.12990040e-02
 -9.34657463e-02  1.36628602e-46  2.69766798e-01 -4.58396435e-56
  1.25570209e-01 -5.98193402e-75 -5.76591936e-02 -1.23428468e-01
  3.19760495e-02  1.66571205e-02  1.04820595e-01  3.30303212e-02
  1.45306778e-01  4.31849626e-01 -1.06681208e-66 -9.20795975e-02
  2.52015008e-02  1.42008115e-01  1.74875312e-01 -2.38204264e-02][ 3.04849497e-59 -2.77232452e-57 -1.46300063e-59  7.45705001e-43
 -2.56473457e-43 -9.73383462e-62 -2.08252449e-58 -9.80816722e-64
 -2.73673012e-61  4.57089911e-74  1.15761630e-72 -6.44354430e-64
 -7.92404754e-75  7.79546699e-72  1.27411735e-65  3.84393980e-60
 -6.68316153e-49  6.31211878e-69  3.63637285e-67  5.53844122e-66
  9.67527675e-42  3.43619426e-74 -9.84880383e-51 -5.44311369e-76
  7.38684259e-43 -3.07943419e-78 -4.18666512e-70  2.59923035e-56
  2.70208535e-43 -6.24748586e-65 -6.08071876e-58 -9.04824529e-42
  9.89255328e-51  4.23400546e-75  2.55463629e-56 -2.73103614e-70
 -5.09481053e-74  8.42334067e-62  4.27559845e-49 -5.65089350e-70
 -1.49948188e-75  3.40222479e-60  8.98627163e-54 -1.52641379e-59
  1.72860321e-43 -4.79519772e-76  1.32817854e-49 -2.78855199e-46
  1.87237198e-54 -7.67295237e-75  3.70499201e-54  1.56992407e-50
 -3.96433195e-59 -1.12507447e-73 -3.64509536e-70  1.65016734e-53
  7.33556388e-71  4.30903622e-58 -9.18872761e-66  5.73072641e-75
 -3.27143971e-62  1.03081659e-41  1.05170242e-59 -1.35089934e-67
  1.12885720e-50  3.03259613e-55  8.18540362e-50 -2.60029285e-47
 -3.68228409e-60  2.89205261e-64 -1.28549628e-62  1.03429575e-41
  4.28905711e-49  1.97830768e-52 -1.02192955e-53 -4.75752669e-74
  2.62795171e-56  2.27082591e-56  2.39581566e-48 -2.59447829e-74
  1.99532965e-64  2.73724733e-76 -1.76388125e-45 -2.53968232e-47
 -2.74835903e-61  6.39595189e-43 -1.21980795e-65 -2.90062244e-62
  1.08189698e-64  1.29424728e-67 -2.36782327e-44  6.16779107e-70
 -4.63697472e-59 -3.27446522e-47  1.41006693e-50 -6.78713120e-48
 -3.57878601e-53 -1.59764414e-50  4.27822640e-74  1.62751720e-64][ 1.78097931e-01 -1.43854838e-01  1.05996299e-01 -1.09404518e-01
 -3.66408758e-72  6.91440380e-02  1.07982017e-01 -6.74938743e-65
 -9.37108913e-72 -7.06473199e-02  2.89730683e-01  1.15606281e-01
  3.66935557e-02  1.36040532e-01  1.67018499e-01  5.69431533e-02
 -3.26284290e-02 -1.82421229e-01 -9.94487749e-02 -2.57111660e-02
 -3.09805961e-01  5.43036291e-03  4.19296176e-02  1.26061212e-01
 -1.77568199e-01  1.18453359e-55 -1.22748748e-01  3.30689615e-74
 -6.70523496e-03  1.89457456e-01 -2.22955174e-62 -1.19946540e-01
 -1.50286427e-58 -5.49277347e-02 -6.74949771e-02 -4.12610239e-01
 -2.86011470e-01  8.74493385e-01  1.21869373e-01  1.16428913e-01
 -1.06010835e-50  5.34786802e-02  4.86464799e-01  4.22226280e-02
 -1.72411656e-58  2.45941441e-02 -1.57412155e-01  1.03170243e-01
 -4.63474545e-66  3.60120515e-67  8.28821082e-54 -6.73484966e-02
 -8.32344904e-02 -2.18053785e-69  4.08746164e-02  1.05212841e-01
 -9.07134423e-02  1.03875588e-01  7.36241255e-02  1.14976013e-01
  1.97146417e-01 -1.85899026e-01 -1.86834123e-01 -6.14196509e-73
 -2.91043530e-03 -7.64602813e-55 -1.08077396e-01  3.47338904e-02
  1.62301988e-01  7.99996395e-46  2.00727023e-01  2.40153276e-43
 -3.17705853e-62  1.45385879e-01 -2.13740140e-64 -1.63656336e-57
  1.60708092e-75 -3.05647494e-01 -5.38309321e-02  3.29335173e-02
 -7.67383100e-02  7.88630623e-02  4.17988611e-02  1.56968611e-01
  7.60115296e-02  1.48881161e-58  4.75842964e-03 -1.15818162e-01
  8.18210313e-02 -1.26705708e-01  8.11515953e-02 -1.66628973e-02
 -1.16747340e-56 -9.46129602e-73 -3.84852831e-02 -1.61930891e-01
  1.25419908e-01  1.19176968e-01 -1.28742543e-01 -3.51354816e-02][ 1.75300904e-01  3.93625417e-02  3.38862842e-02 -1.82702115e-01
  8.54912615e-75  4.37861924e-02 -1.59516318e-01  1.63052932e-01
 -1.88038775e-58  8.33779660e-02 -7.17557627e-02 -1.68385806e-01
 -6.62058295e-02 -7.25861010e-02 -1.83244818e-03 -1.14236422e-01
  5.20545738e-02  1.62835341e-01  1.02265503e-01  6.60316783e-02
 -6.12742574e-03 -1.21790311e-01 -1.29341328e-01 -3.23778616e-02
 -1.39505664e-01  6.51330656e-02  2.16793405e-01  2.52054828e-61
 -1.15403812e-01 -1.81431436e-01 -3.72044278e-67  2.02190567e-01
 -6.82895742e-02  8.89666998e-02  8.05777016e-02  7.86853380e-03
 -5.03976048e-02 -1.27068423e-02  1.84415750e-01 -1.93158067e-01
 -1.23125173e-24 -8.32953053e-02  1.44765458e-01  6.11975159e-02
 -3.61198795e-62 -1.38273322e-01  1.90249638e-01  9.46001722e-02
 -1.87314856e-01  6.27086029e-02  1.35038125e-72  9.14728269e-03
  5.40762067e-02 -6.27597399e-44 -6.27186144e-02 -1.42839216e-01
  9.76295785e-02 -5.57831104e-02  7.36698482e-03 -1.01918266e-01
  1.24258249e-01 -1.76603207e-01 -7.83136828e-02 -9.26731330e-73
  1.24393618e-01  4.43982348e-02  5.94255883e-02 -1.83605313e-01
 -1.06760411e-01 -3.28128573e-44  1.76086478e-02  1.56875791e-01
  5.18626457e-43 -1.00819608e-02  8.09209553e-42  8.69263583e-02
 -1.24271321e-01  1.05923587e-01 -1.29400536e-01  1.34429704e-01
 -1.26234474e-01 -2.93853171e-02 -8.91010971e-02  1.29506353e-01
 -4.21583163e-03  1.29686181e-01 -9.75061552e-02  1.76199291e-02
  1.28525463e-01  1.53900177e-01  6.89325126e-02 -1.20893013e-01
  1.09651561e-01 -4.05461626e-02  1.16242230e-01  1.41436979e-01
  3.50646073e-02  5.04192190e-03  1.60202265e-01 -2.01259981e-01][-1.62956868e-01 -9.88655378e-02  6.14372985e-02  8.74917875e-03
 -1.01414237e-70 -9.66258437e-02 -1.29991308e-01  1.04151039e-01
 -4.80671224e-66  2.30224458e-76  1.03504866e-01  1.37963740e-02
 -2.73268888e-02  8.72211347e-56 -7.71350350e-02  4.94796053e-02
  1.58302457e-01 -2.18461674e-02 -1.73624359e-01 -1.37864886e-01
 -3.03063242e-01 -1.23494314e-01 -8.17900186e-03 -1.10720485e-01
  2.22902028e-01  1.22571072e-01 -9.02511750e-02 -2.83719985e-55
 -1.26852322e-01  4.76622118e-02 -3.84917564e-73 -1.27689468e-01
  1.57128840e-01  2.19571983e-01  1.29268571e-01 -3.97836904e-01
 -7.78099779e-02  1.24286335e-01  7.37668438e-02 -1.99805997e-01
 -3.58542895e-25  1.19239362e-01  5.52824603e-01 -8.25153066e-02
 -3.07797072e-58 -9.36450336e-02 -1.48861072e-01 -1.09562673e-01
  1.77447813e-01  1.01756079e-02 -3.71026099e-60  8.93279603e-02
  5.82523601e-66  2.51746167e-69 -1.73126052e-01 -1.07811300e-01
  1.51827462e-01  7.49359171e-02 -1.15866334e-01 -1.30286390e-01
  4.29955389e-02  1.20541126e-01 -8.16178967e-02  3.47491437e-49
 -4.46707885e-02  1.63248450e-01 -1.18079838e-01 -1.55381359e-01
 -1.52975439e-01  2.77796416e-69 -1.63270292e-01  1.57228143e-03
  8.42224353e-69 -4.27713398e-02 -1.45509796e-62  6.17129368e-02
  8.72247988e-02 -8.73435206e-02  9.57535428e-02  4.40122354e-02
  1.10061458e-01 -4.85043584e-02  1.22012383e-02 -1.30577758e-01
 -5.03017334e-02 -1.50030086e-01 -1.62485694e-01  2.67004582e-02
  1.72499743e-02 -4.93589844e-02 -1.64505328e-01  1.29154452e-01
  1.86961830e-01 -3.22872822e-02 -1.38379823e-01  1.75689238e-01
 -2.35391798e-01 -1.91524876e-02  1.34561713e-01 -9.20175330e-02][-2.78249266e-51 -4.82305372e-60  2.87923218e-47  2.17390851e-67
  2.25329291e-59 -1.53400869e-56  1.11439619e-43 -1.25213664e-72
 -2.38339929e-52  1.03235065e-65  8.23338280e-46 -1.92078446e-77
  3.08159578e-58  3.84206827e-76  4.94833725e-75 -8.38597646e-65
  1.71193362e-65 -6.61161111e-43  1.38573741e-72  2.97204086e-67
 -2.56487342e-70 -2.29232977e-52  2.20130097e-76 -1.72310960e-47
 -9.20775822e-47  9.55086805e-57  2.09153879e-69 -3.84493949e-67
 -3.85974862e-46 -4.05608546e-70 -2.17097242e-69 -9.28283316e-44
 -1.11994181e-43 -5.76079458e-66  2.84229642e-59  3.59581310e-47
  4.62862100e-74  6.01667842e-46  2.73534414e-61  4.81287405e-66
  1.82165920e-67  1.77846021e-44  5.57006945e-51  2.39392316e-61
  2.82645298e-59  2.69720795e-52  6.78237771e-61  6.44606812e-58
  1.00392072e-73  2.40791164e-67 -1.17341964e-76  8.24689843e-46
  1.88393341e-69  2.50675051e-43 -4.58547582e-65  4.09466989e-70
  1.40669642e-67 -3.62618968e-62 -3.64918592e-47  3.82785474e-76
 -2.11917426e-64 -4.11296632e-76 -4.22316553e-49 -3.15104351e-68
  8.15360495e-64  3.05208609e-49 -2.04259405e-76  8.02550935e-72
  3.96321556e-69 -1.20906765e-64  3.82116403e-70  6.85960704e-43
 -1.17555587e-50  1.67753733e-57  2.74110896e-60 -5.68497950e-65
 -3.90702493e-65  1.49451363e-58  2.99748934e-70 -2.39914824e-53
 -6.24576613e-65  1.79184909e-65 -6.02993047e-56  4.34881523e-71
  1.41302493e-72 -3.14441339e-43 -7.96261886e-72  6.96651952e-78
  7.86292161e-72  2.00715910e-67  4.58084635e-74  4.92977188e-56
 -1.39179693e-68 -3.13915322e-47  6.21063547e-51 -1.26139194e-58
 -1.03427536e-64  1.32113653e-50  1.54158806e-50  3.66699742e-54][ 6.51231685e-68 -4.12709612e-49 -4.22443608e-59 -1.61930346e-68
 -4.03746901e-49  1.05002237e-58  9.51915500e-73  3.13242976e-67
 -1.18412394e-71  4.44147404e-46  1.99235419e-69 -3.63411126e-69
 -7.36411846e-53 -1.64954643e-50  1.07388614e-43 -1.16670750e-67
 -2.39259515e-65 -1.63510174e-69  1.12682196e-61  1.31870910e-51
 -1.71224787e-58 -5.80758980e-62  8.81171623e-53  1.22341738e-49
 -9.34191081e-64 -6.47638896e-76 -1.45586344e-74 -1.68672416e-59
 -3.37779775e-69 -4.08567337e-53  8.95102399e-44  7.46137410e-43
  7.63973896e-65 -8.99677984e-73  3.46696284e-63 -1.87854087e-49
  1.82031111e-64 -3.39334044e-61  1.56064089e-50  1.62919005e-69
 -8.06010167e-75  8.52725862e-75  1.14319685e-69 -2.01617881e-49
  7.97780256e-72  3.49572894e-43  2.95747458e-62 -7.59554477e-73
 -1.01182506e-72  3.58041359e-47 -3.29518858e-70  2.13874946e-64
  1.26141347e-67 -2.95397445e-67  1.18281820e-57  3.48757664e-72
 -9.17040947e-54 -1.28798147e-55  2.08683570e-64  1.82847866e-72
  2.61316316e-56  7.24933131e-51  2.37853159e-71 -9.46826669e-42
  3.71507195e-49 -2.77014965e-61 -1.42833730e-47 -7.01374908e-62
 -9.82779139e-54  1.56789254e-50  2.81682853e-76 -6.90723468e-76
 -2.92779174e-44 -3.15851942e-70  4.41132874e-59 -1.76999379e-58
 -2.07561772e-49 -8.04591399e-51  7.56372391e-42  8.15032924e-55
 -4.14228406e-49 -2.54766484e-76 -4.84654172e-68 -2.36776058e-59
  5.79525917e-66  4.00728681e-75 -5.21239244e-73 -6.63171808e-73
  1.29708133e-53  1.24121641e-60 -1.15072720e-62  2.28191549e-56
 -1.27161396e-57  7.72267369e-57  4.66836090e-56  4.32465790e-73
 -3.59188372e-70  2.73642798e-61 -3.33522576e-59  3.92613160e-44][ 6.24556512e-43  2.86756702e-74 -8.31002065e-75  2.92057667e-54
 -1.91995856e-59 -1.74699735e-59 -8.53240458e-57 -2.52373731e-72
  1.48909509e-72  4.54065448e-75 -1.86758448e-52 -8.72847126e-75
  2.14828893e-76  7.20007427e-73  3.72246803e-46  1.24135954e-69
 -5.26200634e-49  5.76551251e-74  2.12223827e-69 -2.36614109e-59
 -1.40918564e-69 -2.43768126e-56  4.36059125e-62  2.39946922e-74
  3.24648354e-49 -6.29506682e-43  5.54250810e-65 -1.08688007e-66
 -6.38917636e-47  2.04401959e-43 -1.06616363e-59 -1.29511236e-64
  5.27512064e-71  2.91116748e-59  7.06551181e-62 -1.80137859e-54
  1.54401680e-61  6.61839208e-52  3.34573033e-76  1.34713335e-46
 -4.60614947e-74  5.60203444e-54  2.21546244e-56 -7.64762863e-44
  3.16528715e-62 -1.69418018e-74 -3.30821004e-44  4.92847189e-44
  6.55731079e-74  9.76045827e-73  7.55447974e-59 -4.01126239e-49
  5.05251973e-46  2.90471620e-68  1.68239517e-57 -8.54422536e-75
 -1.24750969e-48  3.42912734e-47  6.96292307e-65 -2.46661214e-49
  6.47722483e-43 -8.23294074e-60  1.02864520e-41  3.62421614e-62
 -7.36833413e-43 -5.02921265e-55  2.29568667e-42  3.92242312e-54
  5.38067901e-66 -4.21916142e-65 -4.40006045e-71  2.56374604e-62
  1.61774670e-53 -1.13374304e-51 -5.71348927e-48 -2.42634984e-70
  8.00943759e-72 -1.15032348e-63  2.77911196e-61 -7.73934904e-68
 -1.67515404e-57  3.84709203e-48 -1.39288778e-76  3.03919752e-74
 -1.16695330e-48 -6.62090543e-63  4.16048268e-51 -2.74775349e-61
 -6.67349199e-71  8.37188904e-77 -1.67518744e-51 -3.89307948e-49
  4.42203310e-47  1.53842448e-66  4.56962416e-43  2.11344243e-64
  2.01382004e-67 -4.09227558e-47 -1.36579567e-72  3.41803138e-62][-1.38242393e-01  1.13579350e-01  7.42655657e-02 -1.96186927e-01
  2.97500792e-47 -5.66115239e-02 -8.74603792e-02  1.72825526e-53
 -2.16456238e-76 -2.47560088e-74  1.05457973e-01 -1.21896459e-01
  4.02665507e-02  5.56831333e-02 -2.28887570e-02  1.10610976e-01
  6.16526840e-03  1.68473048e-01  7.69797263e-02 -1.25306409e-01
 -5.18123202e-01 -2.05182069e-01 -6.18083530e-02  5.10820446e-02
 -2.06857016e-01 -1.37445112e-01  1.53702563e-01 -3.67235694e-74
 -2.13248195e-01  1.17335808e-01  2.02424624e-51 -1.82157254e-01
  7.70568823e-02  9.98711342e-02  8.76146244e-02 -3.00773394e-01
  1.15480837e-01  3.04968341e-01 -2.27952558e-01  3.27086593e-02
 -1.35573139e-22 -1.67499733e-01 -3.95881089e-01  2.32707897e-02
 -2.27525480e-61  1.63181802e-01 -3.35118625e-02  9.42624403e-02
  1.01840617e-01  2.95670136e-51 -5.91467713e-66 -1.96750291e-01
 -1.19176426e-57  9.90719074e-74 -3.34204340e-02 -2.24977203e-01
 -2.24072408e-01 -4.71358227e-66 -1.40505663e-01 -5.33939833e-03
  1.30935906e-01  2.55060551e-02 -9.36392449e-02  1.72378426e-53
 -9.29065337e-02  1.11747486e-01  1.59319160e-01 -3.40684289e-02
  1.24309469e-01 -1.39473149e-53  9.30798952e-02 -7.97544546e-02
  2.92430526e-76 -1.37489389e-01 -4.23071485e-49  1.42602093e-02
 -1.22876203e-02 -2.83415110e-01 -1.86435017e-01  2.14805559e-02
  1.70658357e-01  6.72795637e-02 -8.78486723e-02  1.09844828e-01
  1.49103842e-01  1.37692768e-01  1.30414476e-01 -3.41721070e-02
 -8.78474366e-04 -2.35971766e-02 -1.14747569e-02  2.93287261e-02
  7.59061750e-02  7.54970042e-03  2.00494515e-01  1.22898938e-01
  1.74011324e-01  6.37417988e-02 -2.49742471e-02  1.44827178e-01][ 7.10314458e-62 -9.32464448e-45  3.73319363e-49  1.66013200e-57
  1.85625934e-75  3.73541490e-59  2.73376634e-54  3.26467694e-42
 -7.62085073e-62  3.05572263e-43 -3.20767205e-62  2.86227265e-70
 -2.16612495e-64  6.19993081e-68 -9.05983041e-74  3.59002126e-62
 -7.66380817e-52  1.16915532e-52 -3.67263958e-70  4.14674144e-59
  2.11397447e-65 -4.50272968e-54  3.55162000e-49  1.32413286e-47
  5.03913475e-68  6.76762151e-74  7.65204856e-75 -3.22807533e-74
 -5.56892364e-62 -4.25831732e-67 -9.91788199e-50  3.58923790e-47
 -8.64787219e-73 -1.05791946e-67  2.12383978e-69  3.96090183e-65
  2.15540632e-71  1.42748321e-59 -8.30711453e-65  1.67969181e-64
  5.84120895e-42 -1.79634575e-70 -3.05408043e-45  5.27929759e-51
 -4.32826163e-64 -7.89142514e-72 -5.98562798e-62 -4.28580599e-49
 -3.13569160e-65 -1.15426901e-72 -7.16231768e-51  7.94623027e-72
 -1.44342338e-72  1.90777460e-71  6.59874516e-44  6.46836546e-58
  2.48111428e-67  5.54002396e-62  5.52523648e-73  4.54359701e-43
 -4.04657056e-67  1.13467780e-69  3.44157532e-74 -4.70205267e-44
 -1.15572083e-71 -2.97594752e-70 -1.43625212e-72  4.13330046e-51
  3.25972700e-69  1.67927757e-74  2.35983003e-69 -5.51476715e-45
 -9.02894038e-42 -1.35062649e-53  8.55563184e-73 -4.29649132e-65
 -1.34772064e-72 -2.62606493e-74  3.22509639e-70  5.47175809e-43
  1.08727005e-61 -3.45762826e-50  7.26557961e-75  2.41917966e-73
 -1.43085704e-72  4.82068779e-65 -8.11615157e-76 -1.18022172e-56
 -1.71227362e-58 -3.11867249e-76  3.85111556e-43 -4.89765451e-74
 -9.55086263e-42 -7.71950389e-56 -1.48635455e-47 -5.04196009e-68
  4.57487442e-59 -1.58822058e-50  2.74520231e-68 -1.97147453e-67][-7.46872358e-03 -1.66551407e-01  1.83632036e-01 -1.67493092e-02
 -1.31549127e-52 -1.35500611e-01 -1.77978594e-01 -4.11661412e-03
  4.12627279e-75  3.68263734e-43 -1.87813992e-01 -1.83989821e-01
 -1.52491729e-01 -1.32901362e-01  1.28930398e-02 -3.12644246e-02
  1.36766393e-01 -1.13911045e-01  1.36297653e-01  5.58530826e-03
  4.26849879e-01 -2.02290586e-01 -1.31641284e-01  1.09921664e-01
  9.75736005e-02  3.77583981e-02 -1.46818026e-01  5.01769574e-69
  1.29933375e-01  1.44544231e-01 -9.37213640e-74 -4.47497720e-02
 -3.02432212e-02 -1.38564675e-01 -1.48156634e-01 -4.88565452e-01
  1.38480474e-01  1.43404421e-01  6.01214944e-02 -1.23621544e-01
 -9.20017234e-15  1.24079064e-01  1.79383007e-01 -1.43392675e-02
 -1.23647855e-53 -1.74561205e-01  6.43801272e-03  4.30288862e-02
 -1.20820571e-01 -2.14342867e-02  3.33985285e-78  1.79664021e-01
  9.84633105e-51  4.87308829e-51  1.43847893e-01  1.00376284e-01
 -8.02252511e-02  1.15038549e-01 -1.07883182e-01  2.23436506e-01
 -4.31656280e-02 -1.29471326e-01  5.45306188e-02  5.18287777e-46
  2.02797750e-01 -3.99166520e-02  1.09615750e-01  7.52520208e-02
  1.32585934e-01  6.61683558e-75  4.25241863e-02  2.54213982e-02
 -9.78802779e-66 -1.14141438e-01  2.66108190e-61  1.71149339e-01
  1.06096910e-01  1.10430822e-01  1.25131900e-01 -2.02861222e-01
 -1.39652406e-01 -3.47411358e-02  8.74003741e-02  1.74397694e-01
  4.92229203e-02 -2.12647765e-02  1.73127350e-01  2.06075061e-02
  7.56654495e-02 -2.14305103e-01 -1.85798332e-01 -1.36211155e-01
 -3.33539235e-02  3.43271994e-01  1.22669309e-01 -3.22553272e-02
 -1.93749476e-01  3.77286483e-02  1.53855781e-01 -1.55226411e-02][ 4.32305770e-62 -3.77865959e-59 -3.71981110e-70  5.02214939e-42
 -4.08137959e-43  3.02612813e-76  5.05180753e-65  3.70198096e-67
  1.56608549e-64 -7.77868060e-75 -3.22911745e-68 -1.09556036e-50
 -6.82028470e-75  3.62460841e-62  6.22000208e-44 -7.45136868e-43
  8.88999829e-55 -4.95611423e-46 -2.58074754e-43 -3.77122449e-46
 -1.78484407e-51  8.02691241e-51 -1.64633650e-53 -5.78870993e-70
  2.51245299e-70  9.48699548e-64 -7.09250169e-69 -8.57623268e-75
 -3.27668137e-47 -3.80114556e-70 -4.70485915e-74  5.61270170e-53
 -4.43292719e-62 -5.64086778e-66 -4.23164642e-47  7.67459083e-57
 -3.33365240e-62 -4.63005107e-73  7.28355049e-72  4.33317558e-65
 -2.97416263e-51 -1.35882337e-49  2.14312470e-66 -3.30203653e-62
 -7.03323135e-49 -8.33095980e-51 -1.10950266e-63 -2.82853139e-45
  7.51683230e-53  8.24947245e-76 -2.32807745e-46 -6.66280075e-74
  2.08175699e-64 -3.38696050e-75  6.79775818e-43  5.55304035e-56
  1.40682608e-62  1.17076190e-68 -3.77157758e-42 -2.79494945e-69
  7.46145792e-43 -2.45659036e-52 -5.84829715e-72 -4.87435670e-43
 -2.64282317e-56  8.21866761e-46 -2.32852089e-58 -4.19175538e-47
  1.76785519e-58 -4.59696524e-43  7.06247147e-62  3.33596063e-65
  2.46332747e-74 -3.17556311e-74 -1.87111879e-51 -1.58826759e-69
 -6.64296798e-54 -5.12568999e-43 -4.34713472e-60  8.47346396e-75
 -1.45152383e-72 -1.26819522e-72  4.50789833e-74  7.02562087e-72
 -5.04296108e-74 -4.46232760e-72  2.37307468e-76  6.57998581e-46
  7.01617230e-43 -8.26882066e-53  1.01926954e-70  2.28081563e-75
 -6.71569070e-47 -1.50434134e-71 -8.01878581e-46 -3.29083310e-43
 -7.61309933e-62 -1.26549971e-57 -3.88982083e-57 -4.67875409e-54][ 5.89021189e-02  1.58894970e-02  1.42243045e-02 -1.74097129e-01
  1.55841081e-64 -1.76700553e-01 -1.76785867e-01  7.03018880e-02
 -5.45440709e-43  2.33594997e-77 -6.36349101e-02  1.29364610e-01
  6.82504481e-02  1.80820120e-01  7.54137342e-02 -5.20977407e-02
 -3.94338579e-02 -1.36968191e-01  2.57918493e-02 -4.68626497e-02
  3.26853092e-02 -1.35156420e-02 -1.60849383e-01  6.61786701e-02
 -1.53480111e-01  1.16882522e-02 -1.59941961e-01  1.64132559e-66
  1.54669415e-01 -3.86285994e-02  4.74817323e-42 -7.62744089e-02
 -2.52877712e-02 -1.54266857e-01  8.40055948e-02  4.46478913e-01
 -1.13849548e-01  5.00274715e-02 -2.05441876e-01 -4.06880756e-03
 -1.74054112e-53 -1.94454945e-01 -1.21433146e-01 -1.75598430e-01
 -1.61105283e-53 -2.10881560e-01  1.29094144e-01  4.16941535e-02
 -4.83858779e-02 -7.97327682e-02 -6.41418473e-45  1.61747228e-01
  1.34818911e-72  7.76165351e-50 -1.67942896e-01  3.65197191e-02
  1.52065154e-02 -1.67904890e-01 -3.58007560e-03 -1.51943030e-01
 -8.84896597e-02  8.55830934e-03 -9.31881703e-02 -2.77846368e-59
 -1.23092855e-01  2.95614225e-02 -1.51968273e-01 -7.62286654e-02
 -9.81510290e-02  5.76797026e-53  3.42671494e-02 -4.88377629e-02
 -7.54684687e-46  8.93138070e-02  2.78876474e-49  9.79193913e-02
  1.37564233e-72  2.30475431e-03  4.53356802e-02 -1.70040005e-01
 -4.59406850e-02  2.87893438e-02  1.10230198e-01 -8.26714571e-02
  4.74224915e-02 -9.67879590e-02  3.78380360e-02 -1.26749852e-01
  1.98175917e-01  1.28377441e-01  1.95375497e-01 -7.71925334e-02
 -1.66874225e-01 -8.84608418e-02 -1.94519271e-01 -3.65683323e-02
 -5.55949316e-03 -8.93554095e-02 -6.22304894e-02 -1.64820425e-01][ 1.13760681e-02  1.46012295e-01 -1.93105355e-02 -4.40789338e-03
 -1.35253087e-57  3.96124775e-02 -1.86311898e-01 -9.14679192e-02
  1.16429380e-44  1.57944180e-50 -2.38864499e-02  1.53972810e-01
  3.48798920e-02 -1.22210929e-01 -1.07113069e-01 -6.81762458e-02
 -1.96739811e-01  1.38680225e-02  1.19061088e-01 -3.10836198e-02
 -5.40175813e-02 -1.15267748e-01 -1.29251317e-01 -1.69405761e-01
 -1.22984516e-01  1.54419732e-01  2.15793122e-01 -5.75931102e-43
  4.90909867e-02 -3.42172551e-02  7.76982290e-75  8.17872401e-02
 -3.64699379e-02 -7.36481867e-02  7.74216298e-04  1.78389880e-01
  1.80925710e-01 -2.12450047e-01 -2.29278049e-01 -1.69251686e-02
  1.86914719e-38 -1.56229569e-01 -9.38440185e-02  1.13870120e-01
 -6.75830981e-65 -1.53537522e-02 -4.18202000e-02 -9.83712071e-03
  1.52712537e-01 -6.18892957e-02  3.56225728e-62  1.54419694e-01
  3.71980438e-67  1.09310209e-57 -1.56386619e-01 -5.18237259e-02
 -1.49573651e-01  1.38103285e-01 -2.43841183e-02 -9.63505449e-02
 -2.64768740e-02 -9.87084851e-02  2.39444220e-02  2.41138610e-59
 -9.16866413e-02 -1.42753281e-02  8.93371379e-02  7.22993157e-02
 -1.36001472e-01  2.92355851e-53  2.18109584e-02 -9.52224038e-02
 -6.41078990e-50  1.40339927e-01 -3.61303098e-43 -5.85062093e-02
 -4.59227438e-02 -2.19450884e-01  1.56639855e-01 -1.08856113e-01
  1.28702483e-01  1.88798947e-01 -1.05529887e-02  1.06254244e-01
 -6.95743346e-02  1.06534628e-01  9.68715083e-02  2.01271436e-01
 -6.58750842e-03  8.61221131e-02  1.69345223e-01  1.47459311e-01
  1.47655260e-01  9.61198806e-02 -7.63365415e-02  1.37251776e-02
 -9.17968633e-02  1.28485502e-01 -5.87076605e-02  1.16702943e-01][ 1.05238900e-57  1.86399328e-68 -3.26608619e-66  3.71004567e-47
  4.81491281e-66 -5.11211991e-68 -5.45965595e-44 -4.31124035e-67
  6.84638991e-76  2.21496773e-62 -1.38433089e-49  6.38567345e-42
 -3.88132012e-47  8.82801613e-64  8.45260023e-75  8.36769095e-75
  8.27494122e-73  1.53635368e-50  9.80290592e-63  2.21141095e-52
  1.16892393e-59 -9.95882200e-77  1.51912068e-69  1.04662770e-56
  1.16248220e-72 -6.81233780e-46 -1.50963928e-56 -3.77306160e-76
 -1.62271105e-49  1.29446540e-46  8.46886163e-64  1.31717566e-57
  7.01713419e-44 -5.01295753e-75 -9.83885049e-51 -5.29009357e-53
  2.39970385e-49  1.56170905e-68  2.08122151e-77  1.22228706e-50
  6.17527404e-43 -2.41284748e-67  6.99881195e-59 -1.96346039e-52
  9.49773690e-64  1.54818253e-57  4.69918297e-69  1.04711554e-74
 -1.73232833e-53 -3.24104001e-62 -1.19144086e-69  2.16633947e-71
  6.17880911e-42 -8.15942510e-73  3.39396624e-62  5.13300457e-68
 -1.05886195e-60  4.28122279e-73  1.28172370e-72  6.26749243e-65
 -1.36040941e-62  1.65611570e-47 -1.77798212e-74 -7.53462496e-43
 -1.67430062e-57 -3.16881139e-66  1.95991916e-59 -3.05354327e-69
  7.90410326e-72  4.54544112e-77 -5.11156587e-65  1.08788845e-53
  6.60600408e-46 -5.38094692e-75  3.09195201e-73  1.11693679e-72
 -2.25622269e-75 -5.57128415e-46 -3.55306523e-67  6.26447498e-46
 -2.76516634e-61  1.92312332e-74 -5.73863136e-69  1.47004080e-50
  6.27719813e-59  1.79754711e-43  4.63356962e-74 -4.67643872e-50
 -5.23845389e-68 -3.75420746e-55 -3.20864747e-43 -2.51518511e-60
 -1.00689084e-67 -1.62162352e-64  1.51876950e-49  1.08141093e-66
  1.78542100e-63 -6.73732938e-75  3.78723911e-67  8.04296631e-72][-4.38738132e-54  6.30129406e-75 -1.86714880e-49  6.54604930e-63
 -4.56150663e-76 -9.88294700e-64  3.46431235e-51 -2.55864097e-57
 -6.52984557e-75 -2.16792358e-52 -3.28604829e-43 -1.57093903e-52
  7.35542476e-72  4.14746554e-51  6.15338383e-63  6.10883282e-43
  3.07707022e-76  5.87110147e-44  2.09528356e-52 -6.44981630e-65
 -2.40287661e-73 -1.20458150e-58  5.62798199e-75  7.35182971e-43
  3.38750191e-74  1.90053122e-45  2.06100167e-47  1.15194820e-72
 -3.89151400e-73 -7.30763950e-43 -4.89507469e-74  1.63523579e-57
 -3.09848846e-67  7.60051637e-64  3.09544358e-67  2.93122028e-74
  4.63711978e-72  1.53308257e-53  1.02157022e-54  1.14652203e-72
  2.50320458e-74 -1.13697951e-72 -2.60267882e-47 -6.60564280e-75
  7.32962715e-72  1.56477354e-57 -8.10525468e-58 -6.72596721e-65
  6.41208155e-43  3.35193997e-70  1.26293011e-73  3.05037151e-76
 -4.41584527e-69 -5.05107320e-75 -3.29736980e-50  2.26791434e-62
  4.24345119e-58 -1.67471900e-57 -8.42518997e-58 -1.64507079e-57
 -3.94533863e-66 -2.58569721e-70 -3.67620872e-68 -1.35742033e-50
  2.20446502e-47  1.10683968e-69  4.05138424e-66  3.12889666e-47
 -2.77689896e-67 -4.34137161e-46 -6.96288619e-65 -2.94230422e-56
  1.56783913e-62  6.91268617e-72 -2.17263146e-66  3.40887586e-59
  2.59076091e-59  6.60138815e-46  1.21936762e-57  6.66900661e-75
 -4.33246348e-59  2.95642122e-76  3.99710835e-59 -8.17513855e-42
 -2.56506310e-50 -1.33704796e-72  4.79797067e-75  9.02563981e-54
  9.76052468e-48 -1.03309028e-56 -9.59605243e-74 -9.62300168e-53
  4.60806090e-59 -2.83538205e-75 -5.44314671e-66 -1.43840386e-50
  6.59879761e-53 -2.77936110e-46 -1.74041271e-57 -1.43503695e-68][-8.63016707e-03 -6.14914379e-02 -1.95759694e-01 -1.17061272e-01
 -5.75472007e-73  5.58179519e-02  1.51402463e-01  1.36432865e-73
 -5.84196159e-65 -1.67217895e-01 -1.71971646e-01 -2.38998184e-02
  1.52515619e-01 -1.11354935e-01  1.56283160e-01 -1.08523977e-01
 -1.61813260e-01 -2.25233184e-02 -1.29532548e-01  2.93141627e-02
  6.56778661e-01  2.37748515e-01 -1.80748605e-02 -1.88395677e-02
 -6.48999028e-02  5.40447337e-02 -1.65507790e-01 -1.02420750e-57
 -2.44367680e-02 -1.71513781e-01  1.42448063e-64 -5.38059874e-03
  3.95050604e-67  3.21511876e-02 -1.76279355e-01  3.40348654e-01
 -1.46805164e-01  4.08750733e-01  5.72468064e-03  6.19962575e-02
 -3.62585506e-45  1.62815876e-01 -3.54606550e-01  9.29546145e-02
  4.60939466e-59 -8.75588885e-02  4.46085710e-02  1.17557515e-01
  2.01223837e-74  7.88558059e-02 -1.38353888e-72 -1.07980020e-01
 -3.17938395e-02 -8.37161015e-54  9.02525050e-02 -2.30179249e-02
 -8.36969744e-02  1.14249679e-01  1.96139078e-01 -7.50507084e-02
 -1.83672960e-02 -1.37641464e-01 -1.31196798e-01  3.53788809e-62
  4.78677200e-02  1.01408570e-01 -4.09029272e-02  2.08236985e-01
 -2.69694610e-02  9.98528887e-74 -1.47122061e-01 -2.59756995e-02
  1.63214500e-57  5.77265971e-02 -1.42832783e-01 -5.85555772e-02
 -1.14244015e-59 -2.21644837e-02  2.18970076e-02  1.60373291e-01
 -2.17844382e-01 -1.64565088e-02 -1.59031159e-01  1.30660352e-01
 -1.37359429e-01  7.51185717e-62 -8.40466028e-02  6.18016118e-02
 -7.56818514e-02 -1.15628372e-01 -1.14441051e-01 -4.93844709e-02
  2.57550892e-01  4.46315695e-01 -6.63288193e-02  4.81401710e-02
 -5.79801467e-02  1.04773471e-05  1.69404998e-01  4.18137037e-02][ 8.37230410e-02 -1.63721766e-01 -1.57026228e-01  6.41904100e-02
 -2.85263936e-76  1.72886999e-01  3.15675862e-03  3.78237729e-70
 -2.81162619e-57  5.24564561e-03  1.43381458e-01  1.53375932e-01
 -1.07512019e-01 -1.97136337e-01  7.62023166e-03 -2.01388638e-01
  9.75849070e-03  4.76401275e-02  1.31282400e-02  1.21849927e-01
  3.67712186e-01  8.24352983e-02 -2.21180190e-01 -8.58427414e-02
  1.35260732e-01  1.44051774e-01  1.33727721e-01  1.19147664e-48
 -2.06956329e-02  1.70438549e-01  5.52067366e-60 -1.89525024e-01
  3.73816169e-02 -1.72824947e-01 -2.30831562e-02  3.47057806e-01
  4.18004462e-02  3.52695030e-01  1.63041179e-01 -5.79926483e-02
 -2.58427403e-24  1.65906417e-01 -4.56365101e-01  9.23944592e-02
 -1.67630876e-71 -8.42395829e-02 -2.36866766e-01 -1.15135906e-01
  4.81439963e-66 -7.19987694e-54  7.90106375e-61 -4.64685539e-02
 -1.47422529e-01 -1.71838951e-58  8.58732295e-02  7.87911439e-02
  5.95712297e-02  1.33060078e-01  1.70850648e-01  9.59664063e-02
 -3.13365329e-02 -6.26439598e-02 -2.18744283e-01  1.46967281e-47
  2.60546691e-01  1.02546486e-48 -7.71580225e-02  1.82580382e-01
  1.43965065e-01  8.06697289e-51 -1.80443332e-01 -1.49051606e-70
 -1.02240570e-50  1.98679195e-01 -7.60022119e-04 -1.33098790e-01
 -2.35287495e-02  8.41458782e-02  2.91537666e-02  1.33124104e-01
  1.20295802e-01  1.47065341e-01 -6.09175338e-02  7.46447953e-02
 -1.00479107e-01 -2.41993324e-52  1.44687505e-01  8.07461375e-02
  7.80316445e-02 -5.09498360e-02 -1.16316842e-01  6.45673610e-02
  1.41488141e-01  3.50540500e-01  1.52962559e-01 -1.19710797e-01
  6.05211535e-02 -3.72706333e-02  1.87279057e-01 -9.20096287e-02][ 1.88144399e-02  5.72080010e-02 -2.40264650e-01  1.68807407e-01
 -1.34324296e-48  2.18687437e-02 -1.14555080e-01  1.09153623e-76
 -3.15252132e-49  7.87977697e-02  1.41568068e-01 -4.71165303e-72
 -2.16291751e-01 -3.33991302e-44 -9.31664879e-02  1.86619100e-01
 -1.14609907e-01  8.91814530e-02 -5.96436875e-02 -1.38380233e-01
 -1.80314647e-01 -5.58682880e-02  3.62406739e-42  2.07428553e-01
  8.91257283e-02  2.99189767e-02 -5.89243498e-02 -2.02306598e-44
 -5.31088031e-02  3.50562836e-02 -4.95163991e-68  2.19173947e-02
  7.91698817e-46  4.59725849e-02  6.65476982e-02 -3.12494954e-01
  1.35941464e-01  1.84964187e-01  2.22475604e-02 -1.90323879e-01
  6.00325636e-62  1.68129620e-01  3.28101925e-01 -1.39412549e-01
 -9.40895293e-56 -1.37506518e-01 -8.82629041e-02  6.29126115e-02
  2.05386957e-43  1.34794266e-57 -6.24364252e-62 -1.66434512e-01
 -5.89333384e-02  2.62869907e-67  1.80727698e-01  1.54736635e-02
 -7.99078176e-02 -1.99597706e-01 -1.51739021e-02  1.47256617e-01
 -2.64334646e-02  1.44430380e-01 -6.72898210e-03 -8.07421661e-76
 -1.22389175e-01  4.46377380e-54 -8.14302478e-02 -2.12912149e-01
  5.04279580e-02 -1.62897378e-53  8.34689826e-02 -9.14011776e-44
  1.17195837e-72  3.42543009e-02  1.83861545e-01  7.29955478e-53
  8.87766281e-69 -1.69315022e-01  2.66556557e-02  2.27335979e-01
  1.46670929e-01 -6.29128652e-02  9.78781402e-02 -1.43307337e-01
  1.49337055e-02 -1.24311059e-48  2.03616237e-01  1.29198665e-03
 -8.97608253e-03 -9.37683641e-02  2.00386523e-01  3.65722404e-02
 -2.21060879e-01 -7.43121513e-02 -2.33074292e-02 -1.97953711e-01
 -3.95777026e-02 -4.74275989e-02 -2.23177512e-01  9.50279616e-02][ 8.83133641e-02  9.68421771e-02  1.46193566e-01 -1.19659290e-01
 -3.82219175e-50  3.90047514e-02  1.41513512e-01  8.51679437e-75
 -5.45865171e-46 -1.24717899e-01 -1.51340004e-01  7.18558827e-77
  1.63840434e-01 -1.42284724e-63 -8.70500015e-44 -1.04265781e-01
  2.01093707e-01 -1.86823228e-02  1.43134617e-01 -5.54924562e-77
  6.66698816e-01  9.32586759e-04  9.02668210e-59  6.03115370e-02
  6.55462674e-02  1.68066532e-01  7.76734141e-02  7.35117770e-43
 -1.17184808e-02  1.44654748e-02  1.03832688e-71 -7.66343440e-02
 -2.21466161e-43  1.93387790e-01  4.89092779e-03  3.66796684e-01
 -7.41107365e-02  3.37099544e-01  1.09540382e-02 -4.36632622e-02
  8.25728175e-46  1.10449049e-01 -2.12808709e-01 -7.81014554e-02
 -7.61597589e-78 -2.00017083e-01 -1.04406575e-01 -7.35397961e-43
 -1.45976029e-50 -5.81582532e-46 -1.63605129e-74  7.99792035e-03
 -6.18304115e-02 -6.71479481e-60  1.77261853e-01  1.17971012e-01
 -6.18656244e-02 -5.57042712e-60  1.19891476e-01  2.65891512e-01
  1.76602851e-01  3.46014195e-02 -2.00278772e-01  3.85599907e-47
  1.12886434e-01  3.46450709e-78  1.05716004e-01  1.64483454e-01
 -3.84108261e-02  8.99054928e-71 -1.14012275e-01  2.70260843e-75
  6.17796121e-46 -2.83220279e-02 -1.79635190e-01  3.24812587e-66
  8.25864108e-77 -3.03273135e-01  2.23987684e-01  1.56769154e-01
  1.99487667e-01 -1.19126077e-01  5.81155274e-02  1.33869137e-01
  5.61684003e-02  3.54104836e-63 -1.42180548e-01 -1.55112565e-01
  1.02413708e-01  1.26273051e-01 -3.22875774e-02  8.38298989e-02
  4.77159102e-02 -6.11797674e-02 -1.71080110e-01  1.02575339e-01
  1.39637101e-01 -6.30616280e-02 -1.94124707e-01  1.91123416e-01][ 5.32787554e-02 -2.32494367e-02 -7.58188595e-02  5.81416127e-02
 -1.18826581e-71 -1.96467658e-01 -4.90250117e-02 -1.04038683e-01
  4.73664319e-43  7.30456754e-02  1.30373753e-02  5.39331965e-02
 -8.18234855e-02 -1.95290563e-76 -1.96117364e-01 -1.11692256e-01
 -2.18165140e-02 -1.93109423e-01  8.93132881e-02  1.00803505e-01
 -6.40347262e-02 -2.02329090e-02  7.85314303e-02 -2.75898740e-02
  3.70675217e-02 -2.93149503e-02  2.78229745e-02  1.11237179e-58
 -2.10775558e-02 -5.44633873e-02 -4.57965030e-42  1.62908565e-01
 -1.63661538e-01 -1.41371891e-01  1.10660775e-01 -1.17748761e-01
  9.74773642e-02  2.76324562e-01  1.50915719e-01 -7.48261507e-02
 -1.04294674e-41 -3.11056828e-04 -3.91274962e-01 -1.00651336e-01
 -3.56803264e-74 -1.73619269e-02  1.90051622e-01  1.36387013e-01
 -1.86776035e-02 -4.89404518e-02  1.87819648e-74 -1.25656175e-01
  4.38005015e-02  1.29293372e-76  1.82403688e-01 -8.42519407e-02
 -1.48691919e-01  2.02600838e-02  7.47751629e-02 -7.65657661e-02
  1.80562204e-01  1.41145526e-01  8.96708328e-02  7.65802786e-72
 -3.68049077e-02 -1.09780469e-01  1.29430354e-01 -1.10533918e-01
 -8.61270255e-02 -3.20210874e-76 -4.98849155e-02 -1.92894088e-01
 -1.02788825e-72  1.20114859e-01 -9.59831098e-03 -1.06989267e-01
  2.38657223e-56 -9.45894446e-02  4.82326072e-02 -1.25029916e-01
 -2.00027817e-02 -1.03609758e-01 -8.06880196e-02  2.01414261e-02
 -4.79708327e-02  1.38097789e-01  1.21364157e-02  1.50367119e-01
  4.44299830e-02 -2.14529782e-01 -1.25475895e-01 -1.92532797e-01
  3.96571497e-02 -8.68076561e-03  1.35880081e-01 -9.12036676e-03
  1.13038239e-01  9.46912786e-02 -8.11240724e-02  2.41686295e-02][-3.31151134e-02  6.17377574e-02  1.83376700e-01 -4.10201427e-02
 -1.48129743e-76 -8.13006825e-02  1.84489248e-02  1.27772159e-01
  5.30537620e-64  9.86209141e-02  1.67048622e-02 -1.23404322e-01
 -5.52451283e-03 -1.36437361e-01  1.69374979e-01 -1.57839525e-01
  1.43171365e-02 -1.32913151e-01 -6.13116372e-02 -1.53049834e-01
  3.55770021e-02  4.73401036e-02  1.46058857e-01 -1.99077329e-02
  1.21202528e-01  3.46537322e-02  2.24029958e-01 -1.42787799e-50
  1.36103230e-01  1.25936707e-01 -9.81963540e-59 -1.53456184e-02
  1.36512563e-02  2.15758734e-01  1.53721556e-01  7.96908408e-02
  8.71985766e-03  8.54174076e-02  1.17579589e-01 -1.05320505e-01
 -9.42601853e-25 -1.03805617e-01  5.32344819e-02  1.54957090e-01
  4.87029184e-60  9.95413769e-02 -1.73435654e-01 -1.53872871e-02
 -9.35296987e-02 -4.34877780e-02  2.58546457e-71  2.19265558e-02
  9.05583741e-02  8.01825819e-44 -1.21724583e-01 -3.81148742e-02
 -1.32642553e-01  1.11857307e-01 -1.39257877e-01  1.30626768e-01
  1.10657845e-01  1.36000680e-01  1.50280397e-01 -9.20946558e-54
  3.25579104e-02 -6.99499159e-02 -1.06090080e-01 -1.73474875e-01
  9.20874284e-03 -6.90122218e-43  1.54436695e-01 -1.19293023e-01
  1.75816346e-76  6.57138702e-02 -1.96240485e-01 -1.04096758e-01
 -1.61782259e-02  6.80583166e-02  1.24572188e-01 -2.23918602e-02
  1.68028616e-01  6.11663343e-02 -1.87427586e-01  7.47869110e-02
 -1.21619755e-01 -1.98555471e-01  1.14389037e-01  2.70432742e-02
  1.29357087e-01 -1.70200388e-01 -5.09018942e-02 -7.76303839e-02
  2.20503967e-02  1.59009076e-02  1.04982807e-01 -1.27513538e-01
  4.88862385e-02  6.39651465e-02 -2.53746301e-02  1.69023638e-02][ 1.84936194e-01  1.04385536e-01 -2.83796017e-02 -3.94726691e-02
  6.73179254e-65 -1.72467972e-01  4.10495268e-02 -1.56564162e-01
  3.39353490e-49  3.44951445e-02 -1.18069387e-01  8.25444051e-02
  1.21127296e-01 -8.10399902e-02  3.87577384e-02  6.66932988e-02
  9.36605631e-02 -9.56200877e-02  7.74244179e-02  1.07010304e-01
  3.42355419e-02 -7.12533357e-03  2.55902257e-02  1.67228228e-01
 -1.53273596e-01  2.55591637e-02  3.95224509e-02  4.84808099e-68
  8.01358174e-02  1.00802875e-01 -1.33158252e-75 -1.73336411e-01
 -9.80080251e-02 -1.53165878e-01 -8.21881118e-02  7.00847398e-02
  1.32750739e-01  8.51132696e-02 -7.51950552e-03  5.57413022e-02
 -1.57942521e-22  8.01919882e-02  4.81355360e-02  5.16774863e-03
  1.92141365e-72 -1.37410102e-01 -8.93676840e-02  1.23800939e-02
 -1.01701297e-01 -5.34023608e-02 -2.89360884e-69  1.63029312e-01
  1.27385515e-01 -2.46742728e-77 -1.59449088e-01  1.16981064e-01
 -1.25586814e-01  4.76871664e-02  1.47816087e-01  1.72123943e-01
 -1.24091012e-01  7.87609534e-03  1.35246989e-01  5.83076809e-75
  9.88380405e-02  1.14693691e-01  1.10148985e-01  7.51332893e-02
  1.55524391e-01  1.52589663e-70  1.72185145e-01  1.92645877e-02
  3.12800878e-51  5.01228051e-02 -6.53944389e-02  1.63606664e-01
 -2.92175237e-02 -1.21832025e-01  1.81515268e-01  1.45032341e-01
  2.82011755e-02  8.91744258e-02  1.93382172e-01 -1.23620018e-01
  1.43865862e-03 -5.49133740e-02  3.99650058e-02 -1.44495280e-01
 -1.77570175e-03 -2.74694767e-02  4.09385698e-02  6.10728145e-02
  3.01365458e-02  3.44603068e-02  2.80189436e-02 -2.95896637e-02
  1.84003034e-02 -1.79994868e-02 -1.20922822e-01 -1.09769890e-01][-1.27364368e-02 -1.72838374e-02  1.23962931e-01 -4.45056805e-02
 -1.08008866e-67 -1.44803846e-01  1.12289063e-01  6.02000108e-02
  1.28632211e-58 -8.29520763e-02  7.14257319e-02 -1.26840023e-01
 -8.14220965e-02 -1.07612092e-01 -7.83768378e-02 -2.38277328e-02
  1.00250489e-01  1.89658897e-01  6.06793482e-02 -1.56187054e-01
  3.44109988e-02  1.62117434e-01 -4.84889513e-02  4.48278556e-02
  1.84557991e-01 -1.68339277e-02  4.35907433e-02  2.21121736e-47
  1.79495232e-01  1.52452932e-01 -7.89166667e-77  5.53878673e-02
  3.72716217e-02 -1.00383679e-01  3.08875615e-02  6.66357432e-02
 -1.17306658e-01  5.24371014e-02 -7.01452627e-02  1.52705040e-01
  4.93623772e-23  1.45929765e-01  5.28914181e-02 -3.08538301e-02
 -1.12422416e-59 -1.69439835e-01  1.95022673e-01  5.57522364e-02
 -8.77032667e-02  7.08541132e-02  5.38767887e-74 -1.50273858e-01
 -1.63547950e-01 -2.75887870e-43 -9.65556147e-02 -1.69434186e-01
  2.70129579e-04 -1.76200400e-01 -2.20949968e-03 -1.06508769e-01
  4.14089659e-02 -2.43796282e-02  1.30248272e-01 -2.68741389e-67
 -9.22539613e-02  1.73823513e-01 -3.14543121e-02 -1.68991661e-01
 -1.57448739e-01  3.80687810e-74 -1.08472408e-01 -1.64704048e-01
 -9.45688193e-58  1.07149411e-01  1.65371786e-01 -9.79265820e-02
  1.41558326e-01  1.01944313e-01  2.40587206e-02 -1.55405920e-01
  1.14822657e-01  1.43358471e-01  1.00409391e-01  2.52364081e-02
  3.85607682e-02 -3.74479155e-02 -4.92596053e-02 -1.04593596e-01
  1.24438749e-01  1.53503201e-01  5.07362601e-02  1.20708141e-02
  1.42222933e-01 -5.08977343e-02 -7.83971449e-02 -5.27782260e-02
 -1.59713943e-01  1.63655802e-02  1.58500069e-01  1.08420408e-01][ 1.69798694e-02  9.76498701e-02  1.34012659e-01 -9.88910962e-02
 -2.23186772e-63  2.34701850e-02  6.79341232e-02  9.27725293e-42
 -9.84811181e-53 -1.65020980e-01  2.39583581e-02  1.49159052e-02
 -1.97977897e-01 -3.64306487e-02  2.52632318e-02  8.41289080e-02
  1.20534150e-01 -1.46461888e-01 -7.52379737e-02  6.61658080e-02
  8.82544119e-02 -4.75993229e-02  2.33446578e-01 -1.71983181e-01
  1.80726515e-01  4.50187190e-02  5.24047806e-02 -8.54865853e-75
  2.17347675e-02 -8.19629762e-02  6.00554320e-56 -9.72996497e-04
  1.90012954e-01  3.72838164e-02  4.43066544e-02  7.33287083e-02
 -9.18956841e-02 -3.82390123e-01  1.76231282e-01  5.40597548e-02
 -2.76840078e-17 -5.64727311e-02  2.12912959e-01  5.17151820e-03
 -1.18540556e-50  1.42663631e-01 -3.44592543e-02  6.99262881e-02
  9.80696064e-02 -1.77836644e-58  2.12292976e-67  9.94229759e-04
 -1.36792447e-01 -9.14604099e-64  5.54813696e-02 -1.07229940e-01
 -4.76007793e-02  5.24047621e-02  2.12748990e-01  1.28996347e-02
  6.91928114e-02 -6.62798940e-02 -4.22222579e-03  2.47759505e-54
  2.10490926e-01 -1.73481032e-01  1.15271338e-01  2.17711522e-01
  8.22413257e-03  1.31112780e-65  1.63942950e-01 -1.16857434e-01
 -1.45548268e-42 -2.71350795e-02 -1.61739889e-01 -8.60924187e-02
 -1.21673616e-02 -2.38466279e-01 -1.07227937e-01  1.25287230e-01
  1.13909173e-01  1.42831488e-01 -1.77293739e-01  1.09189626e-01
  1.05590519e-01 -1.98293011e-01 -3.46892629e-02  1.36299387e-01
  1.88651955e-01  1.75496868e-01  2.22430942e-02 -9.17460475e-02
 -8.63068957e-03 -8.25261816e-02  6.00165134e-02  2.50041872e-03
  1.60799504e-01 -4.89727677e-02 -1.07528951e-01 -2.03769340e-01][-1.16531992e-01 -1.47712889e-01 -1.17404667e-01  1.14069933e-01
  2.73879184e-62 -1.17871908e-01  1.50376238e-01 -8.21674294e-75
  5.78230634e-72 -1.41631794e-01 -1.25867820e-02 -1.71734913e-01
 -1.83999580e-01  4.03225923e-67 -4.60482515e-02  1.08227818e-01
  4.05540175e-02  4.91734264e-02  1.06909103e-03  9.73382891e-02
 -2.83119469e-01 -1.04745700e-01  1.71053701e-02  1.74818508e-01
 -3.10299566e-02  1.52869362e-01 -1.36567949e-01 -1.57777829e-58
  2.10575228e-01 -1.91247754e-01 -6.32668559e-76  1.12068202e-01
 -2.78758223e-65 -1.02866951e-02 -6.61935474e-02  6.70122754e-01
  1.91131946e-01  8.21046081e-02 -1.06957202e-01  1.48869889e-01
  6.95010849e-43 -2.85549344e-03 -3.37536077e-01 -8.41347817e-02
 -7.29666748e-57 -1.40157727e-01 -4.28972344e-03 -6.98044048e-02
  2.58145817e-67  3.50377626e-56 -1.36405641e-72 -1.27099547e-01
 -4.21709770e-02  2.26029194e-76  1.77453981e-01  1.05289351e-01
 -2.08135587e-01  3.10392115e-02  5.82701907e-02  4.69046928e-02
  5.68913499e-02 -1.70864986e-01  7.06034037e-02  2.75420886e-67
 -1.08577745e-01  1.60963182e-46 -2.58603887e-02  1.06840059e-01
  1.29103385e-02 -3.83931026e-70 -2.92871450e-02  1.21182915e-69
  1.64380908e-53  1.21590925e-01  5.97494603e-02 -2.68239385e-43
  3.86044216e-42 -2.08443774e-01 -5.80615859e-03  5.92124405e-02
 -2.41874010e-01  1.37188602e-02 -1.70739107e-03  1.25646136e-01
 -9.52445162e-02  1.59031135e-46  1.96441702e-01  8.23774661e-02
  1.19442666e-01 -2.03168868e-01  4.62242770e-02  1.86861306e-03
 -1.04598526e-01 -4.69033345e-02  1.74955352e-01 -2.14319519e-01
  9.26887709e-02 -7.65039489e-02 -4.03367915e-02  1.02596206e-01][-1.40239559e-01  1.69249826e-01 -3.56597534e-02  1.61375915e-01
  1.96821245e-47 -5.20709336e-02 -8.04133484e-02  1.79971755e-60
 -7.92410134e-59  7.33981880e-02  1.28022548e-01  1.73683550e-01
 -1.43642843e-01 -1.15608466e-01  1.96156536e-01  7.11812739e-02
  1.36044684e-02 -1.97217906e-02  1.21257481e-01  4.02957004e-02
  3.13631957e-02 -5.46354825e-03 -1.70236261e-01  5.94131920e-03
 -7.87220887e-02 -2.46724139e-02 -1.36945734e-01 -2.01745623e-50
 -4.57892577e-02 -1.98942145e-02 -3.04987286e-62 -1.48709609e-01
  8.55608364e-02  7.43165313e-02 -7.67170030e-02  1.70010762e-01
  1.45896801e-01 -3.82117339e-01  4.97598332e-02  1.22470621e-01
  1.23646088e-58 -6.97572976e-02  1.25619009e-01 -5.15741730e-02
 -2.62115140e-59  9.84095563e-02 -1.50141067e-01 -4.14823556e-02
 -9.85103350e-02  1.28344466e-44 -2.98392427e-46 -3.17229338e-02
 -4.00772569e-02 -7.46690771e-62  5.18330287e-02 -8.99406537e-02
 -3.04536143e-02  1.31634060e-01  5.25395549e-02  1.84979224e-02
  1.62675804e-01 -9.84491467e-02  1.88890382e-01  1.67433920e-57
  1.11481880e-01  4.67010702e-02  1.22935551e-01  5.45392238e-02
 -6.79000331e-02 -3.10424362e-76  1.37878184e-01  1.41684876e-01
  1.27040024e-55  2.02663958e-01 -1.83897863e-01 -3.21066964e-02
  9.30854951e-02  1.34084725e-01 -1.17402588e-01  1.79133827e-01
 -1.20643268e-01  4.40499525e-02 -3.94506178e-02  1.27377094e-01
 -1.49721557e-01 -1.31057916e-01  5.60050286e-02 -1.25384979e-01
  1.07686238e-01  8.43211074e-03  1.74376483e-01  9.13143078e-02
  2.85595254e-02 -1.90768464e-01 -1.71201335e-01  1.49001234e-02
  1.96273963e-01 -1.25494721e-01 -3.73763110e-02 -2.06290147e-01][ 7.55024313e-02 -1.75681270e-01  3.35771633e-05 -1.21663073e-01
  6.38248346e-57  3.86385404e-02  5.19369487e-02  8.77318301e-03
 -6.64544559e-63  9.14816202e-02  1.54646427e-01 -4.22588619e-02
  5.83051685e-02  3.82570965e-02  9.87080063e-02  4.59579313e-02
  9.18037934e-02  1.42500784e-01  3.16509089e-02  1.29987849e-01
  1.44366114e-02 -3.77561249e-02  6.99032041e-02 -1.52792376e-01
  1.01783698e-01 -9.56949779e-03 -2.83428460e-03 -1.66585265e-74
 -3.54464997e-02 -1.01868135e-01  1.29286358e-47  1.16406241e-01
 -6.02315220e-02 -9.63585231e-02 -1.62949877e-01  8.37036758e-02
  1.01188309e-01  2.05733917e-02 -1.45515686e-01  1.38308447e-01
 -8.10784816e-21 -7.39459171e-02  2.22626492e-02  1.00451358e-01
 -5.58018666e-43  3.63307267e-02 -1.23863311e-01  5.55282821e-02
 -1.37874591e-01 -3.04667999e-02 -1.06174351e-50 -7.30643076e-02
 -1.55594153e-01 -7.58156933e-75  6.91318438e-02 -3.82240113e-02
  1.69582895e-01  8.06179761e-02  3.65186207e-02  1.86683484e-02
 -5.00177238e-02  3.74926001e-03  9.97622928e-02  1.03977317e-41
  3.46556694e-03  1.60093174e-01  1.15089117e-01 -9.52537960e-02
  9.37589658e-02  8.41952230e-73  1.19059446e-02  3.15600051e-02
 -1.19941620e-69 -1.50396778e-01 -3.77457300e-02 -7.12040934e-02
  7.31895881e-02 -6.57362067e-02 -2.19964366e-02  1.33205985e-01
  1.13038165e-01  1.59382532e-01 -4.94745909e-03  1.69058578e-01
 -1.90936254e-01  1.54345030e-01 -3.36646092e-02  1.26834526e-01
  1.92356037e-01  1.37090392e-01  7.99959374e-02  6.40622677e-02
  1.76770039e-01  1.51301706e-02 -1.54385292e-01 -1.89828042e-01
  1.65472455e-01 -1.72493440e-01  1.62424624e-01  2.14700823e-02][ 5.51322936e-02  1.67689659e-01  1.45142137e-01 -6.61822857e-02
 -2.35542937e-70 -7.80282499e-03  1.26048096e-01  8.26184569e-46
  3.94232117e-70 -5.60812270e-02  1.78188967e-01  6.29535222e-02
 -9.57260133e-02 -1.48876510e-01  2.71230251e-02  2.26377871e-01
 -5.70708914e-02  2.24966405e-01  3.40803061e-02 -6.56432706e-02
  2.16002796e-01 -7.71853334e-02 -1.56276939e-01  4.72689855e-02
  1.03079414e-01  5.59601432e-02 -5.93975825e-02  1.20410432e-50
  5.56740028e-02 -1.83792312e-01  7.23535020e-69  1.10931926e-01
 -1.44612081e-01 -1.57220345e-02  2.55529734e-02 -3.30876150e-01
 -1.18264687e-01  1.01510523e-01  2.31141591e-02  1.38544910e-01
 -1.10594193e-31  5.53265565e-02  8.76692719e-02  2.09162212e-02
  6.69241469e-62 -1.75900751e-01  1.46423660e-01 -1.21812534e-01
 -5.64206015e-02  1.72006368e-53  2.78476996e-49  1.88891509e-01
 -5.04468481e-03 -1.03587480e-67  1.08080001e-01  1.86046722e-01
  3.47886326e-02  5.95816636e-02  6.22976500e-02  4.41740918e-02
  5.07996476e-02 -6.39588497e-02  3.15122633e-03 -3.42275220e-47
  1.37531206e-01  5.97162100e-03 -1.61398205e-02 -7.52994120e-02
  1.66303508e-01  3.60687920e-43 -1.51509934e-01  5.68704414e-46
  8.75632165e-61  5.19795264e-03 -1.98964078e-02 -3.12952697e-02
  1.76158823e-02  2.53866506e-02  3.30784134e-02 -1.13424994e-01
  5.69079964e-02 -1.36049656e-01 -1.02189484e-01  1.00881242e-02
  2.50079334e-02  1.32492033e-69  6.90806808e-02 -1.56098582e-01
  5.65036469e-02  1.62036707e-01  2.04480379e-01  1.41776446e-01
 -1.29719725e-01 -2.69179022e-02  1.78370029e-01 -5.18345404e-03
  5.44172319e-02 -1.49219474e-01  1.62351952e-01  1.61838361e-01][ 1.42560378e-01  7.36606708e-02  9.42914183e-03  1.57585174e-01
 -6.54604672e-53  1.11526847e-01  1.67816502e-02 -1.73859805e-01
 -5.86249341e-43 -1.33917622e-01 -1.76368306e-01  5.99129109e-02
  1.82071296e-01  6.19669756e-03  5.58747541e-02 -4.70709095e-02
  1.35054764e-01  1.66149412e-02  2.28185436e-02  1.04476066e-01
 -4.30478411e-01 -1.85543841e-01  1.03324624e-01  1.23447998e-01
  1.04945917e-02 -2.14226639e-03 -8.65537968e-02 -5.91144661e-66
 -9.62383497e-02  1.18740280e-01 -8.42929243e-54  9.59416888e-02
 -3.88232599e-02 -2.09653975e-01  7.03846696e-02  5.80833754e-01
  6.16038492e-03  6.78395958e-02 -1.71278686e-01 -1.24280869e-01
 -4.48014258e-56 -1.57448844e-01 -9.54651718e-02  5.90392288e-02
  2.61344941e-47  7.04163059e-02  2.50109646e-02  4.03755343e-02
 -7.38021299e-02 -7.64502221e-03 -3.17614315e-47 -7.39215259e-02
