[-0.064 0.196 -0.275 -0.035 0.049 0.107 0.095 0.003 -0.082 0.212 0.099
 -0.153 -0.003 -0.266 -0.192 -0.092 -0.052 0.049 -0.191 -0.023 0.093 0.122
 0.038 0.203 -0.159 -0.047 0.133 -0.271 -0.112 -0.052 -0.053 -0.038 -0.145
 0.203 -0.066 0.232][0.165 0.175 0.268 0.173 0.027 0.019 -0.066 -0.048 -0.219 0.079 -0.058
 -0.034 0.153 0.039 0.203 -0.178 0.034 0.093 -0.029 -0.079 0.054 -0.196
 -0.256 0.137 -0.195 0.141 -0.114 0.043 0.132 -0.031 -0.019 -0.189 -0.056
 -0.131 -0.045 0.004][0.282 -0.294 -0.015 0.164 -0.128 -0.304 0.263 -0.312 -0.057 -0.300 0.209
 -0.097 -0.118 -0.175 0.112 0.028 -0.214 0.009 -0.140 -0.141 -0.212 -0.372
 0.097 -0.371 -0.335 0.114 -0.091 0.074 0.135 0.190 -0.118 0.226 -0.157
 0.004 -0.187 -0.029][0.304 0.076 -0.108 -0.079 0.097 -0.070 -0.142 -0.207 -0.171 0.049 0.073
 0.025 0.154 0.056 -0.167 -0.049 -0.267 -0.068 0.212 -0.035 -0.363 0.130
 -0.160 -0.033 -0.191 -0.279 -0.424 0.057 0.248 -0.118 -0.075 -0.031 0.067
 0.132 -0.250 -0.013][-0.000 -0.000 0.000 0.000 -0.000 -0.000 -0.000 -0.000 0.000 0.000 -0.000
 0.000 0.000 -0.000 -0.000 0.000 0.000 0.000 0.000 0.000 -0.000 -0.000
 -0.000 -0.000 -0.000 0.000 -0.000 0.000 0.000 0.000 -0.000 0.000 0.000
 -0.000 0.000 0.000][-0.511 0.288 -0.099 0.082 -0.005 0.008 -0.204 0.206 0.310 0.023 -0.058
 0.006 -0.212 -0.008 0.079 -0.158 0.077 -0.361 -0.187 0.190 0.030 0.136
 -0.152 0.370 0.110 -0.105 -0.028 0.071 -0.255 0.136 -0.036 -0.311 0.002
 -0.215 0.120 0.307][0.014 -0.120 0.012 -0.248 0.013 -0.117 0.014 0.014 -0.043 -0.217 -0.170
 -0.363 -0.057 0.148 -0.283 -0.232 0.007 -0.077 -0.191 -0.038 0.271 0.037
 -0.039 -0.020 -0.184 -0.198 0.041 -0.161 0.058 -0.048 0.052 0.218 -0.214
 0.072 -0.045 -0.103][0.000 0.031 -0.000 -0.000 0.007 0.000 0.000 0.000 -0.000 0.000 -0.000
 0.000 -0.139 0.035 -0.000 -0.000 -0.000 -0.000 -0.000 0.000 -0.000 0.000
 0.000 0.000 0.000 -0.000 0.000 -0.000 0.009 0.017 0.000 -0.000 -0.000
 0.000 -0.000 -0.000][0.000 -0.000 -0.000 -0.000 -0.000 -0.000 0.000 0.000 -0.000 0.000 0.000
 -0.000 0.000 -0.000 0.000 0.000 -0.000 -0.000 0.000 -0.000 -0.000 0.000
 -0.000 0.000 0.000 -0.000 -0.000 -0.000 0.000 -0.000 0.000 0.000 -0.000
 0.000 -0.000 0.000][-0.000 -0.085 -0.050 0.129 -0.197 -0.128 -0.016 -0.014 -0.119 -0.210
 -0.089 -0.000 -0.012 -0.214 -0.133 -0.035 -0.127 0.046 -0.068 -0.041
 0.029 0.074 -0.001 0.156 -0.100 -0.196 -0.054 0.117 -0.212 -0.160 0.076
 -0.030 -0.006 0.105 -0.147 -0.105][-0.191 -0.214 -0.064 -0.190 0.252 -0.271 0.081 0.022 0.191 -0.234 -0.136
 -0.059 -0.083 -0.058 -0.282 0.108 0.250 -0.358 0.065 0.257 -0.148 -0.187
 -0.082 -0.068 -0.124 0.044 0.003 -0.109 0.016 0.117 0.115 0.136 0.153
 -0.143 -0.071 -0.122][0.271 -0.410 -0.348 -0.150 -0.374 -0.069 0.030 0.184 0.157 0.299 -0.081
 -0.132 0.135 -0.182 -0.163 -0.735 -0.453 -0.051 0.340 0.105 -0.246 -0.134
 0.268 0.321 -0.334 -0.283 -0.179 -0.449 0.085 0.287 -0.334 -0.338 0.074
 -0.101 0.121 0.186][0.137 -0.069 0.135 -0.025 -0.249 0.036 -0.572 -0.334 0.095 0.111 0.342
 -0.324 0.218 -0.135 -0.292 -0.570 0.127 0.025 0.155 -0.055 0.042 -0.093
 0.176 0.088 0.064 -0.217 0.297 -0.383 -0.203 0.234 0.189 -0.047 -0.190
 0.164 -0.339 -0.111][-0.281 0.564 -0.602 -0.189 0.098 -0.256 -0.653 -0.259 -0.358 0.104 0.330
 -0.738 -1.046 0.466 -0.360 -0.101 0.184 -0.598 -0.597 -0.318 -0.056
 -0.982 -0.313 -0.428 0.375 -0.324 0.499 -0.001 -0.474 0.273 0.059 -0.013
 0.421 -0.161 -0.610 0.005][0.000 -0.140 -0.003 -0.016 -0.143 -0.046 -0.091 0.000 0.000 -0.001 0.000
 -0.000 -0.000 -0.071 -0.000 -0.000 0.111 0.000 -0.003 -0.144 0.006 -0.000
 0.015 0.113 -0.000 0.000 0.000 -0.002 0.000 0.013 0.000 0.000 0.000
 -0.000 0.110 -0.174][-0.302 0.220 -0.556 0.101 0.080 0.031 0.048 -0.083 -0.037 0.009 0.250
 -0.427 -0.076 0.293 0.084 0.368 -0.018 0.154 -0.351 0.082 -0.157 -0.020
 -0.259 -0.407 -0.103 0.050 0.119 -0.218 -0.176 -0.032 0.157 0.239 -0.075
 -0.253 -0.393 0.045][0.126 0.175 0.197 0.018 0.092 0.165 -0.038 -0.183 -0.176 0.003 -0.106
 0.215 0.106 0.104 0.090 0.213 0.235 0.153 0.162 0.215 -0.197 0.184 0.079
 -0.181 -0.249 0.260 -0.023 0.096 -0.268 0.028 -0.071 0.078 -0.239 0.059
 -0.136 0.017][-0.013 0.190 -0.014 -0.050 -0.135 0.142 -0.000 -0.000 0.041 -0.132 0.033
 -0.155 -0.000 -0.162 -0.018 -0.000 0.061 0.000 -0.056 0.060 -0.041 0.042
 -0.010 -0.115 -0.044 -0.000 -0.034 -0.184 -0.031 0.125 0.000 0.000 -0.000
 -0.000 -0.063 -0.000][-0.170 -0.122 0.094 -0.140 -0.045 -0.111 -0.086 -0.108 -0.213 0.134
 -0.181 0.114 -0.186 -0.180 0.094 -0.018 -0.126 -0.294 0.227 -0.190 0.133
 0.107 -0.204 -0.092 -0.145 -0.109 0.127 -0.071 0.261 0.159 -0.154 0.009
 -0.232 0.055 -0.105 0.157][-0.194 -0.042 0.192 -0.089 0.028 0.322 -0.184 -0.153 0.085 -0.404 -0.264
 -0.186 0.220 -0.080 -0.144 0.176 0.190 0.177 0.030 -0.049 -0.013 -0.293
 0.171 -0.042 -0.227 0.103 -0.142 -0.036 0.109 -0.076 -0.027 0.076 0.156
 0.338 0.122 0.351][-0.000 0.000 -0.000 -0.000 -0.000 -0.000 0.000 -0.000 0.000 -0.000 -0.000
 -0.000 -0.000 -0.000 0.000 0.000 0.000 -0.000 0.000 -0.000 -0.000 -0.000
 -0.000 0.000 -0.000 0.000 0.000 -0.000 -0.000 0.000 -0.000 -0.000 -0.000
 0.000 -0.000 0.000][-0.021 -0.072 0.117 -0.042 0.098 0.129 0.180 -0.148 0.216 -0.200 0.153
 -0.079 -0.161 0.229 0.003 -0.121 0.000 -0.072 -0.091 -0.147 0.313 0.059
 0.174 0.274 0.072 -0.062 -0.005 -0.016 -0.202 0.092 -0.172 -0.177 0.234
 0.021 -0.059 0.240][0.040 0.113 0.232 0.056 0.111 -0.159 0.011 -0.021 0.160 0.068 -0.138
 0.060 0.003 0.304 -0.399 -0.060 -0.451 0.235 0.223 0.099 -0.234 -0.172
 -0.055 0.032 -0.169 0.164 0.106 -0.306 -0.181 -0.002 -0.278 0.105 -0.255
 0.179 -0.348 0.095][-0.033 0.267 -0.045 -0.072 0.144 -0.216 0.040 -0.379 -0.152 -0.328 -0.233
 -0.094 -0.077 -0.019 -0.257 -0.004 0.007 -0.180 -0.157 -0.054 0.158 0.222
 0.341 -0.159 0.120 -0.185 -0.623 0.023 -0.283 -0.085 0.262 -0.259 0.035
 -0.014 -0.138 -0.144][-0.176 -0.186 -0.051 0.140 -0.009 -0.066 -0.121 0.206 0.070 -0.083 0.142
 -0.008 -0.070 -0.024 -0.017 -0.061 0.045 0.140 -0.074 -0.040 0.159 -0.081
 0.063 0.129 0.127 -0.097 -0.000 0.056 0.012 0.171 -0.042 -0.018 -0.066
 0.019 -0.036 0.142][-0.014 0.151 0.003 -0.444 -0.245 -0.150 -0.189 -0.077 -0.260 0.130 -0.252
 -0.111 0.072 -0.195 0.257 -0.218 -0.063 -0.065 -0.575 -0.075 0.152 0.314
 0.087 -0.139 0.219 0.227 -0.331 0.223 0.190 -0.052 0.023 -0.139 0.034
 -0.334 -0.217 0.066][0.369 -0.626 -0.107 -0.452 0.053 0.024 -0.470 -0.461 -0.242 0.036 -0.504
 0.133 -0.007 -0.700 -0.097 -0.699 -0.079 -0.342 0.275 -0.056 0.114 0.050
 -0.192 -0.185 -0.136 -0.007 0.016 -0.390 -0.225 0.400 -0.236 0.007 -0.060
 0.315 -0.089 0.018][-0.000 0.000 0.000 -0.000 0.000 0.000 -0.000 0.000 0.000 -0.000 0.000
 0.000 0.000 -0.000 -0.000 0.000 0.000 -0.000 0.000 0.000 -0.000 -0.000
 0.000 -0.000 -0.000 -0.000 -0.000 0.000 0.000 0.000 0.000 -0.000 -0.000
 0.000 -0.000 0.000][-0.143 -0.130 -0.024 0.103 -0.942 -0.263 -0.037 -0.053 -0.053 0.032 0.243
 -0.084 0.524 -0.173 0.200 -0.295 -0.282 -0.104 0.046 -0.105 -0.213 -0.004
 -0.277 0.060 -0.240 0.023 -0.250 -0.111 0.035 -0.525 -0.061 0.144 -0.224
 0.163 -0.206 0.205][0.136 -0.001 -0.179 -0.301 -0.139 -0.217 0.101 -0.045 0.050 0.041 -0.099
 -0.237 -0.052 0.125 -0.060 -0.275 -0.146 0.178 0.264 0.028 -0.005 -0.188
 -0.213 -0.135 0.184 0.014 0.128 -0.013 -0.186 0.195 0.175 -0.140 0.021
 0.153 -0.102 -0.283][0.000 0.000 -0.000 -0.000 -0.000 0.000 -0.000 -0.000 0.000 0.000 -0.000
 -0.000 0.000 0.000 -0.000 0.000 0.000 0.000 -0.000 -0.000 -0.000 0.000
 -0.000 -0.000 -0.000 0.000 -0.000 0.000 0.000 -0.000 0.000 -0.000 0.000
 0.000 0.000 0.000][-0.425 -0.152 0.112 0.307 0.048 -0.426 -0.386 -0.067 0.005 -0.148 0.188
 0.275 0.087 -0.069 -0.005 -0.250 0.216 0.192 -0.072 0.172 0.196 0.000
 -0.272 -0.185 -0.086 -0.028 0.136 -0.381 0.141 -0.022 0.167 -0.084 -0.133
 0.320 -0.389 0.005][-0.103 -0.187 0.182 0.216 0.175 -0.030 -0.370 -0.009 -0.017 -0.312 -0.218
 -0.382 -0.077 -0.013 -0.142 0.196 -0.315 0.203 -0.105 -0.464 0.054 0.130
 -0.194 -0.521 -0.114 -0.082 0.221 -0.231 -0.245 -0.675 0.099 -0.156
 -0.127 -0.008 -0.109 -0.020][-0.028 -0.333 -0.236 -0.156 0.153 -0.173 -0.170 -0.296 -0.566 0.394 0.020
 0.825 0.198 -1.058 -0.825 0.343 -1.201 -0.197 -0.096 0.005 0.863 -0.228
 -1.126 -0.236 -0.193 -0.151 -0.059 -0.062 0.663 -0.432 -0.097 -0.517
 -0.783 -0.552 -0.817 0.241][-0.049 -0.067 0.061 0.152 0.047 0.285 0.246 -0.161 -0.101 0.096 0.037
 -0.070 -0.136 -0.006 -0.133 0.187 0.055 -0.042 -0.234 -0.051 0.039 -0.162
 -0.118 0.215 0.140 -0.119 -0.103 0.004 0.201 -0.097 -0.183 0.162 -0.006
 0.010 -0.026 0.001][-0.000 -0.000 0.000 -0.000 0.000 -0.000 -0.000 0.000 0.000 -0.000 0.000
 -0.000 -0.000 0.017 0.000 0.000 -0.000 -0.000 -0.000 -0.000 0.000 0.000
 -0.000 0.002 -0.000 0.000 -0.000 -0.000 0.000 -0.000 0.000 -0.000 -0.000
 -0.000 -0.000 -0.017][-0.000 0.084 -0.062 -0.015 -0.092 -0.020 -0.000 0.002 0.122 -0.138 -0.038
 -0.000 0.000 0.150 -0.024 -0.030 0.005 -0.116 0.009 0.141 0.111 -0.009
 -0.000 0.029 0.149 0.000 0.068 -0.064 -0.032 -0.085 -0.065 0.049 -0.000
 0.017 -0.028 -0.043][0.444 -0.560 -1.252 -1.069 0.105 -0.533 -0.132 0.348 -0.047 0.549 -0.185
 -0.360 0.163 -0.291 -0.044 -0.527 -0.210 -0.056 0.348 0.082 -0.115 -0.096
 0.323 0.024 0.288 -0.183 0.565 0.274 -0.313 -0.045 -0.147 -0.007 0.142
 -0.714 -0.031 -1.199][-0.339 0.012 -0.716 0.288 -0.233 -0.562 -0.285 0.937 -1.447 0.365 -0.043
 -0.324 -0.614 -0.150 -0.239 -0.457 -0.065 -0.266 -0.122 -0.069 0.657
 -0.072 -1.011 0.002 -0.457 -1.375 -0.163 0.165 -0.212 -0.057 0.073 -0.074
 1.190 -0.070 -0.040 -0.247][0.051 0.008 0.129 0.027 0.180 0.273 -0.118 0.103 0.200 0.100 -0.016
 -0.187 0.221 -0.097 -0.249 -0.091 0.210 -0.011 -0.120 0.137 -0.153 0.131
 0.048 0.237 -0.067 -0.184 0.062 0.009 0.003 0.113 0.048 0.218 0.188
 -0.168 0.014 -0.278][-0.000 0.000 0.000 0.000 0.000 -0.000 -0.000 0.000 0.000 -0.000 0.000
 0.000 -0.000 0.000 0.000 -0.000 0.000 -0.000 0.000 -0.000 0.000 -0.000
 0.000 -0.000 0.000 -0.000 0.000 -0.000 -0.000 -0.000 -0.000 0.000 0.000
 -0.000 -0.000 0.000][-0.071 -0.026 -0.534 0.076 0.191 0.109 -0.232 -0.456 0.292 0.011 -0.053
 -0.083 0.135 0.100 0.141 -0.082 -0.287 0.260 -0.275 0.016 0.016 0.257
 0.154 -0.009 -0.395 0.156 0.354 -0.096 -0.119 0.010 -0.184 0.025 -0.102
 -0.190 -0.073 -0.113][-0.007 -0.020 -0.012 -0.022 -0.024 0.012 -0.004 -0.000 0.017 -0.033
 -0.003 -0.006 -0.025 0.004 -0.000 -0.004 0.003 -0.003 0.018 0.024 -0.027
 -0.001 0.027 0.002 -0.002 -0.021 -0.036 -0.002 -0.000 -0.011 -0.000
 -0.000 0.030 -0.000 -0.010 -0.010][0.088 0.223 -0.103 0.071 0.144 0.062 0.168 0.142 0.057 -0.026 -0.147
 0.167 -0.088 0.208 -0.002 -0.168 -0.073 -0.057 -0.179 0.052 -0.064 0.125
 0.086 -0.145 0.092 -0.102 0.115 -0.134 -0.074 0.162 0.043 -0.176 -0.147
 -0.240 0.200 -0.186][0.000 -0.000 -0.000 -0.000 -0.000 -0.000 -0.000 0.000 -0.000 -0.000
 -0.000 0.000 -0.000 0.000 -0.000 -0.000 -0.000 -0.000 0.000 -0.000 -0.000
 -0.000 0.000 -0.000 -0.000 -0.000 -0.000 -0.000 -0.000 0.000 -0.000
 -0.000 -0.000 0.000 0.000 -0.000][-0.081 0.191 0.197 -0.080 -0.208 -0.070 0.240 0.182 -0.182 -0.073 -0.114
 -0.144 -0.162 0.039 -0.009 0.000 -0.020 0.184 0.154 -0.156 -0.185 -0.199
 -0.083 -0.222 -0.171 -0.080 0.045 0.131 0.095 -0.085 0.076 0.143 -0.008
 0.047 0.030 0.198][0.181 -0.178 -0.377 0.131 -0.155 0.055 -0.083 0.143 -0.074 0.145 -0.112
 0.078 -0.773 0.004 -0.030 -0.177 -0.209 0.107 -0.055 0.054 0.039 -0.038
 0.017 0.259 0.096 0.085 0.275 0.050 0.010 -0.083 0.132 -0.022 0.226
 -0.215 0.234 0.020][0.150 -0.328 -0.078 -0.072 -0.183 -0.002 0.227 -0.070 0.244 0.008 -0.158
 -0.101 -0.475 -0.154 0.064 0.026 -0.367 -0.056 0.187 0.062 -0.207 -0.038
 -0.092 0.031 0.118 0.361 -0.268 0.142 -0.084 0.052 -0.254 0.128 0.433
 0.162 0.075 0.086][-0.468 0.413 -0.488 0.187 -0.305 0.941 -0.456 0.239 -0.264 -0.230 -0.233
 -0.694 0.121 -0.303 -0.241 0.551 -0.001 -0.111 -1.099 0.320 -0.447 -0.523
 0.455 -0.662 0.381 -0.157 0.308 -0.993 0.050 -0.492 -0.372 -0.144 -0.410
 -0.056 0.219 -1.046][-1.011 0.486 0.664 0.067 -0.236 -1.828 -0.480 0.103 0.277 0.891 -0.432
 -0.667 0.191 -0.478 0.840 0.555 0.226 -0.734 -0.946 -0.716 0.525 -0.538
 0.059 0.432 0.571 -0.545 -0.724 0.558 0.275 -1.564 -0.713 -1.123 -0.201
 -0.254 -0.503 -1.128][0.000 -0.000 0.000 0.000 -0.000 -0.000 -0.000 -0.000 -0.000 0.000 0.000
 -0.000 0.000 -0.000 0.000 0.000 0.000 -0.000 -0.000 -0.000 -0.000 0.000
 0.000 0.000 -0.000 -0.000 0.000 -0.000 -0.000 -0.000 -0.000 0.000 0.000
 -0.000 -0.000 0.000][-0.013 0.067 0.078 0.055 0.110 -0.013 0.194 -0.095 -0.043 0.120 -0.056
 0.031 0.120 -0.207 -0.199 0.078 -0.070 -0.095 0.191 0.059 0.089 -0.197
 0.132 -0.039 -0.170 -0.142 -0.153 -0.262 -0.156 0.074 -0.085 0.002 0.197
 -0.001 0.071 -0.158][0.257 0.008 -0.368 -0.583 0.241 -0.278 0.038 -0.230 -0.074 -0.160 -0.004
 -0.484 0.189 -0.257 0.278 -0.033 -0.223 -0.022 -0.259 -0.305 -0.399 0.015
 0.009 -0.067 0.002 0.035 -0.215 -0.164 -0.009 -0.132 0.182 0.105 -0.227
 0.248 -0.068 -0.444][-0.000 -0.000 -0.000 0.000 -0.000 0.000 -0.000 -0.000 -0.000 -0.000
 -0.000 -0.000 -0.000 -0.000 0.000 0.000 0.000 -0.000 -0.000 -0.000 0.000
 0.000 -0.000 -0.000 -0.000 -0.000 -0.000 -0.000 -0.000 -0.000 0.000
 -0.000 -0.000 0.000 0.000 0.000][-0.043 -0.168 -0.337 0.119 -0.109 0.153 -0.084 -0.042 -0.065 0.152 -0.355
 0.145 -0.181 0.105 -0.089 0.179 -0.066 -0.153 -0.199 -0.144 -0.051 -0.225
 0.119 0.078 -0.222 -0.159 -0.248 0.052 0.128 0.202 0.256 -0.136 -0.195
 0.196 0.184 -0.339][-0.058 -0.092 -0.181 0.206 0.174 -0.373 -0.018 -0.206 -0.082 0.078 0.247
 -0.351 -0.072 0.026 0.088 -0.819 0.065 0.041 -0.102 -0.199 -0.204 0.069
 0.109 -0.132 -0.249 -0.013 -0.167 0.087 0.212 0.271 0.083 0.034 -0.131
 0.193 0.271 -0.166][0.087 -0.097 0.014 -0.039 0.128 -0.221 -0.179 -0.147 -0.348 -0.140 0.028
 0.199 -0.183 0.211 0.245 -0.110 0.192 0.013 0.043 -0.291 -0.137 0.210
 0.034 0.078 0.000 0.184 -0.114 -0.151 -0.085 0.069 -0.140 -0.121 -0.104
 -0.189 -0.048 -0.269][-0.026 -0.098 -0.127 -0.012 0.011 0.048 -0.016 -0.000 0.039 0.163 -0.010
 0.000 0.152 0.099 0.074 -0.000 0.074 -0.027 -0.005 -0.117 0.150 -0.000
 -0.079 -0.043 -0.001 0.000 0.087 -0.201 -0.045 0.158 0.000 -0.120 -0.029
 0.034 0.087 0.005][0.158 -0.057 0.127 0.064 -0.140 -0.003 -0.027 0.244 0.256 0.004 0.158
 -0.241 -0.011 -0.088 -0.187 0.016 -0.421 0.004 -0.198 0.410 0.106 -0.028
 -0.226 -0.213 -0.292 0.006 0.022 0.128 -0.029 0.067 -0.106 -0.107 -0.015
 -0.066 -0.100 0.345][-0.194 -0.080 -0.005 -0.144 -0.147 -0.106 -0.231 -0.096 0.105 -0.310
 -0.185 -0.041 -0.084 0.050 -0.063 0.074 -0.079 -0.142 -0.233 -0.113 0.001
 -0.075 0.096 -0.124 0.108 -0.257 -0.033 -0.167 -0.091 -0.219 -0.106 0.042
 -0.018 0.014 0.072 -0.261][-0.002 0.135 0.006 -0.038 -0.004 -0.061 -0.000 0.000 -0.003 -0.035 0.000
 -0.000 -0.000 -0.152 -0.000 0.000 -0.001 0.000 -0.156 0.167 0.002 0.008
 0.028 -0.001 0.000 -0.075 0.001 0.006 -0.020 -0.160 0.000 -0.000 -0.179
 -0.000 -0.067 -0.000][-0.058 0.108 0.034 0.141 -0.002 -0.277 -0.138 0.278 -0.154 -0.134 -0.284
 0.107 -0.237 -0.127 0.020 -0.185 0.074 -0.019 0.237 -0.057 0.082 0.020
 0.136 -0.141 0.219 0.149 0.123 0.105 0.094 -0.036 -0.076 -0.152 0.229
 -0.009 0.175 -0.020][-0.438 -0.036 0.406 0.048 0.055 0.011 -0.261 -0.034 -0.157 0.093 -0.016
 -0.279 -0.217 0.167 0.105 0.063 0.205 -0.016 -0.272 0.113 0.186 -0.143
 0.055 -0.059 -0.032 0.251 -0.180 0.052 0.174 -0.190 -0.106 -0.052 0.065
 -0.210 -0.210 -0.211][0.000 -0.000 0.000 -0.000 0.000 0.000 -0.000 0.000 -0.000 -0.000 -0.000
 0.000 0.000 -0.000 0.000 0.000 0.000 -0.000 -0.000 -0.000 -0.000 0.000
 0.000 -0.000 0.000 0.000 -0.000 -0.000 0.000 0.000 -0.000 -0.000 -0.000
 0.000 0.000 -0.000][-0.328 -0.217 -0.263 -0.771 0.275 0.850 0.803 0.128 -0.160 -0.795 -0.117
 -0.174 -0.340 0.524 -0.071 -0.071 0.037 -0.066 -0.042 0.351 -0.148 -0.064
 -0.427 0.033 -0.553 -0.002 -0.055 0.341 -0.144 -0.464 0.029 -0.181 0.236
 -0.193 -0.245 -1.201][0.205 0.310 -0.224 -0.484 -0.129 -0.280 0.119 0.211 -0.055 0.197 -0.115
 -0.329 -0.144 -0.016 0.115 0.199 -0.311 -0.090 -0.078 -0.439 0.103 0.068
 0.307 -0.048 -0.130 0.253 0.032 0.012 -0.336 -0.289 0.193 -0.395 0.101
 -0.079 -0.076 0.107][-0.099 -0.074 0.084 0.126 0.155 0.221 0.006 -0.205 -0.143 0.131 0.098
 -0.101 -0.215 0.140 -0.145 0.253 0.169 0.064 -0.044 -0.110 0.017 -0.103
 -0.079 0.078 -0.286 -0.055 -0.357 0.121 -0.078 -0.028 0.035 -0.045 0.081
 -0.022 0.025 0.213][0.007 -0.069 -0.011 -0.000 -0.081 -0.017 0.000 0.000 -0.001 0.058 -0.000
 -0.000 -0.000 0.165 0.000 -0.000 0.039 0.000 -0.000 -0.042 -0.107 0.000
 0.031 -0.012 -0.000 -0.000 0.000 0.009 0.005 -0.095 0.000 -0.104 0.000
 0.000 0.043 0.000][-0.297 0.149 -0.173 0.014 -0.130 0.096 0.010 -0.339 -0.053 -0.243 -0.030
 -0.020 -0.005 0.109 -0.202 -0.042 0.246 -0.272 -0.082 0.272 0.102 -0.142
 -0.161 0.248 0.219 -0.033 -0.094 0.026 -0.127 0.077 0.064 0.140 -0.021
 -0.218 0.089 -0.105][0.000 0.000 0.000 0.000 -0.000 0.000 -0.000 0.000 -0.000 -0.000 0.000
 -0.000 -0.000 0.000 0.000 0.000 -0.000 0.000 -0.000 -0.000 0.000 -0.000
 0.000 0.000 -0.000 0.000 0.000 -0.000 0.000 -0.000 0.000 -0.000 -0.000
 0.000 -0.000 0.000][-0.006 -0.155 0.035 -0.019 0.149 -0.123 -0.115 -0.022 -0.016 -0.028
 -0.098 0.038 0.020 -0.102 -0.079 -0.174 0.141 -0.076 -0.179 0.086 0.153
 -0.022 -0.096 0.085 -0.103 0.025 0.006 0.027 0.132 0.064 0.173 -0.078
 -0.109 -0.137 -0.221 0.080][-0.311 -0.061 0.321 -0.557 -0.148 -0.228 -0.358 0.111 0.268 -0.061 0.040
 -0.025 0.127 0.159 0.055 0.481 -0.147 -0.244 -1.209 -0.081 0.065 -0.113
 -0.157 -0.328 0.002 0.130 -0.862 -0.120 -0.228 0.036 0.092 0.282 0.120
 -0.451 -0.230 0.354][-0.000 -0.000 -0.000 0.000 0.000 -0.000 -0.000 -0.000 0.000 0.000 -0.000
 0.000 -0.000 -0.000 -0.000 -0.000 0.000 -0.000 -0.000 -0.000 0.000 0.000
 0.000 -0.000 0.000 0.000 -0.000 0.000 0.000 0.000 -0.000 0.000 0.000
 0.000 -0.000 0.000][0.018 -0.199 0.174 0.048 -0.243 -0.155 0.065 0.064 -0.057 -0.015 -0.111
 0.243 0.232 0.076 -0.102 -0.151 -0.160 0.196 -0.124 -0.255 0.115 0.143
 0.173 0.033 0.126 -0.148 -0.112 -0.220 -0.128 -0.160 0.005 -0.141 -0.162
 0.031 0.017 0.036][-0.000 0.000 0.000 -0.000 -0.025 -0.000 0.000 -0.000 -0.000 0.000 -0.000
 -0.000 0.000 0.003 -0.118 0.000 0.000 0.000 -0.000 0.030 -0.000 0.000
 -0.000 -0.050 0.000 -0.000 -0.000 0.028 0.000 0.000 0.134 0.000 0.000
 0.000 0.000 -0.000][-0.069 0.172 -0.215 0.031 -0.120 -0.077 -0.044 -0.002 -0.039 -0.157
 -0.001 -0.000 -0.009 0.024 -0.002 0.146 -0.089 -0.310 0.282 0.055 0.006
 -0.001 0.015 -0.092 -0.016 -0.013 -0.080 0.000 0.016 -0.030 -0.000 -0.000
 -0.173 -0.055 -0.016 -0.000][-0.108 -0.019 -0.000 -0.000 0.072 -0.013 -0.000 0.000 0.000 0.000 -0.000
 0.000 0.000 0.000 -0.000 0.092 -0.000 0.000 -0.005 -0.030 0.000 0.000
 0.000 -0.001 -0.000 0.000 -0.000 -0.001 0.000 0.049 0.000 0.000 -0.000
 0.000 0.039 0.000][0.233 -0.437 0.159 -0.140 0.130 0.229 0.498 0.206 -0.612 -0.657 -0.032
 0.018 -0.125 0.330 -0.117 -0.338 0.168 0.306 -0.065 -0.477 -0.249 -0.853
 0.133 -0.515 0.297 -0.310 -1.262 0.315 0.170 -0.290 -0.716 0.238 0.212
 -0.417 0.205 -0.824][0.045 0.072 -0.055 -0.245 0.150 -0.067 -0.089 0.040 0.018 0.136 0.016
 -0.234 -0.008 -0.139 -0.115 -0.099 -0.192 -0.013 -0.133 -0.244 -0.032
 0.151 -0.010 -0.163 -0.024 -0.083 -0.138 -0.155 0.030 -0.076 -0.039
 -0.171 0.065 -0.068 -0.050 -0.156][-0.518 0.332 0.362 -0.141 0.073 -0.204 -0.093 0.075 -0.092 0.230 0.186
 0.297 -0.107 0.212 0.054 0.101 0.063 -0.030 -0.513 0.093 -0.158 -0.125
 0.077 0.233 0.045 0.077 -0.115 -0.274 0.047 -0.219 0.228 -0.106 -0.174
 0.142 -0.033 -0.201][-0.093 -0.107 0.277 0.141 -0.158 -0.022 -0.101 0.004 0.197 0.038 -0.026
 0.108 -0.320 -0.200 0.006 0.040 -0.117 0.171 -0.033 0.170 -0.357 0.166
 -0.258 -0.199 0.035 0.225 -0.033 0.014 -0.071 -0.263 0.113 -0.134 -0.261
 0.085 0.015 0.145][-0.051 -0.305 0.163 0.121 -0.630 0.058 -0.054 -0.286 -0.033 0.230 -0.113
 0.093 0.495 -0.130 0.019 0.185 -0.025 0.050 -0.192 -0.155 0.111 -0.100
 -0.401 -0.245 -0.015 -0.052 -0.032 -0.014 0.082 0.131 0.229 0.232 -0.217
 0.163 -0.267 0.177][0.011 0.069 0.087 -0.099 0.125 -0.120 -0.158 0.036 0.127 0.162 -0.041
 -0.042 0.134 -0.032 0.211 0.034 -0.113 -0.107 0.164 0.058 0.060 0.007
 0.829 -0.203 -0.099 -0.113 -0.082 0.068 -0.166 0.151 -0.037 -0.156 -0.950
 -0.139 0.071 0.179][0.121 -0.054 0.076 0.118 -0.198 -0.055 0.128 -0.132 0.135 -0.089 0.123
 -0.013 0.047 -0.085 0.000 -0.178 0.107 -0.226 0.064 0.002 0.143 0.145
 -0.135 -0.062 0.022 -0.038 -0.167 -0.116 -0.228 -0.015 -0.043 -0.029
 0.150 0.050 0.006 -0.151][-0.003 -0.117 -0.025 -0.272 -0.178 0.124 0.168 -0.044 -0.212 -0.260 0.063
 0.133 -0.144 0.198 0.087 -0.166 -0.113 -0.169 0.130 0.134 0.072 0.158
 0.043 -0.059 0.076 0.306 0.026 -0.309 0.040 -0.040 -0.118 0.203 -0.239
 0.025 -0.142 0.150][-0.220 0.177 0.064 -0.107 -0.150 0.147 -0.022 -0.285 -0.085 0.114 -0.021
 -0.037 -0.056 -0.429 0.320 -0.504 0.025 0.054 0.197 0.054 -0.006 0.200
 -0.142 -0.363 0.041 -0.379 0.173 -0.016 -0.207 0.292 -0.247 -0.222 -0.002
 0.165 0.285 -0.335][-0.135 -0.102 -0.113 -0.142 0.109 0.018 -0.075 0.082 0.037 -0.068 -0.118
 -0.029 -0.154 -0.210 0.197 -0.072 0.062 0.282 -0.290 0.093 0.172 -0.295
 -0.018 0.160 -0.029 0.102 0.205 0.134 -0.012 -0.125 -0.059 -0.018 0.177
 -0.041 -0.275 0.106][0.002 -0.240 -0.006 -0.073 -0.010 -0.222 0.127 0.074 0.172 0.145 0.155
 0.080 0.040 -0.012 -0.073 -0.030 -0.308 -0.048 0.027 0.108 0.079 0.194
 -0.235 0.099 0.126 -0.246 0.267 0.245 0.114 -0.074 0.202 -0.120 0.093
 0.176 -0.333 -0.137][0.249 -0.203 0.221 0.011 -0.015 -0.002 -0.066 -0.098 -0.259 -0.164 -0.177
 0.287 -0.104 0.251 -0.022 -0.210 -0.027 -0.343 0.122 0.033 -0.062 0.179
 0.109 0.293 0.166 -0.205 0.122 -0.035 0.079 -0.083 0.020 0.239 -0.178
 -0.230 0.006 0.128][-0.127 -0.075 -0.278 -0.257 0.014 0.164 0.018 -0.107 0.136 0.026 0.207
 -0.118 0.033 0.123 0.187 0.193 0.084 0.130 0.107 0.111 0.076 -0.116 0.030
 -0.030 -0.160 0.063 -0.019 0.055 0.058 -0.127 -0.109 -0.164 -0.010 -0.072
 0.039 -0.172][-0.095 -0.009 -0.068 0.071 -0.066 -0.032 -0.096 -0.066 -0.165 0.121 0.082
 -0.173 -0.000 0.137 0.175 -0.040 0.057 -0.064 0.129 0.119 -0.114 0.053
 0.074 0.143 -0.002 -0.134 -0.165 0.019 -0.174 0.036 -0.177 -0.183 -0.061
 -0.065 -0.047 0.126][0.226 0.105 0.069 -0.059 0.168 0.133 0.042 -0.009 0.124 0.062 0.177
 -0.093 -0.081 -0.185 -0.116 0.067 0.177 -0.073 0.072 0.127 -0.003 0.188
 -0.136 -0.233 0.249 -0.152 0.045 -0.019 0.107 0.022 -0.039 0.154 0.075
 0.148 0.093 -0.146][-0.112 0.121 0.254 -0.074 0.170 -0.218 -0.120 -0.175 0.041 0.078 -0.050
 -0.185 -0.085 0.107 0.077 -0.177 -0.020 -0.020 0.209 -0.069 -0.140 0.200
 -0.157 -0.102 -0.158 -0.096 0.118 -0.014 -0.410 -0.120 0.128 0.369 -0.072
 -0.297 -0.109 -0.031][0.205 -0.732 -0.471 -0.317 -0.924 -0.737 0.589 0.018 -1.012 -1.341 0.856
 0.494 0.707 -1.023 -0.763 -0.652 0.560 -0.837 0.111 -0.668 -0.701 0.731
 0.192 -0.344 0.128 0.146 0.313 0.227 -0.920 -0.024 0.503 -0.197 -1.141
 -1.176 0.598 0.340][-0.375 -0.026 0.013 -0.292 0.071 0.088 -0.108 -0.280 0.102 0.018 0.136
 -0.093 -0.063 0.002 0.016 -0.375 -0.048 0.085 -0.037 -0.174 -0.008 0.126
 -0.072 0.150 -0.174 -0.192 0.093 0.289 -0.075 0.128 0.033 0.214 -0.185
 0.221 0.157 0.293][0.042 -0.158 -0.191 -0.044 0.136 -0.043 0.018 -0.061 0.224 0.125 0.200
 -0.120 0.073 -0.170 0.132 -0.110 0.167 -0.105 0.121 0.014 0.074 0.187
 0.131 -0.221 -0.017 -0.014 -0.114 -0.278 0.012 0.148 -0.066 -0.130 -0.028
 0.128 -0.193 0.148][0.133 0.098 -0.110 0.163 -0.096 0.114 -0.324 -0.026 0.091 -0.106 -0.092
 0.000 0.109 -0.350 -0.047 0.058 -0.242 0.098 0.131 -0.139 -0.199 -0.166
 -0.101 0.044 0.074 -0.393 -0.196 0.112 -0.061 0.033 -0.149 0.126 0.304
 0.124 0.085 0.070][0.248 0.128 -0.188 0.119 -0.120 -0.175 -0.149 0.128 0.146 -0.100 0.003
 0.183 -0.021 -0.215 0.030 0.254 -0.083 0.035 -0.116 0.062 -0.187 0.088
 0.085 -0.041 0.144 -0.096 0.124 -0.077 -0.099 0.141 0.118 -0.088 -0.172
 -0.076 0.047 -0.035][-0.145 0.196 0.034 0.086 -0.028 0.021 0.038 -0.172 -0.120 0.123 -0.161
 -0.057 0.104 0.054 0.196 0.190 -0.175 -0.154 0.169 0.037 -0.108 -0.177
 -0.219 0.126 0.040 -0.069 0.019 0.196 0.050 0.166 0.041 -0.161 0.305
 0.224 0.160 0.108][0.343 0.176 -0.308 -0.003 0.098 -0.186 -0.062 0.008 0.235 0.077 -0.064
 -0.141 0.019 0.080 0.138 -0.031 -0.017 -0.005 -0.104 0.013 -0.018 -0.117
 0.184 0.124 -0.103 0.178 -0.103 0.035 0.096 -0.260 0.205 -0.140 -0.407
 -0.077 0.047 0.111]