[-0.041 0.063 -0.145 -0.038 -0.000 -0.150 -0.101 -0.000 -0.000 -0.000
 -0.113 0.063 -0.047 0.155 -0.192 0.083 -0.038 0.009 -0.100 -0.131 0.022
 0.181 -0.042 0.102 0.118 0.174 -0.155 -0.000 -0.098 0.130 0.000 -0.017
 0.276 0.045 0.123 -0.015 0.052 0.124 -0.191 0.084 0.000 0.098 -0.023
 0.099 0.000 0.015 0.127 -0.139 -0.044 -0.046 0.000 0.044 -0.107 -0.000
 0.053 -0.154 0.053 -0.156 -0.028 0.071 -0.161 -0.066 0.025 0.000 -0.165
 0.028 0.068 -0.002 0.161 -0.000 0.132 -0.232 0.000 0.160 -0.043 0.056
 0.153 0.023 0.111 0.093 0.131 0.078 0.077 -0.095 -0.103 0.264 -0.094
 0.226 0.156 0.011 -0.161 0.183 0.029 0.155 -0.035 -0.131 0.204 0.079
 -0.202 -0.010][-0.016 -0.066 0.247 0.041 0.000 0.017 -0.139 -0.000 -0.000 0.174 -0.000
 -0.257 0.264 0.342 0.000 0.129 0.004 0.163 0.028 0.049 0.000 -0.101
 -0.239 -0.094 0.115 0.046 -0.069 -0.000 -0.027 -0.100 -0.000 0.303 -0.024
 -0.438 0.059 -0.000 0.096 -0.293 0.118 0.058 -0.000 -0.175 -0.000 -0.255
 0.000 -0.139 -0.191 0.011 0.000 -0.129 0.000 0.097 0.137 0.000 -0.152
 0.194 -0.097 0.010 0.142 0.199 0.000 -0.032 0.025 0.000 -0.118 -0.297
 -0.227 -0.013 0.030 -0.000 -0.069 -0.113 0.000 -0.117 0.012 -0.000 0.000
 -0.050 -0.024 0.030 0.100 -0.111 0.075 -0.136 -0.014 0.161 -0.130 -0.001
 0.020 0.162 -0.106 -0.088 0.104 0.449 0.201 0.231 -0.067 -0.024 -0.015
 0.143][0.298 -0.005 0.227 -0.007 -0.000 -0.086 0.052 0.000 -0.000 0.144 -0.051
 0.201 -0.109 -0.312 -0.144 0.003 -0.285 0.172 0.165 -0.282 -0.000 -0.130
 -0.258 0.119 -0.080 0.198 -0.068 -0.000 0.184 0.201 0.000 0.027 0.054
 0.098 0.101 0.000 -0.202 0.122 -0.044 0.142 -0.000 0.103 -0.006 -0.126
 0.000 0.105 -0.194 0.073 -0.000 -0.095 0.000 0.278 0.066 -0.000 0.027
 0.211 -0.092 0.027 -0.125 0.028 0.000 0.078 0.076 0.000 0.142 0.051
 -0.015 -0.026 -0.095 -0.000 -0.047 -0.575 0.000 -0.014 0.159 -0.000 0.000
 0.031 -0.020 0.166 0.137 0.184 0.042 -0.068 -0.084 0.287 0.002 0.061
 -0.066 0.130 -0.008 0.166 0.041 0.205 -0.129 -0.083 -0.142 -0.205 0.139
 -0.114][0.100 0.135 0.094 -0.004 0.000 -0.047 -0.072 -0.113 0.000 -0.086 0.215
 0.199 -0.119 -0.193 -0.129 0.064 0.084 -0.125 -0.161 0.181 0.000 0.017
 -0.020 -0.198 -0.011 -0.021 -0.127 0.000 0.039 0.031 0.000 0.128 -0.059
 0.042 0.118 -0.050 -0.085 0.178 0.124 -0.014 -0.000 0.204 -0.004 0.106
 0.000 0.010 0.164 0.139 0.173 -0.124 0.000 0.078 0.007 0.000 0.077 -0.043
 0.097 -0.040 0.136 0.181 -0.088 -0.174 0.161 -0.000 0.202 0.104 0.216
 0.004 -0.021 -0.000 -0.075 -0.125 0.000 0.107 -0.174 -0.072 0.128 0.163
 0.031 -0.077 0.029 0.072 0.174 -0.140 -0.106 -0.205 0.170 -0.091 -0.258
 0.071 -0.128 0.040 -0.149 -0.199 0.035 0.118 -0.042 0.103 -0.041 0.078][0.163 0.146 -0.120 0.127 -0.000 0.172 -0.087 -0.000 -0.000 -0.042 -0.214
 0.078 0.093 0.031 0.089 -0.018 0.083 -0.041 0.101 0.004 0.000 -0.150
 -0.178 -0.163 -0.033 -0.160 -0.174 0.000 -0.012 0.042 -0.000 -0.037 0.019
 0.061 0.187 -0.012 0.134 -0.186 0.097 -0.147 -0.000 -0.230 -0.018 -0.191
 -0.000 0.098 0.145 0.159 0.009 0.015 -0.000 0.033 0.230 0.000 0.165 0.105
 0.156 -0.059 -0.125 -0.130 0.000 0.070 -0.181 -0.000 0.118 0.003 0.222
 -0.095 -0.002 -0.000 0.139 -0.032 -0.000 0.037 0.150 -0.159 0.073 0.134
 -0.027 0.065 -0.079 0.165 0.002 0.033 -0.010 0.034 -0.116 -0.212 0.087
 -0.101 -0.008 0.135 -0.013 0.057 -0.049 0.122 0.165 0.171 0.131 -0.094][-0.012 -0.111 -0.169 -0.126 0.000 -0.006 0.109 -0.128 0.000 -0.113 0.041
 -0.097 -0.130 -0.035 0.050 0.045 0.024 -0.117 0.042 0.310 0.025 0.073
 0.216 0.175 0.007 -0.136 -0.384 -0.000 0.070 -0.047 -0.000 -0.094 0.219
 0.030 0.115 -0.009 0.045 -0.006 -0.300 -0.072 -0.000 0.106 -0.017 -0.064
 0.000 -0.109 0.076 -0.038 0.258 -0.048 0.000 -0.039 0.092 -0.000 -0.218
 -0.289 -0.041 0.048 0.078 -0.146 -0.194 0.037 0.148 -0.000 0.096 0.099
 -0.018 0.144 0.070 -0.000 -0.027 0.136 0.000 0.036 0.055 0.012 0.000
 0.088 0.052 -0.075 0.198 -0.097 0.084 -0.096 0.161 -0.073 0.181 -0.059
 -0.119 0.160 -0.087 0.033 0.094 -0.042 -0.031 -0.093 -0.122 -0.117 -0.200
 -0.140][0.023 0.100 -0.199 -0.179 0.000 0.203 0.021 0.010 0.000 0.126 0.008 0.129
 0.109 0.096 -0.000 0.217 -0.079 -0.106 -0.027 0.023 -0.047 0.048 -0.120
 0.088 0.066 -0.050 -0.030 0.000 0.089 0.118 0.000 0.171 0.185 -0.218
 0.022 -0.008 0.107 -0.086 -0.067 -0.132 -0.000 0.172 -0.020 -0.008 -0.000
 -0.079 -0.146 -0.133 0.015 -0.006 0.000 -0.167 0.179 -0.000 0.108 -0.223
 0.043 -0.185 0.084 -0.043 -0.002 0.154 -0.102 0.000 -0.119 0.133 0.034
 -0.136 0.149 0.000 0.116 0.027 0.000 0.070 0.071 0.168 0.000 -0.253 0.152
 0.111 0.151 0.048 0.082 0.135 -0.027 0.204 0.157 0.035 -0.101 0.114
 -0.208 0.048 0.176 -0.010 -0.150 -0.044 -0.090 0.161 0.046 -0.056][-0.151 -0.050 0.102 -0.020 0.000 -0.020 0.144 -0.000 -0.000 0.052 -0.172
 0.015 -0.093 0.005 0.131 0.022 0.060 -0.030 0.037 -0.185 0.000 0.167
 0.046 0.103 -0.015 -0.014 0.137 0.000 0.056 0.117 0.000 -0.135 0.149
 -0.023 0.148 -0.012 0.151 0.033 0.122 -0.192 0.000 -0.206 -0.022 0.169
 -0.000 0.066 0.170 -0.022 0.033 0.126 -0.000 -0.153 0.238 0.000 0.082
 0.153 -0.031 0.048 -0.069 -0.003 -0.000 0.129 -0.125 0.000 -0.096 -0.108
 0.121 0.016 0.098 0.000 0.094 -0.033 -0.000 -0.003 0.048 -0.214 -0.075
 -0.031 -0.030 -0.042 -0.048 0.210 -0.088 0.145 0.060 -0.062 0.101 0.020
 -0.037 0.082 -0.040 -0.078 -0.050 0.075 -0.089 0.074 -0.080 0.057 -0.034
 0.146][0.139 -0.049 0.080 0.190 0.000 0.133 -0.090 0.000 0.000 -0.118 -0.230
 -0.034 0.220 -0.051 0.094 -0.106 -0.028 -0.149 0.111 0.129 -0.000 -0.098
 0.185 -0.170 -0.053 -0.139 -0.052 -0.000 0.078 0.060 -0.000 0.072 -0.003
 -0.095 0.038 0.009 -0.138 -0.083 -0.034 -0.014 -0.000 -0.052 -0.024 0.105
 -0.000 0.046 0.001 -0.217 -0.030 -0.123 -0.000 0.072 0.054 0.000 0.062
 0.202 0.134 0.034 -0.168 0.047 0.014 -0.050 -0.052 -0.000 0.118 0.126
 0.049 0.150 -0.191 0.000 -0.192 -0.265 -0.000 -0.138 0.039 0.049 -0.089
 -0.103 0.027 0.101 -0.073 -0.094 0.075 -0.098 0.067 0.071 -0.015 -0.177
 0.113 -0.051 -0.118 -0.062 0.013 -0.059 0.183 -0.109 0.125 0.042 0.136
 -0.068][-0.107 0.142 -0.160 0.177 -0.000 -0.040 0.183 -0.175 -0.000 -0.193 0.031
 -0.112 0.076 0.194 0.130 -0.001 0.090 0.092 -0.003 0.024 -0.048 -0.065
 -0.074 0.107 -0.034 -0.001 0.150 -0.000 -0.011 -0.104 0.000 -0.005 -0.135
 -0.062 -0.014 0.023 -0.167 0.105 -0.008 0.085 -0.000 -0.145 -0.021 0.094
 -0.000 0.103 -0.074 -0.069 -0.153 0.027 -0.000 0.055 -0.128 -0.000 -0.187
 -0.131 0.049 -0.056 -0.098 0.016 0.175 0.136 0.081 0.000 -0.176 -0.133
 -0.023 -0.070 0.164 0.000 -0.007 0.151 0.000 0.149 -0.094 -0.104 -0.073
 0.062 -0.121 0.072 -0.110 -0.122 0.128 -0.125 -0.038 0.054 0.020 -0.168
 0.140 0.170 0.102 -0.108 0.010 0.037 0.021 0.176 -0.052 0.078 -0.088
 0.103][-0.076 0.134 0.111 0.105 0.000 -0.103 -0.181 -0.077 -0.000 0.059 0.069
 -0.016 0.128 0.024 -0.187 -0.122 -0.107 -0.076 -0.172 0.053 -0.009 0.030
 0.037 0.153 -0.043 -0.167 0.145 -0.000 0.147 0.157 0.000 -0.075 -0.121
 -0.012 0.123 -0.038 -0.029 -0.104 0.096 0.109 -0.000 0.009 -0.031 0.154
 0.000 0.045 0.186 -0.021 0.184 0.032 -0.000 0.162 0.106 -0.000 0.139
 0.093 0.031 0.069 -0.124 0.033 0.107 -0.162 -0.136 -0.000 0.045 0.043
 -0.110 -0.091 0.140 -0.000 -0.189 0.151 0.000 0.130 0.131 -0.023 0.029
 0.054 0.034 0.142 -0.057 0.179 0.012 -0.172 -0.099 0.063 -0.090 -0.147
 -0.133 0.129 0.022 0.151 -0.060 0.065 0.037 0.039 -0.148 0.109 0.150
 0.011][-0.195 0.081 -0.106 -0.105 0.000 0.016 0.236 0.000 0.000 0.130 0.000
 -0.199 -0.001 0.145 -0.000 0.114 -0.234 -0.102 0.167 0.116 -0.000 -0.247
 0.087 0.034 -0.099 0.260 0.044 -0.000 0.055 -0.172 0.000 -0.094 -0.124
 -0.210 0.066 0.000 0.159 0.018 0.096 0.159 -0.000 -0.045 0.000 0.109
 -0.000 0.163 0.101 0.047 0.000 0.012 -0.000 0.052 0.227 -0.000 -0.060
 -0.013 -0.044 0.099 0.007 0.218 0.000 -0.100 -0.102 0.000 -0.109 0.032
 -0.044 0.062 0.059 -0.000 -0.090 0.877 0.000 -0.262 0.076 -0.000 -0.000
 0.179 -0.027 0.040 -0.032 0.099 -0.133 0.003 0.225 -0.064 0.129 0.102
 0.041 -0.004 0.136 -0.174 0.260 -0.031 0.092 -0.019 -0.045 -0.099 -0.012
 0.113][0.050 0.044 0.282 0.057 0.000 -0.053 0.016 0.000 -0.000 0.172 -0.091
 -0.115 -0.186 0.113 -0.156 0.104 -0.074 0.173 0.246 -0.171 -0.013 -0.071
 0.164 0.103 -0.030 0.018 -0.014 0.000 -0.109 0.153 -0.000 0.128 0.070
 0.216 -0.246 -0.027 0.129 0.053 0.001 -0.275 -0.000 -0.203 -0.037 0.156
 0.000 0.191 -0.070 0.081 -0.181 -0.086 0.000 0.107 -0.028 -0.000 -0.099
 0.258 0.018 -0.098 0.020 -0.121 -0.154 0.214 0.056 0.000 -0.255 0.198
 0.017 -0.072 -0.253 -0.000 -0.036 0.212 0.000 0.106 -0.031 -0.024 -0.147
 0.074 -0.080 -0.077 0.116 0.113 0.046 -0.211 0.090 0.075 -0.160 -0.112
 -0.098 0.032 0.169 0.123 -0.044 0.255 0.000 0.104 -0.041 0.105 0.083
 -0.146][0.005 -0.067 0.055 0.180 -0.000 -0.033 0.105 0.045 -0.000 0.057 -0.033
 -0.129 0.007 -0.053 -0.119 0.180 0.083 0.024 0.094 0.029 0.006 0.149
 0.201 -0.107 -0.116 -0.145 0.186 0.000 0.085 -0.172 -0.000 0.028 -0.105
 -0.024 -0.001 -0.013 0.003 0.053 -0.049 0.054 -0.000 0.086 -0.020 -0.074
 -0.000 0.168 0.043 0.222 0.009 0.080 -0.000 0.095 0.043 -0.000 -0.088
 0.030 0.094 -0.190 -0.011 0.109 0.044 0.173 -0.158 0.000 0.160 0.132
 0.025 0.113 0.148 -0.000 0.168 -0.138 0.000 -0.158 -0.179 0.161 -0.160
 0.174 0.057 0.002 -0.032 -0.023 -0.108 0.132 0.092 -0.155 -0.005 -0.090
 -0.183 0.145 0.086 -0.091 0.113 0.034 -0.074 0.158 0.202 0.023 0.151
 0.146][-0.003 -0.064 0.095 -0.013 0.000 0.195 0.098 -0.072 -0.000 -0.135 0.014
 -0.022 0.141 0.175 -0.134 0.155 0.185 0.161 -0.177 -0.156 -0.077 -0.087
 -0.107 -0.059 -0.080 0.192 -0.006 0.000 0.025 0.039 -0.000 0.125 0.180
 0.149 0.133 -0.012 -0.040 -0.113 -0.112 0.159 -0.000 0.170 0.008 0.142
 -0.000 0.146 0.056 -0.072 -0.027 -0.029 0.000 -0.165 -0.092 -0.000 0.070
 0.045 0.134 -0.117 0.020 -0.183 -0.006 0.147 0.190 -0.000 -0.095 -0.074
 -0.186 -0.199 -0.007 0.000 -0.107 0.053 0.000 -0.083 0.027 -0.063 0.068
 0.042 0.037 -0.050 -0.055 -0.107 0.153 0.091 0.173 -0.094 0.175 0.160
 -0.086 -0.089 0.003 -0.146 -0.023 0.002 0.170 -0.007 0.197 0.069 -0.027
 0.177][-0.146 0.035 0.077 -0.021 -0.000 0.005 -0.020 0.105 0.000 -0.056 -0.095
 0.081 0.213 -0.113 0.110 -0.085 -0.158 -0.151 0.166 0.161 -0.026 0.156
 0.196 -0.005 -0.038 0.068 -0.127 -0.000 -0.066 -0.201 -0.000 0.046 -0.022
 0.125 -0.151 -0.019 -0.097 -0.077 -0.165 0.120 -0.000 0.084 -0.047 -0.206
 -0.000 0.157 0.143 -0.023 -0.149 0.095 0.000 0.135 0.101 0.000 0.149
 -0.001 0.013 -0.017 0.043 0.064 -0.005 0.133 0.007 0.000 -0.083 -0.092
 0.166 0.079 -0.095 -0.000 0.152 -0.160 -0.000 0.051 -0.104 0.083 0.017
 0.107 -0.164 -0.152 0.074 -0.002 -0.171 -0.074 0.071 -0.092 0.161 0.165
 0.173 0.085 -0.053 0.067 -0.082 0.032 0.040 0.031 0.164 -0.080 0.080
 0.166][0.000 -0.075 0.021 0.101 0.000 0.235 -0.056 0.137 0.000 -0.000 0.224
 0.061 -0.052 -0.025 0.000 -0.154 -0.087 -0.063 -0.021 0.011 0.029 0.135
 -0.034 0.176 -0.038 0.280 -0.070 0.000 -0.082 0.045 0.000 -0.054 -0.268
 -0.095 0.072 -0.000 0.000 0.221 -0.006 0.147 -0.000 -0.146 -0.025 0.131
 -0.000 0.064 -0.008 0.144 0.132 0.222 -0.000 -0.053 0.011 0.000 0.129
 0.000 0.093 -0.077 0.057 0.000 0.044 0.009 -0.044 0.000 0.162 0.066
 -0.149 0.152 0.154 0.000 -0.132 0.211 0.000 0.040 -0.000 0.074 -0.000
 0.218 0.172 -0.038 -0.083 -0.082 0.063 -0.097 -0.079 0.049 -0.159 -0.123
 0.060 0.160 0.018 0.229 -0.224 0.255 0.000 0.203 0.122 0.139 -0.045 0.170][0.000 0.000 0.000 0.000 -0.000 -0.000 0.000 -0.000 0.000 0.000 -0.000
 0.000 -0.000 -0.000 -0.000 -0.000 0.000 -0.000 -0.000 0.000 0.000 0.000
 -0.000 -0.000 -0.000 -0.000 0.000 0.000 0.000 0.000 0.000 0.000 -0.000
 0.000 -0.000 -0.000 -0.000 -0.000 0.000 0.000 0.000 -0.000 0.000 -0.000
 -0.000 0.000 0.000 -0.000 0.000 0.000 -0.000 0.000 -0.000 -0.000 -0.000
 -0.000 0.000 0.000 0.000 -0.000 -0.000 -0.000 -0.000 0.000 -0.000 0.000
 0.000 0.000 0.000 0.000 0.000 0.000 0.000 -0.000 0.000 0.000 -0.000
 -0.000 0.000 -0.000 0.000 0.000 -0.000 -0.000 -0.000 -0.000 -0.000 0.000
 -0.000 0.000 -0.000 0.000 0.000 0.000 0.000 -0.000 0.000 -0.000 0.000
 -0.000][0.146 -0.106 -0.098 0.167 0.000 0.204 -0.286 -0.000 -0.000 0.000 0.113
 0.224 -0.068 -0.088 0.020 0.008 0.056 0.030 0.001 0.006 -0.029 -0.026
 0.392 -0.256 0.060 -0.186 0.061 -0.000 -0.209 0.148 0.000 -0.200 0.153
 -0.152 0.022 -0.034 0.021 0.061 0.009 0.078 -0.000 0.127 0.008 0.144
 0.000 0.012 0.042 0.293 0.149 -0.254 0.000 0.134 -0.254 0.000 0.161
 -0.077 -0.236 -0.000 0.328 -0.227 -0.059 0.005 -0.158 -0.000 -0.056 0.061
 0.050 -0.093 -0.026 -0.000 0.078 0.184 -0.000 0.064 -0.000 0.020 0.051
 -0.237 0.077 0.006 0.279 -0.096 -0.029 0.116 0.049 0.101 -0.051 0.129
 0.163 -0.121 0.100 0.134 -0.164 -0.177 -0.175 0.045 -0.148 0.255 -0.040
 0.184][-0.000 -0.000 0.000 0.000 -0.000 -0.000 0.000 -0.000 -0.000 -0.000 -0.000
 0.000 -0.000 0.000 0.000 0.000 -0.000 0.000 -0.000 0.000 0.000 0.000
 -0.000 0.000 0.000 -0.000 -0.000 -0.000 -0.000 0.000 -0.000 -0.000 0.000
 0.000 0.000 -0.000 0.000 -0.000 0.000 -0.000 -0.000 0.000 -0.000 -0.000
 0.000 -0.000 0.000 0.000 0.000 0.000 -0.000 -0.000 0.000 -0.000 0.000
 0.000 0.000 -0.000 -0.000 -0.000 -0.000 0.000 -0.000 -0.000 -0.000 0.000
 0.000 0.000 -0.000 0.000 0.000 -0.000 -0.000 -0.000 -0.000 0.000 0.000
 -0.000 0.000 0.000 -0.000 0.000 0.000 0.000 -0.000 -0.000 -0.000 0.000
 0.000 -0.000 0.000 0.000 0.000 0.000 -0.000 0.000 0.000 0.000 -0.000
 -0.000][-0.029 0.127 0.034 -0.117 0.000 0.026 0.137 -0.128 0.000 0.000 0.109
 0.140 0.018 -0.206 -0.148 -0.201 -0.053 0.024 0.098 -0.154 0.051 0.025
 0.089 0.207 -0.057 0.018 0.152 -0.000 -0.211 -0.123 -0.000 0.090 0.104
 0.134 -0.027 0.005 0.038 0.004 -0.081 0.190 -0.000 -0.004 -0.013 0.160
 0.000 -0.219 -0.029 -0.039 0.032 0.195 0.000 0.088 -0.111 0.000 0.167
 -0.029 0.033 0.082 -0.110 -0.135 -0.187 -0.074 0.142 -0.000 -0.057 -0.185
 0.024 -0.116 0.006 0.000 -0.072 -0.046 0.000 -0.042 0.000 0.086 -0.144
 0.014 -0.101 -0.085 0.069 -0.016 -0.122 -0.015 -0.124 0.162 -0.087 0.144
 -0.031 0.001 -0.116 -0.085 -0.009 0.140 -0.176 -0.121 0.194 0.117 -0.084
 -0.086][-0.018 -0.005 0.087 0.291 0.000 -0.018 0.253 0.095 0.000 -0.091 0.337
 -0.217 0.007 0.086 0.112 -0.040 0.188 -0.123 0.095 0.105 -0.000 -0.005
 0.240 -0.033 -0.102 -0.147 0.322 0.000 0.073 -0.020 -0.000 0.370 -0.545
 0.740 0.117 -0.005 -0.146 -0.268 -0.329 0.010 0.000 0.191 -0.011 0.030
 -0.000 -0.181 -0.342 -0.208 -0.238 -0.321 -0.000 0.079 0.091 0.000 0.028
 -0.256 -0.152 0.068 0.105 0.053 0.000 -0.277 -0.002 0.000 0.144 -0.376
 -0.059 0.033 0.226 -0.000 0.058 -0.089 0.000 -0.198 -0.000 -0.136 0.000
 -0.152 -0.157 0.109 -0.014 0.159 -0.107 0.149 0.130 -0.181 0.129 0.060
 0.065 -0.003 -0.131 -0.083 -0.285 -0.303 -0.044 0.079 -0.227 -0.059
 -0.132 -0.110][0.000 -0.000 -0.000 0.000 -0.000 0.000 0.000 0.000 0.000 -0.000 0.000
 -0.000 -0.000 0.000 0.000 0.000 -0.000 0.000 -0.000 -0.000 0.000 -0.000
 0.000 0.000 0.000 0.000 -0.000 -0.000 -0.000 0.000 0.000 0.000 -0.000
 -0.000 -0.000 -0.000 0.000 0.000 0.000 0.000 -0.000 0.000 0.000 -0.000
 -0.000 -0.000 0.000 -0.000 -0.000 0.000 0.000 -0.000 0.000 0.000 0.000
 -0.000 -0.000 0.000 0.000 0.000 -0.000 -0.000 0.000 0.000 -0.000 -0.000
 0.000 0.000 0.000 -0.000 -0.000 -0.000 -0.000 0.000 -0.000 -0.000 -0.000
 0.000 -0.000 -0.000 0.000 0.000 -0.000 -0.000 -0.000 -0.000 -0.000 -0.000
 -0.000 0.000 -0.000 -0.000 0.000 -0.000 -0.000 -0.000 -0.000 -0.000
 -0.000 0.000][0.000 0.000 0.000 0.000 -0.000 0.000 -0.000 -0.000 0.000 0.000 -0.000
 -0.000 0.000 -0.000 -0.000 0.000 0.000 0.000 -0.000 0.000 -0.000 0.000
 -0.000 0.000 -0.000 -0.000 0.000 -0.000 0.000 -0.000 -0.000 -0.000 0.000
 -0.000 0.000 -0.000 -0.000 0.000 -0.000 -0.000 0.000 0.000 -0.000 -0.000
 -0.000 -0.000 0.000 -0.000 -0.000 0.000 -0.000 -0.000 0.000 0.000 0.000
 -0.000 0.000 0.000 -0.000 0.000 -0.000 -0.000 0.000 0.000 0.000 0.000
 0.000 0.000 0.000 -0.000 -0.000 -0.000 -0.000 0.000 -0.000 0.000 -0.000
 -0.000 0.000 0.000 0.000 0.000 -0.000 -0.000 0.000 -0.000 -0.000 -0.000
 0.000 -0.000 0.000 0.000 0.000 0.000 0.000 0.000 0.000 -0.000 -0.000
 -0.000][-0.000 -0.066 -0.250 0.134 0.000 -0.024 0.233 0.155 0.000 0.000 0.050
 0.138 -0.051 0.243 0.000 -0.000 0.033 -0.000 -0.137 0.107 -0.000 -0.030
 -0.177 0.051 -0.025 0.108 -0.081 0.000 0.056 -0.169 -0.000 0.110 -0.289
 0.621 0.046 0.000 0.000 0.266 0.529 0.227 0.000 -0.133 -0.022 0.120 0.000
 0.005 -0.059 -0.235 0.145 0.195 -0.000 0.229 0.170 -0.000 -0.140 0.000
 0.052 0.153 0.118 0.000 -0.045 0.099 0.011 0.000 -0.134 0.093 -0.224
 0.124 0.061 -0.000 -0.007 0.078 -0.000 0.157 0.000 -0.149 -0.000 0.134
 0.033 0.015 -0.301 0.100 0.075 -0.004 -0.125 -0.113 -0.010 -0.001 -0.222
 0.021 0.015 -0.134 -0.140 0.073 0.000 -0.066 0.047 -0.019 -0.064 -0.059][0.557 -0.357 -0.431 -0.642 -0.000 0.545 -0.124 -0.000 0.000 -0.000 -0.052
 -0.881 -0.631 0.737 -0.000 0.655 0.294 -0.000 -0.224 0.127 0.000 -0.020
 -0.320 0.404 0.057 0.818 -1.630 0.000 0.000 -0.678 -0.000 0.000 0.275
 0.736 0.712 -0.000 0.051 -1.060 -0.658 -0.294 -0.000 0.432 -0.002 0.042
 -0.000 0.344 -0.539 -0.674 1.022 1.484 -0.000 -0.161 -0.611 -0.000 0.419
 -1.101 -0.407 -0.000 0.112 0.114 0.108 -0.605 0.565 -0.000 0.061 0.195
 0.297 -0.000 0.424 0.000 -0.176 3.412 -0.000 -0.230 0.000 -0.098 -0.039
 -1.001 -0.198 0.693 0.047 0.582 0.068 -0.087 -0.340 -0.374 0.382 -0.432
 -0.661 0.165 0.058 -0.308 -0.150 -1.291 0.095 -0.380 -0.073 0.183 0.580
 -0.886][0.000 -0.000 -0.000 -0.000 0.000 0.000 0.000 0.000 0.000 0.000 -0.000
 -0.000 0.000 0.000 0.000 0.000 0.000 0.000 0.000 0.000 -0.000 0.000 0.000
 0.000 0.000 0.000 0.000 -0.000 0.000 -0.000 0.000 -0.000 0.000 0.000
 0.000 0.000 0.000 0.000 -0.000 -0.000 -0.000 -0.000 0.000 -0.000 -0.000
 -0.000 0.000 -0.000 0.000 0.000 -0.000 0.000 -0.000 -0.000 0.000 0.000
 -0.000 0.000 -0.000 0.000 0.000 -0.000 -0.000 0.000 0.000 -0.000 -0.000
 0.000 0.000 -0.000 0.000 -0.000 0.000 0.000 -0.000 0.000 -0.000 -0.000
 0.000 0.000 -0.000 -0.000 0.000 -0.000 0.000 -0.000 0.000 0.000 0.000
 0.000 0.000 -0.000 0.000 -0.000 -0.000 -0.000 -0.000 0.000 -0.000 -0.000][0.221 0.110 -0.163 0.033 -0.000 0.198 0.126 -0.000 0.000 -0.093 0.013
 0.253 0.154 0.224 -0.106 -0.061 -0.069 -0.084 0.082 0.048 0.000 0.109
 0.206 0.030 -0.184 0.067 0.173 0.000 0.163 0.106 -0.000 -0.125 -0.357
 -0.213 -0.086 -0.004 0.000 0.048 0.154 -0.027 0.000 -0.278 0.003 0.191
 0.000 0.124 -0.036 0.103 0.063 0.023 -0.000 0.241 -0.022 -0.000 0.152
 0.196 -0.145 -0.072 -0.072 0.046 0.124 -0.026 -0.214 0.000 -0.106 0.327
 0.182 -0.000 0.038 0.000 -0.093 -0.099 -0.000 -0.072 -0.000 0.597 0.000
 -0.119 -0.092 -0.007 -0.050 -0.245 -0.084 0.054 0.198 0.297 -0.203 -0.127
 -0.239 0.241 -0.084 0.055 -0.079 -0.182 0.235 0.194 -0.134 -0.138 0.296
 -0.145][-0.000 -0.121 0.107 -0.099 -0.000 0.173 -0.253 -0.142 0.000 -0.000 0.113
 0.028 -0.336 0.746 0.000 0.000 -0.296 -0.000 0.000 0.083 0.000 0.372
 -0.323 0.053 0.000 -0.012 0.000 -0.000 -0.863 -0.105 0.000 -0.380 -0.000
 -0.593 0.031 -0.000 0.000 0.054 0.337 -0.089 -0.000 -0.016 0.019 -0.026
 0.000 0.145 0.510 0.518 -0.190 -0.418 -0.000 0.215 -0.251 -0.000 0.013
 0.000 0.007 0.169 0.026 -0.000 0.099 0.343 0.428 0.000 0.175 0.293 0.072
 0.000 -0.050 0.000 0.000 -0.050 0.000 -0.323 -0.000 0.040 0.000 0.410
 0.128 -0.000 0.032 -0.634 -0.149 0.000 -0.043 -0.000 0.257 -0.000 -0.000
 -0.255 -0.000 -0.092 -0.180 -0.827 0.000 0.066 0.084 -0.205 0.026 -0.265][-0.057 0.124 -0.210 -0.307 -0.000 0.249 0.149 -0.000 -0.000 0.000 -0.065
 -0.130 0.101 0.255 -0.053 -0.096 -0.016 0.120 0.128 0.025 -0.012 0.071
 -0.084 -0.203 0.087 0.179 -0.212 0.000 -0.287 -0.175 -0.000 0.314 0.174
 -0.513 -0.076 0.012 -0.042 -0.237 0.572 0.044 -0.000 -0.270 -0.016 -0.067
 0.000 0.034 0.031 -0.009 0.147 0.320 -0.000 -0.174 -0.523 0.000 -0.027
 0.221 0.063 0.000 -0.059 -0.086 0.009 0.204 0.128 -0.000 0.099 -0.259
 0.058 0.115 0.157 0.000 -0.088 0.135 0.000 0.092 0.000 -0.125 -0.068
 -0.245 -0.132 0.073 0.147 -0.029 -0.100 -0.176 -0.034 -0.003 0.039 0.203
 0.234 -0.136 0.159 -0.217 0.035 -0.077 0.240 0.064 -0.225 -0.084 -0.093
 -0.069][-0.000 -0.000 -0.000 -0.000 0.000 -0.000 -0.000 0.000 -0.000 0.000 0.000
 -0.000 0.000 -0.000 0.000 -0.000 0.000 0.000 0.000 -0.000 0.000 -0.000
 -0.000 0.000 -0.000 -0.000 -0.000 0.000 0.000 -0.000 0.000 -0.000 -0.000
 -0.000 -0.000 -0.000 0.000 0.000 -0.000 0.000 0.000 -0.000 -0.000 0.000
 -0.000 -0.000 -0.000 0.000 -0.000 -0.000 -0.000 0.000 -0.000 0.000 0.000
 0.000 0.000 0.000 0.000 0.000 -0.000 -0.000 0.000 -0.000 0.000 0.000
 0.000 0.000 0.000 -0.000 -0.000 0.000 -0.000 0.000 -0.000 -0.000 -0.000
 -0.000 0.000 -0.000 0.000 0.000 -0.000 -0.000 -0.000 -0.000 -0.000 -0.000
 -0.000 0.000 -0.000 -0.000 0.000 -0.000 0.000 0.000 -0.000 -0.000 -0.000
 0.000][0.000 -0.000 0.000 0.000 -0.000 0.000 0.000 -0.000 -0.000 -0.000 0.000
 0.000 0.000 -0.000 0.000 -0.000 0.000 -0.000 0.000 0.000 -0.000 0.000
 -0.000 0.000 -0.000 0.000 0.000 -0.000 0.000 0.000 -0.000 -0.000 0.000
 -0.000 -0.000 -0.000 -0.000 0.000 0.000 0.000 -0.000 -0.000 -0.000 0.000
 -0.000 0.000 -0.000 0.000 -0.000 0.000 0.000 0.000 -0.000 0.000 -0.000
 0.000 0.000 -0.000 -0.000 -0.000 -0.000 -0.000 0.000 -0.000 -0.000 -0.000
 0.000 0.000 0.000 0.000 0.000 -0.000 -0.000 -0.000 -0.000 -0.000 -0.000
 -0.000 0.000 0.000 0.000 0.000 -0.000 0.000 -0.000 -0.000 -0.000 0.000
 -0.000 -0.000 0.000 0.000 -0.000 -0.000 0.000 0.000 -0.000 0.000 -0.000
 0.000][0.000 0.051 0.272 -0.166 -0.000 -0.104 -0.132 -0.000 -0.000 0.000 -0.160
 -0.634 -0.345 -0.920 0.000 -0.000 0.225 -0.000 0.003 -0.066 0.014 -0.164
 0.033 0.073 -0.121 0.321 -0.000 0.000 -0.000 -0.451 0.000 -0.164 0.110
 -0.000 -0.121 0.000 -0.000 -0.292 -0.735 -0.222 0.000 0.403 -0.015 -0.108
 0.000 -0.003 -0.028 0.157 -0.403 -0.590 0.000 -0.041 -0.000 -0.000 0.007
 -0.000 0.065 0.000 -0.017 -0.000 0.129 -0.116 -0.001 -0.000 0.149 0.160
 0.126 -0.000 -0.100 -0.000 -0.003 -0.105 -0.000 -0.082 0.000 0.113 -0.000
 -0.606 0.060 0.105 -0.012 -0.203 -0.000 -0.000 0.266 0.040 -0.192 -0.200
 -0.092 0.147 0.087 -0.010 0.179 0.735 -0.000 0.065 -0.290 -0.087 0.082
 0.112][0.000 -0.000 0.000 -0.000 -0.000 -0.000 -0.000 0.000 -0.000 -0.000 -0.000
 -0.000 -0.000 -0.000 0.000 0.000 0.000 -0.000 0.000 -0.000 0.000 -0.000
 0.000 -0.000 -0.000 0.000 -0.000 -0.000 0.000 -0.000 0.000 0.000 -0.000
 0.000 -0.000 -0.000 0.000 0.000 0.000 0.000 0.000 0.000 -0.000 0.000
 0.000 0.000 -0.000 0.000 -0.000 -0.000 -0.000 -0.000 -0.000 -0.000 -0.000
 0.000 0.000 0.000 -0.000 0.000 -0.000 0.000 -0.000 -0.000 -0.000 0.000
 -0.000 0.000 -0.000 -0.000 0.000 0.000 0.000 -0.000 0.000 0.000 -0.000
 0.000 0.000 0.000 -0.000 0.000 0.000 -0.000 -0.000 -0.000 -0.000 -0.000
 -0.000 -0.000 0.000 -0.000 0.000 0.000 -0.000 -0.000 0.000 0.000 0.000
 -0.000][0.237 -0.237 0.230 -0.118 0.000 0.150 0.233 0.000 0.000 -0.064 0.118
 0.280 0.224 0.405 0.075 0.356 -0.220 -0.066 -0.127 -0.007 -0.000 0.208
 0.103 0.066 -0.000 -0.232 0.141 -0.000 0.019 0.260 -0.000 -0.154 -0.170
 -0.878 0.022 -0.009 -0.057 -0.143 -0.054 0.275 0.000 -0.272 -0.018 0.011
 -0.000 0.044 -0.254 0.238 0.028 -0.455 -0.000 -0.094 -0.064 0.000 -0.009
 0.144 -0.119 0.076 0.054 0.032 0.000 -0.257 -0.222 0.000 0.073 -0.118
 0.046 -0.008 0.252 -0.000 0.112 0.529 -0.000 0.002 0.000 -0.068 0.000
 -0.071 0.000 -0.034 -0.297 0.084 -0.020 0.086 0.081 0.039 0.047 -0.100
 0.106 -0.102 0.007 -0.020 0.320 -0.204 0.098 -0.018 0.107 0.065 -0.148
 -0.182][0.156 0.118 0.052 -0.028 0.000 0.095 -0.194 0.157 -0.000 -0.044 0.059
 -0.250 -0.204 -0.067 -0.025 -0.117 0.011 0.103 0.162 0.043 -0.018 -0.116
 -0.090 -0.212 -0.181 0.026 0.174 -0.000 -0.053 -0.233 -0.000 0.255 -0.036
 0.170 0.173 -0.008 -0.062 -0.170 0.364 -0.158 -0.000 -0.123 0.007 0.034
 -0.000 -0.121 0.109 0.257 -0.390 0.031 0.000 -0.027 0.066 -0.000 -0.109
 -0.125 0.075 -0.059 0.075 -0.063 0.095 -0.128 -0.069 0.000 0.357 -0.076
 0.060 -0.191 -0.085 0.000 -0.023 0.296 -0.000 -0.118 -0.185 0.024 -0.124
 0.155 -0.062 0.083 -0.081 -0.056 -0.239 0.092 0.021 0.218 -0.045 -0.021
 0.093 0.205 0.049 -0.133 0.080 -0.281 0.092 0.084 0.175 -0.098 0.259
 -0.301][-0.100 -0.083 0.016 0.100 0.000 -0.177 -0.129 0.102 -0.000 -0.000 0.151
 0.029 0.088 0.029 -0.000 -0.001 0.259 -0.096 -0.123 -0.071 -0.033 -0.234
 0.073 -0.059 0.121 0.150 -0.159 0.000 -0.158 0.175 -0.000 -0.175 0.186
 0.226 0.102 0.004 -0.101 0.334 0.133 -0.171 -0.000 0.143 -0.020 -0.153
 -0.000 -0.076 -0.204 -0.018 0.207 0.023 0.000 0.093 0.161 -0.000 -0.242
 -0.226 0.105 0.076 -0.127 -0.078 0.011 0.092 -0.112 0.000 -0.068 0.271
 -0.100 -0.161 -0.257 -0.000 -0.201 0.041 -0.000 -0.065 -0.000 -0.017
 0.067 -0.184 0.079 -0.045 0.118 0.144 -0.002 -0.158 -0.064 -0.188 -0.088
 0.062 -0.046 -0.013 -0.148 0.183 0.179 -0.030 -0.275 0.205 -0.150 -0.010
 0.116 -0.020][-0.000 -0.000 -0.000 0.000 -0.000 0.000 0.000 0.000 -0.000 0.000 -0.000
 -0.000 0.000 0.000 0.000 0.000 0.000 0.000 -0.000 0.000 0.000 -0.000
 -0.000 -0.000 -0.000 0.000 -0.000 -0.000 0.000 -0.000 0.000 0.000 -0.000
 -0.000 -0.000 -0.000 0.000 -0.000 -0.000 0.000 -0.000 -0.000 -0.000 0.000
 0.000 0.000 0.000 0.000 -0.000 -0.000 -0.000 -0.000 -0.000 0.000 -0.000
 0.000 -0.000 -0.000 0.000 -0.000 0.000 -0.000 -0.000 0.000 -0.000 0.000
 -0.000 0.000 -0.000 -0.000 0.000 -0.000 0.000 0.000 0.000 0.000 0.000
 0.000 -0.000 0.000 0.000 0.000 -0.000 -0.000 -0.000 -0.000 -0.000 0.000
 -0.000 0.000 -0.000 -0.000 0.000 0.000 -0.000 -0.000 0.000 -0.000 -0.000
 -0.000][0.000 -0.000 0.000 -0.000 -0.000 -0.000 -0.000 0.000 -0.000 -0.000 -0.000
 0.000 0.000 0.000 0.000 0.000 -0.000 -0.000 0.000 0.000 -0.000 0.000
 0.000 -0.000 -0.000 -0.000 0.000 -0.000 0.000 0.000 0.000 -0.000 0.000
 0.000 -0.000 0.000 -0.000 -0.000 -0.000 0.000 -0.000 0.000 0.000 0.000
 -0.000 0.000 0.000 0.000 -0.000 -0.000 0.000 -0.000 -0.000 -0.000 0.000
 -0.000 -0.000 0.000 -0.000 0.000 -0.000 -0.000 0.000 -0.000 0.000 0.000
 -0.000 -0.000 0.000 -0.000 -0.000 -0.000 0.000 -0.000 -0.000 -0.000 0.000
 0.000 -0.000 0.000 -0.000 -0.000 -0.000 0.000 0.000 0.000 0.000 0.000
 -0.000 0.000 -0.000 0.000 -0.000 0.000 0.000 0.000 0.000 -0.000 0.000
 -0.000][-0.000 0.000 -0.000 -0.000 0.000 0.000 -0.000 0.000 0.000 0.000 0.000
 -0.000 -0.000 0.000 -0.000 -0.000 0.000 0.000 -0.000 0.000 -0.000 0.000
 0.000 0.000 0.000 0.000 -0.000 -0.000 -0.000 0.000 0.000 0.000 0.000
 -0.000 0.000 0.000 -0.000 0.000 0.000 -0.000 -0.000 -0.000 0.000 -0.000
 0.000 0.000 0.000 0.000 -0.000 -0.000 0.000 -0.000 -0.000 -0.000 0.000
 -0.000 -0.000 0.000 -0.000 -0.000 -0.000 -0.000 0.000 0.000 0.000 -0.000
 -0.000 -0.000 -0.000 0.000 0.000 0.000 0.000 -0.000 -0.000 0.000 0.000
 0.000 0.000 0.000 -0.000 0.000 -0.000 0.000 -0.000 0.000 0.000 -0.000
 0.000 -0.000 0.000 -0.000 0.000 0.000 -0.000 -0.000 0.000 0.000 0.000
 0.000][-0.143 0.027 0.105 -0.173 -0.000 -0.172 -0.172 0.000 0.000 -0.000 -0.035
 -0.215 0.129 0.049 0.006 0.074 0.086 0.116 0.065 -0.073 0.000 -0.251
 -0.059 0.021 -0.167 -0.213 0.288 0.000 -0.417 0.135 0.000 -0.206 0.130
 0.162 0.226 0.000 0.062 0.035 -0.064 0.038 -0.000 -0.297 -0.053 0.039
 -0.000 0.248 -0.118 0.110 0.397 0.256 -0.000 -0.076 0.027 -0.000 0.092
 -0.154 -0.256 -0.000 -0.263 -0.016 0.144 0.052 -0.082 0.000 -0.154 0.025
 0.137 0.000 0.135 0.000 0.013 -0.120 0.000 -0.118 -0.000 0.019 -0.017
 0.252 -0.212 -0.129 0.085 0.196 -0.083 0.074 0.105 0.360 0.036 -0.105
 -0.113 0.034 -0.065 0.053 0.065 -0.315 0.098 0.027 0.295 0.174 -0.024
 0.097][0.000 0.000 0.000 0.000 -0.000 0.000 -0.000 -0.000 -0.000 0.000 -0.000
 0.000 0.000 0.000 0.000 0.000 -0.000 0.000 -0.000 -0.000 0.000 -0.000
 0.000 0.000 -0.000 0.000 0.000 -0.000 0.000 -0.000 0.000 0.000 0.000
 0.000 -0.000 0.000 0.000 -0.000 0.000 -0.000 -0.000 0.000 0.000 -0.000
 -0.000 -0.000 -0.000 -0.000 -0.000 0.000 0.000 0.000 0.000 0.000 0.000
 0.000 -0.000 0.000 0.000 -0.000 -0.000 -0.000 -0.000 -0.000 0.000 0.000
 0.000 0.000 -0.000 -0.000 -0.000 0.000 0.000 -0.000 0.000 0.000 0.000
 0.000 -0.000 -0.000 0.000 0.000 0.000 -0.000 0.000 -0.000 -0.000 -0.000
 -0.000 -0.000 -0.000 0.000 -0.000 0.000 -0.000 -0.000 0.000 0.000 -0.000
 -0.000][-0.093 -0.160 0.305 0.019 -0.000 -0.129 -0.087 -0.004 -0.000 -0.000
 -0.155 -0.318 -0.239 -0.281 0.016 -0.004 0.239 -0.176 0.034 0.134 0.021
 -0.040 -0.176 0.161 0.003 0.119 -0.405 -0.000 0.042 0.181 0.000 -0.202
 -0.048 -0.174 -0.099 -0.004 0.056 0.127 0.156 -0.151 -0.000 0.135 -0.013
 -0.049 0.000 -0.003 -0.070 0.204 -0.159 0.042 0.000 0.063 0.157 -0.000
 0.073 0.084 -0.151 0.115 -0.123 0.158 -0.073 -0.001 0.084 -0.000 0.344
 0.012 0.111 0.064 0.141 0.000 -0.037 0.049 -0.000 -0.161 0.000 0.147
 0.108 0.443 0.109 -0.410 -0.115 -0.156 0.083 0.168 0.078 -0.103 0.237
 0.049 0.025 -0.135 -0.140 -0.095 -0.041 0.316 0.226 -0.166 -0.098 -0.038
 0.186 -0.006][0.000 -0.000 -0.000 -0.000 0.000 0.000 -0.000 0.000 -0.000 -0.000 0.000
 0.000 -0.000 0.000 0.000 0.000 0.000 0.000 0.000 0.000 -0.000 0.000
 -0.000 0.000 -0.000 -0.000 0.000 -0.000 0.000 0.000 -0.000 -0.000 0.000
 0.000 0.000 0.000 -0.000 -0.000 -0.000 0.000 -0.000 0.000 0.000 -0.000
 0.000 0.000 0.000 0.000 -0.000 0.000 0.000 -0.000 -0.000 -0.000 -0.000
 0.000 -0.000 -0.000 0.000 -0.000 -0.000 -0.000 -0.000 0.000 0.000 -0.000
 -0.000 0.000 0.000 0.000 0.000 -0.000 0.000 0.000 0.000 0.000 0.000 0.000
 -0.000 0.000 0.000 0.000 0.000 -0.000 0.000 0.000 -0.000 -0.000 -0.000
 -0.000 -0.000 0.000 -0.000 -0.000 0.000 -0.000 -0.000 -0.000 -0.000 0.000][-0.096 -0.295 -0.019 -0.341 0.000 -0.010 -0.263 0.060 0.000 0.019 -0.122
 0.201 -0.091 0.455 0.011 0.169 -0.242 -0.102 -0.069 -0.257 -0.003 0.119
 -0.391 -0.309 -0.076 -0.278 -0.174 0.000 0.119 -0.094 -0.000 -0.151 0.106
 -0.202 -0.019 0.005 -0.019 0.642 -0.451 -0.066 -0.000 0.314 -0.040 0.023
 -0.000 -0.292 0.501 -0.127 0.610 -1.172 0.000 -0.097 -0.139 -0.000 -0.201
 0.028 0.062 -0.152 -0.010 -0.283 -0.085 0.063 -0.305 0.000 -0.071 0.033
 -0.309 -0.118 0.105 -0.000 0.005 -0.629 0.000 0.043 0.000 0.018 -0.000
 0.018 0.070 -0.116 -0.231 -0.205 0.035 -0.122 0.135 0.019 0.078 -0.061
 0.246 0.257 0.104 -0.177 -0.266 1.203 -0.024 -0.086 -0.149 0.105 -0.197
 -0.277][0.288 0.159 0.045 0.017 -0.000 0.167 -0.368 -0.081 -0.000 -0.000 -0.295
 0.515 0.252 -0.360 -0.089 -0.212 -0.148 -0.037 0.324 0.325 -0.002 -0.160
 -0.310 -0.353 -0.131 0.312 0.613 0.000 0.666 -0.244 0.000 0.138 0.010
 0.262 -0.103 -0.029 0.103 -0.073 -0.043 -0.048 -0.000 -0.162 -0.030
 -0.086 0.000 0.152 -0.208 0.045 0.191 0.305 0.000 0.127 -0.148 0.000
 -0.379 -0.129 -0.388 0.121 0.238 -0.091 0.014 -0.068 -0.055 -0.000 -0.707
 -0.007 0.154 0.039 -0.114 -0.000 -0.064 0.201 0.000 0.286 0.000 -0.070
 -0.047 -0.738 0.028 -0.390 0.248 0.621 -0.107 0.094 -0.042 0.182 0.181
 0.186 -0.100 -0.085 0.138 0.125 0.122 0.989 0.179 0.047 0.195 0.298 0.057
 0.050][0.000 -0.000 -0.000 -0.000 -0.000 0.000 -0.000 -0.000 -0.000 0.000 0.000
 -0.000 0.000 -0.000 0.000 0.000 -0.000 -0.000 -0.000 -0.000 -0.000 0.000
 -0.000 0.000 0.000 0.000 0.000 0.000 0.000 0.000 0.000 0.000 0.000 -0.000
 0.000 0.000 -0.000 -0.000 0.000 -0.000 -0.000 0.000 -0.000 -0.000 -0.000
 0.000 -0.000 0.000 -0.000 -0.000 0.000 0.000 -0.000 0.000 0.000 -0.000
 -0.000 0.000 -0.000 -0.000 -0.000 0.000 0.000 0.000 -0.000 0.000 -0.000
 0.000 0.000 -0.000 0.000 -0.000 -0.000 -0.000 0.000 -0.000 0.000 0.000
 -0.000 -0.000 -0.000 0.000 0.000 -0.000 -0.000 0.000 0.000 -0.000 0.000
 -0.000 -0.000 -0.000 -0.000 0.000 -0.000 -0.000 0.000 -0.000 0.000 0.000][0.000 0.000 0.000 -0.000 0.000 0.000 0.000 -0.000 0.000 -0.000 -0.000
 -0.000 -0.000 -0.000 -0.000 -0.000 0.000 0.000 -0.000 0.000 -0.000 0.000
 0.000 -0.000 -0.000 -0.000 0.000 -0.000 -0.000 0.000 -0.000 0.000 -0.000
 -0.000 0.000 -0.000 -0.000 0.000 -0.000 -0.000 -0.000 0.000 0.000 -0.000
 0.000 0.000 0.000 0.000 -0.000 0.000 0.000 0.000 0.000 0.000 0.000 0.000
 0.000 -0.000 -0.000 -0.000 -0.000 -0.000 0.000 0.000 0.000 0.000 -0.000
 -0.000 -0.000 0.000 0.000 -0.000 -0.000 -0.000 -0.000 -0.000 0.000 -0.000
 0.000 0.000 0.000 -0.000 -0.000 0.000 0.000 0.000 0.000 -0.000 0.000
 -0.000 0.000 -0.000 0.000 -0.000 -0.000 0.000 -0.000 0.000 -0.000 0.000][0.012 -0.016 -0.147 -0.181 0.000 0.196 0.317 0.000 0.000 -0.151 -0.334
 0.106 0.079 -0.054 0.103 -0.093 -0.346 0.010 -0.141 -0.015 -0.000 0.374
 0.212 0.103 -0.180 0.055 -0.336 -0.000 0.164 -0.198 -0.000 0.009 -0.131
 0.448 -0.076 -0.010 -0.167 -0.107 -0.209 -0.085 0.000 0.376 -0.005 0.023
 -0.000 -0.121 0.206 0.224 -0.588 0.961 0.000 -0.172 -0.025 0.000 -0.010
 -0.046 -0.232 0.108 0.297 -0.064 0.000 -0.200 -0.094 0.000 -0.292 0.368
 -0.002 0.087 -0.026 -0.000 -0.103 0.236 0.000 0.208 -0.120 0.000 0.000
 -0.395 0.181 0.297 -0.190 -0.091 -0.167 0.126 -0.141 -0.318 0.131 0.287
 -0.003 -0.075 -0.053 -0.045 0.142 -0.484 0.053 0.068 -0.145 -0.138 0.142
 0.168][0.150 -0.199 -0.221 0.092 -0.000 0.243 0.017 0.000 -0.000 0.019 0.035
 0.237 -0.160 -0.231 -0.020 -0.207 -0.002 0.033 0.069 0.024 0.000 0.148
 -0.293 -0.122 0.161 0.352 0.295 0.000 0.005 0.179 0.000 -0.261 -0.260
 0.189 0.019 -0.009 -0.025 0.437 0.197 -0.099 -0.000 0.042 -0.022 0.097
 -0.000 0.007 -0.155 0.007 -0.507 0.917 0.000 -0.144 -0.048 0.000 0.145
 0.040 0.082 0.127 0.115 0.040 0.000 -0.061 -0.098 0.000 0.450 0.355
 -0.048 0.152 0.137 0.000 -0.188 0.831 0.000 0.157 -0.001 -0.069 -0.009
 0.129 -0.011 0.271 0.101 0.111 -0.088 0.068 -0.078 0.242 0.152 0.227
 0.076 0.104 -0.119 0.059 0.190 0.206 0.405 -0.162 -0.071 -0.192 0.195
 -0.103][-0.008 0.236 -0.120 0.246 -0.000 0.096 -0.154 0.000 0.000 0.090 0.000
 -0.048 -0.253 -0.255 0.000 0.077 -0.159 0.087 0.024 0.095 0.000 -0.112
 -0.330 0.193 0.004 0.170 -0.305 0.000 -0.059 -0.007 -0.000 0.097 -0.183
 0.373 -0.010 0.000 0.109 -0.095 0.017 -0.193 -0.000 0.093 -0.000 -0.023
 0.000 -0.053 -0.056 -0.034 0.000 0.668 0.000 -0.232 0.014 0.000 0.266
 0.146 0.012 -0.188 -0.078 0.101 -0.000 0.192 0.111 0.000 -0.000 0.102
 -0.131 -0.000 0.012 -0.000 0.128 -0.406 -0.000 -0.048 0.155 -0.000 -0.000
 -0.014 -0.012 0.219 0.080 -0.102 0.119 -0.183 0.010 -0.015 0.182 0.014
 0.073 0.005 0.115 -0.080 -0.370 -0.442 -0.133 -0.109 -0.175 -0.039 -0.076
 0.224][0.078 -0.018 -0.078 -0.175 0.000 0.044 0.370 0.000 0.000 0.068 0.000
 -0.077 0.372 0.382 -0.000 -0.051 0.086 -0.000 -0.052 0.227 -0.000 -0.096
 0.030 0.347 0.051 -0.019 0.000 -0.000 -0.125 0.193 0.000 0.050 0.418
 0.000 -0.012 0.000 -0.149 -0.038 0.021 0.054 -0.000 0.009 -0.000 -0.000
 -0.000 -0.026 0.128 -0.340 0.000 -1.147 0.000 0.147 0.009 -0.000 0.309
 0.046 -0.175 -0.000 0.050 0.069 0.000 -0.064 -0.331 -0.000 0.000 0.146
 0.205 0.000 0.052 -0.000 -0.055 0.006 -0.000 0.105 -0.155 0.000 -0.000
 -0.561 0.067 0.274 0.280 -0.006 0.017 -0.000 -0.057 -0.195 -0.212 -0.084
 0.200 -0.096 -0.052 0.036 0.229 0.851 -0.063 -0.021 -0.024 0.023 -0.274
 0.282][-0.024 -0.127 -0.013 0.076 0.000 -0.348 0.063 -0.088 -0.000 0.086 0.006
 0.235 -0.046 -0.540 0.000 -0.325 -0.021 -0.137 0.353 0.439 -0.002 -0.074
 0.227 -0.221 0.016 -0.111 0.341 0.000 0.030 0.165 0.000 0.251 -0.014
 -0.696 -0.022 0.000 0.062 0.339 0.087 -0.175 -0.000 -0.076 -0.019 -0.319
 0.000 0.103 0.104 0.450 -0.410 -0.404 0.000 -0.051 0.178 -0.000 0.298
 -0.098 -0.167 0.016 0.013 0.156 0.130 0.284 0.016 -0.000 -0.050 -0.367
 0.078 -0.107 -0.201 -0.000 -0.021 -0.226 0.000 0.099 -0.008 -0.165 0.000
 -0.163 0.023 -0.386 0.048 -0.013 -0.051 0.077 0.059 0.260 -0.059 0.154
 0.250 -0.216 -0.166 -0.137 0.089 0.033 0.127 0.089 0.174 -0.054 0.043
 0.037][-0.046 0.038 0.180 -0.022 0.000 -0.057 0.024 0.123 -0.000 0.111 0.011
 -0.094 -0.005 -0.117 0.142 -0.151 0.050 -0.164 -0.072 -0.123 -0.006 0.037
 0.188 0.001 0.077 0.055 0.183 0.000 0.144 0.112 0.000 0.009 0.056 0.202
 0.154 -0.002 -0.033 0.054 0.108 -0.106 -0.000 -0.095 -0.018 0.153 0.000
 0.116 -0.173 0.041 -0.050 0.003 -0.000 0.007 0.140 0.000 -0.136 -0.024
 -0.137 0.108 -0.188 0.129 0.078 0.144 0.153 -0.000 0.021 -0.044 -0.101
 -0.194 0.003 0.000 0.130 -0.089 -0.000 0.057 -0.165 -0.163 -0.020 0.090
 0.108 -0.026 0.189 0.070 -0.203 0.043 -0.104 -0.158 0.100 0.013 0.105
 -0.159 -0.072 -0.102 0.026 0.057 0.107 -0.124 0.049 0.069 -0.037 0.020][0.171 0.081 -0.031 -0.021 0.000 -0.147 0.046 -0.150 0.000 0.048 -0.123
 0.111 0.122 -0.062 0.015 0.073 0.129 -0.127 0.067 0.136 -0.008 -0.017
 0.068 0.187 -0.195 0.046 -0.001 0.000 0.088 0.087 -0.000 -0.148 -0.055
 -0.164 -0.081 -0.009 0.088 0.051 -0.016 0.054 -0.000 0.089 -0.023 0.004
 0.000 -0.120 -0.090 0.069 -0.059 -0.007 0.000 0.148 0.176 -0.000 -0.174
 0.131 -0.130 0.045 0.098 0.171 -0.152 0.017 0.138 0.000 0.087 0.140 0.115
 0.049 0.149 0.000 0.147 0.049 0.000 0.042 -0.055 0.100 -0.033 -0.099
 0.164 0.141 0.050 0.098 0.176 -0.153 0.019 -0.015 0.025 -0.158 -0.026
 -0.017 0.020 0.036 0.034 0.090 0.030 -0.027 0.019 -0.013 -0.132 -0.106][-0.026 -0.041 0.121 -0.026 -0.000 -0.120 0.117 0.058 0.000 -0.068 0.066
 -0.098 -0.080 -0.088 -0.100 -0.017 0.136 0.156 0.050 -0.126 -0.008 0.151
 -0.006 0.065 0.139 0.003 0.003 0.000 0.187 0.139 -0.000 0.080 0.080
 -0.111 0.031 -0.011 -0.156 -0.070 -0.078 0.151 0.000 0.154 -0.019 -0.032
 0.000 -0.152 0.194 0.112 -0.045 0.126 -0.000 -0.164 -0.113 -0.000 -0.111
 -0.154 -0.005 -0.177 -0.051 -0.106 0.010 -0.015 0.133 -0.000 -0.103 0.199
 -0.026 -0.189 -0.163 -0.000 -0.132 -0.134 -0.000 0.099 0.139 -0.157 0.130
 0.124 0.008 -0.158 0.136 0.152 0.083 -0.006 0.056 0.002 -0.064 -0.118
 0.100 0.163 0.029 -0.013 0.145 -0.037 -0.075 -0.050 -0.159 0.021 0.147
 0.111][0.004 0.084 0.148 -0.020 0.000 0.034 0.043 -0.000 -0.000 -0.149 -0.050
 0.083 -0.212 -0.019 0.001 0.090 0.190 -0.178 -0.063 -0.058 -0.021 -0.099
 0.334 -0.174 0.138 0.131 0.003 -0.000 0.050 -0.094 -0.000 0.053 0.232
 0.038 0.055 -0.010 -0.131 0.138 0.237 0.032 -0.000 -0.086 -0.008 0.014
 0.000 0.204 0.021 0.150 0.232 -0.259 -0.000 -0.017 -0.120 0.000 0.031
 -0.093 -0.048 0.047 0.280 0.013 0.099 -0.049 0.016 -0.000 0.295 -0.078
 0.120 0.172 -0.008 0.000 0.135 -0.158 0.000 -0.035 -0.144 -0.114 -0.017
 -0.105 -0.134 0.119 0.150 0.124 -0.192 0.063 0.199 -0.157 -0.037 0.152
 0.241 0.127 0.001 -0.096 0.050 -0.012 0.062 -0.033 0.192 -0.004 -0.120
 -0.215][0.093 -0.028 -0.374 0.373 0.000 0.029 -0.139 -0.000 -0.000 -0.124 -0.080
 0.137 0.286 0.627 -0.018 0.106 0.019 0.048 0.174 -0.144 -0.000 -0.365
 -0.028 0.132 -0.009 0.189 0.258 -0.000 0.286 -0.160 0.000 0.277 0.018
 0.655 -0.253 0.000 0.158 0.665 -0.183 0.236 -0.000 -0.148 0.003 -0.296
 -0.000 -0.418 0.170 -0.304 0.000 -0.082 0.000 -0.208 0.008 -0.000 0.356
 0.253 -0.200 0.026 0.020 0.065 -0.000 -0.182 0.039 0.000 -1.615 0.273
 0.092 0.116 -0.125 -0.000 0.024 0.410 0.000 -0.060 0.042 -0.000 -0.000
 -0.665 -0.006 0.295 0.034 0.194 -0.067 0.160 -0.394 0.074 0.179 0.057
 0.020 -0.097 0.030 0.081 -0.052 -1.039 0.290 -0.020 0.281 0.028 -0.018
 0.130][-0.154 0.479 0.010 0.356 0.000 -0.106 -0.087 0.000 0.000 0.083 0.051
 0.177 -0.321 -0.751 0.158 -0.186 0.302 -0.069 0.018 0.322 0.000 0.011
 0.054 0.368 -0.157 0.188 -0.152 0.000 -0.018 -0.283 -0.000 -0.150 0.043
 0.041 0.182 -0.001 0.086 -0.841 0.040 0.152 -0.000 -0.844 0.007 -0.163
 0.000 0.264 -0.562 0.162 -0.875 1.329 0.000 0.198 -0.023 -0.000 0.108
 -0.074 0.145 0.120 0.033 0.018 0.110 -0.188 0.605 0.000 0.112 -0.180
 0.489 0.019 -0.144 0.000 0.114 1.443 -0.000 0.414 -0.093 0.004 0.073
 0.922 -0.183 0.373 0.147 0.123 -0.044 0.078 -0.170 -0.228 -0.269 -0.441
 0.288 -0.211 0.139 0.062 0.188 -1.027 -0.164 -0.010 0.310 -0.419 -0.032
 -0.191][0.062 -0.199 -0.002 -0.103 0.000 0.063 0.057 0.009 -0.000 0.105 0.149
 -0.013 0.059 0.057 0.073 0.052 0.127 0.109 0.021 0.159 -0.028 -0.048
 0.112 -0.131 0.058 0.011 -0.043 -0.000 -0.027 -0.115 0.000 0.141 -0.017
 -0.108 -0.162 0.000 0.057 -0.123 -0.154 0.137 -0.000 -0.065 -0.047 0.099
 0.000 0.053 -0.124 0.112 -0.095 0.018 0.000 -0.087 -0.106 -0.000 0.054
 -0.024 0.164 0.077 -0.013 0.018 -0.080 0.013 0.103 0.000 -0.008 0.185
 0.120 -0.118 0.087 -0.000 -0.012 0.061 -0.000 -0.158 -0.033 -0.131 0.066
 -0.043 -0.038 0.129 0.134 0.168 -0.022 0.137 -0.173 0.193 -0.048 0.113
 0.168 0.147 0.058 0.039 0.180 0.054 -0.151 -0.187 0.165 -0.167 0.151
 0.025][0.038 0.137 0.213 0.014 -0.000 0.010 0.139 -0.000 -0.000 -0.041 0.161
 0.067 -0.126 -0.182 0.003 0.242 -0.081 0.174 0.018 -0.127 -0.000 -0.087
 -0.201 0.040 0.055 0.052 -0.049 -0.000 0.081 -0.226 -0.000 0.085 -0.082
 0.087 0.129 -0.007 -0.130 0.018 0.015 0.130 -0.000 -0.141 -0.017 0.024
 0.000 -0.221 0.098 -0.082 0.229 0.170 0.000 0.179 0.078 -0.000 0.191
 0.199 -0.002 0.054 0.038 0.044 -0.000 -0.115 -0.048 0.000 0.149 0.136
 0.073 -0.089 0.139 -0.000 -0.171 0.287 0.000 0.006 -0.016 0.044 0.012
 -0.033 -0.096 -0.074 0.041 -0.122 -0.067 -0.027 0.016 -0.128 -0.016
 -0.149 0.140 0.169 0.171 0.128 -0.126 0.029 0.179 -0.021 0.025 -0.067
 0.149 0.180][0.192 0.125 -0.045 0.175 0.000 0.127 0.018 -0.169 0.000 -0.113 -0.171
 0.243 0.255 0.087 0.028 -0.230 0.162 0.030 -0.023 0.162 -0.012 -0.174
 0.189 0.154 -0.006 0.021 0.315 -0.000 -0.123 0.229 0.000 0.190 -0.106
 -0.462 -0.027 0.000 -0.072 0.136 -0.058 -0.097 -0.000 -0.081 -0.029 0.090
 0.000 0.137 0.164 0.100 -0.188 -0.147 0.000 -0.115 -0.083 -0.000 -0.036
 0.425 -0.116 -0.136 -0.013 -0.187 0.077 0.121 -0.150 0.000 0.008 0.135
 -0.268 0.103 -0.169 0.000 -0.076 0.039 0.000 0.121 0.034 -0.203 -0.099
 0.257 0.105 0.050 -0.140 -0.228 -0.194 0.164 0.034 0.268 -0.049 0.068
 0.030 0.086 -0.102 -0.139 0.030 0.191 -0.130 0.079 0.125 -0.194 0.011
 0.060][-0.440 0.041 0.006 0.160 0.000 -0.184 -0.044 0.159 0.000 0.155 0.165
 -0.180 0.133 0.324 0.111 0.248 -0.084 -0.028 -0.072 -0.154 0.022 -0.057
 0.200 -0.137 -0.120 -0.101 -0.385 0.000 -0.020 0.325 -0.000 -0.080 -0.097
 -0.587 0.008 -0.005 0.123 0.151 -0.172 0.015 0.000 0.021 -0.009 0.154
 -0.000 -0.034 -0.174 -0.252 -0.192 -0.102 0.000 0.083 0.035 0.000 0.081
 0.267 -0.010 0.027 -0.066 0.094 0.053 0.013 0.202 0.000 0.442 -0.160
 -0.011 -0.106 -0.045 0.000 -0.020 0.072 0.000 -0.001 0.066 -0.082 -0.000
 0.192 -0.143 0.200 -0.105 -0.053 -0.181 -0.102 0.211 0.057 0.095 -0.110
 0.140 0.014 0.089 0.118 0.006 -0.190 -0.480 -0.039 -0.323 -0.028 -0.071
 -0.101][-0.037 -0.200 -0.093 -0.096 0.000 0.084 -0.151 -0.000 -0.000 0.151 0.165
 -0.041 -0.164 -0.099 0.152 0.114 -0.035 -0.050 0.163 0.171 -0.000 0.115
 -0.098 0.173 -0.040 -0.135 0.042 0.000 0.004 -0.108 -0.000 -0.135 0.157
 0.171 0.021 -0.008 -0.191 -0.010 0.029 -0.098 -0.000 0.048 -0.013 0.035
 -0.000 -0.160 0.059 0.097 0.251 0.016 0.000 -0.157 0.209 -0.000 0.163
 0.046 0.065 0.010 -0.153 0.083 -0.000 -0.039 0.046 -0.000 -0.122 -0.043
 -0.002 -0.106 0.081 0.000 -0.173 0.326 0.000 0.131 0.054 0.093 -0.138
 -0.082 0.047 0.236 -0.121 0.061 -0.167 -0.016 -0.022 -0.176 -0.046 0.037
 0.212 0.115 0.167 -0.038 -0.172 0.075 0.111 -0.154 -0.113 0.123 0.163
 -0.029]