 0.07887179 -0.02860319 -0.04030824 -0.15464102 -0.18365553 -0.16256333 -0.03299325 0.07764613 -0.17073402 -0.13571897 -0.17013227 0.10883219 -0.01989854 -0.09165671 0.12017617 -0.07338093 -0.10931273 0.18496302 -0.11842851 -0.1932596 0.21064957 -0.07887765 -0.01272317 0.112746 -0.03683979 -0.15296108 0.15397239 -0.14168908 -0.10032506 -0.14007627 -0.10647797 -0.09931306 0.08986368 -0.12463845 0.0480324 0.22986048 0.07365403 0.02446005 0.13096849 0.13249257 -0.01260124 0.02990857 0.08513224 -0.15819169 -0.04856013 0.10338058 0.01362175 0.15039206 0.03321447 0.09551148 -0.09639056 0.03105645 0.10505416 -0.13285402 0.02735241 0.044317 -0.12337463 0.03554733 -0.14587411 0.10130948 -0.04798672 -0.0076251 -0.04386209 -0.06618901 0.19745153 0.15054087 -0.0942247 -0.11836591 0.01461722 -0.1384589 0.0594416 -0.13234906 -0.15433567 -0.16932213 0.13135282 -0.09288652 -0.04054867 -0.13453446 -0.14385255 -0.03769457 -0.12323271 0.10768371 -0.14006543 0.0972906 0.11882114 -0.1728856 -0.15170669 0.0047184 0.05943734 0.05764699 -0.00403591 0.01548299 0.01464082 0.09770823 -0.13445948 -0.19078715 0.02271333 0.18229891 -0.1916755 0.03787761